unlucky,-7.173572761594923,11.669226911907899,9.700101773888397,3.5962451197198138,1.3909583211840768,3.5907303858043793,6.496581092761074,-0.23829197528137888,-0.6835283456817862,2.141084172731189,3.4926417210447416,-4.546575360262238,3.232727913694932,0.6323006917067726,-8.126039317287646,-0.3943530403026503,-0.5043867775138645,-2.5256684817809423,-6.337742599489167,7.055031777760032,-5.905957037258001,-3.514322021807811,-0.3476579548232388,-3.1422777674728555,-10.272990203272501,2.605217500121663,3.0625315394866957,-4.3911682457874734,2.173537191263089,-1.4729949405659133,0.03791354349565776,-0.4892420538326105,1.889454832379096,-2.796218874202007,4.154816892141406,2.4077108504017968,-3.0306015617791418,0.12217529984786374,-0.068086642434542,5.193437402001034,4.718607394421337,1.821405203110541,-4.027314005696008,1.7053594006232693,-0.534381411010115,0.16318298591987418,-2.35641091028081,1.8977420028292287,3.209626236670396,-2.268102843392789,-1.7165960437661092,4.348782750994713,0.8911607756600975,0.65522938498385,2.0938397517359926,0.8005238496891112,-0.054783977787010246,-2.142166451951595,2.1122536267382177,-0.057455836406684564,-0.9729758074724089,0.36751835900798197,1.2636511929554164,-3.16611074555058,-4.587786333783415,-1.6375381344864353,0.8681079645760067,-0.6172171217052006,-1.4244985024683714,0.15670518358790636,-1.6421863286923477,-1.0796530629985785,2.5921073475668965,0.4834749846053009,-0.85007788003117,-0.6918964272952882,3.3044492027336765,-1.0733341500657088,-1.4629746209497083,1.6467073595272628,2.2177379907991663,0.5545242248407201,1.836149394729025,-4.155361851090952,-2.20182811364669,-1.0465457642940312,-2.053631015966901,-0.21003604795070754,0.5100230569142999,2.6584148411440425,0.01268819340553784,0.14404934169209965,2.0596969884113006,0.17132281679460837,-0.014366943733122868,1.5786420648147574,0.3019348476763996,-2.440534860103752,-2.0950817878931054,-0.3390686993866665,-0.25518811959440324,0.9901600984900546,-0.33233308893986624,-0.13164514486798348,1.3955142067740292,-1.0222746166384429,-0.425075955071125,1.3701021635260682,-0.18511065607458438,1.1371595041792377,-1.3964703689495546,-0.22002598920030395,0.8676219859911701,-0.05490665156341262,-0.9722891584507739,0.09981330173927033,-0.13583872368861194,0.3215476475765189,-0.7921614802140837,-1.0188666233008332,-2.050426392292019,-0.003684465207783945,-1.0342773654231938,-0.9897400601200284,-1.6726046893591624
dull,17.841176864599596,-5.113909072031891,-1.3826823904549859,6.177182297344876,1.3286796704739885,3.294345744333634,0.921787274411987,-0.18284380654821925,4.757741211805711,-2.9688483572789837,-2.0243732384011173,-2.3833551654420386,-3.7198438371267346,3.2872319846576517,-1.4684865167917067,-0.3212060393772837,1.8620164522440095,-0.6193380434563528,0.8851794289547223,-4.132845852540621,5.7480885218703754,-1.0690660548041546,-0.6799908465301587,1.25340827487237,-1.7260393848041382,0.9411761308987455,5.264528786018188,-1.1814694384077233,0.5793322283575122,-0.0784543839016011,0.4822911786080312,-2.292714691985265,0.5537894178032886,-4.330480855638064,-1.8604398915028288,1.7259868649292447,2.9931971178182817,0.24450288420703942,-0.38330421819696436,-0.6939382783167799,-2.419726868693917,0.5370450553176899,0.5073298923016436,-1.643641222156972,-6.025326542044917,-1.499663367646652,-0.09003409548579001,0.30419536810570996,0.47487227879133553,-2.1595685049719173,1.5035491674981987,-0.3345649423664733,-1.0577840938057514,-2.197233088950437,-0.07331852659884087,0.31538410785862236,2.1832765051691108,0.6643868382700265,1.795204344970763,-0.8700610891937728,4.197137018277708,0.6182359371594058,1.2118804958783524,-1.827765016921777,2.6866785819166052,-0.7290034466874475,-0.9039296589192661,1.6828540409270223,1.0869507021843836,0.06960959842822176,0.6705717403711906,-3.1498544076219437,-2.419721558494193,1.4590426337693816,-2.122101799562654,-3.0072681720653343,-1.4258323931604515,0.8207870485442869,-0.44973820722097546,2.84602211427053,-1.5053269514526109,-2.028063526868973,0.48511094798073284,-0.5213034930589003,-0.03198350428817695,-0.5105093548306426,0.8645316503309548,-1.7865839892330586,2.721856206179107,-0.07967180071593179,-3.3428239760265233,-1.6748928802474057,-2.2094857953450338,-2.522956460937227,1.5186809053572412,0.45680813247329255,-1.4930712100666743,3.6492571337591433,0.8641533161469231,-2.1964616567266284,-1.7445120551799491,0.9533881140343456,-1.513673523543847,1.3528606847317752,0.4336702127380312,-1.1718912215478658,-0.5898058839131244,1.4689374741251646,-0.2538097040786801,-0.34750423704281674,-0.7123132725081699,3.5844870603797028,-0.5102471198380375,-0.010890734086457608,-0.3786435299007785,-2.0674613266342465,-2.7203622063287667,0.3710819028413537,0.4932560287699047,-1.1061913181350376,2.2214380262728364,-0.35939836127848485,-1.5060568712624047,0.033583749451945887,-1.3536238991066194
arrogant,12.399773996619547,-5.556549326179658,-4.2345386962017635,4.57398366599203,-6.925803714575961,-9.25146948938824,-4.4425755906753785,-3.16756890147943,1.531963649131268,-7.511327151590061,-2.3285046617723903,6.587778850956558,-1.910284592589159,6.500786613826142,9.657068285959866,2.8596539823298923,1.9399629822264666,2.295271202983758,-0.17235176170760896,2.7239566586963897,0.06179890496896415,-8.383474544627212,-1.109265187395175,-2.399593001177331,-2.229319305676017,-3.6343296528717954,3.9429510317116456,-3.494919762669083,-0.9501358795415382,-0.2630514371026087,4.213431740391852,-0.9425627439287305,-1.6399224784490187,1.1168119364192273,-0.18675199446510266,7.829759111430513,5.351261476758955,-0.27365541321602743,-0.8618506564515958,0.08666931595153772,3.534522395738658,-2.17407814248455,4.944314783251877,1.976678651232376,0.11221923076100072,2.319360258815611,-0.006549070188736482,1.6660943307126026,0.11386009692195385,-3.4866344676354486,0.31629422531117485,1.2633823789796097,-0.898970054780164,-0.49961052611612855,0.5245406421971385,-0.6348378576567738,-2.260599500396078,-2.3989677380066854,-1.0472353744425171,2.190982200140101,-1.0915126708221268,1.495575244780146,-1.2787779084056468,-1.6897208303125895,-1.0615932257731497,-1.728810919808471,-0.19329192612303506,2.2645815215922678,1.0512151549363116,-0.5163596386775922,-1.7028863091382775,1.1736526912908767,0.7182169031574769,-0.38592898201270964,1.746761498201798,3.0641883786158353,1.4310073945073642,1.886656764419477,0.7865350738573179,-1.123405171535018,0.23626124606552174,0.4357585665889578,-0.40011675997341584,1.131791939522619,-2.5275673279775197,1.9953309772911698,-3.2642625236741964,-1.830879658991248,-2.414475084187801,-0.9017122706989874,-2.214633032961733,0.07505961721276017,2.0887132196567353,-0.3779695892460764,-0.7617652524206754,1.1045919242567253,-0.865811374987632,-2.3648070842479556,1.4208961062698489,-1.1028008469663964,0.33247747966584046,1.1942089423529612,-1.8184708775877174,-1.7591701781746418,1.8885244613438499,-0.04137625426518032,0.09410529450858209,1.3869865232800638,-0.8498344344673073,-0.49026292099700897,-2.0142364045418133,1.709210806001936,-0.21522519170719226,3.234658793549665,0.9486573068494788,3.8121877425355257,-1.798643540723312,1.1223896306574497,2.0333960467648455,-1.893685531456391,-0.9234307812817271,-0.17566599092389645,0.4320180506848258,1.7146544843601053,-1.0064752931862557
careful,20.106977254526534,-5.452581127496732,-0.24447000481664533,5.602042905098143,6.2769857710803185,2.2614169907298494,3.0423406732238023,5.330287142484475,2.9434461150752913,0.5337463348367231,1.4931440889046375,-6.347243104271228,-3.0380555282534374,-5.557436328848282,0.6919480480633418,-5.4111054044901,-1.3935425025748593,5.679746569441751,-0.5378921595889828,2.449288562975041,-0.7979274707464256,-1.4126254619077827,-3.6025631134344858,-0.28566434661461476,4.943311936560345,-0.3265040172754631,-1.0560234423460038,2.4148600721817677,-1.9195348540217634,1.3764385768830238,0.8753848272380643,0.3809567413418407,2.2799938398164445,2.7708953969963632,-2.957605348632383,-1.3883205103241156,-1.9437287084542232,2.5991833002483395,-2.361029247945221,4.1271328616281115,-2.8078027400862444,0.30235152441128804,0.8290546995471106,0.6263842032648036,1.9276827352149999,-1.5834930079338956,-3.469921299334338,1.2326716054436282,1.6697203641675527,2.121047780009566,-1.470776003304818,-1.928971716215799,-1.236045360815035,1.1964633264677103,3.235646460519535,-3.97237416856587,0.13902727936256415,-2.0175424080828845,0.6238574088518853,2.42468427301464,-0.6879843836821252,5.021446033047931,0.10222884961119821,1.2683018125286851,-1.860767625641412,0.3542197745389468,2.821415186624173,-2.8728709553415754,-3.023176336382304,-1.2217562103974982,-0.7736210486157721,-2.2611311346837972,-1.1187112984840217,0.5181530953937009,1.2026657015961022,-0.1333780996343396,-0.8760298170539643,-0.17706904292794765,-3.156670705353578,0.31127192832234735,1.8587220427093107,-1.0520783333452475,-0.009336805325431526,-1.300708273240019,-3.368160304454556,-3.381845535802818,-1.6023880680189597,-0.10405162721157672,-0.5247633523665116,-1.5517124096722898,0.6521933342898446,1.429669633264626,-2.8792788142209913,1.2149864621438309,-1.621310479057568,-3.094020395799391,-0.07363442828886907,-3.2921977180635933,1.184716614344905,0.7288415065781627,-0.993536869759398,-0.8395481347612064,-1.512773095894193,1.6565204025884621,-1.594708984937776,-1.5621888931890224,-1.8160673648437793,0.25154026260479523,2.575749005721299,-1.7470311210432807,-0.4000249941184169,1.3056264014896917,-2.343315270162397,-0.8667179383660953,-0.5485856513791335,3.5163039851997433,-1.5029602250975336,2.6220136124645057,0.8000208657633964,0.1383805600053102,0.8771544567106204,0.8630543728153194,1.1236521663681462,2.903716200809142,1.7439551997959646
communicative,-3.8427652889786272,-7.2640318552648635,13.043946421811437,-4.655964454497614,-11.242512656706882,3.2905047819208426,-7.414029543548982,6.499610995312014,6.189339634617138,-1.0112759981916835,14.305592744452508,-1.3870243728225644,4.645404713864455,-2.484062927167144,2.0899146812371123,-0.5333331397915764,-10.872107611188019,-5.596527316023434,6.940267801430491,0.9335572547214953,-1.3992968761172906,-0.42425078985997644,1.9349967881853203,4.22701360727253,1.4213193047799542,0.2827161665294732,-6.933611270372328,2.64751139250496,-0.09994276757688755,0.6458496912854281,0.7261958734764262,-2.4093803122077695,-1.4898557390074534,3.984350325530213,1.2905622492608886,2.797780752340871,-3.439017707833569,-2.4620242611356993,1.4871044095905586,1.4404906154773556,1.838461199792062,0.4028945186711185,1.372207001542358,3.3895482812856392,-3.4743080796428707,-3.1596324019011166,-3.3260145877637735,-3.3697277489607185,0.6860006565958594,0.14276071247671943,0.6092835102682825,1.5827491937628648,0.04853347659808139,-1.4220796899457226,-2.391429087018995,-1.687317782110185,-1.9097426105477557,-0.742920888893689,1.8548105104851957,-2.5013757511904817,1.452177734534185,-0.8583995273829143,1.1282127799501138,0.5665686350134963,-0.13073283485494586,1.3874642209367016,-0.5790993455525343,-0.6573187565949536,-0.6983421476174206,0.18300445145974079,1.9351531275820264,-1.6049455762364127,-1.5006691739267497,-2.437575781304512,-1.2879957368849488,-3.6243387310519584,0.19462280806508162,-0.08614010982224235,-1.9674602328136925,-1.9074599587367365,0.28517587453264015,2.4562945176694715,0.6769771111328091,-1.2186522106149844,0.12744362464178288,-0.8568238031001625,0.3398146901564712,-0.7687227591088835,-0.0015298199047324463,0.30132712063257294,-2.5908384526931814,-0.47992759444531685,1.649960262574607,1.1152991693501075,-0.6733519623489707,-2.015387347617938,-0.6950714625599048,-1.421030483438147,0.5403400899419462,0.44444267905014717,0.733636294587984,-1.2881031529501341,-0.38777075573471564,1.087268473102601,0.14026412553351864,2.652625608301593,0.9541259565541759,1.143928706224924,-0.4042023908781456,0.2488680497938508,1.9207552828228587,-0.6359944580225677,-0.8874345898751518,0.04643159931572236,-0.47142115293602205,-0.9428677755945657,-0.5608189038828864,0.14507646461636994,1.4960287933494296,0.6424891637793835,0.22584436990732712,-0.3559847348609182,2.5956478367520144,-0.8584809503619907,1.5536583350705377
discourteous,-7.858100022092121,-4.328698430545274,-2.2536119608740375,12.739531223505924,-2.123973804416768,-3.670164259511214,-0.2904136174858279,-2.4876308875594995,-2.77774280859281,1.480844566226641,-1.724563539334024,-0.2509277650818924,1.4042644671379985,-2.0287682161524914,1.8550093937359797,3.186065695695736,-1.2986364774570955,1.4042211200998351,-3.066318079629495,-0.8049201782474892,-0.0909916289401809,0.46746143057534695,-1.30225992473559,1.8876076939716722,-1.2988441501017138,-1.3327891162382708,-1.9909991586771696,0.7043613881625115,-3.2188760218297268,-0.7720271659415946,2.887233624790912,-1.6385952695665214,-4.211819970188589,-1.2551943081325816,0.23713760145031426,-1.5704269268337099,-1.5550189833302581,-1.5627536399034787,1.3685129617299732,-0.7062481508439868,-1.977458122541457,-0.5139133662525042,1.5325655719841553,1.563421065280684,0.11376111126638595,0.9360552407252831,-0.7345451983132703,-0.6169491197905478,-0.9899093483750603,-1.0231389949980785,-0.9815404959231835,-2.3383836917340557,2.318309998165286,1.6414021679491886,1.1992902354698043,0.2658526711961891,0.455949449965424,-0.48155015723897227,-0.9882314844138047,0.12484352750149882,-0.5005852837365089,-1.2594024831061288,0.47210906607837017,-1.5175347668999593,1.0650236318305952,-0.40557622317202097,0.3504152807699694,0.29317947027505714,0.40481695114276667,0.3730730275242807,-1.6125496234733048,0.6644507811291275,-1.0097991916964828,-0.3110431714538784,-0.7008292875837367,-1.7422617683206978,-0.1983880815996652,0.6147346414084853,1.8022121125187853,0.5588960102859433,-2.538146347872434,-0.364768008077996,0.7796619732520857,-0.4200558281553636,-0.42585303677589553,-0.8721983075570391,0.6694546998839817,1.585570657615481,1.483984336635149,0.010857901839322634,2.245231013307349,0.634971465390428,-0.16404319565400233,0.8576762014814309,-1.0967812154665701,0.13636994460488697,-0.0686905842585626,0.48565835028342125,1.7237859018001942,-0.853044610192472,-0.5652265278430479,-0.29083498714743,-2.5352287508738427,0.5551393913108202,0.9569224911732649,-0.3646039311143255,-1.146736587298095,0.37125657212154467,-0.19642885554900028,-0.6995516172828802,0.1383505211936594,0.9596708782977382,-0.623392756808515,0.31991005895359026,0.06123093554786359,1.1234078507614913,1.5100381793206894,-0.3125206177951061,0.11222526553515484,-0.19654267838291792,0.03237043961698506,-0.4108957146682758,-0.848865882900841,-0.6878767526876282,1.3397557280749146
cowardly,-6.389391867382077,4.699636964543976,0.5727511153415235,16.12738237253286,-0.3118344619330725,-4.526232635987162,0.9213122824839158,1.0888291831192405,1.1852564841041942,6.765819520753095,2.2886357877355485,1.6797928110040314,3.2614279952255454,-1.6646340616860427,-0.488309498774686,-0.7169538048684208,2.0231209388004245,2.0176744541827327,0.00878929381777081,-0.07516795289204449,-1.1160513676407926,-3.5448238535737686,1.120706428855343,-2.077970766975911,-4.20272664337607,1.4742514710265218,-1.8012938598959194,-3.9502808692927105,-1.519690770159912,-4.052370526216462,-0.6144737587385982,-2.662221377073953,2.394932232516457,2.1533136015778496,-0.08362052779721801,0.5549166917598277,1.5127056680619853,3.8311381841784566,-0.14004530023177825,-0.18966216491026722,1.9879422275711596,-1.0461821235065523,0.5770590894367666,-0.7182743306828379,-0.07708759135469119,-0.016701122559197305,-1.2867857082589644,1.6100003876937243,0.8388752264957813,-0.5614116852583476,1.9741447855437937,2.283901444567854,0.23509661365280993,2.3399211149624835,-0.41840946713917176,1.3426953546993328,0.33754144737508995,-1.9382230319243872,0.11706548204985516,-2.420126726295532,0.8964057313776729,-0.5757879024560552,-1.8210047678791654,3.2193605674116075,1.5806354147346313,1.8132687594499208,-1.0571277800856598,-1.2452768361099034,-1.6318019600623068,-0.4968274359315774,1.5921207245383604,-2.415571470639465,1.0175492330337652,0.5835084333391172,1.509934761376324,1.7576875810974815,0.138657842788162,0.3842615498185429,1.8506784525443958,0.7654298392833239,1.5011915703565837,1.7406205332607227,0.23934648305891312,-0.3402800346657141,-0.9122002987448169,0.11601791763407607,0.7927278048286377,0.37389111130141045,-0.5973592257676613,-1.6341709901688215,-0.09377406405142417,0.7303013226502268,0.014163856455600051,-0.969422424201325,-0.2814298475476348,-0.37483415170318113,-0.5488666158368756,1.8623050498148397,3.575996653893639,2.1741740577071322,-2.4003276062967993,1.8319074675666103,-0.3626977696318099,1.0896180649166112,-1.1234949129295382,1.9255077148875623,-1.2928832239540893,0.6542463708817071,-0.47582045042147947,0.9023019559108697,-1.2325937952191148,-1.7406059593514824,1.9359789133520933,0.44069350879467317,0.5507016691888607,-0.7867738700152581,-1.733372293692624,-0.3395336010121093,1.5629757430748532,0.931669630812681,-1.444246730045577,-1.6898604078550135,-0.43382051934230964,1.7472388382706368,0.6175082069114606
ungraceful,-13.735047720488566,-9.828704385333412,0.14216862146442819,5.15623827105875,7.257194759107382,-3.159108611066301,-3.943641984520743,1.1199359203376245,-5.2985488114313855,-1.9157500646192789,2.5585927300789404,-7.256055376195359,7.551353740278472,-0.7602295422872174,-1.6001203590352067,3.6855223113711126,-2.72350475069054,0.476112732968132,-0.5852087211287114,-2.9237348043535585,1.1299386608904693,1.176218697316534,2.9166680350820733,1.1815548624655774,-2.739265516378721,0.670870217625056,-0.9075229825664742,1.2475982220324935,2.799062342377833,-5.045328298354272,-1.485915384195376,-0.9086422776876624,2.6890741772733553,-0.888476321124962,0.720685724632704,3.8684276177359744,1.2550997714164265,2.029903466853608,-3.745787937643211,-2.645734120504799,0.7482043157683518,-2.980851102797417,-2.68506475062071,0.6914907388432384,-0.7057346779107557,1.1826532398333802,-1.5522198769075204,-0.7899022657740464,5.541014687224244,-0.9911638614900214,-0.6420971029909797,3.4606757326873288,-3.3731313093050987,1.5611270617344595,1.060103858250727,1.9571453198667468,0.15599311455122808,-0.5915315146980841,-0.22993280441144812,-0.1285005361911998,-3.7433807816957367,-3.1309390715141174,0.9522639930200935,2.0540589248096484,1.1838081333774346,-1.6519309482290783,2.3709634104752,0.6244717324942106,-1.9954096878270964,0.6388157113972386,-1.9188772461505728,-3.4776575608548126,-1.341271258212303,1.5357638116719008,0.04419349975500034,0.5061237028190266,-1.5015291778655195,1.0512722886481167,-4.5320877938612245,-0.9559107158367772,0.28761222410708487,0.2907293588626643,3.0308974525868333,1.0518380740421271,1.0454661887249734,0.2928840960063971,-0.3118970982278715,-0.8026089458818296,0.8978166408371431,-0.6532942010210672,0.8890903164874301,-0.21134136830934408,-0.9989749801914323,-0.3366055832045594,-1.4767437041924876,-1.6160400405683588,1.220090149682747,2.0873577430093415,-1.2340544250137069,-1.1350313683684485,1.1121700782206134,0.5856159929306866,0.5457643926554577,-0.4309621108686127,-0.14904956175267106,0.825082047502405,-0.7718282389853461,0.39958563386738594,0.10403233829346438,-2.19896660713406,-0.9473241913536271,1.5118914058266468,1.3397952538648812,1.9061670562614628,1.3484035507815255,0.0042576159960908645,0.4886450781567448,0.0726147245813549,1.1477447852760896,0.5060062384919579,2.5575101580668305,-1.2884532706094343,0.9842689045065529,-1.6382060306231991,-0.48972751497325584
inattentive,-6.15579832533715,3.571583031649348,23.636867152855917,-1.6935559421845225,-1.9500588989698155,2.5992117525488663,2.5193437565817334,2.754104728057564,-3.0916164399125123,0.21157539942277867,3.679277129892341,-4.593040735941599,-1.720081070982562,-8.385123951279635,1.136641735481679,-5.973178373670364,4.597773423213346,1.1327818763059825,1.2175556060499688,0.28704861275355653,1.104202516305661,-0.43422786699473537,4.992203826561559,4.902029585338037,-3.4089138317975034,-0.8511591603281817,11.540147214280058,4.912364078647071,-1.0882627881397224,5.45348976849031,-2.6523321313782255,0.8256525924331093,-0.8849904125770973,-1.2637725957823636,-4.773363586837978,3.58596719982712,2.8257617021149404,-2.1162042423091236,6.645726782685102,-1.8402155742445332,4.498039844806698,2.431509622423772,-0.24561477089268244,-0.057084001099892125,-0.9671476946383656,5.980431963768542,-0.6497433732059147,-0.7277390374895908,-1.1830125478389606,-1.2614872716708774,-3.3638140917241084,1.7042743346901386,-0.5377622161155478,3.939447915009292,-3.541187887620525,-0.22299120470139,1.3504048331779186,2.3025792261309093,-1.744641354013964,-2.8677453240496353,2.5937903582337216,-0.8773904887373366,2.793842823410259,1.940509185796592,1.371002695548046,2.9094530127827682,3.66075819312775,-3.6835420266850667,-3.5308294992899474,-0.4166108927860287,-0.8358770820096343,0.8590899632513006,-1.0237917995636319,-0.30091698768077285,-2.5081210872990978,-0.029616617988038267,2.3171365899243566,2.312851488865014,3.5786119404570282,-2.896656693308276,-1.7752723895945837,2.5458910704564626,0.005182630802684385,-1.8042817878270863,2.6319730981634324,-4.49602014670913,0.4051421040401908,-0.33057968241388735,-3.1952167703674546,0.6608342107729507,2.4951167378806454,1.3778990107580604,-2.5772918012690043,0.3751230976014346,0.4697722374263028,0.8089950227639566,3.7821285635536177,-0.06251311971134993,0.038957455677094986,0.9628277151433752,0.3445934510151317,-0.4357381845132955,1.0426828441225253,-0.16625157547901612,1.9076549800677776,-0.44114570345342746,-0.9740447225483782,4.068907434241666,-1.2486343709485044,0.7415117043778398,2.852291428859157,1.7024492774992637,1.4509786102452453,0.19445020622763032,1.6190966034565535,0.8546239397865559,1.6528070035983295,0.38461943791149494,-0.6799975361247615,-2.4699275192564856,-1.7905380292543198,1.117083678192722,0.35784190035917207,-0.6026289243383751,0.508083493517013
insensible,-9.44496333728471,6.086100361534487,12.588506839750453,4.5421168971035115,-2.9322435028745906,2.2941656582497916,1.633162481583843,5.451661605880558,0.013194921841067828,-1.392202032051426,-5.922450355842467,4.371518588664794,2.0659077597655235,-2.576396844230659,1.5665489842779852,-11.226446624186067,4.627576388533287,-1.8060911579382781,2.296223041029485,-8.230636211309372,6.475834030169359,0.9549263669462243,2.4838611759494715,3.593793601536215,1.07327268410183,-2.992785064693547,1.208774371144344,2.715068246326587,-2.493302047624082,-0.3866630669893863,-4.031144665449786,5.622630984817214,3.692779081957467,-2.183334244032221,6.628567596297033,4.069733942324318,-0.09221818871730213,8.624364825907499,1.906153980606296,-4.678792923677524,6.534454240397774,0.047206451514395224,-0.5251986270238946,-3.739570411175669,-4.115194819964282,1.492238314082326,0.5472170489428324,3.210735255640065,1.5874146981432937,7.1325303841182865,-0.09551772205595616,-0.04871499988831549,-0.43661231510856163,-2.7460695539773305,3.1825077709352616,-2.1107983870221445,-4.38158884043772,-2.6738085520921393,1.4066571180098133,-0.4832275658738882,-3.7696391292326243,-1.5956322201661712,-1.6307129644424945,0.13659823771172705,-2.0562558076189466,-0.1545732528133528,0.878334877328809,-0.07674808029107218,-1.7405292952919844,4.894844702885704,4.459263695884243,-0.2879561980119846,2.886671198972809,-3.5997752042778997,0.6572481476283532,-2.4032130914974164,-3.011921595786413,3.931274839238316,0.8500266118262705,0.8786536069595944,-0.1737691246979254,-0.13014136839867768,3.2048125671390166,3.184757979898693,-3.275633441891287,0.26453136521553516,-0.42234474769129104,2.7441137351244698,1.430328196634471,0.5972432513853829,-0.1788855860769514,-0.654132852871409,1.0647670045783855,-1.284096286698952,-0.6876471803496058,0.720128142125069,-2.1348019085264767,-1.4049929507392231,-3.160847933390148,-0.15160218167357964,-0.8003549303818003,1.2266210608568857,2.206805864211764,-0.029043793257512083,1.2894026508001724,1.8514884739500845,0.2985998624699467,0.02542831862243394,0.39135280301632236,2.625214674859001,-0.4118305645154399,-0.4528827136473855,-0.03764369920852515,-0.9896628563369244,0.6700495467408842,0.4650310300259741,-1.1296565765087254,3.3207520226900598,-0.8346991360231609,0.4826758577184108,0.35419017815573295,0.6688936610091588,1.1282471398788196,-0.6509805672163717,-0.9563497354276552
sane,0.2089090449461565,9.840309436377979,-1.3442601584399159,8.483716967847446,-5.378603212985146,-2.9458327499371117,-2.685589287033423,0.9833611256166944,1.2599592171180252,0.44614840656234783,-1.4443158593092695,-2.1548724490152,0.00398103415178388,-7.780045055649169,-2.56847483758389,-0.8546409762953875,-1.9626670560463246,-5.68406429806862,-1.5177561384030525,-0.8184332763548952,2.534490486611988,-1.897784465903754,1.4149156574491442,-1.2261590096498818,2.8067124272069126,-2.1417157371013706,-2.9244638688651454,1.1365297558539877,0.09663996567173012,-2.0697228201061826,3.042368905509409,1.8870690636248355,-0.3925761966921609,-3.728798360444971,7.932495196192635,-1.1514140930734045,-2.3972873907027217,1.3588686866669204,0.736397371403612,3.2403635851807815,-0.5149309057452284,0.4604979478319014,-1.947637891969286,2.289449905017343,-2.526996250686282,1.6430750893728023,3.843687151266868,-0.5750317242500305,0.18392074302101866,-0.8505515408452655,-3.4576883199999955,-2.3207354259102986,-0.24462659378962828,1.403871693361595,5.9007710989796465,1.9968463475254081,-0.03030264497784715,-0.2862876185004702,-1.8077915625615784,0.775401684464716,3.6338932030207736,2.628772297521046,0.30160755123449284,1.4014225529006243,1.0790614977196444,-1.0505715219337581,-2.6956029935321486,2.821036598186425,-1.1375270893657148,0.8441683886936227,-3.0106210684817576,-0.6861130106981347,-0.8368874174510292,0.3507716459587131,1.305273605726208,-1.8694530987517026,0.5528473381316735,-1.1841696214499908,-1.7545264268409433,-0.3238689182209514,0.19769013125739424,-1.448461084734953,-0.6714450433577278,-0.9026645199024814,1.202497856027071,-0.2636633816560172,-0.10139684565589024,-1.1448190950157224,1.8691278129532731,0.5719483763792287,-1.7478187776084289,1.9220554737409206,0.7468767327059116,0.603328321309764,1.0014805139133347,-1.4288218715604286,-0.7963423179306597,0.40686095277603146,0.5666400154729541,1.300826189106462,1.1217818097329715,0.8600655079408667,1.0603130902904339,1.9604702418234228,-0.5812969285736693,0.7678249765665133,-0.2468274208373672,-0.05806802767291663,-1.849999474429202,1.4631181212250166,-0.08709763150705739,-0.13230454800014776,1.9885940150674464,0.040551097546863195,-0.0020346651267793363,-0.06894491406474466,-0.4961152351642027,0.9390952133456593,0.043614301498739697,2.642957425144411,-1.4507343362785565,0.33837816835434636,-1.7506501173731666,-0.19768892609570463,2.3124920784816223
remarkable,10.112166417614667,5.390041111879884,3.444948584927011,-2.4300538068105926,-4.043053363920687,-11.27512160217878,-1.4976721259462409,3.4317349714352057,-13.57992702259313,3.128867606535255,0.3876337300781789,-4.2633925188175334,-1.2083766654550563,5.961324874039641,-0.4662476840096884,-4.427301106414531,3.8271181350904873,2.289971116807748,2.3374001552716237,-4.925043533186291,-2.3427225108584304,5.576923696837631,2.6680229454828908,-1.4706785614951265,-0.6113606043412171,0.9696771956824558,-5.641249839008038,0.3518185205958389,0.6100538043710347,1.4647251247621609,0.07538555213194427,1.4819807815227208,-2.2229330936301115,-2.4627111543019566,-1.024091325292894,-1.8381426291580796,-0.6802691318591405,-5.985480356294518,3.637673887076604,-0.05225248204785954,0.6701012996848215,-3.1427494166724634,1.7417073234825817,-1.129907240781438,-1.7783472123562032,3.556462438605864,0.7057352248217971,0.37414636805997575,1.4346126467929445,-0.3259077698914166,-1.7215543154393032,2.9896321625587907,3.259592388045234,-1.0820559120149456,-0.9111941719038972,-0.7138867025450297,-0.5403649516528866,-1.0173288970032348,-1.6832903753465784,3.3032113469826827,-1.9091524887024955,-2.1710043641141556,0.6437021286721579,0.37402962839310766,3.024822112086806,-1.7775222526334242,-0.2265103284223509,-4.969665507084427,3.0558432619356566,0.1080320542852178,0.9030523726810207,1.866042788573422,3.400570542732547,-1.718712409525129,-0.5619936912004362,-1.3080095540306167,1.0625219086376747,-1.2489842242866325,0.21495460263132712,1.8167883395431859,-3.185119181619735,-0.22784070196929573,0.22908542399348236,1.672205899649742,-1.6604236582774654,-1.580559729379972,-1.8122760354890597,-1.1884445151924075,0.8814628899661173,-1.633368024168274,2.7240333829101524,1.6426149184372745,-0.056759187933709515,2.2143806971410145,0.4543876844205973,1.828612120609203,-0.31838577608157875,-1.1400456707431064,0.3903221203586728,2.2296613471190128,1.2682073887721488,-0.33648891892702987,0.49659957786157605,0.8003140851091114,-2.050680430480558,-2.1197774931741185,0.07278763330029388,-1.0516971856213895,2.865819701685135,-2.126894681139368,-1.613251260228837,1.7134199923676194,0.8558226484336361,1.2406887033596978,-2.1271521553070496,2.9835850660180325,-2.4027084267408942,0.2511197965181447,0.26764539846916247,0.9895782070335419,-0.4156230881646699,-0.2693483490751541,-1.9899578714739246,1.0659745683389754,1.8193551155777679
effective,3.7447256273976435,9.23436320240555,6.775019153852555,0.6157330335548569,-1.2538335405714522,-6.483189754290905,2.3094900012328656,15.220684540590563,0.018538994564059365,3.8338986693244927,-3.7585174750241745,4.13779479530196,4.111670182728609,-7.224056538917499,6.871065940754875,0.7237780609980895,-5.399393808611391,-2.9716456651356347,5.730487202855274,-0.6062797231001716,1.2269337717340492,10.788314469374889,-0.29012185196932694,0.20173039380810437,1.4715863180000408,-7.263703625913337,6.612550810096577,1.326267046004332,2.4628792857754265,-0.4551633882573565,2.6437806073713985,1.450083556433274,0.21657773183085044,2.1712448467476753,0.8283969682788804,2.5643905384762946,-1.4348287625348488,1.009507859745426,-0.31354476315747865,1.191810079755112,-1.6353833575409722,-2.6795772987835584,-0.3079697775552744,-3.0008658183396566,2.6594942559096606,-1.485581563700065,-1.139713749467675,1.8247168586868796,-0.22083814427920076,0.7116153305408176,-4.100032888155794,4.971814281823459,-0.11877063711943112,0.35946918889417584,0.6028235405838976,0.9398289159110897,1.7850844748176873,7.052970877814544,-3.0020259289359337,3.1448109139277753,4.2953329879378215,3.693454901255893,3.7255921352823647,-2.593169750408703,-1.11063623811737,-2.3399893541470007,3.5148617088301295,1.521861575043171,2.3138967054036006,-0.7118279273775888,0.008041460324981917,2.526192912746619,0.846461450724851,-0.14458986692994955,1.1397613710462378,3.6091999292631987,1.9750858212629918,-3.577700281149611,-0.9764364812243097,-3.3106316266877016,-4.6770557033027735,0.1315479803646672,-1.0045966932478216,-0.05243146894093611,-1.8968909718858176,2.065260649678646,2.1333849393671622,1.6712955327307364,3.9644565988471956,-1.869060545080448,-0.6110347758468044,-0.9278818238841359,0.05740103020792033,-3.416250464198226,-0.3301841726118026,2.3069355677921757,-2.1243110823849274,1.4307601821751565,-0.8518762867726638,0.8494882715784802,-3.1657972221826447,-3.0294464896601583,-2.029753693961722,-0.6210617667717987,0.5740353367768373,0.6843680118810185,-1.892930894171249,2.0620706591509887,0.34010572125339783,-1.1820232770993881,0.7388461728153612,-0.08775609226900066,-0.5973610785640926,-0.7864445730432926,-1.3420756155799265,-0.5529522062860985,-0.12270488564052452,-0.8404243785856894,-1.4727884834100669,-0.9229661062921612,-0.10507560901322474,0.048552197271798325,3.972761674182784,-1.5987305997873216,-0.3287955676408959
dirty,18.212484370790428,-4.741701820124278,-1.4909060975141357,4.233771673712747,7.21883061207703,6.058784875590577,-2.2757425965409914,2.727015302516192,3.013271069898979,1.933185908755065,2.1266526170097144,-5.758915325033197,4.032204065661799,-3.9249387733354153,0.5427745134407623,-2.6033977176014904,0.07524503611758876,3.3038237663949706,1.6606317477379497,2.39609274986202,2.3952357584048523,1.0410237697854254,-3.690264055442631,-1.7973877282101993,-3.63763045834903,0.4718685314333594,0.7792892054032978,-3.248700783143498,-1.605357642643892,0.36132285244605916,-2.820910315892431,4.989821715623038,-5.338665130355712,5.137854377764965,1.7207891983621826,-5.032385965614872,4.398789331491093,-2.725884819215284,-1.6167142020218512,-0.15703046352507494,1.5463099586563254,0.16204408142516338,1.837852211830739,1.6611323396188447,1.2007116224620213,1.4956297476413003,3.834888726972385,-1.153512427270815,-3.143777480275831,-0.8693275952147662,5.346343826086363,-0.8053352747494303,-0.7283516274717353,-0.8636881522083306,0.014219498766556862,5.8662220756409935,-0.1284114315215799,0.7999533550974804,-2.455644324156563,1.7790352554146736,-2.145973784141092,-0.5871643441754354,-0.9244444512241309,-0.22324839695149823,1.6105959728173482,1.7991423803175033,-0.9561697779883235,2.298102908622016,-4.183012689346052,0.4918603851261574,2.5115126861328436,-0.20097263255237133,4.523546593211539,-0.3282882875240528,3.5251230067066204,0.5058210754393927,0.6418038320954215,2.690144616327977,-1.5608801984397564,1.5806091087237473,-2.1813456661679655,3.476544220920547,0.9583352028755839,-0.6260703889120027,1.414971603000219,2.6696652901115607,1.9117700114328742,-1.3725189886301288,2.192216323132129,-2.744465633888716,0.4818861271941039,0.1867050842132423,-0.2521240490630616,2.0912861528010964,-0.18938110932857538,2.1224118693098233,-0.6525344590724854,-1.4608870176319053,-1.8301235954820698,-2.1833205734133783,-0.0017563258257112715,0.25570365638512577,-0.7003255484950812,-1.4806055687587396,0.820192399512331,0.15219767003773907,3.150621506958622,-0.13152445078483063,0.15787726971203084,0.20526088931523806,3.0822224326330643,0.5221770714543766,0.4833201596989355,-0.10702362571616568,-0.9437788653932858,0.5190900086282538,-0.34982104672673875,1.5314841018645708,-0.4558279893579823,1.2685112374441354,1.3276096098652406,0.4184695461670321,-0.3491110943860191,-0.4239765687984078,1.0711595719430618
smart,10.537026747413488,-22.861399608125854,2.2853490987869316,-14.122011236684571,-1.281006302721163,3.7936039713684266,6.34209699674995,0.990276226436672,-2.4873461715480114,1.1911575711648092,-4.552904150477291,10.402482926754471,12.869304785042607,-1.6550408337158466,5.565209918806097,3.3761510498393386,2.3285477532123675,-1.162359202616381,8.430429745811402,5.382067294031178,-3.585783581598639,-9.052327979881264,0.10449479743260923,-1.0032427604946519,0.8831083657456875,-5.076053300578836,1.5013460658268685,-1.2357278125029403,-1.8012234612271245,-2.580862303594422,2.8229711236940935,-0.9389858983949269,-1.541951941733501,-2.441109818538954,4.3084457813795005,-1.4937415226527146,5.5847382274379225,1.781176173631129,1.427616872765557,1.860738772875794,-1.2549454277624286,0.7225299897821594,-1.7297946934333954,-1.964670258906601,-0.2945963726375351,2.0739115921772653,1.018019408181443,1.4517771370078818,2.2462902362081434,0.09209414160844602,0.06014192375373418,-1.8873304110589333,0.8628142626496179,1.6009292322691642,-2.8754509952651426,-0.6428449286341558,1.6696542839114927,-0.5477104440860434,-0.8104769597822704,1.1980084655926073,3.640889056588185,-1.5229450277212806,-3.3716185666248215,-4.525913357985775,2.5102530192674872,-1.0088818921758025,2.515082147283097,0.4487923310618669,-0.8768783677853023,1.1872868200983568,2.551025504229127,-0.7329527950725198,-0.352069931588104,-1.6602125346866978,0.1697561887790072,0.15111232180975154,0.8887175343411408,3.2216033126899988,-2.9433361612866062,0.7942247831343183,-0.8278463760365081,0.6844655076574617,0.3839945669870802,0.24757514021179902,-0.34072125881603493,-1.0204197806419548,3.1895840550379337,-4.371520395945844,0.8216819427995726,1.5257674785958852,2.876683361579353,0.7382698650842753,-1.016904982609853,0.5340002398737105,0.6266449436497865,1.278487383590587,-2.7381987839168374,-0.47655361386473516,2.705904300993432,3.1146528260148054,2.162143889651236,-2.7758927393618684,2.295198354033204,-1.030235228721575,2.136178621066674,-2.765595977825674,-0.742503849347283,0.6722815390935164,1.0798587949527652,1.4478192595373098,-1.0284248176107127,-1.3515437877121834,-0.06293081082764983,1.5461141303502248,2.1962765386727328,1.219370801217033,-0.5396947428354689,-0.28833894860447373,-1.7662732477620426,0.20359475593100923,-1.089970958089288,-1.393963311748749,-0.4370922141921034,0.4912564776429348,-1.728108674377399
unjust,-10.699558701792839,-5.228812837771985,3.5305191898407378,6.210793430869077,9.09592182640859,-7.29518945200629,-12.148721065874566,2.9812763865562735,-3.2080368040954417,-2.789377285152904,0.0033772157696327658,-0.6599508416112837,4.081654095425823,-0.6361661536283194,-3.7975663069307624,3.681687228899265,2.2713532816513458,1.1269473860449202,3.110231337147004,0.9020730216952056,-0.21286225960950578,-1.4148034941813634,1.748353542370811,-2.4176902118890604,0.4811414141547576,1.1702710239869119,2.936428101686609,-4.700511757168895,-6.215537375570844,-3.9811520212485116,-3.2445098807797,-2.5806887564780885,1.5973623677314395,2.703054547374221,0.9864610627103243,-1.0470919751269105,-2.634504357058847,-0.6999579006427565,1.920185547358644,-3.556175761575327,0.23580048552012486,-2.0247103049332447,0.6492612719259853,-1.7957360180471138,-0.06734992517350528,-1.5883512350863784,-0.16908822737272394,-3.316894567306223,-4.323881489615597,-1.301926171615119,-2.251317877273086,0.5511207877236542,1.985017334458329,0.7641188487559958,2.6808140689400815,2.1601243911430723,-0.6986981297678929,5.049346116222595,1.059770776252977,3.5656749465983304,1.680753918486605,-1.4893841120464217,1.2982768132402926,-2.5428704487877294,-1.4945347883220246,-1.4628886125058154,-2.077861639600299,-2.9030508678407894,-0.40170958088583447,0.6484806914137411,0.16287413601815456,0.00466451796782946,-0.5461231023762777,-2.0886192731274282,2.596840399439119,-1.6677204927071834,0.6273531351063141,-0.04589425363016886,-0.8111891736684197,-0.2241236207409769,1.4440823079480485,-2.1159455767705455,0.791910321793481,1.1142237844851224,0.9174415412620892,-0.9356855691942709,-0.3553556438835276,-0.018292055415875422,-0.6991920140521554,2.4941741504072126,0.49314321516956455,-1.4754430197603292,-1.595487970095056,0.7932809564704664,1.3835190861565552,-0.6754646564939306,1.5372611387663755,-1.0449220021561079,-0.5426613722607438,-1.6287788197672557,-1.2316104449364542,1.893430296190617,-1.003915273494326,-1.1147771712825243,-2.5039925047145735,-0.12103275507331449,-0.9117629387343468,-0.1778171300844884,1.530336032461235,-1.9636935469812935,-1.381054079819821,-0.41568633738361593,1.9864327366484495,-1.618713635458987,-0.32199165941072594,-1.0978200705864483,-0.007919444594054022,0.8921881550808517,0.19995412539019197,-2.8411163429360458,-0.8025713912070284,0.9905088918518937,1.6954243038871573,-0.1366539890748768,0.03625926739102144
sad,18.990937266276433,-6.440112387056149,-0.03938674278563355,0.8177781871773784,0.8370766462222627,4.119839459676491,1.1332692589225246,-4.488323651516816,6.159525648261329,-0.6774338581666558,5.6573003917234805,3.915760786104117,-0.5320993983328169,-1.540763427245498,-0.12508340014070862,1.306998015157689,-2.2015638297155755,-1.870392047476086,-2.629887023985986,-0.06632855988160906,5.418297432972595,3.487968864527446,2.4012696254729176,2.7153800544382474,-2.4941392206225745,2.0406353954481053,1.5933460908984178,2.94287902735929,-1.94020000384003,-6.235147372623674,0.5246832462717602,1.0814730463580642,4.031455765473124,-0.6244060673186191,-2.949517533062109,-2.035589039704551,-0.5197863914847054,-2.2485765374148903,-2.6285141251996023,-1.2101428299649475,-1.0051373336627603,3.0450165121864345,2.538506702888443,-2.9748734195221487,-0.14016216513061525,-3.6700455400541574,0.9744664437919011,-0.9063395222821302,-0.5255854347286346,-3.5047981620772113,0.6989537739504295,0.8794044894617649,2.745401202720414,-0.40391345335778356,-1.6524121324665946,-2.9516318023368044,-0.39208360099572404,1.4195347975910388,3.029823416063474,-2.282525061728516,-0.9557777627424374,-3.396748388145484,0.6912672384462776,-3.1583852579372267,0.6179873483324653,3.832601029353674,4.05232478058873,0.7956407268873473,0.5607647751728241,0.907415084829017,-0.14874639835434683,2.0798244941637942,-0.9085118175202878,0.7328096904277387,-0.8516238803000874,1.058370257961593,2.2256241473040763,-0.1843035262093171,-1.380831357391305,1.9343027486163655,-1.6226451956661387,-0.27598950993311716,-2.2765913186896247,0.6732211893656428,-0.9138523011429666,-1.2005208399511538,-2.7155214142545567,2.906786453745066,-0.21914008704211718,0.9437056507889031,-1.9191097624531555,3.0180760813146574,0.7868033998464288,0.4970599404082183,2.703100219429078,1.8811639060679424,0.4009059831751427,0.42659880256169114,-0.6752385360507746,2.3561699298069065,1.1813070225526872,-0.4845627819319188,-0.08201540581836339,3.885216438364025,1.7726584300753583,-1.8903712889661795,1.9447040336022778,-0.0786766446035276,-1.0308700933752357,1.138057420098996,-1.109372042099554,1.5779363124022132,-0.9354016192620237,-2.7718363245227184,-2.0852921068763473,0.45652509833695437,1.3521773034166948,0.4422849096909412,0.7084868757523902,0.39079359112815093,0.41432191005520974,-2.2828807391496824,1.239048405612755,0.028548728211026924,1.539045737744102
useless,18.7339597263033,-4.627589910369295,3.629931090622885,-3.2962951085508774,6.820780558453526,-0.46297728789899906,6.554720022000264,7.383056660369622,8.998237357019224,5.14069817158386,-0.7874133853300359,-6.7182238182465746,-0.525417708478958,-1.6142211492508138,1.0297706012683225,-6.066233068559233,-0.9967799395866757,-3.008413061560973,-4.120635739903281,0.1291186770363196,3.314429177374641,2.958906684002157,-2.6894445769382127,0.9594597806665637,0.2883857996189049,-0.20568634391566237,4.14928539789695,-5.6844121247755375,1.9122942248667096,-0.6078633637851353,-3.1766219642649394,-0.5320340397279657,-6.907041633066061,0.6862598415627724,-1.310476809335087,-0.5484122169310958,-0.9947693141652567,-4.930935052509573,-4.299353593493903,-2.2450844150098126,-3.073137985713091,1.8042642475381523,0.928420566160455,8.888893820499746,-0.5222206730037551,0.2987197310842686,6.9756857315426455,5.6210257799681465,-3.5993334138333686,0.20368835265954446,0.35935272520067085,1.6611892454218877,2.648535575610048,-2.262141234842582,-0.43649814261532166,-0.17671402950287488,-0.09725874414562481,-1.0286826244444087,0.43922326280549356,-3.799276712149598,-1.0024198146832446,-4.267078888007976,-5.280660446800439,-1.2073007813363874,-2.5538429643547587,-2.488688505777931,-2.46409833010496,-0.8864816338221281,1.2001201930905396,-1.9558364469704295,-1.1839566625395161,-1.7727577422179124,-0.12413618624228707,-0.9814880350814541,-0.6516606235362499,-2.4219160933868555,-2.135122113156376,-0.13750594941121272,0.8728119451755665,0.3387653975074258,-1.2934619904575755,1.3097699727343628,0.39052310937532697,1.2349099791253872,-0.751097188153634,1.0050028797202082,-1.9134394969923716,0.0019469072160284526,0.21434259440442482,-2.085199749300617,2.1621835447243285,-0.2933318888081753,0.24119647495432844,0.1528530533772167,3.7348830821516077,2.598233685867618,0.06644492184068378,1.8951081368408373,-3.8841570613740686,-0.25501638914302055,-0.47919383940231014,1.8616862491194963,-0.05364899964484916,-0.9456563299205276,-1.1209922582110339,0.830547577318196,0.06029667452640403,3.1830484938166994,1.1063953346105788,-1.1588890590479877,-1.561283267453455,1.0109517239618104,-0.9817139473547016,-1.649965600057635,0.6414742330293968,1.2517251841425447,0.33132490605431925,-3.307541444996869,3.2420043080196543,-0.9931141045089997,0.8771554833553917,-1.2484475517968707,0.1292364735485755,-0.8586316723612147,1.976766779494986
useful,14.689514037998313,4.0005170873774345,1.7748356311914948,-2.0615753838176345,-5.325542063510311,-9.851092306672793,-1.7050664300553886,11.036461406923344,0.545990642760627,-2.4711473513814157,-2.789033717588708,-5.34077846130583,3.5409028786706953,10.468729488351894,6.017028323742219,-2.4127101980847843,-0.6555038575934917,1.8254024504033752,1.8852097316977605,-3.989616970328874,-3.987786752998435,3.230135017129634,2.5720156261041174,-2.610392004347863,0.0849229423188386,-1.4177524167413227,2.569648044117462,2.44785893649261,3.7263752162530692,0.5645583930257365,-1.6493151583035721,5.513126544544361,-1.33920098493491,-2.2402367469805933,-2.0426736032753587,-0.41501420653546617,-0.6861141619941158,0.5714938114261882,-0.18701908308542767,0.10203280795204935,0.4903952190625172,-3.317967750749493,-0.36908691811145733,2.1469102727816685,-0.14446006943768394,1.5268498291000392,0.6168340253650816,-0.22967527882762853,0.42394371672564785,0.49874346363960725,-1.7827480342393576,0.6694502429602066,-1.7494512595362206,1.012512506665035,-4.217040363617572,-1.059875214664061,1.6839034534855095,-0.10777400077150763,-1.011974250352335,-2.933841377758026,-0.9025238785540927,-1.625932837337346,0.6111500934210853,-0.4238461747776952,0.8600480874854858,-3.174767999917927,-2.1228566009590613,-1.6840124448341423,0.7642230694130626,-1.978148331877214,1.3901175014469709,1.6842430951066318,0.8701883022664282,-2.276176016589669,2.9867583861530496,-1.3643565158282418,0.7922569171273169,-0.20062395848386244,-0.1528240990143041,1.0023746918196743,-2.874422633945214,-0.5782761682818104,2.0784157594369086,-3.0680102342695945,-0.19278818818096755,-1.5764463965486208,1.3940675183506783,0.797071421107906,-0.34601530209036513,-0.7855557198388864,-1.9347132333236208,2.135124794241758,-3.0937703636233285,0.7400392543822045,0.344875956270823,-2.691724621147638,1.7494801453707536,1.3325387417236598,-0.8573328913435508,-0.8943775124691768,0.2987072287985762,-1.5233232817353022,-3.2369305190662394,0.4808057260265897,-0.25553695282917227,0.9365537210453871,0.08422287097519864,0.9216252501913611,-1.8214136102727696,0.6334791862494258,-0.057671849569617975,-0.4475139283059694,-1.076020926290063,-0.059003581676211836,0.2765244507600051,0.7390963505526839,-1.4881953509598251,0.43823806670925525,1.0768735653357717,2.4765005411497687,0.7065435852041321,-1.5968947400678568,-0.6113997367837418,-0.3196945880848412,-1.132519032294058
mature,-0.14799149368968598,14.369332088602548,0.7126707121386036,10.298928817131182,-8.945375086174813,4.204281593342397,6.089409097220667,-1.977230285680403,-2.826728308481319,-4.064777864410752,-8.99951963511798,-1.9110689736464426,6.6838662433866425,5.665162264114493,-8.67967684042099,3.693972320318958,-0.7418892495171715,-7.60070437156379,-0.9788720431161303,-2.04319870933012,2.9151080495299255,5.989271790679535,-6.228421361779098,-3.2468295742066937,14.097571528252402,-1.705608670279276,0.9337760306972581,0.262717499131231,5.264279693694307,-4.590886423307468,5.272542639260589,-1.918677737696605,-6.221830155236432,3.1200739541905707,-1.4930676417383928,1.5754955900484489,0.04841661520754241,1.7940221768310485,3.0429088038116565,2.366274259019134,4.069937320759137,4.524626070282812,2.5969881884902772,1.6889784163211465,3.395570932231601,-1.8339498056651395,-2.726910658395344,-1.7137100067605078,-3.808303029592726,-3.6322100574502683,-2.3043634559077066,-2.612928674473582,0.8179990655277709,2.343878170564252,1.031067134853789,2.8434053664344314,1.800453718212974,-0.782133836767254,1.2054997327919803,1.6365460065876867,1.0393217484842319,-1.7722853820019875,-0.06659023137015627,1.7092077082924422,3.4584217130738173,0.0038264049367745913,3.0682106780259506,-4.547820317417344,-0.21668412508126747,4.5926976220374645,-2.2110619817020964,2.2456296204679336,1.3539973328476083,0.09518320016936886,0.1400736020134494,-0.8037058673491766,-1.0825186187754572,5.654015755806733,1.2659824121263137,-2.0793497843283126,-1.2128301742735104,1.8828036318597519,0.061394536864585944,0.485831707621505,-1.1805148295578765,-0.018419318165876275,-2.9598630769163,1.3079351072051295,1.8336735817606726,2.3713308172959464,1.6649788187447552,-0.7707413977472829,-0.1366719884569109,-0.9847083171557391,-3.3491510030380525,0.0837933693871161,-1.8835615267744323,1.2159233854454568,-2.436361822301136,-1.2418908613351558,2.0742073281076543,0.1508221651678782,1.1648325049585213,-0.5132944658918797,-1.1805365530771152,-1.3314392687120575,-1.2654150421458277,-2.4900938904462673,-0.5337262699787364,1.355817357205362,0.7063537823272535,-0.09877962358859287,1.8856718845835208,-1.366742255837052,1.3837171014413017,1.8259598438852302,-0.1742374030790589,-2.9785712906442217,-0.6414286059821188,-0.2008253903359033,2.0748109484188495,1.4369348630863048,2.1082291953685375,-0.20185405417923705,0.7174131074346148
healthy,19.693897906772353,-2.494379319827484,-2.2628038876901355,-0.12295428417056958,-2.055862874404717,0.8024643001949835,-0.16332834781007594,-0.41890438979331907,2.104782229325927,-2.523119720216636,-0.6315530913057156,0.690188554667701,-1.9014625767864406,0.17620223336779312,-1.7103189463805721,1.0553234907290967,-3.9340753622725293,2.8349835302387967,-1.8179270838347341,1.8890299184403718,1.7941147945169331,0.6944200178445065,2.095398336008086,-2.0820927825460327,0.829448634220527,0.1561532269464054,-0.1984418346193482,3.7988883396290793,-3.0030863714074076,-3.735435896289918,0.6484028258862121,0.7430224795870175,1.9530611916435003,-0.2009769760080906,-0.7125260998084868,2.9087388403037693,-0.9863805699597078,0.24483901983878278,3.276958679087846,1.3280440215792033,1.5719633178991663,2.0965109136834577,1.3124123843202145,0.1763771760982506,-1.6605833576866387,-0.4930847566041751,-0.6410382821280982,1.0236029172606718,2.1488232938036025,0.23465249403189514,-0.12024398165697445,-2.413954444474316,0.33377942228173235,2.1795238032035393,-0.44836477431388966,1.03947663407962,-2.2797454169120512,1.2876440520567578,0.1012556068559054,-1.8488300416388619,1.206888486542695,-0.38227410271275375,-1.434233806485244,3.7516382080098776,2.7435982288412806,-3.907888796175288,-1.6990384297504553,0.9853931247674611,0.9160884863989264,-2.11832959226597,-0.8342696836320201,-1.2294920130135465,-0.5332200669461484,-0.5872384786776915,0.24553210664685862,-0.08593206847199074,0.9769502309460293,-1.196324143359158,0.3694352795758584,-0.31473697166358705,1.2251010264290445,2.622291407919934,0.8426424452175767,-0.17129869671290784,-1.2255508980111047,0.9545746944290309,0.12754341589606388,1.1314444663641365,-1.87310721669431,0.4115812119755687,0.17478375005646893,-0.8156903426943612,1.4931479424601655,2.9459814879677677,0.8707589238449108,1.1188698263244317,-1.0650369260087384,-0.012187106416487454,-1.805029740646345,-2.140334681182486,0.5522596739433849,-1.2960457993236163,1.3841819141433618,-0.8536840959256736,1.5317976116451142,0.049003316409598714,-1.4305047045774544,1.08783001732106,0.5490111046088872,-0.1414691078861123,1.0181937587956438,-2.3739869371827815,-0.12541035762813216,-0.12808664552706395,-1.6670962268899883,-1.6502679005271508,0.5605278382686163,-1.6274341721731467,-1.5622054621306964,-0.49034267901290773,1.0226864565248461,-0.5951039871525053,0.33187406364746364,2.273582770588874,0.3991217239913229
convincing,14.091264847843215,-0.24349515418762022,0.3532836018114667,-6.139810554270506,-1.6588615543270897,-13.395974008527698,4.466250078423257,7.98427779982093,-5.196087144443741,-5.409924382359932,2.1508496390083405,-3.0191809738544912,-3.0144651220652245,1.5398080105208596,1.6019997846791674,-0.4366601918966207,5.794308438208784,1.0109122083097164,7.960688149922591,-0.15277761035846302,0.4584478734419941,2.459867318534876,2.2175344687457677,-1.6489538322244652,-4.2547457048741055,-2.086106757636538,-2.0116491658375857,-0.8182466186599431,5.50588065136554,0.23575965405846314,6.368116599793871,2.2573457594901174,4.245760629252619,-2.9324328235476385,-4.576950376072984,-1.9350700465037447,1.889210759435108,4.454629359972148,9.764796722149626,2.0450067971107546,1.2633853519789378,-3.616677945701584,-2.2160008695912294,6.392540979079978,-0.8863928591111787,-1.0617352018235384,-1.277199782281779,6.050570899748549,-3.3982863017890956,1.1005126377231031,-0.05295851439050378,1.0937593600156759,1.8559729956770503,-0.18615211433684517,2.6414979010036443,-0.8777913401521076,0.07678786196960284,-0.927860625715317,-1.0357637270958515,-3.01298617054179,0.3409894185146597,-0.6823280684595412,-3.3876313227245936,1.629853282142045,-0.7252418223149941,-0.9479619515850282,-2.256519792657754,-3.8798912938166663,3.761353475478256,-0.21961029511138086,5.057281071426284,-0.2740098758189781,-1.676207888979562,3.411060982032511,-0.32793679019799654,0.7212475155456228,-0.05981670856079842,-2.629728438896939,-1.6895251340365496,0.6253192095135823,2.268776451860716,1.3818677070330965,2.449012505456844,-0.6009456458324929,2.330675205796339,-3.290767839637443,0.23857097198683125,-1.227455913681708,4.8147512063927405,0.10290260801948149,-2.427830965376367,0.45975677950603316,2.011243233636926,-2.072505901140623,0.6851952160108606,2.530524293595919,0.7703035240511898,-1.734786376817797,1.9541204711465743,-2.6343955045809824,2.550434638412505,3.2435690352691657,1.2080357416872574,0.16652973233767293,0.27686606253392915,0.4918776968362002,-1.1559634843763082,-0.8168266811263782,-0.21164093733239447,-3.1034234990560035,0.48051555064689644,-0.4993406733040492,0.5075878157599655,0.8148543675773521,-0.40726322393662096,0.31245362794771475,0.32537629579139593,-1.0093120825936788,0.8188178000074542,-0.4548859047937755,-1.1865039085554872,0.5626314195756301,1.7802415168820307,0.5866238120743034,1.6320775763445476
short,7.0175017495694725,12.635110256988863,5.925314801456292,-0.5458682609536876,-3.6802218483649836,-3.0779871255118167,2.032901709141787,-1.9692907724171422,-10.455537773130828,4.331403951673863,8.04876315012553,-3.2850034607245036,4.3320199446956975,-0.5309920450828469,-5.106616033026352,-1.9576931062925702,5.334585817986483,0.295831289338457,5.298139452151794,-2.0131376188240755,4.828566608779025,6.382555654782406,2.285327037017757,-3.7297438408577706,1.0994026469115634,-1.3181372373552938,1.2138301045531814,2.0524111152320073,-1.8679969156259015,1.4941219563313708,-4.774502703334231,-5.767193366246765,-4.519950073430329,1.918680615906981,0.2522267601487328,-0.3696545859618584,1.8209718682120832,-0.1857333132310691,-3.9223636813888065,3.6585404753224657,-1.7902568854312366,-2.4153866536826536,0.2055377445592438,-3.1243622208077637,-3.2043836424224157,-5.648864942151096,0.5486332449828938,2.0715476161742337,6.384427344449483,-3.4086009251429377,-1.7897150106371962,-1.798067871164896,5.125983651798471,0.5932664737287321,-3.172534245241039,0.9629607026530116,3.4373987144958704,0.6500275889056275,-0.48120221548984565,-5.60564071861739,-2.1160956704287894,0.4616478477747793,-0.15557777352155508,-1.933086100266324,3.087685406294854,2.0377040491894722,-2.313602307209128,2.70985540458822,2.909207480079528,0.31710192965994594,-0.714688950213138,1.5237704895107873,0.9816612457033991,1.7714927090367387,2.9385607508264964,1.5049983668072975,0.15292974325545972,0.5140985765137153,-2.123213863969224,0.9975473914609259,1.0246876770446693,-2.2160354686280965,-1.4625320887491038,-2.2602706273404585,0.6109493870934944,-1.4514897099003616,1.5213260078551318,-0.5425395490095917,-1.782265662082415,1.3922565365093542,3.5650141707507133,1.3938259547387102,2.0433532774559606,-2.4547473680072125,-0.8726521928743503,-2.5318945451850716,1.120661447971197,-0.49120685779806306,-1.9359931362988965,1.112428587798105,0.651345026950383,1.3527503056736,-1.912428151911179,0.08530471296593323,-0.55730493859276,-0.37227277976503925,-1.5714787301359265,-0.32712417230353047,1.0830785099572466,1.2448025314631632,1.1792948210473115,0.49091897899787496,-0.38296329879505414,2.2079700870491576,0.48788654137028664,-0.11574009400269086,-1.0784030773562134,0.923442754747024,-1.643794098737084,-0.8013087422395122,0.7589966568600878,-1.1102028995625481,0.19018077999159638,-0.26131711466629864,0.2383107112051473
unintelligent,-6.073208231657299,-0.00653976505671556,7.158899706610483,3.0534385384106875,-5.060575246324561,5.190627587899595,-1.27249334378641,3.499258825841582,-1.604905229364714,-2.208679213382329,-2.1865130300251594,4.915111937477071,0.2389416587500083,-2.5847137303185463,-2.1054085671460707,-3.4082576913606477,-0.44816105734894773,-1.3567756804245665,1.5800039358738005,-1.138027292996397,-1.4266046159556438,-3.225524267949035,2.115258854902801,5.411180970689511,-0.9598432511634836,1.212637614548706,-0.5836280882554706,-4.183992043401871,-1.7978658051041474,1.9770121040678856,0.12528262592958275,2.7174944666437084,-0.5963393957122157,-0.9216981855069045,-3.4642356483736987,-1.865483218746718,-2.4190289853740152,-0.1673159602184374,1.538365610685263,1.8948669772493658,-2.8406940196880406,1.3491748191874544,2.0213677630159244,0.02268724377220765,2.3827565539142506,-0.9763503155661757,-1.46076926864185,-0.3522040378681505,-0.8484217524461855,-2.005187933443341,-1.8715301892078098,-4.323377384980528,0.5995950841119826,-0.6744476028370566,0.2041425819906673,0.01259629337437011,1.825552928361001,-0.8884061807780173,-1.8962168237112875,-2.5472241671550173,-1.5991627051912058,-1.4032311719357808,1.5863404294015233,-0.44733205321384556,-1.3034157825609047,1.4232218501468812,-0.060587542352694,3.5636957270501197,-0.08308010310465624,-0.5213781920646172,-0.7453752634876437,-1.931151817254454,-0.4107983505845651,-0.3912518036164873,0.2447433042645538,-0.8020732247848359,-1.6732454117968172,1.2950752086819248,2.5260052958931816,-1.2118763136738575,-0.2553735048344449,-1.7560967897515118,-0.36315920440618477,1.7870057878318544,0.6780118582748376,1.4132982886046133,0.06892868628938609,-0.672815875080457,-0.7104128104903141,-0.8889757695076921,-0.7663530902560253,-0.3737753985934319,-0.15646329703929632,-1.0120729436854583,0.4643990763120069,2.15685264634025,0.7694443527527512,-0.5528777351425156,-1.8407600711613288,0.1657024937254789,0.96552945465244,-1.2793336171159957,0.7945689866660195,0.9553626092271585,-0.6663990210410037,1.2494800038744451,-0.022518284756686723,-1.284663379556273,-0.5590515278118808,-2.5078858426087876,0.880760437907788,-0.13278849995949424,0.24472661239164295,0.700261954165604,-1.0818460802446968,-0.05029458443014187,0.011234498354663723,-0.13714580799199536,0.08097596154887737,1.0089563875670677,-0.016733325750563886,-0.812980943921051,0.847405955152867,-0.5734688360799888,-0.7096773229464064
unkind,-2.11733140537098,0.8733114303369569,-3.523045820989611,3.1034261864034454,0.07745038365051742,-3.1486732291350363,-3.085421544210394,1.1095021039715351,-1.2558296839517749,2.6109484878457936,2.8003325708422633,-1.7247719435061255,6.323157474502975,-2.171977627768066,-0.6955260009206122,-1.8107185066698765,-4.097635192752364,-3.390597046637736,-7.470780053785501,-3.6140161641159008,0.5072026453781189,0.7446052188986257,3.275416788916222,-2.0808359944035284,-3.0830017471034257,0.3165806188945359,2.4023998934240334,-3.177195963284451,-6.483545079906327,-0.007087009562752539,0.622775508514448,-2.758832128393136,0.4962451319800966,-0.6389041204317157,1.4849273953136974,-0.9250112014480181,-0.6116984404475154,5.3289183955293655,1.997320916204217,-1.0518052022102207,-1.3200363145890464,-2.3193178600308446,0.8651182081797936,-1.1918177066711642,-1.200048839775889,-0.8645338027640508,-0.7299497178114461,0.19136156965401044,-0.0366903985626099,-1.442889042840585,-2.4289195297279442,2.136608390477233,-0.9089404995058966,-0.21776427866349551,0.00687546351551023,3.416621685597371,-1.322853492283609,2.7423926389808497,-0.07659030688955777,3.0300465603954376,-0.3753020847185096,2.4507208629218713,-0.26444453158685505,-2.508626586787546,-1.9571939528122055,-1.5510507938307676,-2.1853001206123346,0.1524261094044842,2.21336122243989,0.7730700796505173,0.882137146642452,0.8617156584709434,-0.2746970385806837,-0.558807235072689,-0.1266421783053483,2.375285291680764,1.4262934203551276,-0.45874374557382736,1.6225333627925624,0.8362090012034644,0.17464220309025424,1.9322256216679885,1.6693130843244215,-0.2782953449009968,0.27638461557304145,-1.254989835492457,-0.275911160419265,2.1228394759701716,2.68757269481943,0.1394779706158568,-0.8301580455695222,2.6008872811115706,-0.41182041027092897,-2.3824861494684444,0.7169687180519586,-0.9225587546211445,0.3691813904404872,-0.24486334112355643,-0.4588369242428557,2.5248981781196327,1.3939270379398483,-0.2511479831286518,0.8688331140453998,1.1880243156315198,-0.04430582310018369,-0.9087755553173221,-0.537728321311091,-2.1409423963916328,-1.0904471903023074,-0.7825819883352465,-1.6498836725106731,1.4123016808544837,-0.8889433916947052,0.27364724626410075,1.605933961171863,0.0581493277589706,0.20510682521580198,-1.0619445941129586,-0.006737609671296152,-0.08605027517355257,-1.1931583670504284,1.5948850433002428,-0.007068420263321571,0.36408275480491514,1.321090322842788
impolite,-10.151313541330826,-4.2381901800630875,2.178402653973292,9.809777465901893,5.048689299616539,-7.9187581594126195,-1.6368671898155553,3.0897469477806454,0.23537277625104375,-1.5121637345040584,1.081867207009193,1.5184186210479027,3.666337885063407,3.2834877281134283,2.4715931071640704,0.7288526408912682,4.604262968908162,6.491642400078813,1.733122961879413,1.770122601944706,7.012866613924932,0.05635509445509638,0.5714763253345272,3.8686631175250183,-1.9570507241629673,3.0740935431576832,-2.7492043647076674,2.930497168502071,-1.6642666029495417,-3.836697982289768,-1.1366332486965596,-2.1496402606803815,-0.5393485488780873,-0.1328274901634062,4.401736366700423,2.600268645938792,1.764351306529977,1.2660105367346497,-1.346850184988298,-3.310296436684324,0.3440857551655981,-1.9454786365976027,0.807072119110565,2.03772016430002,3.935449578582072,-1.1776013694314718,-3.3422188584594332,1.4818935554590258,-1.0817820841529902,-0.6212519242600949,-3.0105537544532655,-0.45515846090044354,1.6780358846251462,0.7109058950757818,2.306678311497157,2.5241298650863535,0.4974912222200696,-0.871022108035176,1.377310964031544,1.507971057957475,0.5872686612028725,0.3029080112284939,2.737169186951945,3.297449406909858,-0.9793759947109864,-1.9556243351822946,2.1367200508009048,-1.2422229334443282,0.850532956087738,-1.3013402056559469,-0.5846508941800765,-1.0717431105251318,3.165723753365515,-0.16743622029110844,-0.6634753020518092,1.019090853448106,-0.44236715777901814,-0.09992398727663172,-2.0243539408141746,-3.198175807758388,0.8031039781219883,0.7532909678322093,-0.8399349881055522,0.4988577649704776,0.7107881136215546,-0.1518214799464194,1.111890198120777,-0.05845960910626725,-0.7295793886916337,0.7224056366987888,0.003871636959400534,0.7677816859296822,0.1466478678488896,-0.0777919399702338,-0.05025663810493235,0.6708595662125536,1.355781555693515,1.0389818069678318,-1.455605692541342,2.021959322019766,0.640128868320769,0.6030368243657049,0.45337581879568506,1.44026595125516,0.030813932469665378,0.19603558387234987,0.43118436956866046,0.6312212184547016,-0.3915218287034246,0.0027347370423688876,0.5267338648345896,-3.0025083276855136,-1.1756285677752392,-0.6862306168925296,1.9250982768991567,1.4458786898669729,-0.6041481230486813,0.9822503137656897,0.8575159600073798,-1.74306361942573,0.3473440946669968,-1.1518108867389858,-0.6145643424466596,0.049470025735296755,0.32091735748786565
pessimist,-12.267946381326768,-13.528320309653372,7.103547866549207,-5.277147411701471,-7.205610724309262,-2.3026831737079516,-4.6334142440007895,1.9872448733591606,-0.14910153247999364,3.3003256721139134,0.33591806160017257,11.500156615726205,-1.6860808960021345,1.2579714650609504,0.29521565423256046,-1.3215962812104398,1.1283185567973277,4.624202807663819,-6.7322754435476835,2.840479878001172,10.996578110926384,1.7070477593709175,0.8618493691996384,0.469765623894742,-1.436914624824117,3.780492171538366,-4.076983546111241,2.996827027664242,2.7852342117272726,2.6314221028939433,1.5559223944694898,-0.7667721946251039,-2.126321826707513,2.045792377475999,-0.9827984479036908,0.8182385682587522,0.21623751392670917,4.056427429945861,0.3369845562815784,9.627992149488913,4.932329873488572,-1.2337282141617085,-2.6411439368561926,-1.0994522724590112,-0.6330971088978526,-3.6077952188126554,5.377123849187122,0.07050068809021999,-2.639201045062482,-0.6134320288865682,-0.8452124319273684,4.556518872987433,-0.2320109268519707,2.133120927354301,-4.522700840868662,1.7157663574050828,0.5239719584860638,0.5688268328003858,-0.28314226286210936,3.1810567281219835,0.07852484690109142,0.7980005533009353,1.257797594862173,-0.7601128085387402,-1.50168764404334,-2.0370434057550284,-0.9566699498836804,-1.3196152376994181,-1.8380137125885208,-1.1492615044374073,0.22760539439035826,-1.8024731260839244,0.49551478826702894,-2.1055607053629974,-0.47314336689039227,-1.418072282205293,-4.238534245574993,0.7855506994526029,0.08444912652627107,1.9906292007676278,0.9743741995236314,-0.628263257065704,-2.4259154867786386,2.1110194430035985,1.7315032853193502,0.2634835402050518,1.362822770498349,0.8934622222938006,-1.3138974958003975,-0.10270739963443615,0.4871949665688977,0.67414390882074,-1.3466703090708843,-1.2637431953988156,0.07614737950888655,-0.30312920758912515,1.9349970157067453,-1.4141241598652452,-1.6377710355502455,0.12898200707766072,2.1395280422302716,1.1527477271580298,0.8861116987899748,-0.4798567954824832,1.8461265283346973,-0.34371479801834376,1.1023717641628021,-0.22736887451151414,0.6711085376606949,-1.8802528611496747,-0.2273615147639875,0.031248743262383503,-0.8808921306419157,-0.11871228247822373,0.38432884441024234,-1.6618618014677131,-0.4083847313052558,-0.47143015168807756,0.6846494139730238,0.08299872784118818,-0.042491611742653736,-0.41987699399985834,-0.2837053137395426,-0.9126615974505458,-0.26855019340170194
unpredictable,16.61936724849528,2.2935837159862493,0.34023628663870614,4.221321449915944,-1.26114197798164,-2.250858446708784,-4.715167791484499,-0.5816375614606867,1.2738447546338996,-8.23335575029773,-1.164108892051368,6.768751926509573,-4.710757651777108,2.0169945870803763,0.14290048794985324,1.2588176593516192,2.18224101612757,-3.7300538237284995,-3.454488261088657,-3.036421557321215,-3.586219306365448,-2.696560153749299,9.63546293181972,-6.132476034837829,-1.8630521464992547,-6.945506186920952,-2.350847458952576,-5.52531147900915,3.337651405603804,1.1381365606045561,-4.525357059279646,-1.1083989609920726,0.3135055258116635,5.197913115401503,2.696293928214048,2.56304869410141,1.8392165902149338,-1.0379697058987702,0.5091368870558559,-0.2573728970172525,-1.6564272727974858,0.7938708219003855,4.418185168525204,-0.5108025449271266,0.34081431570681786,4.904496687994903,-1.525857942249694,-0.13754769023791086,-2.182297860617524,-0.41313441917798294,-0.22110431526208152,-3.21381335503353,-3.6854148978390033,0.49178162689994215,0.5109255485748025,-1.9940982388832464,2.113028643706777,0.04051716750250586,-2.8567488485563817,1.4019560071443151,-4.147084715107044,-0.8352942714028568,2.9680146442530826,-2.183360037504234,1.002851802691703,-2.17056357631751,3.8692631718013883,-2.2255805040184247,-0.08991952742207222,-0.9284861904780388,2.3424878336334896,-0.2771593283554692,-0.9305845775399022,0.2048934360798431,-4.967124158172621,-1.0892749189558295,-3.2666865744819393,-2.382396343698689,-2.094386017246215,1.5959012236720294,-0.41867861116700744,-0.6936789214875776,-2.760517261096519,-3.3542988728737333,-0.5895371052336419,-0.25943553604346437,-2.0635598860876083,-2.243358365245839,0.5252796745924961,2.8216237675040388,0.5893747295768687,-0.7882441607087255,1.836771447097375,-1.5589013485015863,-0.8879671557315968,-1.0871189776392949,0.0757400473769526,-0.6576768517121726,-0.7064124065465328,0.14428881931858192,-0.9063915150924403,1.5491287895311872,2.2285894033706737,1.0316371935907476,-1.4234188925582936,2.391270630910356,0.4012698542494558,0.21098793903979438,-1.3290782115690571,0.19529990857494187,1.4185233457451898,-2.1252662957738546,-0.6699164306327922,-0.4874630800252514,0.7193938271953921,-1.0211251292661168,-1.380076245201181,-0.5684466803450031,-1.5885428048013874,0.22719870865058794,3.6832722773623,1.315952869347683,0.0984065116223273,-0.06398362983525012,-0.2100772701630421
brave,9.599057773631797,-6.077631575551797,-5.171052279387711,0.13225357936225757,-7.268643320448199,-8.33659474762151,6.425883252364774,0.21075221819907664,-3.1789301958687433,6.286714552904997,0.8856448347671907,-3.137261232651118,1.4995619244761489,1.7510556107579167,-1.2627781638541795,-0.12500769074124338,3.2646618804754626,-4.701464470090191,1.4824335530707067,-0.34182015296630486,-4.475153715225996,2.2962280021254853,-0.4781441854091984,-1.096284440541955,-0.5732538178398352,3.44503747649115,-2.3693221618947917,1.2597932229909272,-2.760424628358312,-1.548201003081028,-1.0983994562302746,3.1129771476446453,4.904814520693505,-0.5886958859618141,0.8875421829046314,-0.13202618730984161,-2.7316365043475646,0.18495820985789518,0.3152061575562054,-0.8148420746732284,1.5911477353261683,-1.7964461283531923,-1.4819713756859596,1.3204067172489051,0.45605101020203437,0.46045469585900267,-0.3265454489649252,-0.21940205828904866,0.1867590544314115,-1.3490634261903065,1.3963611828564162,1.706188154148179,-1.410803258455162,2.636616317465021,0.5552644843362049,-0.4318532059736481,0.625825755225997,-0.6423192414237151,-3.2565496173389077,4.136703366622548,-1.9607092863311077,-1.8959707349824906,0.9936420923411016,-2.7175317722380936,1.5764240850754896,-0.704446417067236,0.46361612827607845,2.0174708265286823,-0.602157890046696,-0.668624367839812,2.131486466198428,1.170980947914543,-1.2294714128962645,-0.8564975730133092,1.1265122980567361,-0.14265352262191078,2.6538623671086574,1.052864700349068,0.22873051271549774,-0.4625702032496448,1.5168658559305428,-2.514005132795109,-0.2924219302706698,-0.36791872166646444,3.3196959646491853,0.6260427130885152,0.2831270510809522,-1.8127822050561853,-1.3844172475087158,-3.072855011722505,-0.9097733762555973,0.9026128595620104,-0.09051339885478595,-0.2038094686171047,0.6769453174291125,0.5385831796735087,-0.8942387369353515,-0.18433294159978328,0.17702244801241446,0.3797270514662465,0.27450307701078,-1.2345216413114002,2.074689557090923,-2.4700391012059786,1.25028314693907,0.45494416417226463,-0.1683172452602595,0.06294034392157022,0.4120665878482314,1.6552438478861349,-2.138828417605233,-2.08992520832596,-0.3106314525197474,-1.1342845659886533,-1.4443279745616,-0.9151341202693241,1.0554410866999933,1.0654781706275935,-0.052837824161903184,0.3912349069715492,0.9660814016103496,-1.2246863224356872,-0.1468700756724998,0.08730184270499919,4.255347837177988
entertaining,17.198995934591988,-0.5981680866392656,1.9050262618239733,5.6919917184737985,-1.5080260294355687,2.9913342375807312,-7.651655686962635,-1.5042665793541152,-0.13923894341530113,-3.474273901143487,3.7017277866627825,4.151870349771885,-1.9988946432563273,0.6614961297256338,1.4059194179753467,5.494345320247195,-4.397912230804364,1.694752126030341,1.3550089698145862,-1.5342462769038887,-1.7649116512315228,-1.2785753709319483,0.23393859439780998,-3.4859736382500897,1.317437641217324,-1.3043993606316646,0.060751904924644745,0.34299391615073216,-0.012226541067328197,-0.039485382556424496,0.7100782632953837,-2.73284090586164,-0.46755313984733704,-2.1900762752976575,3.9903217827638864,4.469338793472856,-3.7862648007655757,-5.110973455716065,2.117966388637629,-2.5703089922368014,-1.2603963093332262,-0.2550067531585699,-0.9687013954358433,-1.0917798187465417,2.407934669870845,2.160441056599356,0.5313558877744117,-0.48141298904816937,0.5863600733882669,1.1399006433492929,-3.4041301615927844,1.5249670381010505,2.6149197128535686,2.4595517564537794,-1.798748267796412,-2.098940867452376,-1.0196687271436775,-1.9850581923046646,-1.8602658437149588,-2.1007015550791226,1.0028079059036046,1.470733655786645,-2.8753834159966596,0.9675917296245957,0.7350117879289244,-0.2566834956537976,0.6670417930062471,0.11756081121125313,-1.1965748735366233,-1.4659764992276805,-1.0879349536974372,-0.36746202297884384,2.0146281202048884,1.507471405058211,0.37423385609407517,-1.2026607232286863,1.6342042324802037,-2.786671229335802,-0.8016213208547944,3.823422746053003,0.6045316220730749,-0.0015227047015000902,-2.2148990089576754,2.785520560513176,1.8624192448483703,-0.8594240903285407,0.4668981552676169,3.392596193209977,0.37178757436925136,-1.3558713393160322,-0.41861865951605803,-0.7007481658814663,2.1390815748270255,2.1366037661085624,1.3142890698702656,2.64064309414699,-1.143798116102809,-0.8848353990921253,-1.9791937768363337,-3.510155793383136,0.4216633406001708,0.6731908396989796,0.9490948913402152,-1.6083243113467178,0.3659645425308762,2.3092443978365114,-1.814084263236286,-0.982598491792359,0.38893181294007656,-0.18487583215356712,1.6931152698207934,2.176985881567567,1.142170548043778,-1.3571411081261895,1.9468154611103559,-0.2998095268527122,0.8265072037535229,-0.4234872676730707,1.2764886804977869,-0.4108425165765624,0.4961570538347486,-0.33094685966189813,0.5387541313066974,0.889529377932655,-0.5422604043430758
strange,19.914898382449486,-5.787512484258839,0.5642814544402498,0.7591918894120784,1.8524301174859845,3.509346946738865,-2.829148151310277,-0.7883316533260177,0.36421100755450947,-1.6365170902662964,-1.0012339890003146,2.444467636951053,1.3451407563684201,1.6086690964992818,3.3746697392742497,-1.2737670714676315,-0.6492575266312259,1.9725278481723232,-5.524678621545033,-2.463166070338632,-0.17195434018801034,1.1613365699291613,1.8191259373544248,-1.5091655066217027,2.0315593287574165,3.0811608147016276,0.9232069758358349,-1.3753444897529497,-2.0297447994392828,2.8207362004529246,-1.494730730465214,-1.5621983007290223,4.671075748708047,2.064810899494579,2.589001610677908,-1.0851047532960523,-0.9823843984810506,1.2224409361955497,0.6879592731788511,3.4555955770721316,1.9685421513624854,-1.4735881096514074,0.15420262179088826,0.5926672931669931,-0.8858893368811812,0.7656814153585546,-1.7746010476340102,0.7875818489065463,0.43413136595737145,0.4344222956875047,-1.1453525530276936,-0.6495241434342134,0.5332752704771644,-2.1513491935173343,-1.6543763015917528,2.583012581478056,0.06293086824121602,1.7909953106412373,3.8031700592779942,1.934399065719997,-0.08240500257960172,-1.2224995614100438,-0.864473238520353,-1.142852086731018,-1.133416196510306,-0.5241172312602927,2.5977491661885495,0.44215555868996853,0.3446270914269753,2.2590201271483767,-3.8754797640306795,0.22500272609669641,-0.4096895568244461,1.5218908342131285,0.15954445237647563,-0.9474786175176014,-0.9742826091068767,-1.3189828594110535,1.2786291502692528,-0.8114639040180774,-1.0250864781856384,-0.0992155696172522,0.7726276849958934,-0.9695867320192708,0.4088116157380934,-1.9031560824469256,0.5877577937761054,-2.4291370261103324,0.07773384301422577,-0.423560565687949,-1.2587221966409197,1.6791871563444383,1.0038688505865894,0.9325541706600748,1.0328484129502358,0.7847454777329198,-0.20570952033632922,1.5795371176140276,1.19404057876439,0.27574410137955974,0.4738030459989616,0.23352093181437322,0.8244997790741522,0.26404139087184814,-1.0914474957136655,0.7505661914232832,1.1484116787772505,0.9017782400513423,0.05876235004527491,-1.1831697741298957,1.1113031563822224,-0.7112488825246721,0.20323362281351173,-2.641767664980034,-0.9898990934008122,2.171060361968687,-2.376159217532787,0.3985542228483745,1.682578800992955,2.077342961596991,1.5375781035888931,1.7451470881992193,0.21632113652125362,-0.7968009128658899,-1.1111960422824279
friendly,18.175914425799977,-0.4658988150767739,-3.975286235467053,4.359339701148579,-4.30865895344865,-5.643403211733953,0.27846756513893445,2.685632991616785,-1.0224183457903444,-1.799707303320858,4.498495135495059,3.7011811697150674,0.8438603052595682,7.394111987041977,-3.1688962093360216,3.6571541217205983,1.4640786260956025,-2.822394228037825,-0.18161601022822133,0.46254684743798574,-2.959869170965562,3.3130107125262023,-1.5684085007075619,1.2054276222619136,0.36860012885068444,3.845191930248765,0.9229476308264317,-0.7315685008283066,-6.033276506614576,7.661065995896186,-0.2491415684084589,-1.0628933761487585,4.021620728353941,-5.170049082971377,3.416103852434187,-4.268501406194509,-3.0252120350442415,2.3396965910552385,2.9608958813897197,-1.1287240107502048,1.8607336258142677,3.111771055317775,2.4889961436666073,1.77840846719167,3.384578270719367,-1.5477716506515733,-0.1689753311458681,0.03479483074114981,-0.011015535802605952,1.4637143094681788,7.014592155756074,0.09909560424709957,-1.994247554145857,-2.0599417359851566,1.2190622376359417,0.15422905724378233,4.835313516148066,-0.7052490907505478,-3.637637448783909,0.6200552978954113,1.2931961380580115,1.6292196848183391,3.373296850054593,2.318526549556121,-4.076183943240542,-1.0472760253779636,3.050375037871575,3.4802622617214283,-1.700146240276127,-3.7225496352902,-0.8251266091989997,0.6121061864158773,-2.5148601595720077,-2.8261192994955873,-2.667443145894028,0.9152064480893533,-3.856474400814472,-0.30160642362543333,0.19257930464923606,-2.5227607983168117,-1.8391370808314913,-0.31271765401608415,0.9237633949137216,1.108274715323337,0.04422195194801375,-1.004266480025968,0.001697108028001992,-2.195605060947782,-1.248764673995216,1.4774307794925277,1.268317540870418,2.1504719817714593,-0.3553828916098818,0.6772582162231116,1.1706708340479126,-1.5248464153405843,-2.4379702093338596,2.2068814396664034,2.2846940235863045,0.6744265985639805,0.44395633778638594,0.7695101695627745,0.7022194064284176,-0.8788595106571773,0.3602865104081791,-0.08479111631946745,-0.6239146510864331,-0.05964979809374526,-1.4555935771728183,0.7274515923242979,-0.2661038005484318,0.7503902870171021,0.3612230325730525,-0.12245916388443061,0.43193821399684107,-0.024600207759667904,1.0376184317836183,-1.1295934853101393,2.4779092437735644,-0.2131988936568962,0.36887745787700527,1.1162614738738932,0.7422783322552514,1.7052308552374966,1.873860570313756
polite,14.482811266338926,-6.085786349680956,4.107556373692306,8.641816913070201,1.6875284299218114,5.406880956025086,-0.8849840849405136,-2.372709235571823,6.094893396963809,2.611241943344419,5.860366800635261,-4.772474639710559,-6.475515160976231,2.3683793129898953,2.1308407541546317,1.0565361247143756,2.20620135998311,-0.7413307120358625,3.094890891068479,-5.622272342420012,-0.48132721233314196,-1.0547193121028635,0.03877535253041593,8.488295989167206,5.1299752744326925,-0.3805204381530902,-1.1787093042603798,-1.6689609197489834,-1.3228274154586679,-2.95689872059266,3.166666585772758,-2.2389119571319402,2.937482313749818,-5.795710661565404,1.1541054291139536,-0.6279363530021743,-0.694398395341953,1.3973465169216353,-2.48800172531079,2.157115375203862,-0.9504328641670796,2.0767538235110945,-1.981455330399165,1.7639578548912895,1.7710567009997948,-1.0256289789233117,-0.9458005491551637,4.458875615598604,0.3260174727557707,-4.0954375938457686,-0.7016785778804658,-3.72450448291811,0.9300912209574421,1.783426623435249,-4.718914930232274,0.1113393022759613,-1.6107857239036103,0.4281114521500309,0.2840923165267073,1.8328412458861743,-1.8132839758291002,0.6156967650939483,0.7672785394019732,-2.2101521842084626,0.44981472432214337,1.2344902026534212,1.5547171162025692,0.241310100208915,2.1023290709691196,1.6985370978207817,-1.2626682077996683,0.630031379500499,-0.3371612842764558,-2.8203156316763,-1.1349701964518675,0.10707753540891246,-0.9562900813199153,-1.8004657655409602,-2.3047661577397975,1.4044346201131401,0.7370086139478481,-0.5053372463087792,-2.175992092761751,-0.6526478997861853,0.5312545744295155,3.4710130481800126,1.0730581491456284,-1.4169274794420847,0.9902535969631406,-0.1754341850969202,2.41284848829036,-2.703715080930543,-2.111602801735037,0.2524457600471864,-0.24639624679014333,3.588793833032173,1.145456477310725,-1.551770688904389,-2.614888847004373,-0.4125234120266374,-1.0483515120724587,1.288090890336262,0.15242798741131508,-0.461340886507782,-0.12115605982805468,-0.13366461800635898,2.2938737471592585,0.40617436874112495,-0.6646485638694444,-0.28771660662265114,0.47519662033138416,-0.2785595865702487,-0.4736679231121726,0.5659116163964534,0.7341173461877595,0.7324472626561525,2.774971117541654,0.052088265987290404,0.03673118990427773,0.06921452455041499,-0.55621376483526,-0.4042116120529275,-1.1591164637175946,1.9589469426891126,0.5898227156443288
clumsy,16.05625834021432,-10.007278828867092,4.0842511768514065,0.05651821565486078,0.6230973938727943,2.327666936871187,1.634813428368323,1.0635598292791464,-1.92739335141478,1.395580644045568,-2.6713623928886836,-3.3740310628748955,3.529762728423139,-1.3315957187396914,6.315755922322018,-3.791810116555165,0.9695568540432674,5.6883665190422565,-0.6518065837030175,-1.1095604537678232,-2.8668931525085752,-1.188912676855123,-3.1394092485422873,-3.424795464448485,1.0002801005674358,3.575439977116493,-3.308373219551603,-1.1567941874196446,1.2789012674380562,5.446912283870266,-5.390779773247518,-2.525643391273281,1.3544383114347516,2.897319852610641,-2.6344829951175033,-3.226752015787698,0.9160316932404517,0.3689595878044349,-3.0889224921879346,0.2721087166930675,1.8595339344195458,-4.392448800332326,-2.9286485575385406,-0.6145394392209241,-0.280572563001407,0.5691777139444849,0.946107344701707,0.7237397725653328,0.6916082967172447,-4.212967185323925,2.490626412190896,-2.771167687157238,0.5435237146730117,-5.262935166219816,-0.09726980456637475,1.123361089007673,-0.7306597860232831,2.8112645648387597,-0.5847545793439376,-1.0194905850807685,1.0579362946543265,2.1939009247144474,3.045780462177897,-1.4029979436300146,-2.4685527231626625,-2.8469536769238264,-0.8125000189433841,-0.49407901647044594,-1.6261198558736836,-1.3327068273444564,-0.8950798751761703,-3.721738463572512,-0.06285639006809159,2.162805652495617,-1.7726381435857297,-0.982378301613513,-1.0150141875733314,1.6190798762675667,1.8473536949436975,-0.8969360071618627,-2.2241962051366215,-0.9613781681756751,-1.8074896080207123,0.11298564506311383,-0.2725013052994856,-2.325622942068358,-2.7562973864408957,0.8293063330645879,0.13481508428282532,0.48300668037873906,0.4836335348360009,-1.6120511428654853,-1.0309516301541568,1.8540823104743382,1.0087225852641226,1.2620633488446882,-2.3405037801326714,0.2506560667182628,-2.609561977459213,0.2905802691603228,0.7871436027792753,1.0332093738065837,-1.5204025508055183,0.3995578092171256,0.09880104834320778,0.1026139508316536,-3.5491266974225617,-3.4763074807022547,-2.780774457284661,-0.06882378784640458,-0.27396003680843384,1.0260051558538468,2.3611146807958767,-2.6547178002387333,1.262663994531432,0.07896083704473639,0.7755255489068392,2.255367611667345,-1.1537848025629913,0.04210276142472424,1.1959199068910222,1.711150897630661,-0.5840001016194957,1.0916251304618279,-0.8296490586019186
inefficient,-3.985239362613553,3.4518618284296516,4.774001334452011,8.62830814906359,-1.8993188391691787,2.0011394721882514,-3.707683437343801,6.245297200448298,-3.7783068506904596,0.9093452341840953,-6.485596305224526,3.361239908527584,-2.2197161353510815,-3.206413285792554,0.7718536264690297,-0.018007068336959618,-2.729260585392912,-0.4303955505624661,0.5721401740004849,-0.7969181203728574,-0.6071797465452184,-4.778271723848205,-0.4260669441178714,3.725295957676432,-2.0700758689394663,3.55492047131398,0.389726667412811,-1.2053726144231809,-2.070141622798953,-1.2233357634911703,-1.0434126468629863,-2.381721444494178,-1.1593697202591229,0.04749126287061408,-0.46679155306750003,-2.1103698278813834,-0.35672712206556717,1.4464213660022853,1.5380769843956024,0.5889335165351156,-0.6957370558937316,-2.529667057537451,-0.5458319238428817,0.3279188776664702,1.330271078217907,-0.42975823971422755,-0.9886510715133779,-1.1052644902426279,1.7676424550167469,-0.8412212713258478,-1.3754805870009044,-0.985483112895797,2.4271403966755827,-1.3424750437214923,-0.7472731851723975,-1.311305213218989,1.3237155051443854,-1.07742488279186,-2.8654767646070107,0.07914270270863989,-2.041824352602251,0.09510036343837462,-0.24484403193626203,0.13558256611885985,-0.1414916433866891,0.15895487365821592,-0.8948680045527367,-0.888999601807817,-0.19903272118432844,-1.336600102120541,0.3813790579494244,-1.9829629120745544,-1.182905789341632,-1.6776717595399016,1.6424062744592591,2.330998103200464,0.5474122557840997,0.5497025241111747,1.2878808377716346,0.9594629869589859,-1.8220967825300878,-0.16168146529693492,2.0662134364745017,-2.5031877292173705,0.28238687433999915,0.7878082602668114,0.07160228794850429,1.4084556956593988,-0.29947238601790505,-0.7318782492264472,1.492367071305481,0.6785611844139744,1.5242580027843258,-1.0161752462010334,-0.4587060836029586,0.29123379720581904,0.38655824239560516,0.7591279642722767,0.8033057967518784,-1.0322285335297698,-1.7727897933918735,-0.025447525410657555,1.6256919951605986,-0.39664427377685924,-2.900429381359564,-0.2183327639283202,1.7532917335108724,-1.6852549847503397,-1.3409412414614716,-0.49010641831752777,-0.914256917424624,0.39224198386082304,-0.8830816326668083,-0.5372879736827655,-0.17367755644753607,-0.6394819532925726,-1.5356056177370878,-0.4132329219476821,0.5677287774681272,-1.4080883972740637,1.2101369133234507,0.7136631484971736,0.768821005549613,-0.2628654210711043,0.29623442779099163
unattractive,-10.292888508552396,-5.91704597564084,2.8541027392213643,2.0862860315053573,-4.743705570077103,7.83088529052153,-4.493129700650558,-1.79067326574958,-5.017118391552487,-4.486358773007769,-4.764879236660349,-5.120549485920441,4.478759090118509,1.7394659323689186,-0.6920953650031559,0.5327502454568035,4.551476401459063,2.009189570600387,1.5155470925344896,-2.2480575136443335,-3.1132952005150263,1.1533978018340993,1.915577234941178,-1.1260410861395358,-4.845617295301898,2.337869586384626,1.0326704582082433,-0.34524745288648595,-1.591186339903309,-0.01459742081225789,0.7154688523771489,-3.1616046620581915,1.0107690008232821,0.9767553355872453,-1.504040303403029,0.9328481122499858,0.8791166793169282,-0.37505043972047764,-0.07515251041353209,1.1270711187518572,-1.315110697611949,-0.04990315409327936,-1.8416836007498483,-0.8072010250247323,2.328480369998195,-2.2591423600946676,-0.013881521295412303,0.2555407892055082,0.016264562976343835,1.47040620809789,0.9755459331714107,0.08092515438592135,2.6127546367076384,4.129391397341654,-0.762091358321723,-1.4479842976993458,-0.96251552074163,-0.0007988568428930944,-2.200447654548919,2.495265246628936,1.4407926906172575,0.2903077595194884,-2.8967824682512573,-1.741319887567488,0.27557359009472365,2.0798161938299233,-3.3838476507880575,-0.0006311639836435419,1.009798980024692,0.6486693408106989,0.42871718752005855,-1.2234577659991093,-1.9939586455472302,-0.11300237464855878,0.46336973042017926,0.3802786682856774,-0.7986412867548357,1.6364673686507396,-0.512392300436795,-1.3679243750118733,0.6854376603759279,-2.4797944142153394,-0.3385727964007737,0.9929214838697401,-2.623890332567441,-0.6791247617148792,-1.3300705596194526,-1.0975045919122104,1.2116367780405766,1.6879035756410106,0.394744834700585,-0.16778428494762027,-0.547204829174989,0.18701460845933898,0.033326093001336925,-1.5729121910879766,-0.3713822227554434,2.071378498335131,-1.2288157021479897,-2.4961657960072046,0.6017881854837818,-1.5059843438391807,1.8043442390861428,2.21289674520382,-1.6243900117858867,0.8580022746748349,2.629483280486301,-0.44932326096461095,-0.9227394767228255,0.641816621559965,-0.7496831780171581,0.4537409472857668,0.8602412847856015,0.2892751742337786,-0.2724711071639225,-1.9249387013855976,0.1788692752183724,0.3350039277826357,0.5106101504696948,1.0067791729779005,-1.0165782678561925,-0.7650590131243111,1.101930069374183,0.14795227401349328,1.388211803174339
interesting,11.731951199057491,1.9647918075921493,-2.890017055824143,0.3589756806811775,-4.9652898205056255,-2.75906697646717,-7.759623247001109,2.333027105758312,-6.67173423894335,-1.6753132376608197,2.420369730665728,-0.8350167160707777,3.5226164852219624,6.7080930767634905,1.2953085732146037,1.3439696898311835,1.3113119760875087,0.5454324114739527,-1.9781877450211929,-3.6120099909178363,-1.2784531265405332,4.47696524497542,2.4609420896786744,-0.986945703579732,1.5748887819687019,2.5465101580470657,-5.892353519100355,-1.1204527402118472,-0.8326549131279364,6.681558929823296,-4.3408182440221665,4.550753047237954,0.19859734877130159,-2.049932441178435,1.5029673201836375,0.21363611646184838,-0.9556198367363065,-4.115441125639796,4.181525852311925,-0.7332871394798368,0.45795473031729206,0.8411832055737507,-1.1697594018384543,-1.4512465608445453,4.156807576654656,3.272553876918671,-0.22930125534982024,-3.971836899378935,2.116392963240339,-3.2295003944214926,1.0436123910855044,1.4466374018914328,2.542395771845892,-2.3823161009804004,-2.578375718091875,0.7559899606275733,1.7949108995000556,0.36800371479911415,3.6458680919270074,1.233875855042621,-2.003554822505026,-0.1774928395943508,2.240300850075174,-0.904322562260486,-0.7223890645688321,1.0884013896229985,1.6421734721897805,-0.45390073293088706,0.4426306571958073,0.16227490476439885,-0.7631972599312605,0.13263617160676733,1.6938029442550173,1.6789483913997654,0.23362787523891254,1.2264451272212653,1.1207940748306986,-0.5002114367848465,-1.7508470386986652,2.257423788907065,0.4742774174692327,1.8594498074411734,0.6600988648956553,1.5117956457116968,-2.5166807165073415,2.1390861590990893,0.5949499368101078,-1.4302037404287393,0.885155727923543,1.0119945773788708,1.0859073263191452,3.2808438957990855,-2.3954518851184297,1.0437267761179365,0.94411412830676,-2.1243560237184593,0.6145672631381783,0.7159282800985411,-1.2502966386974816,0.658206933672023,-2.1086326127178343,-1.8960795936913164,1.7808177943800154,-0.2471890135502434,-0.9823878061122557,3.1846211002497293,3.8613266300692404,-0.37924140926818306,1.5570323519323137,-0.34421948318701195,1.3343084424509024,0.13439683770389835,1.3040058365570952,-0.12429789424886216,0.9013917638931815,-0.2654610260050771,-0.25172646908393115,-2.5866166707629543,-0.745064131970205,2.530429213213289,-1.1784910702320315,1.1224726699670144,0.15754861099891007,1.9295738697431295,-0.8669586391278097
slow,8.432431458143098,9.604095968703064,-2.7145303769328195,-1.3594249602513695,-5.108298231266746,-1.408879408676001,14.336783342071396,7.7077155625609475,-5.087475574215065,-8.30724761788072,8.514970062300279,2.666735881514147,-1.5625889433845344,-2.5302452286321446,-4.368184268316136,5.323347409040086,5.1589565904971,-0.2894830444031061,4.698162551665751,7.970224782653303,7.452604462841103,3.1921605374462745,-2.410567233175609,1.8875129458122981,-0.5480507704135676,-2.2636637233776375,1.196507601804268,-1.8403837071494722,-0.09985722197078124,-1.748718687035986,-6.458910753848846,-3.658032640288464,-0.3578698851487266,-2.9795721088640326,-0.7479373184107873,0.6213722182097444,1.6652932467475665,6.816191363030101,-3.7908631193868563,-4.893084957348265,-4.982279283160298,0.98881784359283,-1.3955978976609105,-3.2028182334047073,3.440814166724068,2.502435551851376,2.75547963473018,0.11663401290408208,-2.1009942675163416,-4.0026932720559945,4.431025459403616,-2.494114401610615,1.3791400184698606,2.902454089086234,0.9131491904936064,1.4135445721491835,-8.201560192185731,-3.005027850727947,3.3060772450667497,1.639846826878372,-0.8660146179428733,2.9920971357967177,2.3112187297407516,-3.856152269301766,-0.553134179972324,-0.4749052566593141,0.27749244894779496,-0.6527466676975516,-0.33908149112594155,-0.09635952818138831,-0.20186484534605983,-0.9443937534752203,0.16456477380702259,2.8723721955144144,0.6932198321279582,-4.225635736929916,3.33831874951176,-4.381567542675007,3.5400058591476933,-1.5357027513785189,-0.9614427913787528,3.2634891827998054,-0.6779272571077092,-0.6423150793529918,-0.5994758273003791,0.6330062893257072,-0.2521959374990742,1.5191098234852445,-3.008828555005726,-1.9735786228288419,-1.1615129679492195,1.7541886888840457,-0.44990936647618934,-0.2480375112615551,1.0640742189491315,-1.1473675162728865,1.241546888603729,-1.6665747991347455,0.7082742110429212,0.3483977963417917,0.8567627746576417,-0.3943273944168558,0.905575774274849,-1.64201439437455,-0.7693570425942828,0.11927795192131165,0.7620053055174962,-1.1956014755923667,0.8548345609451926,-0.9928129047582696,-2.7472196588681554,-0.5382220452215954,-0.7430734795432689,1.7069204594302756,1.652871931347821,-0.7061080672466433,-0.801774265686525,-2.7965291104965164,0.32655625544930394,0.6722586622734004,2.329196808437245,0.45539475366947046,0.13188205780905685,-1.2533356368812778,-1.3603100172530747
stingy,-6.256819372357474,6.320086347128649,-3.1089445457495466,17.66753781061232,-10.261701880379421,2.502788782693529,3.730638139221412,3.4196433128016044,2.0200450783667248,4.767563720487407,0.5607786085860859,-2.563902176697847,4.326730834242558,0.06667730020774539,1.2824526545873882,4.587327969893075,0.5766617946283974,0.576389834055372,-4.501566904179164,-0.12212666777561053,0.3884357323064568,-3.698813227015692,-3.2322358032242318,-2.9092027847689157,-7.233135529770178,0.8548168585951503,0.27825333122233503,-2.7081057112561067,2.9766824262638223,-2.9641491385353222,3.81582528526135,-0.30890482309805883,-0.4241503700685037,1.5913643995514128,-0.35795275235659846,0.849252947751208,0.9479205066532067,0.40062995072456803,1.2255243683671697,-1.437900246609725,2.6858414832489865,-4.468339553300549,-1.0392643713051741,-5.066534627738633,-1.5072719667604224,1.9242698127650288,-0.7812272253321391,1.3010592836903445,0.21723010160592146,3.2514119583644563,3.9056999305301447,-3.847226440658056,0.9223207267414036,-3.889995588854446,-1.015459277378771,-0.28914313094717237,-0.03063653414354725,-1.5097318750895026,-2.3165041675587053,1.394356221367204,1.5421946240555406,1.174933393653347,0.35869634822407354,-0.6642187762199282,-1.113877054093273,5.129992402664545,-0.8643177318902617,-2.194505041522596,-0.24868194824325518,0.01891762394016438,0.1456440662339923,2.8713470828611305,-1.175589635475041,1.4139609166283291,-0.30599250469135725,-0.5053428468769848,-1.7805298569062635,-0.41003354851078183,-0.747758638901732,1.5316958635470008,-0.4994575905491594,1.5013902739693683,0.9051032351952313,-1.023489277372944,-0.8769261186472544,2.520212429989026,-1.4374645261061922,0.15080333020785233,0.313784924515028,1.8977032757733374,2.3602234566916045,0.011733667512547445,-1.7845136775769743,-0.654264189333996,0.5387420526567835,-0.2889356571614655,0.2783552105198538,0.5975612658162359,-0.9648024206084704,-0.14698524277612265,-0.6080023268715756,-0.0870779598640217,-2.380869597172834,0.7148050704647659,1.769993021772708,1.8648207878815015,-1.3878226539435312,0.9022874882272333,0.36926265411075365,-1.7164621697576783,0.9387548320604634,-1.7991710686604363,-0.8666840375044245,-1.3998581768485934,0.5832199465319952,0.11263821308364018,1.4966124089597466,-0.9898787190392908,0.6964520055011854,0.7439651518687495,-0.7360626657406101,-1.5274325516724703,0.17366929497878597,-0.00919026835933091,0.3617741269274848
antisocial,-9.803577128955801,-0.6264876026763289,3.8831762827343868,3.915348801199853,-15.379871896582587,4.391713260413915,-6.494985741796387,-3.380950916017757,7.38009941618322,6.872732329364159,3.5168254536806867,2.7786422414871623,2.168232732553075,-3.478672791067687,-3.62322833964794,0.16418606653148068,8.237148264427555,1.9243320350060436,-2.867203929173999,7.151867263872571,-1.5024377716915909,1.3725743003749193,3.681199458897767,-1.5764075108771307,-1.4363546655166266,2.565723958104154,7.655556409399638,0.5080389975528413,2.2001007801252697,-0.6426289086521757,-1.9958230728786692,-0.03062984654373799,-1.363206382114566,-0.42007111708193096,-5.359535119385957,-3.1929285872524935,-2.966456564548041,-0.5386121899696917,-0.3427470975019581,0.8400913859932471,-0.4068049151861856,-3.176148919622659,-0.32434360269001117,0.46978264338298986,-0.8868247489440203,-0.44104420935088,-1.2476876759611044,0.9312950579541186,2.1075298378945577,1.3707066952811544,0.5184888117122592,-2.931724865603654,-2.706654271562404,0.7558760858536515,1.7282575312652246,1.120281420872714,-2.520708209497625,-1.7164714545887159,-0.3555497662832907,-0.5983236104451596,1.7764175165108496,-0.540183391280592,-0.5619714050769045,-0.9900498122107373,-0.925764750202191,0.6159598458825952,-0.6301621516921299,0.27184384524673066,1.466212080721332,2.297644498650897,-1.0747342071837769,-0.03137730110624282,-0.9109884957576003,0.14980590180432296,-0.19874527368092973,-0.2754168289347411,0.1258489738123293,0.7852034765582562,-1.273105030219122,-0.21603437212806256,-0.06516565141814529,-0.6061956376333655,-2.2062363933126585,0.5422803586431261,-0.9771668906843404,-2.2314736189344027,-0.9603949684883585,-0.8862982962107778,-0.7544280653259102,-2.9927256116152035,-0.6951725521021914,-1.1712805547017018,-0.46196951164868233,-2.99348076439939,-0.5485127495041845,3.641820434323686,-0.45239925015114896,0.4737074734451021,-0.10267309341879818,1.8767639019348528,0.31904333344658437,-2.9847515427586924,1.3718101254553432,0.30646840096668854,-0.6298320619893755,1.27552457416793,2.130385264050365,-0.5394373636036749,-0.337910845648357,-1.8225657369433113,-0.10896520204010611,0.43485229805768666,-0.5319868637762795,0.44528953938298477,0.3838118561024295,0.9540262502248719,-1.7050090966154363,-0.374650072861058,1.7359454181682856,-0.538497009738679,0.5755757795414448,1.573270084682706,0.7752533165110901,0.7870256745222199,-1.4030981012154367
disobedient,-15.460016409167457,-12.114488674021313,15.686217077513136,-1.4615263001416885,-3.745264853224075,-8.98669210409566,3.3833299009847164,-2.523405685399956,6.108874574098703,-3.075813279915575,-2.013463071525202,4.465780899150922,1.6359627842039177,-6.166924256597957,-3.9812223872059778,-4.456627692898104,-4.030941296473755,1.964829023992154,-6.314668521901359,-4.34365790900216,0.31694267573888885,1.4751323330341422,-8.924852466686458,0.6067869522965907,-0.06831016432639683,-6.894280587414389,0.3315086172863731,-1.167617035820932,-1.335038816684274,-5.119135995398107,-3.87534480978875,1.273308455138089,-0.8185736268852297,-4.756761366936644,-0.3115498255745776,-3.2729195492784267,2.836380415838437,-2.984828810639003,0.9363848502341261,3.5103106490126703,0.5841718767914758,-2.9121467845961013,1.313419173775042,-1.3987293396718812,0.7116991533036409,1.061114300741955,-3.0784802791014885,1.1602026241752548,-1.0137772428306338,0.25708657760804393,2.22642029324863,0.33976416824255606,-1.0405391543859017,-3.6815038855821127,-2.2807485463902344,0.7452717729488414,0.5896222693444241,-0.4302859897336589,-1.6295621707670056,-4.75641794196209,1.1832923736669818,2.467625366183241,2.0098725477156054,3.2198303449921113,-1.6881131041927075,1.3021429531778843,-0.7977047260623761,-1.1065441603752724,0.972198402076333,1.350020534502314,0.033018335906446795,1.0283449277515568,1.135473602211248,0.3408145954705286,-1.67794998257442,1.1514836239315382,-1.0470654109368271,-0.07962135479013802,-0.16408082385093284,1.5090209864212476,2.706882808472484,-0.2053381562825067,1.9438384432754852,1.1794245348581827,0.3796849190279618,-0.9485656615278374,0.8026734844440643,-1.710898508149636,-0.5277106092411857,-0.24645098630483955,-0.5790772264762617,-0.3126476104856654,-1.2489600679856099,-0.7348082203520514,0.6056431682825739,-0.5178652465326954,0.6347890234909279,-0.22611450547719225,-0.32432011729123816,1.6299361543859603,-0.2163009172462413,-0.8699047215765111,0.07860367234025067,-2.0289179601041947,-1.4018573020529055,-0.10396312926565604,0.6794325470382916,-1.12630241587133,-0.08727611888336409,0.9681182153340777,-0.7038262621342285,-0.9906762117267703,1.6180202222402436,0.20219009202794097,-0.9202794868387151,-0.7711338527553577,-0.11817927304309592,-0.08002543325696171,1.8379306925665715,0.1690262771645714,0.7692107788619774,-0.10541400761962198,0.09256391717099496,-0.7915139586664732,0.029306180169561317
