unlucky,-0.3157571,-0.24994805,0.25043964,-0.06440281,0.048350677,0.026806945,-0.27437472,-0.014762424,-0.40916505,-0.88100165,-0.09592427,-0.21884349,0.21899275,-0.06681445,0.18796436,0.4156398,-0.26021022,0.1591619,0.09174823,0.15831648,-0.19065703,0.49617735,-0.20212357,0.13999462,0.31604806,0.38597575,-0.37630436,0.042358365,0.22511049,-0.42547578,0.14106557,0.14750099,0.48490676,-0.044763934,-0.37132797,0.11794597,-0.26365304,0.33338434,0.08056486,-0.27525833,-0.5744458,-0.4992432,-0.37213576,-0.030247364,0.2654707,-0.1136388,1.0368675,0.16998158,0.057318516,-0.17349467,-0.09457373,-0.22207351,-0.4701518,-0.43832833,0.3617205,-0.22324511,-0.21164258,-0.7085376,0.5052524,0.15477584,-0.073700935,-0.19404113,-0.03456719,0.06786813,-0.058971375,-0.6640144,-0.67956626,-0.44695297,-0.07518303,0.26243654,0.060351033,0.0323905,-0.07562698,0.24590626,-0.1650799,-0.03782694,0.126057,0.40040955,-0.20156948,0.3803919,-0.066931,0.34231454,-0.5575055,-0.14256741,0.13229723,-0.48770553,-0.6410658,0.158758,-0.3807756,-0.07509543,0.11988588,0.0700383,0.04972329,0.0262854,-0.3187769,0.32850182,0.1238003,0.42838043,0.4288423,0.43146896,-0.24255268,0.27642983,0.012662369,-0.25704214,-0.028288547,-0.4001336,0.16064358,-0.38566735,-0.14051367,0.24087486,0.07489448,-0.13360009,-0.38495213,-0.19188175,-0.029254753,-0.5207336,0.22978684,-0.051260214,-0.81700647,0.36587033,0.06847365,-0.5126344,0.29627523,-0.22905684,0.4077445,-0.41291952,-0.1053841,0.14240673,-0.003413766,-0.037291847,0.1806413,-0.6384224,-0.08401583,-0.030565212,-0.27431923,-0.29717118,0.25134492,-0.1398473,-0.1021799,0.16486941,0.27109024,-0.35450664,0.19480868,0.23089607,0.36430237,0.21092108,0.3205324,0.03788091,0.2579618,0.16232106,0.17941996,-0.122822985,-0.12560411,0.3037001,-0.33157623,0.351004,0.36406872,0.08663709,0.06582117,0.35356727,-0.37742373,-0.13114251,0.771124,-0.012908446,0.3727135,-0.21808085,0.12936823,0.09724194,0.27183956,0.34979796,-0.16757208,0.7037388,-0.47821292,0.37749612,-0.06888005,0.03911383,0.12977691,-0.41407648,0.30496547,0.0876665,0.07720722,0.057118326,0.15186651,-0.16294578,-0.72926813,0.37721053,0.23098536,0.28335282,-0.4457609,0.055956043,0.15923393,0.3136333,0.15693128,0.12106247,-0.23981853,0.7351328,-0.25549838,0.19218054,0.34814778,0.32850105,0.11250354,-0.37876287,-0.4682499,0.10202421,-0.41443792,0.3969505,-0.12443634,0.108182535,-0.02939183,-0.011425023,-0.035661798,-0.029229652,0.23030016,-0.18685058,0.4022274,0.0236553,-0.3137245,0.60935223,0.09224158,0.2126596,0.042095155,-0.24127969,-0.026159797,-0.008678658,0.23087426,-0.026692454,-0.08697523,0.5849908,0.5490033,0.24065247,-0.35057467,0.15053664,0.43566352,0.12187662,0.68835366,0.18910508,-0.120977595,-0.22700007,-0.20382245,-0.20380354,0.12090947,0.20203948,-0.6174095,0.17755206,0.1256848,0.13054156,-0.15614648,0.5088455,-0.15627387,0.15139568,0.47445303,-0.041360278,0.100524046,0.10480753,-0.032183718,-0.23624627,0.039796665,0.1065317,-0.17603119,0.17808935,-0.5046221,-0.45707694,-0.21845224,-0.3872531,0.66499585,-0.31406558,0.46356446,-0.51466745,0.017304694,-0.08167697,-0.20565912,-0.12857795,-0.09530457,-0.14813866,-0.025583267,-0.42869145,-0.26881644,-0.0044844626,0.0045595923,-0.10271374,0.20923693,-0.2974001,0.57119584,-0.20660678,-0.18312325,0.08064031,-0.007817494,-0.16132915,-0.2116172,-0.55302495,-0.39688593,-0.022420213,0.37004977,0.14848082,-0.43192047,-0.1319577,0.3470643,0.17317368,0.097405106,-0.05220909,0.31800827,0.45459962,0.41816792,-0.40556684,-0.3798347,-0.14170942,-0.6861706,-0.023821596,-0.21085286,-0.01885809,0.06919942,0.455746,0.44504595,0.15155376,-0.24334328,-0.20394151,-0.13740179,-0.4336279,-0.9581933,0.8330277,0.0011666827,0.15863883,0.0648888,0.24200356,-0.32918414,0.19488981,-0.4861619,0.28486067,-0.079638764,0.33306515,-0.04500555,0.61666816,0.5601989,0.06721909,-0.2872877,-0.4968513,-0.63104284,-0.027160525,-0.16862571,-0.2761966,-0.281133,-0.1383483,0.020021137,-0.17237571,0.22526701,-0.13482246,-0.1781205,-0.28930855,0.13498892,0.26056698,0.6122347,-0.33751887,-0.12531316,-0.11945976,0.09660114,0.12227241,0.41652188,0.006003338,0.11213589,0.020221164,-0.2259197,0.2503646,-0.26389998,0.561308,0.21456707,0.36486566,0.04641352,-0.49224123,-0.037058435,-0.11344393,0.34567076,0.2781238,-0.0043486715,0.5222034,0.47379622,0.23413166,-0.92234975,0.42218423,-0.091980435,0.09766833,-0.24936095,-0.06780813,0.47793204,0.25307333,-0.20210013,-0.29478306,-0.06393542,0.51872784,-0.14443636,-0.12782721,-0.26335347,-0.17594452,-0.052570213,0.66856945,-0.06601061,0.103880905,-0.0179518,9.536706e-05,-0.30745596,0.1849786,-0.10568552,0.38177246,-0.5532719,-0.3570401,-0.2240233,0.03511052,0.36812925,-0.044131618,0.2928347,0.4067939,-0.56972986,0.03145518,0.40212932,-0.042414226,0.40561604,0.12915501,0.024270896,0.04706602,0.15988483,-0.6189878,-0.30493134,-0.22163741,-0.40899453,0.10576032,0.506678,0.40691525,0.47004777,0.006678442,0.06661539,-0.19575982,-0.10086127,-0.5002155,-0.27984592,0.23555374,-0.2868345,0.002531468,-0.09583797,0.25451505,-0.03945507,0.06770801,-0.81829417,0.19355527,-0.024525862,-0.6115611,0.5156466,0.07169123,0.37404966,0.09775506,-0.042074017,-0.13276666,-0.064636126,0.17573571,-0.9216484,0.47658086,0.06528695,-0.07797961,-0.17885971,-0.062293865,0.017372932,-0.10039073,0.19409041,-0.33343926,0.4132176,0.38442928,-0.04522952,0.08449364,0.1173105,-0.16329888,0.08312367,0.43996692,0.23956051,-0.24276456,-0.24873121,-0.056151044,0.090634376,0.04031803,-0.13433371,0.09046422,-0.08706586,-0.5326289,0.35449523,0.115237735,0.01163991,0.30561334,-0.340666,0.14415832,-0.10914495,-0.57914054,0.5094911,0.2754525,0.3199074,0.13303937,0.2676323,0.2161632,-0.60266626,0.06331489,0.027772436,-0.21713784,-0.29891643,-0.4706018,0.5510938,0.5996767,-0.14724697,0.0035338805,-0.3566917,-0.7479699,0.112501524,-0.27722794,0.59485275,-0.6377524,0.094399795,0.018714402,0.59895766,0.10641327,-0.005164509,-0.043426357,0.1619697,0.17824511,-0.12328644,0.72823226,-0.16326664,-0.2185122,-0.028892238,-0.25332636,-0.123083554,0.16814366,-0.21364057,-0.4505384,-0.030962918,-0.25297895,-0.1214573,-0.671539,0.2046614,-0.32598272,-0.0902126,0.48854885,0.019858746,-0.582973,-0.11716373,0.36923933,0.55244696,-0.04005441,-0.18070528,-0.10367091,-0.7296786,-0.35299802,-0.26120052,0.20551448,-0.051617138,0.3035752,0.14460215,0.017701961,0.1891143,0.15432435,0.24839053,0.3438111,-0.16764364,-0.1226483,-0.056467105,0.101366185,0.1679324,-0.58681595,0.06052389,0.34101814,-0.13378802,-0.19143245,0.05801209,-0.11743245,0.026162516,0.14779046,0.6105304,-0.7080584,0.116946064,-0.47527957,0.06598059,-0.17302106,0.06374217,-0.012177857,-0.052577294,-0.25747254,0.13959557,0.29792646,-0.052578412,0.07683383,0.1746988,0.13640244,0.41125625,-0.3263513,-0.24445741,0.23652196,0.13292369,0.17036805,0.10113968,0.46968427,-0.025669614,-0.06253262,0.1883679,0.1095569,0.022696616,0.053682208,0.014404988,-0.1743432,-0.47568655,0.15561059,0.2526877,-0.38680905,0.05209581,0.051650785,0.13498807,0.07072379,0.21204725,-0.52613264,0.29629973,0.41570646,0.24632101,0.047067296,-0.51195574,0.025887836,0.12837188,0.31195158,0.030727264,-0.21928044,-0.21751885,0.10633055,0.36809185,0.15095061,0.026469734,0.20339406,0.07011767,0.075652495,-0.053185724,0.14563939,0.021605222,0.07919605,-0.23093224,-0.16234602,-0.12105463,0.5858524,-0.3949749,-0.15067974,-0.48320013,0.20714791,0.4898599,-0.4123943,-0.45433292,-0.54057485,0.111267485,-0.14722784,-0.27417633,0.16971502,-0.32323435,-1.0507675,0.61954385,-0.101845756,-0.48647022,-0.22026479,-0.41773635,-0.3206684,0.2979489,-0.34048718,-0.4303491,-0.6122161,-0.22518341,0.10195477,0.0052910605,0.2131217,-0.5997649,0.3587055,-0.39927393,-0.07255926,-0.3330458,-0.035620317,0.08479209,-0.06928809,-0.09496163,0.5837757,0.45874462,0.11465961,-0.38223743,-0.59382784,0.5513668,-0.2882734,0.24759427,0.17036304,-0.24778135,0.17309837,0.26000792,0.08291227,-0.15520003,-0.11346618,-0.30869365,-0.11250968,0.4044868,-0.51531947,-0.34148306,0.42794657,0.3271993,-0.15128863,0.3169414,0.13789545,0.45027304,-0.32531315,-0.0038809646,-0.25378725,-0.232021,-0.3363747,-0.08733656,0.05767406,-0.47957912,0.14605722,-0.2883461,0.45216125,-0.05156845,0.2653959,-0.14026454,-0.3458194,0.09135078,-0.25533596,0.011153061,-0.100602545,0.12028632,-0.24733531,-0.35698348,-0.07513317,0.29988635,-0.27649993,0.33072063,-0.6663114,0.5323394,0.6968998,0.1670756,-0.55108494,0.27568674,-0.121749654,-0.1908017,-0.42580396,-0.2033892,0.21623576,-0.629784,0.05501916,0.3887067,-0.07665539,-0.31475568,0.11948164,-0.3824116,0.463281,0.48179072,-0.027455386,-0.735623,-0.025988912,0.007926496,0.19448403,-0.025380561,0.017772917,-0.3642884,-0.16471514,-0.21083073,0.1753339,-0.014899465,0.29852065,-0.33675689,-0.27571082,-0.23522647,-0.09340751,-0.091564395,-0.13514109,0.20472994,-0.19808887,-0.014883235,-0.12957105,0.1857374,-0.28269297,-0.45945492,-0.058285005,-0.10704192,0.14417471,0.2043184,-0.3477885,-0.43168515,-0.2775163,-0.54232055,-0.35293204,0.1799382,0.012951362,-0.067129314,-0.2822424,0.37857208,0.46150962,0.20680669,-0.025878942,0.15820175,-0.4679421,-0.11641897,-0.43866864,0.017170686,-0.5403546,-0.11140323,0.44518003,-0.50411254,-0.36532754,0.26774812,0.25033167,0.06723097,-0.35826394,-0.18118992,-0.20866017,-0.07669532,0.4511128,0.017687185,-0.8342103,-0.27030388,-0.14531364,-0.048817463,-0.10160869,0.67619485,0.15464172,-0.16947368,-0.38257468,0.29391482,-0.18573466,-0.6149488,-0.21000293,-0.37520927,-0.22932458,-0.3674419,-0.07422223,0.11666802,0.2655397,0.22414908,0.07765259,-0.21840712,0.013971539,-0.029004017,-0.109582566,-0.15075113,0.38514864,0.062337495,0.009949348,0.23361465,-0.24149647,0.08592585,-0.26835838,0.308544,0.32966006,0.13648033,0.15398444,-0.07585697,-0.3902695,0.12231032,-0.1731468,0.7773778,-0.65266377,0.29061514,0.6486784,-0.48104897,0.022644266,-0.29798502,-0.18763456,-0.45763215,0.37523055,-0.07670327,0.057173133,0.18078649,-0.29936686,0.17064911,0.10899021,0.18049723,-0.07392322,-0.45746365,-0.23310673,-0.05327793,0.20047319,0.04331267,-0.061167814,-0.139539,0.082742736,-0.2379018,-0.36394668,0.54634106,-0.08605215,-0.55711687,-0.12197312,-0.11809446,-0.26355115,0.14261042,-0.20411515,-0.35809,-0.008254331,0.15413213,-0.21256307,-0.7492366,-0.17358294,-0.11700797,0.014461507,0.101707205,0.010364501,0.3280616,0.23287019,0.2207543,-0.19244155,-0.22042897,-0.07586621,-0.44136968,0.012090767,-0.23952553,0.10460427,-0.2344197,0.052287836,0.20532303,-0.02543931,-0.013644469,0.15249847,0.097754836,-0.28211963,0.13079509,-0.18037502,-0.14074281,0.08647293,-0.016492497,-0.62483454,0.13337588,-0.29092896,-0.14882888,0.42246905,-0.19967756,0.53892076,-0.48372045,0.028724968,15.056661,0.37810338,-0.12438693,0.46162033,0.1449714,-0.4670593,0.08346593,0.28106496,0.008561509,0.64214134,-0.09438123,-0.018406173,0.52184814,0.19203663,0.1749266,0.045331217,0.37494868,-0.15342619,0.13438615,-0.17619869,0.04393192,-0.35015672,-0.04400094,0.15828209,-0.13006864,-0.2565972,0.33368215,0.56520903,-0.33421618,-0.20825978,0.28671116,0.38085464,-0.24620703,0.044727806,0.12248586,0.3140193,0.62014145,-0.1742538,0.7673838,0.13355426,-0.3684778,-0.43348727,-0.25000203,-0.13581449,0.08195234,-0.1708216,0.5245926,0.056978114,-0.121023476,-0.11602678,0.6807661,-0.16526555,-0.30750358,-0.0075409547,-0.5026109,-0.07660644,0.70123196,0.14812198,0.2469544,-0.21267588,0.38166708,-0.78341746,0.28704074,0.16042975,-0.0095960945,0.24897611,-0.17276078,0.23013571,-0.61366785,-0.4140953,-0.13430117,-0.10473353,0.005812009,0.053669143,0.12528995,-0.0055935197,-0.44175243,0.073699415,0.53217256,0.17598486,0.31233788,-0.37598404,0.14515719,-0.041089494,-0.072904825,-0.64185166,-0.008635129,0.5603042,-0.12594894,0.06609919,0.24969272,-0.13338664,-0.36670128,0.22459765,-0.08361008,0.5242849
dull,0.13623492,-0.32750395,-0.09164021,-0.192517,0.06977155,-0.17785062,-0.18307872,-0.03570624,-0.105515786,-0.24971996,-0.54525656,0.29765567,0.2192905,-0.17169702,0.31986776,0.14337428,0.12683725,0.3450681,0.33315423,-0.0019857707,-0.31446397,-0.53017914,0.25268725,0.045147087,-0.16042274,-0.042968366,-0.4712883,0.052657753,-0.13519602,0.43700412,-0.38740942,0.4748721,0.1559443,-0.10769624,0.06906748,-0.14088278,-0.22230087,0.4190979,0.3602245,-0.041106153,-0.12035903,-0.616356,-0.5476334,-0.2935293,0.104839385,-0.18920809,0.6003675,0.19305329,0.2284929,-0.057057425,0.14164187,-0.026118455,-0.25710455,0.068828546,0.13198753,0.3143559,0.18336874,-0.22805977,-0.10502722,-0.088362835,0.44081864,-0.17475356,-0.24450688,0.22923754,-0.1179561,-0.4945761,-0.11297073,0.14394896,-0.056969177,-0.10476195,0.36443892,-0.12855984,-0.60696733,0.039761346,0.013903665,-0.38457334,0.14662477,0.7492773,0.050317794,0.40494654,0.12041644,0.46059778,-0.043030854,0.54847085,0.30343997,-0.20253612,-0.32638714,-0.24146761,-0.26820484,-0.20322497,-0.25701746,-0.19922878,0.20114316,0.21733588,-0.22158374,-0.10836626,-0.35421,0.5463251,0.37875593,0.41410017,0.086289816,0.530298,-0.37084043,-0.24431783,-0.19442989,-0.7822706,0.2930004,-0.08937752,-0.16864234,0.19703548,0.1955955,-0.29865918,-0.13231482,-0.43096685,-0.026852744,0.10385493,0.2151881,-0.06185317,-0.5026348,0.3046849,-0.017106779,0.24538845,0.24840724,0.109722614,0.10581145,-0.010292304,0.2548929,-0.25836548,-0.2043181,-0.27864614,0.05448847,-0.42283607,0.375172,0.07097431,-0.29646447,-0.6025006,-0.10376044,0.16568513,0.13009393,-0.35073796,-0.2658997,-0.48520145,0.1419242,0.19904983,0.5411245,0.3126811,0.5084691,0.111216396,0.36542082,0.5088118,-0.065072,0.29319784,0.2721442,0.30359957,-0.36504808,0.37746534,0.1403935,-0.0045726486,-0.34394845,0.21552904,-0.04976818,-0.14661478,-0.09441013,-0.20313908,-0.23229945,-0.14213344,0.22202396,0.30846184,-0.446107,-0.079610474,-0.13524401,0.2126982,-0.18566954,0.09702221,0.22857179,-0.05986436,-0.088701636,-0.51592046,-0.03319951,0.15094061,-0.15259823,0.26887628,-0.11693322,0.03557231,-0.2167504,-0.18283218,-0.27791753,0.37000778,-0.06963473,-0.22082186,0.08097654,0.35379088,0.18388718,0.2941055,0.049537584,0.2932948,0.21672018,-0.06074403,0.36659452,0.18594699,0.05469015,-0.08053685,-0.35916832,0.49745739,-0.30022714,-0.05669771,0.025079826,-0.024868896,-0.045581907,0.11616784,0.047352325,0.2268131,0.13981871,-0.17032926,0.13816878,0.09198747,-0.12120847,0.0564771,-0.009696771,-0.44388962,0.073438175,-0.35269034,-0.21646644,-0.14639299,-0.17474876,-0.36280704,0.038504813,0.39967892,0.21369444,0.39601037,0.05361705,-0.2344632,0.04640909,0.23967339,-0.050177876,-0.1699956,-0.2271319,0.07226878,0.032306973,-0.026452765,-0.121386744,0.12786324,-0.16854756,0.29032275,-0.3363874,-0.5673669,0.04145064,-0.48881355,-0.44676888,-0.024380555,0.18761712,-0.3001017,-0.02049199,0.010907151,0.4738611,0.04058893,-0.18076093,-0.12988292,-0.18555075,0.34176028,-0.2211159,-0.5025983,0.10186682,-0.027120026,0.35258842,0.059161786,-0.03594747,0.16604401,-0.070764825,0.07230083,0.015338603,-0.0946457,0.08870515,-0.22785497,0.48198867,-0.5717152,0.05311053,-0.008696392,-0.15838555,-0.29961136,-0.16858776,-0.27482203,0.30738214,-0.4978737,-0.2601053,0.2019002,-0.33576807,-0.51349396,0.10906411,-0.66939497,0.036807045,-0.044370536,0.04511838,0.3168101,-0.024648352,0.1439885,-0.036855523,-0.2716916,-0.19078483,-0.010637003,0.32396296,-0.16546062,0.7086575,0.1651347,-0.74112946,-0.0349199,-0.19177568,0.12237122,-0.21846865,0.07997917,0.10792536,0.32654467,0.37995803,0.15964136,-0.51189154,-0.28703883,-0.0014223349,0.16368546,-0.620575,-0.13556908,0.08010179,0.04408707,-0.113831036,-0.014323465,-0.1584514,0.10907746,0.007490803,-0.07261552,0.7115833,0.63080984,0.18680196,0.95137614,0.32689926,-0.10416231,-0.24231069,-0.13862275,0.049106624,-0.02663934,-0.6166461,0.22783794,0.00082059734,-0.3088241,-0.1396449,0.12618224,-0.04061779,-0.4669352,-0.03917257,0.08589838,0.22240132,-0.08279374,0.38903165,-0.3216906,0.089319445,-0.0041970904,0.22977237,-0.51618326,0.36389586,-0.30902952,0.044789013,0.2184013,-0.25150445,-0.11972832,-0.38168812,0.5529342,0.14256956,0.4537169,0.81437033,-0.042510677,0.22603534,-0.06830976,0.025169909,0.25175765,0.08100589,-0.27208367,0.33502975,0.34099486,-0.591265,-0.15971597,0.12191403,0.02118876,-0.48771974,0.08527344,0.16620922,-0.4572805,-0.028236292,0.09119966,0.2290265,0.23608214,-0.42567134,-0.24995814,-0.3856944,-0.22126226,-0.42863747,0.09591321,-0.22696106,0.02314031,-0.09656185,0.2607328,-0.37780073,-0.4049544,0.28713444,0.24264912,-0.6080148,-0.18567097,-0.06979311,0.014341325,-0.14454186,-0.3366617,-0.013274583,0.34793198,0.3249077,-0.16964173,0.33021492,0.09409767,-0.37973306,0.12521935,0.06679895,0.23583245,0.27101234,0.011504356,-0.21845068,-0.3935554,0.11926826,-0.038902212,0.07096678,0.2800062,0.11130204,0.21397708,0.51151365,-0.1634627,-0.47419193,-0.6058913,0.072016,0.31898573,-0.54495007,0.31720588,-0.41027534,0.15465309,-0.014551376,0.25048637,-0.11128509,0.46386144,0.0110608125,-0.3229285,0.032394957,0.049226377,0.7262311,0.3318936,-0.17541091,0.30667412,0.021053495,0.53628826,-0.66953,0.61545074,0.2649794,0.1546693,-0.16326948,-0.15367858,-0.47386613,-0.17110854,-0.08315423,-0.14659427,0.3690096,0.3558866,-0.050638434,0.07174245,0.6372279,0.051535655,0.39916408,0.06656622,-0.07659317,0.39673197,-0.27859956,-0.06433567,0.21523231,0.10429915,-0.33547744,0.21931101,0.012616864,-0.5849128,-0.10308671,0.20424686,-0.08290412,0.10221627,0.07151428,0.10194982,0.00040898006,-0.16492574,0.20883282,-0.71127367,0.113471806,-0.19926299,0.41296184,-0.32994273,-0.052608687,-0.34622923,-0.09005057,-0.09718558,-1.1728305,-0.18684113,-0.0062181563,0.35989332,-0.035046417,-0.014464881,-0.41978168,-0.18744706,0.60362893,-0.33884135,0.3642855,-0.14876944,-0.3216427,0.28645328,0.7298398,0.19575752,-0.107874356,-0.0030764702,-0.4010794,-0.16537364,-0.30378363,0.3418043,-0.0964368,-0.48302194,-0.08197165,-0.18329227,0.02062922,0.2697477,0.109625466,-0.17337292,-0.26506186,-0.3267835,-0.678144,0.010795373,0.16973567,-0.36960194,-0.091062665,0.19627404,0.44059548,-0.40571436,-0.5442906,0.14562373,0.19361599,-0.10560066,-0.092514075,0.32119635,-0.07922566,-0.7036633,-0.25942,0.14143728,-0.10859325,0.13768475,0.1708696,0.35654846,0.18440484,0.04992241,0.7043044,0.106264085,-0.1775595,0.111657865,-0.66325694,-0.016158925,-0.005643692,-0.20192839,0.17404355,0.15308042,-0.20921238,0.022059426,-0.14579149,-0.13463159,0.055501178,0.3365878,0.18070702,-0.68187755,0.16974467,-0.02647736,-0.08759534,0.014433525,-0.09181845,0.093978904,0.16645509,-0.45593795,-0.25879613,0.36505207,0.31939974,-0.0077475286,-0.06532628,0.35998747,0.59488726,0.008170947,0.1005285,-0.011817407,-0.31766632,0.023554824,-0.23828866,0.30606982,0.40748966,0.37466004,0.17722799,0.16643177,0.16197893,-0.2016655,0.13425069,0.08334097,-0.01621828,0.2637114,0.15434648,0.4930447,-0.41669926,-0.13347091,-0.15987296,0.62497854,0.23651837,0.08928344,-0.17016084,0.16145603,0.3912898,-0.17617065,0.109748125,0.59915495,-0.17437719,0.07246611,-0.22264789,-0.44412982,-0.17397265,0.30134523,-0.1907217,0.6861903,0.052950975,0.096683115,-0.27532423,-0.036405016,-0.6667493,-0.12346109,0.37729108,0.034040038,-0.1023306,0.5906388,-0.71133953,0.49750102,0.013926883,0.09390173,-0.02892206,-0.012220749,0.28346503,-0.625603,-0.8176894,-0.17052557,-0.28440347,-0.20940058,-0.36380768,-0.25410992,-0.38254508,-0.9194626,-0.068550475,0.16268547,-0.352536,-0.10204189,-0.03946023,-0.2829269,0.040236797,-0.6362518,0.025395816,-0.39694512,-0.4191672,0.1971948,0.047085818,0.4411856,-0.8099091,0.15936853,-0.27247825,-0.5389323,0.26141664,-0.05779497,-0.08360653,-0.17599958,-0.075190544,0.30327103,0.15913232,0.034444634,-0.39025497,-0.3005565,0.13315216,-0.13688086,0.06840258,0.45208836,-0.44004908,0.3533986,0.0350313,0.2148723,-0.17578308,0.11888412,0.21157245,-0.016804902,-0.32413614,-0.8359631,-0.13860522,0.118236296,0.1852115,0.53967917,0.3527921,0.35798368,0.701458,-0.04363851,-0.030212706,0.025913402,-0.312498,0.055770982,0.52170503,0.45548865,0.050948214,-0.04956439,-0.16988458,0.35026133,-0.12296191,0.041336834,0.37627622,0.23865087,0.17207427,-0.08653594,-0.31626073,-0.06066017,0.05883832,-0.21403374,-0.1962341,-0.118386716,-0.51045114,-0.2503963,0.3380107,-0.26667204,0.13591787,0.19600056,-0.49418625,-0.43115905,-0.1711122,-0.05303836,-0.14702193,-0.13484205,0.11036033,-0.050499246,-0.039379437,0.103015035,0.029038591,-0.04077607,-0.17262262,-0.17018081,-0.17579772,0.45827088,-0.12321293,0.0129609965,-0.11135903,-0.06831525,-0.77430016,0.007379614,0.17941958,0.24459808,-0.3900292,0.47771493,-0.049108148,-0.051970016,-0.18923706,0.36696553,-0.16626868,-0.22415556,0.0480286,-0.22855246,0.1971088,-0.01835919,0.0668379,-0.1446823,-0.18268536,0.5020964,0.17040928,-0.08318154,0.030037412,-0.2062522,-0.14077552,0.0265681,-0.199336,-0.04832396,0.06746315,-0.13561773,-0.07907508,0.11240814,-0.036750343,-0.53508973,0.15358703,0.11337032,0.2618182,-0.26375994,0.12765896,0.10448273,-0.20053951,0.05258563,0.2471667,-0.48493278,-0.10989511,0.07207524,-0.5027054,-0.13368802,-0.46957064,-0.029384991,0.14943247,0.50368315,0.092517406,-0.11448426,-0.20435764,-0.23807387,0.27227798,0.20836145,-0.24170297,-0.88722306,0.6341306,-0.37274146,-0.007468985,0.11911594,0.30758008,0.018843934,-0.123031355,0.2831929,0.14343163,0.046990525,-0.49582136,0.1030306,0.08851755,-0.41880074,-0.057953864,0.102554165,0.06681123,0.16717617,0.23032637,-0.2576519,-0.3603059,0.30733657,0.35560986,0.3807253,-0.1886958,-0.15438388,0.15952246,-0.24046348,0.29669467,-0.29920897,-0.14179784,-0.16732019,0.25744385,0.6064778,0.46120965,-0.00383218,0.09701357,-0.19233228,-0.17932545,0.14588933,-0.080900155,-0.17187686,0.08049835,-0.3094026,-0.5292905,-0.20228554,-0.23014335,0.38073882,-0.5937541,0.15221699,-0.097063154,-0.043245446,-0.24273366,0.23197901,0.12062714,0.3438004,0.56095207,0.17138338,-0.1640201,-0.075450405,0.112250656,0.32288697,-0.09168909,-0.29960504,0.035113063,0.15078579,-0.5059149,0.20291017,0.13196222,-0.14538611,-0.5895026,-0.28730837,0.029472327,-0.18872201,-0.007207894,-0.08406735,-0.21978313,0.03841492,0.4280003,-0.6233062,-0.68583924,-0.16545254,-0.03762485,0.07614735,-0.063300006,-0.36649224,-0.28677243,0.82153726,0.2045611,-0.050147515,-0.10435807,-0.18607713,-0.16679442,-0.12383651,-0.2515374,-0.045126405,0.118808806,-0.045564715,0.40071872,-0.29587597,-0.4294244,-0.0039062228,-0.37406465,-0.5224854,-0.016404828,0.20631306,-0.110811345,0.18365538,-0.38218132,-0.06684009,0.043198634,0.033597365,0.08415375,0.01589208,-0.17842506,0.48439768,-0.07813945,0.08364678,13.183139,-0.05194175,-0.24188645,0.55459857,0.113731325,-0.13941707,0.41738793,-0.17270398,0.19921966,-0.0977085,-0.1527858,-0.11664334,0.17179744,-0.29893145,0.09624904,-0.15275733,0.12037978,-0.007733269,0.061210234,0.0865534,0.1442713,-0.00074768503,-0.026799314,0.1279314,0.110732175,0.01638277,0.17341147,0.025740476,0.19452369,0.17619085,0.2167694,-0.1050703,0.06313687,0.0009808118,0.10600581,-0.23615353,0.21292992,0.29446524,0.3008558,0.11416339,-0.23994619,-0.27480316,0.20092784,0.15942581,0.23781143,0.10384673,0.12803783,0.20637868,-0.14630821,-0.20203204,0.2663745,-0.025030734,0.06485161,0.5166338,-0.13097379,-0.00839514,0.7550028,0.33655563,-0.448346,-0.38193142,-0.3932793,-0.19890793,0.08766163,0.07194454,0.2666576,0.109365486,0.03453711,0.33929253,0.20854521,0.14934444,0.46702138,0.1804262,0.3878664,-0.08149978,-0.13042252,0.13877483,-0.16666655,-0.14650701,-0.008926445,0.28173146,0.49685803,-0.3217884,0.23149371,-0.30821258,-0.080396675,-0.036862474,0.20604508,0.10019094,-0.14098953,-0.057143938,0.04108466,0.005109023,-0.32656088,-0.07886312,0.30059728,0.32012963
arrogant,-0.27629814,-0.16969989,-0.2230968,-0.12535028,0.17982356,0.020773415,-0.004793031,-0.2589497,0.14381488,-0.35609016,-0.20740004,-0.032177314,0.23896013,-0.27029514,0.0033756893,0.04869536,0.1308557,0.11715525,0.40694857,0.33839488,-0.26111016,-0.18626332,0.5957932,-0.3239485,-0.0987192,0.11622707,-0.5158809,0.064823166,-0.072234176,-0.15668048,-0.5342791,0.8831275,0.2716978,0.068351224,0.2508343,-0.5410912,-0.3322801,0.18328504,0.28742418,-0.48781812,0.029568397,-0.58097386,-0.3856684,-0.06747581,0.065060504,0.043368783,0.2785686,0.033100743,0.2878527,-0.3903118,-0.055867434,-0.09625935,-0.12835756,-0.116185896,0.3425894,0.03296813,-0.14161909,-0.08904728,-0.020178365,-0.24350436,0.3158789,-0.15477876,-0.20419727,0.33832228,0.14010786,-0.19602622,0.19059698,0.07739903,-0.11121913,-0.24250333,0.07873509,0.054715205,-0.24919488,-0.0663689,-0.07186931,0.21860372,0.08729405,-0.014938771,0.41949844,0.18367572,-0.12096649,0.3758342,0.012157838,0.2089957,0.38749227,-0.21897072,-0.36554202,0.3030416,0.086960055,-0.71493477,-0.07368704,-0.39426288,0.2922038,0.37298676,-0.5729096,-0.07242084,0.06620289,0.80361557,0.42381167,0.3653134,0.27694455,0.09941646,-0.06324399,-0.17112713,-0.15997806,-0.6404815,-0.18081188,-0.32627997,0.11017009,0.05020724,0.5140495,-0.44575226,-0.2052841,-0.632942,0.5075479,-0.44507623,0.34851432,-0.23182623,-0.280941,-0.016922215,-0.18733115,0.33661664,0.5032413,0.16857488,0.027693817,0.18089128,-0.21127218,0.10205982,0.074625604,-0.39545473,-0.03428332,-0.04452766,0.18027222,-0.43805838,-0.07141481,-0.5338493,-0.8094971,0.18677278,-0.32401842,-0.32041806,0.053792264,-0.36037216,0.06695215,0.19438523,-0.17479044,0.031388562,0.2862066,-0.21407942,0.37804592,0.031893507,0.16806434,0.045485158,0.36274883,-0.09663987,-0.176695,-0.0030276899,0.27251327,0.022257283,-0.6456285,0.051673595,0.13449751,-0.55040723,-0.32211635,-0.3373917,-0.18378802,0.039690506,-0.024655325,0.24862856,-0.19902575,-0.2599413,-0.11552913,0.7434919,-0.18593858,0.2154172,0.22439569,0.12731147,-0.11330525,-0.30925134,0.27409935,0.07201093,-0.29751462,0.13789755,0.19727646,0.19320655,-0.11362102,0.13832687,-0.28849402,0.54717886,-0.349131,0.24542637,0.37817726,0.34543014,0.25093484,0.11692428,0.37531683,0.26151374,-0.07562927,0.32277092,0.0012595712,-0.2326783,0.101952516,-0.15095426,-0.39941514,0.4437649,-0.2261828,-0.24150145,-0.15071534,-0.16613054,0.05068728,0.2850697,-0.087515555,-0.039455995,-0.15250452,0.021360822,0.19512947,0.59375095,-0.19842307,0.4008386,-0.12682568,-0.08899367,0.070425786,-0.273178,0.37734768,-0.29457322,-0.012556345,-0.33670437,-0.35159135,0.57378715,0.30166304,0.5179561,0.11271324,-0.13241483,0.3505797,-0.08840034,0.16185786,0.019534206,-0.020506531,-0.039179232,0.11659356,-0.17519218,-0.120149106,0.5838276,-0.24099769,0.42701185,-0.08347356,-0.45909455,-0.021562,-0.0090271905,-0.54848224,0.27935776,0.15313506,-0.13174343,0.037093304,-0.18227398,0.3836753,0.15482722,-0.18384524,0.20634355,-0.1659762,0.24648596,-0.29148415,-0.22490902,-0.17003979,0.117435195,0.39233193,-0.149072,0.43179235,-0.0039805993,0.13950254,0.2513019,0.33407137,-0.21406256,-0.15745844,-0.1322953,0.073389955,-0.22348206,-0.46705177,-0.41051295,-0.39775428,-0.05408521,-0.095032,-0.08568752,0.60125273,0.014945224,-0.16734509,0.024776945,-0.22232653,-0.3034887,0.24625914,-0.7852654,-0.02958668,-0.12870052,0.20756517,-0.12115926,-0.25470236,0.01567469,-0.3240442,-0.37845263,-0.028977558,0.36968175,0.19586438,-0.08092429,0.5377427,-0.11383321,-0.18514065,-0.23485802,-0.30991307,0.035923984,-0.09805504,0.36244133,0.17941932,0.20453177,-0.0846032,0.18330574,-0.35510826,-0.0984414,-0.22068179,-0.14424093,-0.3544391,0.08929939,-0.14683409,0.20038293,-0.11836287,-0.10367062,-0.35598835,0.42152762,-0.0017084107,0.1398462,0.28445727,0.55936515,0.091158986,0.7352881,0.66437894,-0.14307557,-0.16349208,-0.11868471,0.4518173,0.04718584,-0.4723303,0.1946302,-0.08030418,0.12081728,-0.021921664,0.079110436,0.1316439,-0.40793732,-0.34506488,0.08436883,0.14324866,0.048614215,0.3485628,-0.28513098,-0.20837511,0.2874373,-0.009402384,-0.30116174,0.2486112,-0.16165586,0.037544444,0.38518664,-0.20037621,-0.15369704,-0.56993896,0.28976136,0.23435485,0.50233525,-0.16872728,-0.10328528,0.2386976,0.25827616,-0.31615865,-0.18034871,0.029004492,-0.32619822,0.3847852,0.19034731,-0.85182744,-0.24035843,0.02832749,0.46693203,-0.15736754,0.41500542,0.6713533,-0.028157314,-0.20910323,0.13493633,-0.013322721,0.5315216,-0.17690949,0.07186356,-0.28051314,-0.07710065,-0.34876296,0.256538,-0.10259234,0.18768309,0.16154194,0.2949241,-0.20627631,-0.4613726,0.18971282,0.11271868,-0.3736802,-0.26413116,-0.20527412,0.25218406,-0.46158776,-0.01400517,0.02426494,0.29468063,0.4890722,-0.0023238983,0.29871875,-0.04284293,-0.23862857,0.34979022,-0.07291042,0.3804605,0.042711202,-0.27712163,-0.24894972,-0.30198905,0.15561089,0.15771678,0.11661627,0.16867244,0.13052571,-0.0071337805,0.3746879,-0.09878921,-0.7316391,-1.0265687,-0.025968969,0.32380322,-0.8191671,0.286157,-0.41752183,0.23666082,0.40799055,0.59341526,-0.19815457,-0.25456145,0.34171164,-0.29976055,0.1271763,0.11118462,0.12933911,-0.43452513,0.37261173,-0.1647949,-0.2263452,0.5616985,-0.5496544,0.626414,0.33818832,0.12146937,-0.14001422,0.25561503,-0.15180463,-0.37207258,-0.1771835,-0.1144788,0.41136113,0.16319488,-0.36802956,0.39506802,0.66986746,0.09268268,-0.16866219,0.4088259,-0.11308373,0.027808955,-0.15890788,-0.08164162,0.33191988,-0.080700584,0.013253652,0.05568726,0.07963463,0.02702975,-0.2553806,0.1753167,-0.27805063,0.41449213,0.32889572,0.006101645,-0.16007261,0.17909802,0.6364243,-0.31471542,-0.16329287,-0.40613136,0.26111057,-0.18196888,0.021840617,-0.06572723,-0.16116929,-0.17044497,-0.9673116,-0.4179537,-0.13782887,0.3204591,0.14040177,0.047535494,-0.71648306,-0.10693446,0.39097157,-0.24200064,0.585216,-0.20004945,-0.47964752,0.22062658,0.36058655,0.737073,-0.13614286,0.08104137,0.028385555,-0.21646805,0.009932428,0.058220822,-0.07144433,0.094371706,0.13958481,-0.56382966,-0.08446916,0.05797742,-0.47135118,0.092369534,-0.52852595,-0.47249278,-0.9184496,0.15021029,0.21400392,-0.5615873,0.11790506,0.2262698,0.1998806,-0.5509521,-0.37946078,0.27616453,-0.028529426,0.14075449,-0.18058902,-0.0014199963,-0.27314284,-0.1422328,0.19738878,0.2334618,0.01210676,-0.07158711,-0.07104757,0.5128519,0.03478925,0.4343128,0.6745835,0.25017658,-0.041719798,-0.09723138,-0.3953166,-0.114053845,0.07679278,-0.60120517,0.3392943,-0.024318272,0.18872155,0.4490832,-0.070719995,-0.10088316,-0.05219631,0.0490891,0.36984697,-0.3482964,0.2860442,-0.09003565,-0.0645478,-0.22528738,-0.08842242,-0.20151167,-0.24642067,-0.44324508,-0.11240799,0.33077982,0.3764437,-0.021023588,-0.19874962,0.1209229,0.10078604,-0.021529041,0.277231,0.53755707,-0.18416512,-0.21541686,0.11548229,0.2879158,0.37468073,0.4044255,0.09558856,0.11161054,0.18886226,0.10126167,0.1675769,-0.112885326,-1.0964197,0.12645452,-0.1327114,-0.089378685,-0.09518063,-0.25003156,0.098940365,0.26055452,0.29407907,0.48147812,-0.32457614,-0.33964285,0.06780788,-0.17551734,-0.038896557,0.6425561,-0.033952612,0.1814275,-0.14426292,-0.36943305,0.18334834,0.48565844,0.032908715,0.4024595,0.061331645,0.57960135,0.046922844,-0.046603724,-0.62042564,0.26299658,-0.4464508,-0.085015915,0.062148485,0.69336486,-0.21471553,0.5027229,0.073908806,-0.0173169,-0.23225205,0.11494889,-0.15122293,-0.55507064,-0.35872886,-0.12579851,-0.30802807,-0.2200033,-0.36022082,-0.3173221,-0.28886366,-0.52039087,-0.09499282,0.08609322,-0.090299435,0.011868543,0.13927157,0.020582596,-0.25637975,-0.1942,-0.06682592,-0.5394871,-0.06882563,0.16669232,0.12514307,0.36675254,-0.33517238,0.32503808,-0.29494983,-0.51368034,0.36185196,0.25093472,-0.39682123,-0.2329141,-0.11926819,0.46287933,0.40897402,-0.024662407,-0.48652267,-0.11145395,0.11643248,0.036005985,-0.05979678,0.065375604,-0.40237382,-0.36458233,0.27591416,-0.28791064,-0.07565374,0.13442501,-0.11580589,0.063484184,-0.044907484,-0.4218036,-0.12987177,-0.05499792,0.52916795,0.34626666,0.1438925,0.26305696,0.62221074,0.14437096,-0.46177903,-0.2531042,-0.34192443,0.0031311233,0.6027697,-0.13366501,-0.28560734,0.06597804,-0.07963969,0.15644921,0.09541886,-0.06686326,-0.1745028,-0.1226118,-0.104523666,0.036201075,0.014839649,0.208665,-0.012911472,-0.3865831,-0.49355075,-0.4636086,-0.6464707,-0.24333681,0.23968476,-0.4372827,0.5861067,-0.099044204,-0.5670095,-0.009253667,-0.3474103,-0.23694183,0.035948716,-0.38722113,-0.0613409,-0.020473378,-0.64858055,0.23964088,0.06665484,-0.07214578,-0.069835596,-0.0050536934,-0.232395,0.029483713,0.17682971,-0.006502656,-0.3827105,0.03121975,-0.87731284,0.53066486,0.3052889,0.22026712,-0.60546535,0.14974026,0.1542884,0.28718105,-0.44094273,-0.44153026,-0.071776845,0.0648048,0.2600762,-0.44499388,0.029576914,-0.29463348,0.54420656,-0.70262116,-0.10891559,0.24802834,0.20243634,0.30943993,-0.23741366,-0.037259966,0.034737203,0.028745065,-0.28432962,-0.08546394,0.24797995,-0.16422735,-0.07619916,0.39207172,0.17880201,0.09092253,0.19521886,-0.08936768,0.0725704,-0.18249834,0.29286978,-0.11726897,-0.14873049,0.04813428,-0.21448547,-0.36743414,0.034846548,0.3872426,-0.3147537,0.1354597,-0.36565793,-0.25030616,0.3203644,0.48062858,0.3155562,0.067871235,-0.12159089,-0.45719984,0.18258524,0.16004437,-0.24443953,-0.6311026,0.6301692,-0.053693876,0.027774876,0.09690071,0.19803844,0.08728387,-0.10914626,0.4667348,0.044601876,0.3142386,-0.38596797,-0.13735275,0.10997704,-0.2199183,-0.2162591,0.14157829,-0.05106427,0.05753232,-0.017919544,-0.1944605,-0.20009328,-0.24717508,0.3604132,0.06340315,-0.0112457415,-0.06772414,0.14564155,-0.13130528,0.24007046,-0.49984404,-0.13985042,-0.066497415,0.31430063,0.5133304,0.13505284,0.2205898,0.029628163,-0.355865,0.008663653,-0.08323872,-0.08051603,-0.5851835,0.30687743,-0.26974037,-0.028898882,-0.35663128,-0.058501903,0.58481973,-0.35092628,-0.17060979,0.03821698,-0.1631937,-0.085061915,0.053089797,-0.22631091,0.3474413,1.0511369,0.31983978,0.1809854,-0.13744178,0.38286957,0.17033811,0.047880653,-0.25790036,-0.057577178,0.09254625,-0.4392067,0.20069815,0.37679675,0.055562582,-0.1028148,-0.3765385,0.07351237,-0.007152796,-0.1793115,-0.21135719,-0.6875665,-0.063612744,-0.069320165,-0.20977162,-0.48080957,-0.11801226,0.35437986,0.21233954,-0.11608001,0.14966463,0.22727531,0.7631616,0.0346809,0.13105439,-0.3126507,-0.40300024,-0.11888661,0.013882664,-0.27774006,-0.26394597,0.09463975,0.15416057,0.13754041,-0.109982006,-0.43002847,-0.0804439,0.24681298,-0.27648637,0.1660031,-0.31620574,-0.31126902,0.25611302,-0.2612842,-0.67069983,-0.18350793,-0.22083415,0.36926237,-0.024116056,-0.52300155,0.55448586,-0.22148953,0.2640179,11.557275,0.021922566,-0.30048814,0.35295197,0.31929025,-0.11063928,0.42765632,-0.14015977,0.16787422,0.30954248,-0.21901762,-0.14768559,0.24265802,-0.5357899,0.4096595,-0.52643555,0.37586606,0.1189487,0.22705106,-0.21006835,0.40780473,0.08237073,-0.18847364,0.11416876,0.2519185,-0.05298769,0.15500672,0.015109084,0.21391268,0.15648966,-0.033759173,0.03820912,-0.08879583,-0.05862466,0.03571142,0.24286892,-0.16419011,0.19688682,0.498791,0.23713677,0.08408178,-0.4761263,0.2264743,-0.023772279,0.27333748,0.4209316,0.1389352,0.34793854,-0.17868502,-0.32791796,0.21076645,0.037455868,-0.30990127,0.38233373,0.050078243,-0.12748928,0.30238867,0.38575423,-0.39939806,-0.25469893,-0.3265062,-0.42055514,0.48995355,0.05209973,0.28758028,0.2661542,0.32483378,0.119633116,-0.026598856,0.43555224,0.30752417,0.16434693,0.46767077,0.02320162,0.25079218,0.100332834,-0.08201648,-0.054327086,0.011894052,0.4996154,0.47076213,-0.035934787,0.26586136,0.1594654,-0.17656279,-0.025798246,0.4263427,-0.07447823,0.035195243,-0.47615197,0.4731506,-0.013997492,-0.4735149,0.12781115,0.44126773,0.33527824
careful,0.20132868,0.047223646,-0.038093552,-0.045395058,-0.16552165,-0.15652089,-0.26834828,-0.22934462,-0.21359028,-0.9907126,-0.26628152,0.30943528,0.4664832,-0.2678015,0.2870675,0.15524256,0.024825705,0.21438451,0.20397878,0.05506036,-0.20899047,-0.5818805,0.60547906,-0.093995325,-0.33492795,0.10718853,-0.55568093,0.11227751,-0.2468506,0.22271194,-0.31586036,-0.25337872,0.25759694,-0.30238965,0.0008207783,-0.20840974,-0.3460498,-0.028219186,0.4860408,0.14364557,-0.052634776,-0.5384472,-0.5704878,-0.29432437,-0.19049357,0.82123965,0.58876425,0.2903355,0.4343166,0.1393879,0.18354845,-0.2619915,-0.33063123,0.33194247,0.31534672,0.2276448,0.14428847,0.079638384,0.14342867,-0.04909153,0.11395969,0.2479086,-0.05556645,0.12619752,-0.21837507,-0.51010954,-0.032646317,0.22599198,0.040370032,0.122778215,0.3321012,-0.0151983425,-0.730973,0.086747974,-0.2805321,-0.25979236,0.104249746,0.6104789,-0.008808305,0.19096802,0.28533193,0.2208181,-0.25225237,0.23997289,0.22197922,-0.08956077,-0.53022355,-0.026221365,-0.38718972,-0.24228424,0.022690244,0.087851316,-0.101697914,0.4601651,-0.21726994,-0.0410168,-0.19783665,0.5123305,0.22632325,0.4382265,0.038931493,0.10037545,-0.1172161,-0.539219,0.06420184,-0.7487252,-0.024539925,-0.33381495,-0.025271617,0.21681003,0.012869981,0.15967397,-0.13034339,-0.39094985,-0.16872984,-0.03846665,0.20630263,-0.59362024,-0.4892584,0.49096313,-0.43925273,-0.16351157,0.19344562,-0.056144495,0.23256864,-0.11957356,0.054233257,0.2303806,-0.45310333,-0.22587799,0.71635467,-0.11817411,0.33574614,-0.11667308,-0.4463308,-0.54624134,-0.23695014,0.01039108,0.23519725,-0.35689524,-0.22047482,-0.6654943,0.03820445,0.22331716,0.3629612,0.070048876,0.3849506,0.115473844,0.64953274,0.51993614,0.08689954,0.03746972,0.53220683,0.1065993,-0.57048863,0.027519405,0.07919938,-0.17491119,-0.25603518,-0.07175646,0.18569,-0.18957494,0.0003643868,-0.6925464,-0.24326764,-0.1611069,0.19455928,0.34898415,0.3089515,0.2661277,-0.1479745,0.25745186,-0.19775765,0.33202416,0.1360368,0.209616,-0.2970042,-0.39881888,0.55171096,0.29496536,-0.18987285,0.25232318,0.30196634,0.16418326,-0.05098006,0.09723204,0.029333806,0.1793464,-0.21485277,-0.016346619,0.15302521,0.29166836,0.16756344,0.13404833,-0.08351567,0.3631921,0.19609608,-0.31960905,-0.05563825,-0.024905587,-0.027654493,-0.22504944,-1.0981048,0.07675888,-0.38522363,0.23842312,-0.21037793,0.11035938,0.06983536,-0.34044036,-0.08463963,0.25307795,-0.17608786,0.054094482,0.3238433,0.03294282,-0.067517914,0.11032844,-0.18620537,0.3195288,-0.03356949,-0.266512,-0.2928421,-0.123822905,-0.20541966,-0.4261022,0.2050622,0.06419469,0.29550225,0.0021407672,0.25927925,-0.42661002,0.36534193,-0.006621675,0.2294531,-0.2667924,0.0045725214,0.26845244,-0.13197584,-0.12078669,-0.3662515,0.11300093,-0.18820743,0.28624243,-0.754138,-0.86841875,0.081046455,0.44714177,-0.037859645,0.1012797,0.19434029,-0.10747296,0.15912929,0.26564312,0.21626349,0.16119745,0.12224888,0.2197091,-0.33687267,0.044351432,-0.2825661,-0.58259404,0.068545386,-0.30014345,0.30940288,-0.13082181,0.07143675,0.024293652,0.05798876,0.06486474,-0.09258547,0.01190659,0.17198943,-0.24884866,0.4016365,-0.60212,-0.038471263,-0.15306735,-0.20088677,0.09782674,-0.17080867,-0.11788225,0.30155733,-0.052313235,0.09789977,-0.17718421,-0.054640085,-0.52737355,0.2866408,-0.4271454,-0.1599114,-0.089618556,-0.086973816,-0.010464516,0.04327147,0.2674678,0.39544043,-0.5312264,-0.3813016,-0.33529535,0.31982684,-0.09691382,0.39632964,-0.12904356,-0.32395896,-0.17647539,-0.42818454,0.3609153,-0.30446556,0.020789588,0.38887486,0.26462832,-0.021404142,-0.09839123,-0.38718072,-0.47225168,-0.55270183,0.22809024,-0.7708556,0.28719366,0.08090571,0.33230314,0.09252093,-0.11668991,-0.4037656,-0.03737747,0.07986038,-0.030458266,0.47845224,0.59844667,0.15161423,0.7051547,0.58081347,0.017190466,-0.15357266,-0.057147574,-0.0204845,0.19339879,-0.0658965,-0.2740509,-0.14667772,-0.09556609,-0.40340808,0.021661548,0.11604843,-0.31932035,0.25693837,-0.17517239,0.48787203,-0.390784,0.53766924,-0.25111482,0.1965087,-0.07731258,0.25791726,-0.3365035,0.32422718,-0.28151026,-0.080714524,-0.093016416,-0.545538,0.13858402,-0.3121582,0.639892,-0.09419796,0.43998945,0.66879064,-0.08940401,0.03533927,-0.60139513,-0.0054421164,-0.074944355,0.3238512,0.052888136,0.67822725,-0.025229989,-1.0600551,-0.32945496,0.012682192,0.39022887,-0.12527557,0.0904448,0.59860617,-0.17920904,-0.13781928,0.20268749,0.2915499,0.221352,-0.18525666,-0.37726566,-0.3908845,0.0038669426,-0.33263272,0.33183768,-0.34268436,0.08949378,-0.00879587,0.25627843,-0.084630676,-0.18151708,0.49490285,0.4716942,-0.60564697,-0.23589115,-0.34503385,0.058707,-0.13278134,-0.3332725,-0.24079697,0.4958602,0.48090386,-0.22448303,0.5034564,0.10124066,0.3056865,0.045247063,0.09494656,-0.11730614,0.23621641,0.15956675,-0.07157125,-0.1513652,-0.017360428,0.061727166,0.17975532,-0.101801045,0.4708369,0.2080277,0.5400085,-0.19666259,-0.70935655,-0.030831208,-0.17690301,-0.069715284,-0.7106242,0.010864823,-0.46421948,0.3217514,-0.08505717,0.06301366,0.019497046,0.32051945,0.23612589,-0.6214446,0.0028428894,-0.18481405,0.18015303,0.06580558,0.10681144,-0.2517769,0.121764116,0.6319354,-0.3889524,0.65217644,0.11541327,0.22014399,0.014673186,-0.4646099,-0.27932158,-0.5196286,-0.3626664,-0.4846021,0.6510515,0.22045179,-0.24322033,-0.045893077,0.66372293,-0.31810376,0.079911925,-0.05447365,0.18612356,0.47143844,-0.09828412,0.27318642,0.07517097,-0.39450267,-0.35417798,0.4853815,0.14421722,-0.52124304,0.06038781,-0.0039997604,0.47297177,0.42868784,0.21728617,0.19937874,0.020031126,0.08667638,0.24244733,-0.03346436,-0.10983492,-0.23040845,0.3768072,0.049051702,-0.025013337,-0.35636744,0.30155078,-0.02928707,-0.73689365,-0.043903667,-0.31476566,0.24012291,-0.023500377,-0.37867835,-0.45373368,-0.26917282,0.24963678,0.11879363,0.5555415,-0.19443955,0.082134895,-0.042345792,0.77031666,0.4593278,-0.32318634,-0.0354479,-0.47549114,-0.26184994,-0.041806336,-0.007031253,-0.20798004,-0.5538208,0.077070706,0.42521897,-0.06935885,0.31893852,0.004887244,-0.31121984,-0.25569674,-0.5602371,-0.5858337,0.3036461,0.3692071,-0.4213953,-0.33298182,0.26124534,0.2829841,-0.54563504,-0.55114543,-0.07320429,-0.16938162,-0.27595738,-0.29347816,-0.073764145,-0.03489526,-0.5242917,0.40100273,0.32752442,0.21982746,0.19734341,0.08568237,0.18496479,0.1632353,-0.18346532,0.88061756,0.055794116,-0.38010058,0.21096228,0.10665923,0.0066800416,0.41673794,-0.73426336,0.2098362,0.115385704,-0.34677747,0.0859246,-0.1206685,-0.5027618,0.14515859,0.2568313,0.15071656,-1.1759812,0.40949643,0.11367616,0.1291914,-0.5122137,-0.13807394,-0.3475769,0.09577051,-0.36450168,0.21988605,0.40772125,0.3087878,-0.14655106,-0.25361714,0.38072014,0.08938405,0.11519902,0.18823141,-0.02188631,0.064115696,0.08892679,0.24486516,0.32130703,0.27023205,0.08700567,0.21358031,0.18154997,0.27021122,-0.29483542,0.26043898,-0.09383226,-0.05836101,0.39964688,-0.29797497,0.7246408,0.4553078,0.04903851,0.051168907,0.38325033,0.2991834,-0.07160352,-0.14847769,0.022670588,0.04976046,-0.39712405,0.34480777,0.7448139,-0.2488906,0.50912803,-0.3082627,-0.3580606,0.1421062,0.49260664,0.05170907,0.65184855,-0.21029718,-0.4071437,0.0898413,0.07701059,-0.20401715,-0.17126983,0.27533358,0.1200858,0.0015501896,0.25869694,-0.21022804,0.67834514,0.102350734,-0.056565125,-0.13181877,0.028983459,0.38458237,-0.57071805,0.07619605,-0.113807224,-0.3034806,0.084831096,-0.08592251,-0.06650519,-0.28503522,-0.88193774,-0.109695606,0.3182243,-0.10347536,0.09485412,0.04683572,-0.53898656,0.22464395,-0.55322987,-0.60809803,-0.27572697,-0.53698987,0.32495335,0.14851712,0.14341785,-0.66887736,0.09595265,-0.23074244,-0.63568246,-0.086544536,0.20407866,0.079872526,0.39448598,0.13902232,0.3099095,-0.17789663,0.09550816,-0.33066636,-0.69118303,0.012504398,-0.090497285,-0.20280737,0.4128919,-0.5969751,0.060244128,0.48480508,0.37593463,-0.02141838,0.1512516,0.13015662,-0.004233346,-0.2686148,-0.7810778,-0.36058298,-0.07332384,0.45719287,0.7498266,0.6016044,0.2495085,0.20351785,-0.09967241,-0.1911913,-0.14815937,-0.08904498,-0.06563821,0.18310875,0.12673284,0.17923202,0.18139613,-0.41631803,0.33041152,0.024360368,-0.23400927,0.30980122,0.04815187,-0.081128426,-0.08213598,-0.2595462,0.11365095,0.10276943,-0.42268333,-0.36817253,-0.37053493,-0.26123562,-0.24529071,0.054791514,-0.42559072,0.037731793,0.14593016,-0.2059155,-0.28976974,-0.3946134,-0.203813,0.3235331,-0.22155643,-0.26254407,0.11464405,-0.19916254,0.07823726,-0.1370082,-0.13938239,-0.45132956,0.33007458,0.09391748,0.62165785,0.31221637,0.079218425,-0.22891277,-0.65099645,-0.48379055,-0.09270737,0.1129409,0.40057084,-0.58396906,0.36214873,-0.04226267,-0.15142854,-0.10409648,0.09070375,-0.213196,-0.30072173,-0.21134168,-0.12965707,0.12380006,0.035293277,0.5162718,-0.30334386,-0.19014303,0.30097973,0.20365977,-0.030325808,0.032305427,0.057857186,0.21874869,-0.15597978,-0.50115746,-0.19596027,0.19135517,-0.15294038,-0.30033287,-0.017733848,0.08113031,-0.40513873,-0.043268178,-0.18101424,0.1950962,-0.18156779,-0.11469201,-0.037430752,0.33190075,0.110914804,-0.08043321,-0.35107005,0.004834783,-0.09986344,-0.66688603,-0.2878123,-0.6860848,-0.027593164,0.018862702,0.2751353,0.056727573,0.074746914,-0.21473177,-0.21990211,0.44391313,0.07673383,-0.103317104,-0.5451439,1.021773,0.07308608,0.13171862,-0.10998876,0.056968715,0.020358978,0.045632165,0.4291167,0.20325494,0.14861453,-0.36223122,-0.33989933,-0.042730276,-0.5275498,-0.26011983,0.13451631,-0.039177515,-0.015380916,0.18384624,-0.06911338,-0.34366238,0.16401842,-0.010205537,0.03172809,-0.43470815,0.108170725,0.24691206,-0.24256785,0.483268,-0.51697314,-0.34272182,0.037705693,0.61187094,0.47044334,0.2672027,0.2668488,0.010592503,-0.20277084,-0.34393588,0.03134161,0.01387331,-0.3688896,0.19684868,-0.26178184,-0.54766154,-0.20030345,-0.35102117,0.61621827,-0.5015949,-0.07573383,-0.23761278,-0.035394162,-0.12032392,-0.04112095,0.31720623,0.24458778,0.69774204,0.15817581,-0.09424282,-0.04310097,-0.13674657,-0.0011457434,0.014374576,-0.352488,-0.1755252,0.03085318,-0.604968,-0.15609209,0.012510001,0.023535063,-0.18263523,-0.51225036,-0.094379276,-0.059596356,-0.007158158,-0.17079185,-0.47513327,-0.24347699,0.46057686,-0.4144992,-0.15660077,-0.17920907,-0.441197,0.67675394,-0.3447444,-0.19754325,-0.006106394,0.8493388,0.04642744,0.024956686,-0.072447754,-0.11427158,-0.10286238,-0.2450764,-0.44684008,-0.019158995,0.1601519,0.17197506,0.37707922,-0.06305801,-0.28997698,0.08416658,-0.25342932,-0.31046352,-0.011120755,0.0073091257,-0.30689642,0.30407894,-0.68427104,-0.030486202,-0.06701746,-0.037843764,0.1519718,0.11276382,-0.04561192,0.64033204,-0.1092409,0.3227462,12.841777,0.48632777,-0.17940228,0.46857616,0.5109132,-0.007046109,0.40413496,-0.51963836,0.1891501,0.4574896,-0.08761474,-0.25004682,0.4461247,-0.30762932,0.11886358,-0.45144913,-0.008663249,0.1332084,0.311982,-0.22427715,0.09112379,0.094777495,-0.16754699,-0.11132622,-0.0020078768,-0.07316134,0.20615663,-0.026927106,0.19503915,0.14715208,0.21682642,-0.24792095,0.16089176,-0.1686731,0.052262675,0.20947276,0.0904079,0.07127925,0.51127535,0.13848273,-0.47070214,-0.33667353,-0.04523472,0.29210693,0.0778249,0.02184085,0.43188182,0.37379178,0.103465654,-0.31634346,0.39167878,0.21404852,-0.085998,0.6358497,-0.06337438,0.30590263,0.6538395,0.3722117,0.019442728,-0.2253008,-0.22111137,-0.19340308,-0.01111916,-0.27456987,0.567897,-0.029867493,0.2313575,0.21026339,-0.40133366,0.10998234,0.44327614,0.047508556,0.41793382,0.15936258,0.024847263,-0.12266245,-0.57187796,-0.08609062,0.11017203,0.5183507,0.15337823,-0.3676953,0.34129038,-0.2629871,-0.071963124,-0.57435197,0.23101564,0.2331726,0.20282872,-0.021568835,-0.07311217,-0.01172993,0.02286504,0.00032158382,-0.0099995015,0.35665688
communicative,-0.033293586,-0.059317555,0.18630905,0.20184928,-0.13220175,-0.028234834,-0.21820436,0.26208353,0.066768825,-0.57400244,0.26060936,-0.17594135,0.17898725,0.24670589,0.16034509,0.13023536,0.046109308,0.16615018,0.0060394,0.004508683,-0.060578156,0.648368,0.2210354,-0.0422432,0.38660952,0.20581748,-0.2540733,-0.33724093,-0.055770744,-0.16434716,-0.44074443,-0.35063848,0.21098967,-0.14083558,0.12870048,-0.18404214,-0.41487196,-0.38668597,0.040560972,-0.38530442,-0.32369468,-0.4595684,0.03635628,-0.01882775,-0.13779621,-0.034738377,0.75430083,0.51153886,-0.39033273,0.27000487,0.102263816,-0.3012881,-0.16212405,-0.3163202,0.05781753,-0.17811431,0.3343649,-0.36904287,0.1263564,0.11436499,-0.011719783,-0.240924,0.18858702,0.14581066,0.2554393,0.18137765,0.026500875,-0.0921788,-0.13032013,0.15504783,-0.059588928,-0.091967374,-0.1412233,-0.048724934,0.16070485,-0.140108,-0.0489488,0.43154147,0.04316874,-0.054947216,-0.37322986,0.0464184,0.3223391,-0.53900963,-0.016850473,-0.37781084,-0.3640945,0.30629054,-0.057674754,0.16752641,0.21221818,0.007442113,0.10735502,0.26492518,-0.03307328,0.3887334,-0.07021304,0.40925458,0.271621,0.20308991,0.09781879,0.3092644,-0.03596771,-0.39632106,-0.414361,-0.17333722,0.04471414,-0.56758386,-0.21069068,-0.060471084,0.18908703,-0.23109894,-0.33781305,-0.17809935,-0.35707664,-0.61225647,0.1272311,-0.1712016,-0.40238622,0.09895017,-0.15647142,-0.21506001,0.3689742,0.09780798,0.07267005,0.06699919,0.033600062,-0.04937196,0.41706637,0.12182188,0.5212388,-0.21687992,0.04883483,-0.16557504,0.20409648,-0.53626466,-0.18896298,0.24762283,0.19619651,0.27819875,-0.10418964,-0.105327316,0.12484365,-0.076189764,0.21320648,-0.14322081,-0.1260093,0.1488753,0.2799341,0.18927161,0.084338605,-0.17961694,-0.45291138,0.25413695,-0.13449693,0.20850794,0.1394953,-0.364429,-0.2559292,0.19027708,-0.015650753,-0.2930128,0.077727966,-0.4173143,-0.008558859,-0.10474652,-0.06517,0.32879892,-0.18073756,0.41326392,-0.56312656,0.8718539,-0.062049802,-0.011225053,0.18259202,0.2616441,0.15448827,-0.413749,-0.11208024,0.31369627,-0.3762615,0.1693693,0.31545138,0.16752778,0.09623253,-0.11104649,-0.026785841,0.26848784,-0.36522916,0.06714386,-0.1213487,0.12098133,0.3089176,0.07324712,0.0872024,0.49112406,-0.20751886,-0.12313116,0.5257235,0.08814189,-0.21619427,-0.54748863,-0.6432682,0.072997786,0.099055946,-0.07405618,-0.04526445,0.4305222,-0.16147327,-0.22609848,0.013605185,-0.31431445,-0.0056281835,-0.52818984,0.7250307,0.52054566,-0.123090215,0.53145677,0.08337126,0.14615975,-0.04722971,-0.0034356937,-0.26506874,-0.056479547,-0.11545149,-0.5636865,0.3688848,0.6539723,0.32285863,0.13735107,-0.27623728,-0.2787151,0.32885516,0.08384036,-0.022235535,-0.22514021,-0.21210055,-0.20135218,0.096912645,-0.12917225,-0.37394217,0.14908351,-0.352177,0.35245597,0.15204434,-0.18002434,-0.2559099,0.12956087,-0.404241,0.060386136,0.12100956,0.3253055,0.007182583,-0.022632273,-0.20647514,-0.016431013,-0.34319648,-0.27265123,0.34391937,0.11561346,0.12478736,-0.3370413,-0.18502961,0.08259858,0.31497893,-0.87772226,0.42099664,0.19172116,-0.050751746,0.13618933,-0.3024564,-0.44032183,0.08855774,-0.25310996,0.4275643,-0.3982936,-0.29704657,-0.26141992,0.011237014,0.19923408,-0.30198708,0.14771552,0.17211391,0.42864993,-0.1791498,-0.11562711,0.13439606,-0.5398167,0.06586414,-0.4069041,0.023008274,-0.20035167,-0.26509508,0.02464407,-0.0741243,-0.18982653,0.19413964,0.16369127,-0.5676704,0.026423186,-0.07626119,0.46400556,-0.2752375,-0.25309137,0.10356022,0.20921896,0.011241946,-0.07231224,-0.20435216,0.2433951,-0.07523865,0.24721538,0.24297981,-0.009743282,0.049996648,-0.36194992,-0.49485335,0.11334193,-0.4061631,0.34394762,-0.045803685,-0.56446284,0.19005807,0.2051431,-0.06409139,0.40726385,-0.86326605,0.42463914,0.6213135,0.22113506,0.27506828,0.21316127,0.75204116,0.27691433,-0.24160612,-0.18266131,-0.36617994,-0.22478507,-0.3768268,-0.48168316,-0.43356338,-0.23864974,-0.23780526,0.1314197,0.33668315,-0.40120876,-0.39178476,0.048524454,-0.16141886,-0.23918898,0.33453354,0.2041847,-0.05655782,-0.2471159,0.44912097,-0.05304715,0.5917514,0.55121696,0.2881002,-0.07033151,-0.0932164,0.28354707,-0.38002303,0.6005587,-0.101689376,0.4274267,0.036516614,-0.27547053,-0.11584372,-0.32105783,-0.08288916,-0.29407755,-0.087185174,0.2948214,0.063536525,-0.13162293,-0.6320304,0.32075265,-0.08060459,0.5865126,-0.1855536,0.05941752,0.07165888,0.43959212,-0.21787138,0.25144127,0.26098594,0.28168035,-0.49781767,-0.4134824,-0.5344804,-0.06673555,0.025650864,0.35550725,0.14643538,-0.17634678,0.10180957,-0.5349702,-0.31393299,-0.16028027,0.2791796,0.30192268,-0.11536857,-0.37782156,0.084242284,-0.3181684,-0.32768428,0.4048402,-0.530269,0.17051692,-0.11809463,-0.13113895,0.3861444,-0.01945545,0.078335315,0.30478323,0.12400922,0.18242233,-0.2475354,-0.013327427,-0.034369066,-0.18709666,0.041610796,-0.32028285,-0.07767261,0.17230506,0.0059355753,0.124172695,0.23024188,-0.04632749,-0.0880464,-0.14473017,-0.24074769,0.36217546,-0.33740428,0.11420354,-0.00087294105,0.27565134,-0.35125306,-0.30661157,-0.30446947,0.534319,-0.04101331,0.21507935,0.4326432,-0.16995263,0.051745415,-0.4908276,0.32420674,-0.18288456,0.2887847,-0.0105535565,-0.53344834,0.38815728,-0.29346654,-0.49952647,-0.24632674,-0.49013686,-0.21994258,-0.36509863,0.14387058,-0.33181706,-0.05578964,0.12822586,-0.16184048,0.5035072,0.47452497,-0.028464658,0.03194088,0.33506513,-0.18221955,-0.111333795,0.102032155,0.27161244,0.26553217,0.23182142,-0.54726815,0.08594484,0.10199643,-0.6191408,0.132682,0.5940433,-0.35709608,0.21815367,-0.354875,0.048224326,-0.25315413,-0.004698018,0.6477066,-0.15197164,0.21648137,0.04543278,0.46387863,0.6170686,-0.13279781,0.07203515,-0.062018875,-0.4577491,-0.5938978,-0.6109359,0.08629673,0.09234939,-0.08272214,-0.020852773,-0.46031716,-0.4554315,0.27485093,-0.021838954,-0.21010156,-0.34555253,0.4347174,-0.16829215,0.33722723,-0.04316801,-0.4725114,0.021407807,-0.39671388,0.5135736,0.12464267,-0.035128973,-0.3714644,-0.004766853,-0.015976114,0.058051113,-0.14651074,0.31614527,-0.19338073,0.059534673,-0.3170097,-0.2934138,-0.6724381,-0.17593592,0.021868551,-0.12202623,-0.24216866,0.1744353,0.041846056,-0.36641428,-0.41150534,0.31901452,-0.015681894,0.08350731,0.09478513,0.09056589,-0.4879686,-0.21058463,0.13487962,0.3684202,-0.044453893,-0.14832206,-0.08455666,-0.29657987,-0.08662138,0.19579393,0.3401864,0.1446079,0.36771998,0.2102973,0.059611898,-0.18954797,0.29389474,-0.49296895,0.43280378,0.35777903,-0.03959247,-0.16644454,0.4795214,-0.47791258,0.25073314,0.48493776,0.20587702,-0.297515,0.017776283,0.04598637,0.121172875,-0.30758387,-0.06994756,0.04120207,-0.03137737,0.07074455,0.5777772,0.017607922,-0.041037112,0.30677187,-0.0025692545,0.092385925,0.21011542,-0.06046899,0.3341367,0.22953343,0.12627448,0.41096604,0.2830174,0.2050128,0.06459974,-0.040568672,0.16535649,0.38384947,-0.21278594,-0.19053698,-0.016766509,0.5934841,-0.3727075,-0.016210314,0.3591371,-0.10404715,0.37334397,-0.015375685,-0.04544586,-0.06427647,-0.21526112,-0.026056714,0.12933464,0.49326006,-0.05045961,0.021637296,-0.052800667,0.28057787,-0.21236265,-0.2836108,-0.31781027,-0.10154945,-0.089954965,0.18604688,0.0068371133,-0.12514652,-0.55349034,0.6512273,0.00014658645,-0.45110318,0.07119558,-0.0363578,-0.24268103,-0.07547668,0.16151527,-0.0343885,-0.069944374,0.4952141,0.20890231,0.286283,-0.5311064,-0.4878274,0.15243252,0.0070921206,-0.11086301,-0.14515752,-0.06363275,-0.2805947,-0.28035507,-0.044365693,-0.44140306,-0.34670496,0.252524,0.09687883,-0.51629806,-0.10153211,-0.28893283,0.27920318,0.17146486,-0.46336564,0.13517241,-0.33434722,-0.20297603,0.41252103,0.2036249,0.1182045,-0.68363124,0.029229162,-0.31437725,-0.27059197,-0.09034044,0.16647913,0.014129222,0.18199293,0.19788004,-0.005093854,0.42390773,-0.086862646,-0.5263645,-0.05557917,0.08667722,0.10028815,0.23367767,0.4506078,-0.034630645,0.065008216,0.041766137,0.061740324,0.17739253,-0.15204397,-0.09346801,0.37204185,0.1874461,-0.39829692,0.11431351,0.21551217,0.36903486,0.15618093,0.14753641,0.18138295,1.0042892,-0.31188628,-0.13590683,0.30665135,0.056922916,-0.16004236,0.17314287,0.16415927,0.002503806,0.2828918,-0.5166665,0.63847566,-0.3050445,-0.33090833,-0.5060669,-0.38006505,-0.23641096,-0.28004524,-0.077803686,-0.5324058,0.5546239,-0.08887085,-0.006788645,0.059991416,0.008964446,-0.037565485,-0.13495173,0.050818514,0.3473048,-0.12735628,-0.24962695,-0.4029545,0.39735708,0.022539137,-0.0032116303,0.023329696,-0.21970803,0.20844097,-0.42445168,-0.004422903,-0.0034016215,-0.023952357,-0.35011175,0.37160623,0.008112882,0.2460768,-0.35492703,0.18169047,-0.28222832,0.08660268,-0.27793422,-0.06330021,0.38128486,-0.04456726,-0.6525741,-0.32728848,0.22433108,-0.23896728,0.0251353,-0.04429524,0.50761044,-0.08393591,-0.3930571,0.14085114,-0.14174898,0.43978,0.0010200009,-0.070832156,0.2775174,-0.17729731,0.1362967,-0.21651365,-0.893531,0.7659158,-0.0018351363,0.010506898,-0.36243424,0.092653625,-0.24976496,-0.09216831,-0.2473719,0.07354509,-0.13668899,-0.008411064,0.18709993,0.1524246,0.18288994,-0.26096585,0.26335326,-0.07280471,0.08149293,-0.48129544,-0.082085416,-0.6341251,-0.0022228628,0.51595074,-0.3605121,-0.1402274,-0.7691613,-0.29872596,0.19670688,0.18726443,0.071072936,0.19697875,-0.46367213,-0.27533996,-0.16404255,0.24105018,0.012057401,-0.5348431,-0.33472073,-0.012713298,-0.21258539,-0.18918352,0.10799054,-0.5114842,0.076811045,0.28622025,0.20779026,0.07921337,-0.66112953,-0.44232795,-0.00537373,0.2217624,-0.2325355,-0.14524524,-0.017561898,0.43895236,0.28918096,-0.07280457,-0.003012073,0.0015652754,-0.039442148,-0.39438975,-0.317516,0.1758052,0.387717,0.1625944,0.07044405,-0.31001064,-0.2924511,-0.21084295,0.20457081,-0.09844612,-0.056447495,0.18948685,-0.24997926,-0.27248225,-0.3458549,0.35924804,0.006479354,-0.17266141,0.2348687,0.1770942,-0.4583545,-0.22070497,-0.57644075,0.6670354,-0.30466953,-0.021359831,-0.1642958,0.09530846,0.5679056,-0.14427404,0.18302788,0.21584757,0.35541418,-0.18213253,0.065621145,-0.15979868,-0.2026788,0.0990353,-0.10346142,-0.32128325,-0.28607878,0.14804865,-0.2194389,-0.08949084,0.26262832,0.22877677,-0.21754514,-0.15622938,-0.09871728,0.1233461,-0.053221885,-0.2975291,-0.23819508,-0.44025886,0.113797225,-0.35826004,-0.13978289,-0.15050001,-0.064680524,0.18313849,-0.8699438,0.011578582,0.21088804,0.71708417,0.46437407,-0.075498976,0.054914977,-0.4631965,-0.34765705,0.25824386,-0.23766063,0.11913849,-0.15607873,-0.15591829,-0.08943274,-0.1287534,-0.15964697,0.12212167,0.00866923,-0.42968914,-0.28019056,-0.15164834,-0.14949141,0.22445816,0.11809953,0.3814988,0.24373169,-0.38414598,-0.17783342,-0.21204476,-0.17591125,-0.1922946,-0.009823389,0.062833674,16.092222,0.057578232,0.25854358,0.10297263,0.05513532,-0.27552474,0.25882402,-0.19600765,0.4405081,0.4677632,0.19284272,-0.033958055,0.41875967,0.056029547,-0.17127706,0.013053951,0.32659736,0.078304864,0.2627004,0.13924058,0.3905693,0.19622166,0.083348095,0.014212407,0.1806984,0.25638673,-0.14300773,0.47663,-0.19868456,-0.45186839,0.12733425,-0.28219676,-0.23265718,-0.044222716,0.27974388,-0.23953001,-0.12249192,-0.23876697,0.369501,0.020631002,-0.35468066,-0.29545256,0.10982879,-0.11050848,-0.1822211,0.17117043,0.24919577,0.06145683,-0.0961977,0.10781606,0.0699445,-0.0028909754,-0.4540012,0.1778981,-0.28796503,0.20651996,0.16679142,0.20732589,0.3667507,-0.068254694,0.23546766,-0.3448373,-0.064516254,0.0710754,-0.07767413,0.3643947,-0.2607294,0.20732509,-0.2904531,-0.44815075,-0.20789696,0.0107372105,0.12289891,0.09036695,-0.3128484,-0.115046084,0.02817086,-0.16696267,0.32387444,0.1487353,0.35787687,-0.44821787,0.290892,0.13244073,-0.016914412,-0.054451812,-0.112437755,-0.41994205,0.06698841,-0.32193446,0.0054202788,-0.10226354,-0.27883175,-0.005321963,-0.22831888,0.66556054
discourteous,-0.13736022,-0.22340176,-0.102127716,-0.38550287,0.27692467,-0.024971092,-0.33817208,0.03856503,-0.12931485,-0.3518211,-0.36287668,-0.26207316,0.24071865,0.23894003,0.110691234,0.20730722,-0.11926055,-0.082810976,0.14851739,-0.04387463,-0.25842988,-0.1382567,0.29566628,0.10314667,0.5864445,-0.20454657,-0.68554914,0.06694479,-0.030938396,-0.21271999,-0.10424264,0.033829205,0.011162737,-0.015342089,-0.35728046,0.16370347,-0.30858004,-0.12715776,0.2977601,-0.34612677,-0.28818685,-0.45353666,-0.33894184,-0.39886957,0.26806265,-0.017701987,0.74955136,0.2762305,0.19407542,-0.17060554,-0.11567346,-0.45382977,-0.29959399,-0.36352223,0.03721035,0.0534484,0.073182255,-0.15092407,0.056239415,0.21559282,0.058432233,-0.12100742,-0.27347594,0.18859419,-0.107209906,-0.560846,-0.26586157,-0.36802799,0.18173869,0.11460519,0.19484664,0.08531264,-0.36194867,-0.013597384,-0.18405496,-0.06525511,0.09902935,0.43809447,0.39310065,0.25877663,-0.40973407,0.26683602,-0.17183845,-0.0033685765,0.40364367,-0.31193328,-0.36098102,0.20807472,0.05970154,-0.09177066,-0.027066916,-0.34816152,0.1318731,0.27940077,-0.34005338,-0.11154226,0.021935208,0.41081128,0.20700824,0.20170209,-0.18491216,0.40616497,-0.16319354,-0.44633156,-0.21468338,-0.48371926,0.40835652,-0.07072766,-0.13725337,-0.02460115,0.0869935,-0.14477754,-0.5125147,-0.11224939,-0.17303315,-0.43602005,0.2665489,-0.34457034,-0.5325899,0.25660744,-0.1170634,0.14984868,0.16106889,-0.056465138,0.36227408,-0.15028149,-0.018042795,0.24239239,0.053707253,0.0060883947,-0.029339379,-0.14547518,0.13724172,-0.15043165,-0.21310885,-0.47645116,-0.14843215,0.020225083,-0.18926212,0.018099265,0.24153212,0.05039666,0.41233164,0.115636684,0.052518614,0.07558696,0.04245489,0.087461725,0.2053049,0.37480715,-0.095738195,0.004223025,0.11451665,0.29242474,-0.3726519,0.1292478,0.30330238,0.036691424,0.040866315,0.062627226,0.28593308,-0.34541607,0.01754792,-0.43871927,0.50023884,-0.08603325,-0.014628684,0.054358117,0.18133113,-0.0027054932,0.14506489,0.3749729,-0.1007964,0.051049184,0.101576135,-0.08478846,-0.23057882,-0.26340798,0.015368308,0.30137867,-0.422401,0.4694952,0.40643567,0.04091642,-0.18699698,0.0019395851,0.17941149,0.14734125,-0.40303192,0.088007845,0.20240495,0.11412797,0.34958118,0.18259943,0.23784807,0.52764666,-0.12610242,-0.023213968,0.288443,0.35692167,-0.02981162,-0.1417065,-0.58962005,0.124609195,0.057768963,0.009622066,0.06616293,-0.029396519,-0.13244492,-0.06803991,-0.3490904,0.04532103,0.057371806,-0.11708428,0.20824215,0.27885398,-0.27752855,0.147332,-0.17085585,-0.059637032,0.07833874,-0.13899685,-0.23388247,-0.23308077,0.048410483,-0.16610494,0.14374797,0.34237927,0.1499796,0.39881477,-0.07705588,-0.1659343,-0.025673186,0.08906122,0.05026741,-0.10191144,0.23966646,0.16522673,-0.00037485996,-0.0911086,-0.08101828,0.38219666,0.003273794,0.4266955,0.11277958,-0.25913426,-0.12688434,0.087218,-0.40187025,-0.20902863,0.1857685,-0.30191976,0.22558033,-0.087106526,0.008273609,0.12514588,0.0861713,0.16368291,-0.20267197,0.11140134,-0.17321399,0.038226448,-0.18186292,0.025642987,0.6021658,-0.10516071,0.44090968,-0.12039014,0.006616241,0.299434,0.087289706,0.006137982,-0.1688125,0.114853464,0.059354264,-0.24850444,-0.3425577,-0.10157354,-0.18357247,-0.009407334,0.15642837,-0.3235939,0.62010026,-0.05469504,-0.05063626,-0.0015146527,-0.018133149,-0.38740742,-0.048242282,-0.5561459,-0.14231724,-0.2022099,-0.017376732,0.02665092,-0.37382498,-0.2681077,-0.2679191,-0.15694909,-0.21407226,0.11625872,-0.033139464,0.34385204,0.18731599,-0.1885806,0.14469905,0.049383514,-0.5108019,0.20738113,-0.14191276,0.21437709,0.26270372,0.33846116,0.044976726,0.06496484,-0.2085506,-0.048396446,-0.22015294,-0.22141631,-0.4621616,0.06812908,0.25363073,0.11222875,-0.20102918,0.17855968,-0.15874933,0.24308081,-0.4468162,0.16703835,0.60964334,0.46572128,0.06722936,0.37477627,0.52307177,0.18194883,-0.056489,-0.31754136,0.0692447,0.38869375,-0.3240151,-0.10950975,-0.30688795,-0.036260128,-0.31091624,-0.24031767,0.0027714274,-0.18179835,-0.2688602,-0.27767104,0.26841876,0.20117629,0.45878935,-0.24736765,-0.08009659,-0.08522331,0.27432328,-0.23680767,0.2195015,-0.09962897,0.09076904,0.63359517,-0.03768565,0.007896238,-0.17490295,0.35048386,-0.04870214,0.27862912,0.1997961,-0.14166799,0.09116494,0.048003938,-0.06541805,0.03779258,-0.06970072,-0.17214212,0.45537573,-0.07979733,-0.2720615,0.07556536,-0.22354035,-0.055730265,0.0008382201,0.30518392,0.16382027,-0.14178543,-0.47342324,-0.06418431,0.10265416,0.45590448,-0.08011375,0.1515114,-0.51956,0.004044583,-0.44890028,0.4825678,-0.06724427,-0.21695845,0.101600215,-0.3579372,-0.17411378,0.19107482,0.10148845,0.044269495,-0.10073866,0.1745678,-0.40583032,0.12908855,-0.12853332,-0.13985667,-0.062991664,0.26035047,0.31203574,-0.11250889,0.13362914,0.146909,0.3779958,0.32126218,-0.09870786,0.12971358,-0.19462055,-0.13100281,-0.25679508,-0.3786558,0.0060029374,0.05645638,0.33804482,0.14934091,-0.07238127,0.15137544,0.22960106,0.042824525,-0.44793934,-0.14018492,-0.42418805,0.10424193,-0.09965771,0.24931176,-0.39666417,0.076433696,-0.14245495,0.1005222,-0.35183218,0.10608486,0.0716771,-0.39740625,0.12176956,-0.24468248,0.33216187,-0.08094458,0.40102482,-0.09846606,0.026660804,0.16759029,-0.29668576,0.40592045,0.1614512,-0.004721743,-0.19521406,0.16917898,0.082138196,-0.002279339,0.017933886,-0.22372583,0.26037222,-0.025853181,-0.13328034,0.08962294,0.47863483,-0.16480064,-0.06578263,0.33786893,-0.013583007,0.17386423,-0.58753335,0.011113037,-0.05318927,-0.071335986,-0.19250034,0.081118934,0.062982224,-0.45397925,0.06577333,0.17690402,-0.22215977,0.11085949,0.039976448,-0.08671779,-0.3265998,-0.1076061,0.36560255,-0.056499053,-0.024700856,-0.11927353,0.06300726,-0.053773027,-0.20973325,-0.239411,-0.2932241,-0.1462107,-0.5269071,-0.2877025,0.12522145,0.4263858,0.26453847,-0.15756847,-0.11986246,-0.37898016,0.15680233,-0.028733667,0.26588076,-0.4105144,-0.2635296,0.099911995,0.28908238,-0.0486022,-0.005542082,-0.034034558,0.10419549,0.14195314,-0.06094981,0.15844667,-0.2951321,0.37859008,0.20799749,-0.13943136,0.11055926,0.3258578,-0.17244995,-0.18559542,-0.07218882,0.04794125,-0.033793233,-0.22471564,0.31344107,-0.0913403,0.13120462,0.023126898,0.0063463254,-0.25288367,-0.24782117,0.2732778,0.105061494,0.1398346,-0.20251104,-0.17291811,-0.38027766,-0.44565496,0.287478,0.13179556,0.10217514,-0.026397813,0.033717867,0.0955199,0.39467794,0.30976325,0.32440645,0.4920494,-0.053280074,0.0850915,-0.18833971,-0.14783919,0.010133872,-0.6534153,0.2373329,0.3078713,-0.18366706,0.07748406,0.24070804,0.021070298,-0.14981416,-0.0758063,0.19964655,-0.62982124,0.16084534,-0.10082903,-0.041805144,-0.121551216,-0.06580861,-0.08671276,-0.32001457,-0.4043653,0.06879708,0.39487964,0.41829252,0.17202261,-0.2619998,0.21394193,-0.020130733,-0.16496947,0.26987785,0.31031665,-0.5539085,-0.125181,-0.050492488,0.12039076,0.20892091,0.24544744,0.12341752,0.23084798,-0.06955644,0.12157394,0.26118377,-0.2989947,-0.23356998,0.09508878,0.3496149,-0.052908003,0.19408298,0.061631143,-0.018711545,-0.051148552,0.13826813,-0.008206842,-0.06908056,-0.10063146,0.1498447,-0.13531466,-0.16330242,0.41754836,0.11762069,0.2973607,0.022070013,-0.22349194,-0.078357525,0.1076919,0.20875819,0.4141298,0.02133823,0.0033023655,0.2960667,-0.13035838,-0.13115375,0.19792801,-0.59484446,-0.24941778,-0.20543449,0.16617456,0.037113868,0.5560709,0.09380178,0.25060427,-0.21046035,0.049142923,0.008641947,-0.32891616,-0.2577881,-0.35612312,0.0634908,-0.08639484,-0.09218444,-0.06448658,-0.1321576,-0.78692514,0.3331098,-0.16618405,-0.12102745,-0.102367125,0.089031726,-0.32157093,0.061468683,-0.4989051,0.034078967,-0.3510583,-0.07949917,-0.034752883,-0.16208614,0.16504708,-0.24569984,0.26675728,-0.08921066,-0.13913637,-0.018352803,0.20650534,0.13922477,0.188751,0.14053477,0.24672961,0.09706576,0.2593897,-0.114792705,-0.40519157,0.5222461,-0.10486206,0.2905964,0.20286758,0.15718743,-0.07441641,-0.0022326722,0.021624198,-0.24097678,-0.16151156,-0.20462029,0.023605712,0.4638856,-0.34116992,-0.013059549,-0.026898677,0.032235138,-0.22040863,0.1425659,0.40220585,0.332928,-0.25385097,-0.19068561,-0.24009836,-0.3469175,-0.23224704,0.29360482,0.1803165,-0.13403337,0.2963001,-0.058508772,0.31970876,-0.23944211,-0.26783508,-0.027855223,0.021239875,-0.16758908,-0.1628171,-0.058620125,-0.13546507,0.21004649,-0.20601638,-0.5741166,0.03575158,-0.33631557,-0.018438656,0.04071035,-0.52677405,0.2851145,0.403493,0.08664101,-0.30001488,0.089749604,-0.2860715,-0.12207077,-0.2817541,-0.25656483,0.04764973,-0.28176445,-0.15799594,0.0817337,-0.14279547,-0.13763833,-0.02171048,-0.36720452,-0.02118873,-0.12861997,-0.023270896,-0.4514965,0.02334967,-0.59274065,0.27011058,0.12619308,0.08398282,-0.4728449,0.0031341347,0.014341953,0.16338684,-0.3402891,0.04649489,0.16114834,-0.0786802,0.29339772,-0.035157476,0.029694194,-0.13489509,0.3073277,0.03700431,0.047173638,-0.017809745,0.29198343,-0.21632206,-0.16252908,-0.31613535,-0.035645016,-0.0015451949,-0.007576067,0.19168124,0.002019144,0.42363796,-0.17976232,0.14739051,0.25095865,-0.12972711,-0.07189802,-0.08995577,0.15241611,-0.12681739,0.19064556,-0.11362396,-0.026965583,-0.08899049,-0.2992282,0.033198915,-0.36614522,-0.13355449,0.023697194,0.02337402,-0.19481698,-0.16793105,-0.097328275,0.25801167,0.23209806,0.15959515,-0.026513863,-0.4371191,0.017645936,0.18174091,0.03566923,-0.879146,-0.10868895,-0.37264827,0.033988096,-0.09248587,0.018548857,-0.42380595,-0.22102526,0.025399733,-0.269905,0.03545179,-0.11937145,-0.20579958,-0.26183447,-0.2798824,-0.4401062,0.20284906,0.2994177,0.029381726,0.43921298,0.019143267,-0.13742973,-0.1689138,-0.22060378,-0.1315366,-0.5187854,-0.37271023,0.37054363,-0.12243728,0.30856115,-0.4029169,-0.08777822,-0.11487403,-0.20026171,0.40350834,0.101334356,0.123935685,-0.33412445,-0.038108245,0.23729098,-0.24862356,0.14119624,-0.4152522,-0.08069895,0.2577331,-0.44279218,-0.44795424,-0.1619043,0.24553415,0.24129853,0.042221706,0.08274348,0.19800264,0.08891347,0.040114053,0.15835035,-0.08336745,0.39663464,0.06691988,-0.01736788,-0.047449075,0.13075389,0.056852274,-0.17871702,-0.35704243,0.0910394,-0.06816471,-0.20324087,-0.07499876,0.26460046,0.078659706,-0.24989465,-0.22398248,-0.06307764,-0.22425158,0.18784782,-0.07882587,-0.47478142,-0.01997734,0.2351381,-0.4059662,-0.51187336,-0.10398748,0.18306051,-0.07338624,-0.29202625,0.23691022,-0.08624978,0.15710959,0.25483403,-0.22948976,0.19115466,-0.26380607,-0.4914557,0.03299541,-0.3776546,-0.27162305,-0.070045285,0.05531035,0.37794816,-0.32668,0.12147762,0.03920939,0.043980006,-0.4720633,0.11287613,-0.07573995,-0.034608483,0.117452405,-0.11764975,-0.361564,0.18967386,-0.02283854,0.059487987,0.1537134,-0.34975496,0.28595686,-0.100753844,-0.11042949,11.670652,-0.028213894,0.013048935,0.12473492,0.22477841,-0.28857142,0.30450362,0.007842338,0.056618184,0.22015154,-0.48866168,-0.23010346,0.2034287,-0.032935813,0.023385908,-0.21406527,0.13898839,-0.13725999,0.40464312,0.1443325,0.28989765,-0.23543707,0.024072863,-0.008890764,-0.07956527,-0.3994378,0.024966547,0.40121585,-0.20066726,-2.3494009e-05,0.2975512,0.25666225,-0.2571053,-0.16668853,-0.115513586,0.1164584,0.11281314,-0.11636265,0.40620494,0.19105351,-0.1552349,-0.32002878,0.1567722,0.07994826,0.047086757,-0.032079034,0.48662025,-0.0055768164,0.085583486,-0.14013937,0.472261,0.0005395018,-0.16122676,-0.018256884,-0.21805458,-0.14330806,0.44385332,0.25562993,0.068980046,0.16265355,-0.4321196,-0.37461647,-0.023773696,0.2331216,0.13224357,0.18124685,0.14532907,0.10663064,-0.11808387,-0.2618018,0.06144482,0.22880784,0.023342486,-0.18204084,0.21925199,0.15584473,-0.2223738,-0.29104894,0.16460697,0.42954308,0.28798696,-0.11700612,0.14736468,0.092830054,0.0892197,-0.14224516,0.099384464,0.12905332,-0.0137334345,-0.038879648,0.10823375,-0.23592015,-0.10546414,-0.0112704355,-0.111003384,0.19324109
cowardly,0.15183242,-0.18144958,-0.060864817,-0.18038079,0.28947556,-0.1742682,-0.29106072,0.07705191,-0.28514248,-0.55586296,-0.10680902,-0.37513313,0.18021114,0.061333466,0.08135399,0.32900771,-0.31628856,0.103738986,0.39598423,0.13854508,-0.09790768,-0.26394734,0.028111987,0.14459252,0.3928543,0.13680105,-0.515946,0.032652456,-0.00083141035,-0.022935603,-0.2793814,0.055863917,0.31184182,-0.17515667,-0.53125054,-0.06892997,-0.37707084,0.038821347,0.22748822,-0.42979693,-0.37357634,-0.35408297,-0.53385305,-0.4325613,0.14735273,-0.18999691,0.9159502,0.054604053,-0.14020985,-0.17897287,0.06670018,-0.43791726,-0.183034,-0.28716388,0.013619938,-0.015576213,-0.19224328,-0.14678222,0.2285598,0.0676824,0.26664048,-0.08422496,0.08614099,0.16005905,0.27536547,-0.40952703,-0.41219717,-0.49357218,0.07392664,0.26099163,-0.07212332,0.23268193,-0.38251543,0.13385323,-0.216708,0.005912399,0.2818654,0.7802092,0.027510542,0.16017802,-0.6720334,0.28914446,-0.23220173,-0.007818239,0.31934854,-0.19887722,-0.441604,0.2641925,-0.07945174,-0.027425317,0.2106617,-0.31752995,0.2525154,0.3007713,-0.5803501,-0.20796894,0.2742329,0.39312395,0.3664968,0.3183237,-0.09503809,0.46719998,0.004506225,-0.15061392,-0.09398295,-0.3480503,0.057892278,-0.04946831,-0.12327328,0.20957778,0.057032462,-0.26899177,-0.6091024,-0.14620996,0.28193957,-0.3257267,0.234261,-0.23307508,-0.6979978,0.043748498,-0.11824603,-0.060366645,0.21521798,-0.20323764,0.5137864,-0.15311457,0.09812339,0.32268807,0.16606739,-0.43022457,0.10652959,-0.47256026,-0.13595536,-0.3156766,-0.04444385,-0.2733905,-0.18726958,0.012908441,-0.20116907,0.27063844,0.20197769,-0.30794898,0.21564656,-0.035736207,0.24952945,-0.009873681,0.64192754,0.1990708,0.054291707,0.4694883,0.18678735,-0.05493977,0.08042143,0.31971306,-0.66297746,-0.20420925,0.2430874,0.15953319,-0.113297954,0.35848466,-0.3008209,-0.25096473,-0.07657648,-0.07282263,0.2969876,-0.29419744,0.094348714,0.18068299,0.19446838,-0.070581526,0.045189075,0.33478802,-0.15124081,0.26717126,0.01772814,-0.029453699,-0.3424218,-0.6340451,-0.02169092,0.11695812,-0.5124764,0.477946,0.31926385,-0.20529963,-0.1529403,0.031759985,0.014774864,0.23474689,-0.12643903,-0.016633442,0.17431259,0.29164663,0.32632947,0.043731242,0.050049037,0.35957164,-0.012547334,0.34114018,0.16834152,0.43835425,0.0776317,-0.4906783,-0.52986205,0.2991623,-0.1103646,0.25968128,-0.077656165,0.13597022,-0.15732151,-0.036272444,-0.22494927,-0.013615532,0.30942714,-0.02426983,0.6491591,0.304771,-0.6573141,0.37487614,-0.334019,0.3526909,0.3962391,-0.09877599,0.0068761497,-0.12593529,0.04189515,-0.08583833,0.16436043,0.5320318,0.28113,0.39996466,-0.22824359,-0.14260952,0.41309068,0.07528865,0.156649,-0.3141526,-0.08474636,-0.19003448,-0.11348806,-0.42606416,-0.017922211,0.21273081,-0.3094814,0.5391653,0.07393725,-0.3784546,-0.26993275,0.12508698,-0.32474855,0.19679724,0.44401574,-0.43546414,0.14410526,-0.12650657,0.30558124,-0.19869196,-0.010014596,0.03243338,-0.5378065,0.02689492,-0.14622135,-0.13264495,-0.44696513,-0.19584085,0.8729169,-0.304527,0.45293528,-0.30419585,0.118433334,0.1371813,-0.37083247,-0.10480139,-0.33874705,0.080919325,-0.00913116,-0.35556656,-0.23054647,-0.36505404,0.27452403,0.080336004,0.20150203,-0.0720208,0.69257236,-0.17943606,0.025223544,-0.19452913,-0.046999097,-0.32443762,-0.048857886,-0.5044895,-0.16289543,-0.09099179,0.16256969,-0.14881498,-0.5111342,-0.41369674,-0.15158863,-0.33262736,-0.31473655,-0.028186832,0.1057603,0.40523964,0.5210604,0.019206373,0.16484927,-0.18820095,-0.5577985,0.15258916,-0.123561606,0.46990582,0.29765406,0.5258133,-0.07950324,0.18176626,-0.4386859,-0.3081897,-0.22517323,0.0034067081,-0.93930614,0.23484175,0.35008582,0.07308985,-0.17827354,-0.036252238,-0.011592018,0.2758416,-0.41124105,0.16123341,0.623926,0.55860204,0.08410093,0.84933645,0.59713227,0.25653514,-0.3036967,-0.3795476,-0.102761455,0.25388077,-0.29362014,-0.2046346,-0.43696815,0.09898952,0.06496555,-0.23642008,0.16173415,-0.2063614,-0.57705283,-0.2021741,0.3473791,-0.00047926884,0.54501474,-0.14005937,-0.015955877,0.038822602,0.22822703,-0.085359275,0.40276945,0.18916053,0.33706975,0.21683492,0.12254573,-0.063336946,-0.36361405,0.5697627,-0.15501863,0.20290792,0.22172001,-0.1378724,0.22441798,-0.107550085,0.14368129,0.15059069,0.023054486,0.38041818,0.547559,0.05777134,-0.50810665,0.07524593,-0.15169297,0.11784647,-0.2519896,0.23447041,0.45102024,-0.085495725,-0.39945632,0.02279174,0.09087007,0.37903497,-0.13420928,0.039628353,-0.44690618,0.061196867,-0.31221378,0.6370055,-0.31822506,-0.37903294,-0.29581994,-0.46165422,-0.3098435,0.16704704,0.035149157,0.35730278,-0.35242936,-0.27107272,-0.38354602,0.12246644,-0.18477106,0.027402895,-0.03177485,0.18186824,0.30768996,0.19526848,0.31800884,-0.015597222,0.39465773,0.15353729,-0.20046884,0.15574598,-0.40320766,-0.49154812,-0.4675552,-0.3374257,0.11923341,0.013137778,0.51038325,0.23954977,-0.025740346,0.20226139,0.3585065,0.07894755,-0.41280237,-0.2918496,-0.26712498,0.35363105,-0.3354487,0.1977447,-0.64941317,0.20689255,-0.28388298,0.07843065,-0.5545252,0.006593929,0.16822536,-0.5824101,-0.07839426,-0.106729284,0.45463982,-0.06602653,0.17765841,-0.26008436,-0.032989934,0.50188947,-0.5306379,0.3603023,0.1731435,-0.009077367,-0.23076345,-0.052497197,0.16531187,-0.04310898,0.14061183,-0.3475783,0.36666393,0.1967485,-0.14400074,0.16688137,0.312404,-0.26974255,-0.30805287,0.35292,0.09113181,-0.2830852,-0.3172978,0.092661366,0.18983412,-0.07876147,-0.43904212,0.032307602,-0.1508207,-0.55356675,0.09653525,0.09329565,-0.10061555,0.15720387,-0.12621933,-0.027015926,-0.17842743,0.012863331,0.6198736,-0.054846805,0.10365791,-0.14391245,0.32767794,0.2825222,-0.11321057,-0.0519519,-0.16282427,-0.25136828,-0.40201437,-0.11222151,0.10376945,0.43045488,0.0835857,-0.15284052,-0.20762086,-0.59212023,0.10424357,-0.34364244,0.34107763,-0.4481231,-0.16350625,0.1544631,0.2643038,0.27401575,-0.119697794,0.062108796,0.2836382,-0.22663176,0.007572214,0.5757874,-0.13994254,0.15985715,0.13236152,0.12726258,0.08382759,0.35575148,-0.2892267,-0.34751096,-0.12931976,-0.18088171,0.061679266,-0.10520746,0.2079953,-0.08102967,-0.20303656,0.2162888,0.16829424,-0.45014343,-0.17677745,0.2604177,0.46020323,0.20696877,-0.23092073,-0.18994947,-0.56904083,-0.61920553,-0.034274504,0.11680527,-0.031962767,0.25187683,0.03731755,0.07462695,0.23341371,0.17699395,0.20251527,0.2571039,-0.27580568,-0.1384459,-0.2229727,-0.04804289,0.29370078,-0.7898953,0.17628673,0.24568434,-0.20144126,0.14809886,-0.023496503,-0.049982768,-0.039864596,-0.0011454613,0.5520339,-0.5325226,0.2818829,-0.3653705,0.3892325,0.13568017,-0.0107406415,-0.06608721,-0.1884182,-0.31805816,0.0017520059,0.22797963,0.39071974,0.3678591,-0.2701709,0.05501451,0.39264143,-0.32676154,0.066914625,0.5286391,-0.3085142,-0.2380367,0.3889835,-0.0547413,0.031372074,0.23235083,0.3212701,0.12087548,0.006443799,-0.16466127,0.3941951,-0.40824285,-0.31688306,0.070337586,0.24386814,0.09384744,0.24561639,-0.08826729,0.057681922,-0.17236772,0.3095402,-0.2777984,0.024319807,0.2660897,0.22850719,-0.16011947,-0.18181759,0.5056464,0.23491937,0.2606048,0.06849965,-0.29260513,-0.14808917,0.2568327,0.31525066,0.35008064,-0.06746414,0.15717487,0.4709863,-0.24069105,-0.21456945,0.17800328,-0.4288598,-0.20383953,-0.08159578,0.10110366,0.14822714,0.36880293,-0.11342881,0.3602456,-0.1212863,-0.055037625,-0.18558016,-0.48508775,-0.42387685,-0.55022234,0.087327,-0.24670182,-0.427843,-0.10162226,-0.34538102,-1.1989172,0.20228186,-0.23254448,-0.30571386,-0.06898621,0.22061077,-0.06264085,0.38343513,-0.4107313,-0.09398727,-0.59888685,-0.46062258,0.11768227,-0.04555086,0.25598112,-0.43322945,0.41444492,-0.117689565,-0.15491617,-0.40939504,-0.021370267,0.17237814,0.44756225,0.0971048,0.16439143,0.07404695,0.25033826,0.017850948,-0.47604212,0.43829122,-0.34322187,0.21805952,0.16409004,-0.10141055,0.06100651,0.3631778,0.05487914,-0.04292509,0.089955054,-0.14682163,-0.0364313,0.36004356,-0.51890075,0.001937883,0.26375276,0.1267595,-0.25232774,0.114384726,0.27630764,0.41498458,-0.19375047,-0.16737051,-0.43000755,-0.26854149,-0.25914863,0.3657631,0.4464371,-0.4075482,0.50797427,-0.04816877,0.24133903,-0.2918021,-0.26559886,-0.0741067,0.12623523,-0.2765994,-0.2272732,-0.14717884,0.13183789,0.19940656,-0.33137357,-0.38473886,0.044276357,-0.41048548,-0.22607568,0.25624824,-0.7851062,0.3510885,0.5951197,0.17420007,-0.44598395,-0.029225249,-0.5212459,-0.2517198,-0.22056842,-0.37931436,0.032797717,-0.7133398,0.052440464,0.11192163,-0.27818012,-0.55967677,-0.03291537,-0.21112804,0.1774635,0.34483278,-0.07925139,-0.4056318,-0.27350187,-0.4591798,0.51290244,0.19823137,-0.083951704,-0.66401345,-0.41927367,-0.07693149,-0.044845726,-0.06000394,0.034704052,-0.11079111,-0.015227543,0.1361381,-0.42488894,-0.2840615,-0.043924395,0.17777105,0.13880455,-0.30952772,-0.040714946,0.2541147,-0.49430183,-0.267745,-0.040339567,-0.17962398,-0.0045473063,-0.18428475,-0.0034840046,0.0622186,-0.3046784,-0.2729243,-0.28642705,0.30588436,-0.029581623,0.049160063,-0.11642704,0.25811347,0.14710869,0.1817922,-0.013123739,-0.09657562,-0.22383603,0.12408506,-0.26254267,-0.12899688,-0.32799852,-0.11747938,0.1701576,-0.51628447,-0.42534477,0.14624077,0.4501275,0.24399471,-0.35209465,-0.2601505,-0.13107073,0.2975947,0.27936393,0.06925663,-0.9883932,-0.09551854,-0.36134294,0.11028418,-0.14743456,0.15116431,-0.19969776,-0.06360715,0.19768624,0.12965022,-0.16639116,-0.43914345,0.047931235,-0.025322948,-0.5387792,-0.50300103,-0.07005967,0.38223526,0.24343991,0.31639403,-0.24933404,0.015681222,-0.23245291,0.059184015,-0.045274638,-0.47032923,-0.03935408,0.2735733,-0.16957873,0.31680745,-0.28141266,-0.15924078,0.04106278,0.024986528,0.51613086,0.17742147,0.033223726,-0.0025174236,-0.23185979,0.06869124,-0.17067336,0.12933542,-0.11553225,0.3953848,0.26015913,-0.13126685,-0.21979608,0.13702695,0.32373378,-0.16292354,0.05251471,0.113617964,0.030216843,0.4826908,-0.035131726,0.22121088,0.025623742,0.28793246,-0.1849466,-0.15094373,-0.42702186,0.023942847,0.1094606,0.011747221,-0.2127983,-0.07369483,0.0879824,-0.03789379,0.04733932,0.35084343,-0.024263984,-0.3963451,-0.17474358,-0.21485633,-0.060252845,-0.09584684,0.032568872,-0.7061197,0.12934957,0.13511164,-0.27697286,-0.5680975,-0.029629178,0.058582023,0.3677296,-0.19180761,-0.2212009,0.0025373318,0.2793508,0.23269688,-0.16968668,0.11812459,-0.13486409,-0.5066441,0.17971177,-0.4856859,-0.28852868,-0.1061694,0.0053273225,0.3484677,0.063676156,-0.20510033,-0.15153006,0.10503158,-0.65483326,0.29351583,-0.2228909,-0.0009863684,0.26269057,0.12816934,-0.54185337,0.3241228,0.0725419,0.2217748,0.26197702,-0.21326825,0.5350266,-0.11667656,-0.42506224,14.82469,0.36066622,0.058931038,0.30572867,0.4737518,-0.3905859,0.11247139,0.07272168,0.30484536,0.25011364,-0.4726257,-0.096382685,0.075188585,0.14974715,-0.25238174,-0.3145561,0.2557195,0.06914293,0.5371043,0.17206743,0.34279794,-0.13949724,-0.14982069,0.07932156,-0.17784691,-0.215206,0.10545435,0.57433516,-0.2906097,-0.04153362,0.23367082,0.22644459,-0.15921813,0.18366654,-0.025041047,0.3466278,0.41827568,0.061360452,0.6286147,0.08932384,-0.20000903,-0.2770871,0.06218053,0.04234098,0.14434847,0.050384354,0.30319628,0.13452527,-0.011168534,-0.22854866,0.55872124,-0.18072166,-0.18400392,-0.24607846,-0.067909405,-0.01675843,0.66366863,0.38732705,-0.090263925,0.25014722,-0.24170929,-0.4385273,0.081133656,0.14995955,0.13573493,-0.021084039,0.046701636,0.5796581,-0.24644023,-0.41181806,-0.068890445,0.565236,0.26796806,0.06264813,0.20825431,0.25738144,-0.27791923,-0.190996,0.39434093,0.3689047,0.42937076,-0.64370704,0.4302442,0.121011265,-0.06720573,-0.29901025,0.13553382,0.25643346,-0.44101554,0.06845717,0.032432143,-0.15964635,-0.3665083,-0.029310137,-0.15549308,0.3894876
ungraceful,-0.33673835,-0.082408756,-0.26977155,-0.3496978,0.25662386,-0.066644035,-0.43375984,-0.0070196106,-0.5924925,-0.37151086,-0.27282733,-0.39073935,0.13650252,0.085126065,-0.31420878,0.19050877,-0.24003065,0.34202293,-0.21501344,0.0027454179,-0.19949943,-0.038937155,-0.10722548,0.07371846,0.67002445,-0.20110668,-0.067581475,-0.060587376,-0.28241834,-0.21528544,-0.2561914,-0.16189925,0.08449034,0.041142024,-0.5965138,0.06297585,-0.30754524,0.22788508,0.10147513,-0.45006165,-0.51915187,-0.3351289,-0.31464258,-0.35937133,-0.057914775,0.20583098,0.80390793,-0.11980027,-0.016659006,-0.068160236,0.053665593,-0.14008765,-0.12596075,-0.4279987,-0.11774695,0.05757152,-0.05880673,-0.1466992,0.17165112,0.14038654,-0.05465889,-0.3011797,0.008213348,0.16285278,0.33044752,-0.3385178,-0.5106327,-0.35016763,0.30859286,0.11557268,0.017085364,-0.015574616,-0.25101998,0.1608107,-0.3796089,-0.2672291,-0.08325036,0.4696953,-0.23380215,0.24460287,-0.5076607,0.14967038,-0.2669102,-0.605152,0.18923645,-0.3235902,-0.6041135,0.11803696,0.006440062,-0.14847209,0.11223491,-0.22484933,0.14313947,0.34800518,-0.011842371,-0.051966276,0.07516333,0.03929312,0.36068752,0.18269576,-0.20291293,0.23355086,0.0037921385,-0.32133853,-0.51614064,-0.6472448,0.3853768,-0.25135848,0.12293819,0.103181064,0.125997,-0.10279698,-0.35019878,-0.3548284,0.02851124,-0.27680698,0.05715197,0.03827062,-0.88230354,0.2736211,0.24102776,-0.25970185,0.17232174,0.10172305,0.5793266,-0.37206593,0.07735836,0.025061235,0.42722714,-0.17759252,-0.37632027,-0.6097857,0.09335298,-0.058602694,-0.11182693,-0.49310032,0.142387,0.29603553,-0.09581349,0.2879525,0.25973988,-0.12725987,0.27179334,0.055200443,0.049445193,0.03601895,0.29434583,0.12765883,0.06645931,0.38920483,-0.23107855,-0.032631177,0.06405277,0.41945696,-0.25703993,0.083355136,-0.04623123,0.04685312,-0.36618242,-0.058814928,0.064361304,-0.38484097,-0.18451272,-0.26733223,0.30318224,-0.05967869,0.20952368,-0.023119101,-0.024582826,0.1360887,0.059458878,0.2858023,-0.16912027,0.10572904,-0.17998369,0.49787712,-0.08018705,-0.31825766,0.121512555,0.40569973,-0.1793525,0.2653025,0.170395,-0.03586514,-0.15793169,-0.28746077,0.2604908,0.07679065,-0.293387,0.43902633,0.22038502,-0.165383,0.03928529,0.13303371,0.39379343,0.55552036,0.06221861,0.021021366,0.29692286,0.34550247,0.13460635,-0.10395491,-0.72376233,0.100587845,0.028696122,-0.095892906,0.07623697,-0.19194253,-0.11803705,-0.027409332,0.25387135,0.063144185,0.04871479,-0.03340452,0.07257772,0.5210101,-0.62804455,0.4208493,-0.02863138,0.42663756,0.23784657,-0.12642267,-0.56819385,-0.18924557,-0.05985421,-0.3050763,0.3210736,0.46888158,0.20931478,0.23363937,-0.24681158,0.0002901902,0.12563555,0.054849412,0.20541124,-0.05385144,0.30979595,-0.23196448,0.1519874,-0.28252342,-0.17268579,0.04270559,0.23150058,0.3996127,-0.11966538,-0.10951383,-0.07651217,0.2114095,-0.18177433,0.027004838,0.14971133,-0.1933177,0.15686835,-0.20557345,-0.049201954,-0.30364284,0.062488075,-0.24205153,0.0638826,0.28409883,-0.37429512,-0.27860567,-0.31733307,0.20562714,0.73910785,-0.22985609,0.6400073,0.17996483,0.035891328,0.31190398,0.042454462,-0.09346491,-0.14723043,-0.02678744,-0.17839088,0.0137303015,-0.33931255,-0.065122835,-0.018352324,0.13014789,0.12345371,-0.23285921,0.27173683,-0.059936594,-0.14270584,-0.32924178,0.0154605815,0.08625704,-0.1624134,-0.166169,-0.063494794,-0.21005248,0.06823268,0.1602058,-0.2842103,-0.24310414,0.04091756,-0.21062142,0.065723404,0.31416708,-0.3017411,0.3349568,0.16941442,-0.17169817,0.4481449,0.042949468,-0.07287108,0.27458915,-0.077188484,-0.009569815,0.212255,0.30517522,0.13747405,-0.013295571,-0.17713518,-0.22561072,-0.31569222,-0.12175041,-0.3071953,0.08414215,0.60030454,-0.18049729,0.21841455,0.16149212,-0.15328817,0.14236398,-0.36411777,0.32871166,0.21333134,0.32996696,0.026104046,0.28582826,0.25912657,0.06330271,-0.2936674,-0.18492694,0.027120946,0.14420657,-0.33351508,0.08247777,0.005491154,-0.12565352,0.07999982,-0.015931047,0.12275684,-0.2305594,-0.44329664,-0.19449697,0.4057924,0.13255358,0.30171683,-0.46916893,-0.07858587,0.14242455,0.24816746,-0.17980216,0.34142503,-0.028582005,0.2096405,0.64045936,0.22601539,0.004562118,-0.17177404,0.36915147,0.2763896,0.14864455,0.50480026,-0.0021209065,0.26955488,0.06260147,0.14034052,-0.1341007,-0.089700304,0.119428545,0.27000862,0.21958219,-0.45370638,-0.037241656,-0.32701835,0.025729947,-0.20219405,0.113523625,0.3788909,-0.22930686,-0.3703166,-0.07168149,-0.1756625,-0.0027208459,0.057952408,0.021073373,-0.12890872,0.028212003,-0.00095408043,0.1924787,0.023328384,-0.3166342,0.23822534,-0.35221007,-0.34454992,0.4654416,-0.17752682,0.28425416,-0.22891521,-0.027305335,-0.15159948,-0.27908215,-0.33439997,-0.33485627,-0.12223426,-0.076081716,0.039528307,-0.019324912,0.28009686,0.05065267,0.07069384,0.012778834,-0.32311854,0.13955554,-0.4158509,-0.32396737,-0.33566236,-0.29049206,-0.06729701,0.35679093,0.0132749295,0.08059957,0.098309465,-0.0616768,0.139816,0.06165016,-0.44214186,-0.2142484,-0.1082282,0.17505942,-0.058694314,0.10890457,-0.27492335,0.40233698,-0.305101,-0.42503414,-0.37035584,-0.1296723,0.0036316833,-0.22346543,0.270068,-0.16175364,0.079074375,-0.044557843,0.48703286,-0.18513407,-0.15155354,0.3550085,-0.7028796,0.15559608,0.056035753,0.074796796,-0.30376655,-0.022367155,-0.009313726,0.3032783,0.23530841,0.064661704,0.38919845,0.13095622,-0.51587164,0.13459875,0.40996006,-0.2777676,-0.13718657,0.020249432,0.08080109,-0.03902866,-0.2401977,0.08886736,0.07329833,0.007016821,-0.11356761,0.09488693,-0.02728743,-0.633099,0.011305277,0.17599459,-0.30232498,-0.024059132,-0.03145902,-0.06116378,-0.21142729,-0.10196805,0.35248125,-0.044718836,0.12767918,0.07799986,0.28454527,0.5080372,-0.3013799,-0.5085563,0.4454359,-0.09922921,-0.52636474,-0.253296,0.17599659,0.3124434,0.43325868,0.00095724716,0.10274301,-0.21487421,0.60555166,-0.44405973,0.016492052,-0.53840464,0.16428551,-0.09295139,0.1218585,-0.111967005,-0.024253175,0.003583446,0.3420939,0.01880515,-0.17222168,0.047366966,-0.57108366,-0.14352776,-0.035851255,0.098132275,-0.07112009,0.346637,-0.32472014,-0.47299433,0.26194185,0.07222124,0.0662613,-0.22695297,0.561878,-0.28728902,0.27436227,-0.08047459,-0.020555515,-0.1848007,-0.09154162,0.40941143,0.24234784,0.20915811,-0.18197797,-0.013205297,-0.13279276,-0.08023556,-0.1614118,0.15925027,-0.18753047,0.13881226,-0.113189094,0.110078365,0.5144734,0.2495513,-0.22326882,0.34065172,0.112056464,0.07128214,-0.01585697,0.30540195,0.14867036,-0.699208,0.06222086,0.29952496,-0.09525517,0.19867778,0.3061866,-0.03202514,0.14786233,0.06124425,0.2872881,-0.71112317,0.15479723,-0.32487023,-0.06867978,-0.10044163,0.059720684,0.017855493,-0.46005514,-0.2513748,0.32642576,0.2843358,0.43164957,0.31125692,-0.039839163,0.0019116142,0.07434088,-0.14254959,0.22761978,0.23952413,-0.41266835,0.068334125,0.21976285,-0.26131585,-0.17915559,0.046798732,0.12977944,0.010690245,-0.17257439,0.2276346,0.01781757,-0.099125884,-0.055587772,0.094371706,0.13286798,0.16265953,0.41545436,0.39883578,-0.07952235,-0.03415328,0.2266254,-0.26961422,0.15202989,0.114454426,-0.12327642,-0.0047310237,-0.39634693,0.31276897,0.2262608,-0.3525473,-0.06267755,-0.39991423,-0.014854801,0.3811631,0.43157884,0.15322322,-0.30179846,-0.16594924,0.31282315,-0.21421921,-0.07071887,-0.018938331,-0.21117455,-0.18159895,-0.26894072,-0.08791693,-0.13751744,0.4367595,-0.0043900567,0.17437881,-0.38127312,-0.2508925,0.3876748,0.3405495,-0.2569894,-0.39534342,0.29142997,-0.22285205,-0.24250774,-0.17020859,-0.029979149,-0.71035165,0.27969167,-0.05580592,-0.14279047,0.036410008,-0.05389904,0.061359983,0.2418796,-0.44110784,-0.0710751,-0.6492779,0.07075649,-0.100610636,0.10841497,-0.12922525,-0.52653646,0.30615035,-0.09417716,-0.26920304,-0.34126976,0.07838991,0.090954356,-0.36558798,-0.030853638,0.29136375,0.004509513,0.17460032,0.06588038,-0.46528795,0.10917746,-0.39036837,0.31347653,0.119147055,0.09109026,0.099971004,-0.051211953,-0.21337016,-0.12223392,-0.100693054,-0.023255637,-0.011882715,0.5675793,-0.35376576,0.12165763,-0.24979003,-0.08076709,-0.21179998,0.12337618,0.39462948,0.5595014,-0.2917822,0.06222254,-0.06628339,-0.46912852,0.17455299,0.024968721,0.22385788,0.43690583,0.5779189,-0.22856186,0.5455719,-0.35560784,-0.2705233,0.08645248,-0.11603543,-0.06875359,-0.26610515,-0.0200367,0.16715945,0.06543593,-0.27152812,-0.6922509,-0.03360902,-0.23464553,0.0797623,0.042001218,-0.29773623,0.7212191,0.28755218,0.22382122,-0.66442853,0.24617545,-0.52770364,0.013371554,-0.06899506,-0.41835725,-0.03454511,-0.43689358,0.0020372074,0.4095844,-0.089956015,-0.40347478,0.20109485,-0.14319964,0.05265172,0.13125737,0.103186846,-0.19762117,-0.026915183,-0.5693074,0.13401328,-0.05365913,0.5123974,-0.40636742,-0.24409218,0.09498998,-0.042181373,-0.13534404,0.38740316,0.22724658,-0.1504473,-0.17697644,-0.0051309746,-0.05847879,-0.11011675,0.23520882,0.08309522,0.14082263,0.13143161,0.0611922,0.09934077,-0.25017282,-0.33177665,-0.13564634,0.12110851,-0.08295282,0.30661103,-0.28768337,-0.008057303,-0.25921988,-0.15493025,-0.117147006,-0.2377035,-0.2923674,-0.34928057,0.14873011,0.19711195,0.05176453,-0.19607502,0.2773433,-0.48209906,-0.37485293,-0.30813816,-0.13293292,-0.24317916,-0.18646401,0.056074273,-0.31902766,-0.27661887,-0.061414976,-0.0041025206,0.1259447,0.112266205,-0.60260373,-0.27842784,0.051784474,-0.06948829,0.2667448,-0.7191463,-0.3663502,-0.2508823,-0.18942152,0.004107289,0.47034678,-0.5478721,-0.113727175,0.24734493,0.12433523,0.08573499,0.04762378,0.01770904,-0.03702285,-0.23332214,-0.347221,-0.023268074,0.48010638,0.12616555,0.4907298,0.20724098,-0.10882541,0.40958393,-0.07834571,0.45846093,-0.12582745,-0.44972882,0.44986066,0.29085255,0.19354327,-0.3413963,-0.43902537,-0.38567758,-0.17857021,0.11773733,0.014268652,0.09438167,-0.10289215,-0.07384954,-0.03730583,-0.18434955,0.2213723,-0.3978068,-0.092177965,0.042157244,0.022695942,-0.2622231,-0.43765903,0.4578497,0.2680222,-0.014323999,0.026990565,0.06014825,0.29896054,-0.06655909,0.2925667,-0.16260237,0.08953635,-0.2845591,0.07258135,-0.31213674,0.3447232,0.08278487,-0.09679133,-0.17992409,-0.2931731,-0.20937519,0.037130572,0.05646713,0.39334336,0.12710503,-0.20983684,-0.033322882,-0.00428654,-0.25008848,0.27028543,0.14928249,-0.28871208,-0.1139017,0.2521487,-0.37399316,-0.65764785,-0.071465135,0.12088918,0.2365194,-0.51824194,0.05736086,0.31249326,0.35077134,0.2246827,-0.23268767,0.3820624,-0.3664783,-0.75968426,0.075094454,-0.15650743,-0.11370345,0.010436729,-0.2222569,0.68010044,-0.18301392,-0.21625955,0.1053103,0.020506429,-0.38345405,0.09272689,-0.12284698,-0.07894644,0.33030623,0.07505521,-0.47815862,0.32037407,-0.025164291,-0.15119804,0.1764272,-0.33847716,0.10187907,-0.103956275,-0.20561779,17.195955,0.31514257,0.27791455,0.07604733,0.4262476,-0.23307234,0.12207218,-0.21170808,-0.1867411,0.29883835,-0.4146092,-0.14613822,-0.18402873,0.29151633,-0.07953709,-0.15092532,0.26928085,-0.08313591,0.27663127,0.08775034,0.41476014,0.013182908,-0.15529902,0.02424932,0.09797714,-0.23147608,-0.10682642,0.51773524,-0.13795154,-0.12897629,0.4051846,0.09620132,-0.085350394,-0.02880382,-0.063555695,-0.091918,0.13980713,-0.34683576,0.40866706,0.2970448,-0.088728525,-0.26290837,-0.13266777,0.26122028,0.22466804,-0.090176456,0.51026136,-0.13291065,0.072630346,-0.036111694,0.2783375,-0.31496343,0.045165356,-0.021339929,-0.2650334,-0.09847895,0.62177986,0.34617007,-0.24333756,0.20933484,-0.47834763,-0.35382187,0.052123737,0.13928516,-0.059334453,0.2996182,-0.13931504,0.3148276,-0.13113111,-0.043862477,-0.08752409,-0.028012216,0.26338422,0.1066831,-0.03469911,-0.2159817,-0.24107826,0.016602485,0.25176576,0.105342306,0.23734425,-0.24080251,0.02852949,-0.15372394,-0.033627752,-0.39866874,0.6463652,-0.15226227,-0.18341623,-0.104996204,-0.22153288,-0.2511095,-0.30332398,0.074680746,-0.16143835,0.19099368
