unlucky,9.24322090848175,5.690456230837184,2.3342728308134615,0.23313504767511697,-7.89396839314719,-3.6657206133455422,4.409684393255981,1.8857226251177373,11.093259330660688,5.792471616870671,2.6230945043161804,1.815652416267213,-3.1369853271267787,-6.775482755298479,0.18159998210572054,-10.29905330041415,-5.624712817690893,3.3518041807929757,-5.1364608643637775,2.3161724274244118,-3.3705706335901904,0.23716164444915314,3.2907800161611878,4.469287188806398,-2.959808021675729,-3.537220383390436,1.994246673050152,0.46525401422412466,1.6925570430447334,0.3707678541114419,-0.23310835472250424,-1.3676726062170215,3.0894278729936664,-4.195833042193955,-1.7870032636623647,4.1804318434240795,1.2999070616651676,0.7189610289535919,-0.678404567123996,-2.5440861011470206,-3.0684222016497276,-2.9954830576273124,1.247747952165919,1.549917030503161,1.07451124161364,-0.4306264214182585,4.811731041516348,6.2415103163744625,-5.108365021264977,-1.8578890396914012,0.56132532117689,2.1253331940173505,0.7452139021050773,1.1393517564399855,-1.2391227722587737,-1.2598576005250504,-2.128770703684909,-0.7835828596783684,-0.7394482232695135,-3.2454144850040687,-0.3379529839373071,-4.363326446380542,-0.2580491996019723,-1.212435276417236,-0.9064028484498842,-0.6688406437780114,0.354913899890208,0.30043304243293273,-3.6913657052382485,-0.9602259235531075,1.1015891285351966,-0.2828891625020832,0.02430077685960112,4.022766130286385,1.83877529256519,-0.8626576814178688,-0.757874410827891,-0.4435659940603692,0.10589895823633147,1.3871052076906796,2.382233840070102,1.0885274017114126,0.6220579275942686,2.8437492009615752,0.7484419473012125,-0.667543920761922,1.4775067020393111,-0.7655908700322599,-0.25322013456875664,-0.562401483827446,1.0554026555278997,-1.0878062667264694,2.8209527584988514,2.177735406884499,1.5868938346945787,-0.3600073018775937,1.0979199267598598,1.357794044034186,-0.39522419384646207,2.043299357588995,1.6244912724093408,0.803615968606422,-2.129904135792704,-0.6649472172151699,-1.6991602654068068,1.0834550665591471,-0.82012427828436,-3.65253595477805,-1.8182164345465817,-1.5563904976875862,0.5718802992244097,-1.5666868044696285,-0.8006665422532596,-0.5605605729323887,2.179050805857142,1.7410774339573347,-3.2591572922124747,1.4778810602683214,-2.662627834139062,-0.033673316894295355,1.2364969168094109,-0.429711023393741,2.3173145481539015,3.224625739154102,3.0502794474546806,-0.8689501137684581,-0.2114355934386878,-0.5989178442254552,2.524049287065355,2.4138587496418693,-0.6071204424585708,1.0329374332632018,-2.0194828499065585,2.460731165288524,1.766773381584269
dull,19.22237498447514,-4.284303480915183,6.097661704236564,0.23086897156970332,-3.494692061879373,1.9811411539594284,1.6542120467959593,-4.886586202016831,2.0757536365876734,4.93187761472701,-2.8109274484175715,-0.2182827593186319,-2.8229155314968275,1.8320157027611697,-3.3381431031966335,-3.0261751245746957,-0.6421704985039298,2.9311047510120423,2.5620686419387133,-5.081082156192318,1.7089319672872838,-1.2503587451390044,2.7150440037337535,4.420389270603557,0.06657458496821489,3.0381433557399236,-3.8061111239459424,-2.372413628131371,2.748140726618964,-0.1293282809777759,-4.304927744314251,-0.6400043996799923,-0.11593888287516026,-5.637440042717307,0.7833777053111047,7.508024629074571,0.7003361520621368,1.5979406441878925,2.651643909971957,-0.5943123631949881,-4.3935100782565755,-0.1539736082488785,-2.8774513722913735,-0.828501407192252,1.9311868395897605,1.2569038639761818,2.783709932144643,0.761679984468862,1.036714162104842,-1.1537359901388264,-4.287227344609197,1.9538877295111146,-1.807455411095553,-0.3277614420991139,0.18410991126766238,-1.581081593828815,2.52575126636882,-4.36934562408222,-1.9200482927396114,-0.3359285402363678,-2.6817119071256115,-0.71617221722653,5.585407683123033,-5.01972518761213,0.739798599939866,-2.2113949518130207,-0.0953025666487089,-2.7150325509680635,5.878332648253489,-1.990171261204107,-0.976895589073891,1.2161807972548748,0.434374449502395,4.3309460813902385,1.751507895447301,-2.4306478926072423,1.1545249291555435,0.013365940382476686,3.196924639293435,-1.781799002501393,-1.7793724301782605,-4.290218834314012,-0.6211018224667637,-4.418081796197234,-3.300408243118455,1.973114263292959,6.9242176559740845,2.0235594663753833,-3.0544263306678654,-5.483336066423005,1.532932853477672,0.7502189324692629,-0.577712543457885,-1.7040320082122458,-4.145121109318777,-0.10457017353895473,-3.1543636794128784,-0.668944551179411,-2.5329213314301025,-0.642593652761917,-0.46018295156666034,-0.10525246430178631,0.9657380864499103,-3.0015248717211716,2.5990951818599783,6.640336618617541,-2.7799984561172177,0.7449776185816661,-0.46635634092651274,1.2054307889403093,-2.0437145324740276,-0.06114708072462843,2.7672909337488854,2.474810249092474,-0.5947255635658406,-1.2592097046316435,1.897090353404331,-1.234575457900115,-0.5449637662514386,-0.6707586179402815,6.3041889966124085,-0.4900588216514051,-2.0861083480788154,6.645849095727002,0.2016834130788744,-1.018054923170657,1.4040617880039574,-0.2765597864294572,0.34932297182778826,1.4139052887037005,2.1469542551360514,2.8519237134157955,2.8868298133743115,-1.9286869589775861,-0.9713459024441413
arrogant,8.052488240197201,10.059734998838652,3.1076766659113475,-7.666999757515038,3.0096489685145533,0.33438256406957123,-1.3318984705368246,-0.6371036038078587,2.445709848893298,2.7724507644203147,-7.589748814654733,-1.24227527724151,5.130431772787174,-1.466734290175134,-2.227090206646829,0.5034158677255576,-2.504450432471661,-0.4661491001419736,1.4936714598051086,-4.937829362795052,0.48735145755802034,-2.5449298651469703,-2.6875694564775694,1.246820344321457,0.3492692179455781,3.2414545129267287,-0.951305944959093,-2.3235427354947573,2.120782032967509,2.5667194273224765,-2.4622235075441257,0.5363897440654287,3.5249692553873277,-3.3609182074561788,2.658135837449288,2.857219592324419,1.2299804493192341,4.639632319007151,1.7733368074419331,-3.515521335246229,-3.709103084553908,-0.9385167857622266,4.644719933685293,0.8747783862525988,2.0191697712283827,-0.31475671621924306,-1.6615005163348104,3.0501457221850656,1.9055253847804545,1.2498115741618252,-2.6844708354842153,-0.794677701008298,1.932018766202643,-2.7425629499561226,-0.7707778439959893,2.8437370758664247,0.4482328603580175,0.5823522769223138,1.4673913411099007,3.7048244795342495,-1.868995461944396,2.474647693158632,1.0707221905000857,-2.0591426077712005,2.7873284012139434,-2.0768570918426144,1.4371023717371514,-3.235040284096674,2.685107301944692,1.518063888309908,0.9059367016354024,1.6688215009635445,-3.1629160658902844,-0.13485889972476925,0.5835662235629707,2.8626754363966764,0.013850711801907887,-2.7192644074195553,-0.8553617534785815,-3.9164407800369485,-0.5718738845446926,-3.045815331135083,-4.979794245735892,-3.6583520174788196,-2.277932228745188,-1.8437632904437402,-2.207763475093784,-1.104373185420557,-4.548442325725845,4.5691844911197705,-2.785392917246233,2.8224067979671954,-3.656554755282443,0.47571255485905295,-2.8520499352018076,-0.6710474290139177,4.464430232386698,4.175724718150687,1.5119837858491385,0.5480196880742144,0.09566764110633384,2.0159458022359042,-2.1687301798627256,3.2128316282700053,-4.603026189613919,2.8333317738201504,0.10678631278155806,-3.465967292016884,-2.624305480026111,3.4191950670298725,-3.4019138448083446,0.9147718288487067,-0.6537275681092829,1.5124683509436667,3.377448648321073,1.3541110507885772,-0.4011980593569743,0.5243041889046842,-3.8532480293249076,5.417462399357887,-2.9284505173439235,2.980997974933026,-5.1522881705796255,-0.4912741554575253,-2.321573913360285,0.89516648086696,0.274200396195224,-1.681812042495787,0.372841024274975,0.33300024202078476,-1.4107309401310832,0.37345347605233936,-0.581924571829278,1.5186548024974946,-2.431034186889173
careful,2.77544277080277,7.93790801811843,-3.8501225437092303,-2.6201615538045036,11.72819431542507,-2.374642462807981,2.3601474075296114,-5.119457765691803,1.3800140167303203,-6.146343270302317,4.137106126696743,15.603222490692106,-4.74860513309544,-2.5506796123994318,7.033423720743165,2.663737771674753,0.8071205235199055,-3.3892138301648056,-5.141293381250087,7.108141111820567,4.819176336604435,-0.955910527584855,2.4774479860340293,-3.9668876483003666,-0.4385960714068072,0.2529064149287458,-4.5607101693943655,1.1722970809481144,-0.654582102508307,-4.624057777394904,0.10090471764334488,1.3643251848889655,-6.5234494134551415,4.093884408427578,3.136489125961137,3.103364948990542,0.29032922124122673,1.988744472048235,-1.7727296388767169,-0.21342233112241588,1.0064083039378298,-5.462308442023505,-2.577426571133724,-1.2833446053262314,0.7227517950087126,-1.6571969743194708,-0.5168784210238061,-5.075633520992655,5.066109640006037,3.272336565070407,4.861206083919909,-5.1760571920082,3.3309143319233105,2.433046856329341,2.673776354558104,-3.2265633332308403,0.862524841682603,-2.762968387101071,-3.436587503551002,-5.734513421789125,1.0273502276745778,-1.399653866134728,3.8573028711014383,-1.2964493945711573,-1.0524272909285473,-2.5046195840608902,0.6088030522286867,0.2102125856099437,1.2605625989435212,2.0707599213447208,-0.7947089899706945,-0.671741806623884,-0.98451779225697,-2.9304095929194567,-1.3601617158283794,1.838839048906085,1.5212357005702641,-3.4419928908432786,0.12604829080448973,-0.39305061378921885,-1.022639198893302,-1.014075450572193,4.965949230222991,-1.6415120809674533,-0.5223204683081928,1.7924454537419514,-0.6815449084941171,-1.4902848704684262,0.3403553230640927,0.8483221672330205,-2.7023181393636544,0.46539380225098903,-1.3230527878850935,-2.185018881481309,-0.11119192409149713,-0.7553542145218428,1.2789514551670529,0.693187855542954,-0.7210817860723365,2.713702770275169,-1.9634366778931638,1.6432102736288248,-1.3896609240301567,0.6600817420153982,-1.2405007201180114,3.713228241627065,-2.374968551011945,1.2871366141487233,-2.4337213787262035,-2.292785418716266,-1.7936518679431128,3.581888454238737,-1.826086086490303,-2.133534881708437,0.06138616212778158,-0.0953857885059186,-0.7941249247399359,1.5948664534484513,-1.0576369010899702,-0.02939635890917247,0.6847411475736851,-2.8713876372597453,1.2298362672999095,1.1171618428106835,0.5770994921768713,-2.039998741128574,0.5133636409785138,1.1912114975181003,0.99708806088649,0.29528634301417456,-1.0478795914517844,-0.5708975317208299,1.241656936915886,-1.1181600945693622,2.512634750442509
communicative,9.984537941023108,8.449303082622006,-0.22717202001358022,4.07272459588289,4.493701510951026,11.937155618757163,1.2400705432383354,9.434342810082834,-12.939361909173579,-4.691504564233885,2.174947759054958,3.088240569614815,-1.8809397766088294,0.08884410791133789,6.251461794316898,10.216059967727878,2.3140285949648103,4.503851868589155,2.2897290698930477,0.6132422531693777,-0.4724660913693086,6.965800343032918,5.744166136119688,6.819191230857697,-6.256105112601556,-0.2550088441574722,-2.1027730141804217,0.4723794070497827,-4.416516627676179,-0.7942790878627257,1.8567628978463724,0.9230824171152543,1.0992325704819008,-3.0635445437347597,0.09570064896497557,-3.6920923253411044,4.220087185642218,-3.5684874587456807,-4.1577264922560255,-1.4049100219436663,1.3328163209870545,-1.8028133528826784,-3.959909230288498,-5.389451394040988,-0.778636961238758,-1.2545641056334178,-0.23849570450467286,4.69564247671591,-0.34450118854492134,3.409263554101452,-1.5324293972394327,2.7703675216357575,-0.789831138314511,1.0142403496452088,0.43188911666728136,0.869514444414285,4.184901702361995,-4.920379075312583,-0.09307221318631025,4.0966952843795035,-1.880820456470263,1.5340611135654605,-3.062008219803527,-0.4623325628188037,1.9331746961029381,-0.39449474309862875,2.3299223071001407,-0.08641537260945639,-0.36525249622333,-0.48968145532900004,-0.29486347187524536,1.0471606048460749,-0.9827872587431795,0.18356110869856807,0.21844776305286365,0.19980717566323933,1.7117716260353106,-2.8730008692105167,2.364025037485618,2.816807873756009,-0.8811312322635199,-0.4923722765599256,-0.3914352042537557,-1.3807669626346981,-1.5273975621344877,-1.6421738043535086,0.33707108622615606,-0.03204647854064739,-1.5319984076557653,1.6823430536595725,-3.516988519976525,1.5058667145144213,0.37863448076315676,0.874344695257552,0.49254784337045215,0.4864980862122757,0.6355021552141432,2.5136075980542136,0.10402595166612634,-0.8580074396240852,2.915012954764976,-2.128735716089311,-0.06908878674166974,-1.2348935230237117,-0.014697726589649853,-0.3990495736769232,0.8017343360830944,-2.9409152638322675,-0.7799262691786534,-1.1342942116241197,-2.3532963632550845,1.348348710570042,1.3523541970092896,1.7432132619093528,-0.33637788753196163,0.23068403421416792,-1.24138314089639,0.8410666000124264,0.8992864368825834,-1.441668552781987,0.2637922739983673,-0.8607581386371115,0.15994187495555368,1.0132086989832028,-1.3633855604175538,-1.2026492282341037,1.6138636209794703,2.218498592598086,0.35868110089704397,-1.8440949937703568,-0.01664117838330652,-1.0470107468298682,3.2164812716938305,1.3351914047868185,-0.9001004463950347
discourteous,5.72042249105687,11.739313927775774,8.304791191358605,-2.4817271205061657,4.475285878187999,1.0462506619958143,6.685568447034592,1.6331252894052068,-1.0545109602843081,-5.455497156450586,-3.615546689697721,5.184875424788331,4.916883679502181,-0.24131347966137812,-6.052924224807966,1.7481077809101748,0.16556294677783714,4.943694327479547,-4.369226180842921,-3.788345778570723,0.6620106017254409,-0.8952616975571472,0.08481941179876458,1.3548082649750568,-5.881753681632125,0.3484982441118975,4.723740135627377,2.083029147337251,-1.0322413246536761,-2.5885435744509464,-1.9448269180067244,1.7813572062313574,-2.815635646619927,-1.2007301831576849,-2.0178061825619955,3.688867920600642,-1.450800291636379,-2.9862497153833787,-0.09572904419830484,0.07552123820079326,-2.6728543877982847,5.164284561977817,-2.4600236429383733,4.361021926224143,0.7746702085627353,-4.524064222466285,-2.6550148764995813,-1.0803238372447108,6.634902666321378,-2.5089073347343906,1.5750290898124752,6.123790196017052,-2.8654285038768887,1.6249764513571947,1.0001988496943615,0.9030119450379595,-6.780151204258218,-1.1450577084327338,0.7614673974106023,2.659809179303395,0.21684442886886215,1.709724327278862,1.4101294257470318,0.18528993386491993,-1.6095558083063652,0.7257398281466443,-0.686115760908861,2.912637276818251,-0.44996635824347064,0.33449003567982616,-0.562296851771659,0.8423761865776352,0.06378034474570807,-4.840076068914426,-1.5189653309202018,-0.9351882075750908,-1.9209785565198854,-2.902521763381881,1.0431296457052837,-2.33054510714562,0.596054438211298,2.9174884702693813,-2.105293794420693,-0.8059632539214208,0.10519120250514043,-0.12781773902186994,-0.2556802597911627,4.444835847663216,-3.955871907770095,-1.4967569087617956,0.1922945504326947,0.8771102907683878,-2.0473761029854245,-0.1463061937459939,1.7199826818156438,-2.792771724389013,0.32706618898922524,-0.7016567833587702,0.6005201535876574,0.674643270694753,2.478855135888341,-3.0192754874724352,-1.06756553842885,0.5721511791557189,0.14204071175964134,-1.2811280619245586,0.8535933718468915,0.5767300160791884,-2.0757045166460557,-0.18441209689590682,0.8021523389460159,0.13043855333458557,-0.2585198322450235,-1.7605414782227542,-0.16191791564995994,3.4419109689622003,2.001176501994395,0.21819242099566044,2.573415506542325,-3.260058633873056,-0.764777209189608,1.6790729702222258,0.9830161121046931,-0.08767654993332341,1.5472417193085628,1.7315767448796309,-2.540791637793204,2.135170938576647,1.533911490958949,3.432603221627492,0.08170221000545323,-0.40626091967185163,-0.9138070446049661,-1.187447750203585,-1.6241418238879997
cowardly,0.8369198423898785,19.035260243475467,1.0679004604100109,-11.175005067014597,5.881615335840787,-6.3418754556149155,1.4869350107781185,1.523685823482368,4.610194078425074,2.640799190461679,-1.0916527306651276,-2.308636250471036,0.21526728581626756,-2.4856113451558484,-4.722912901370865,-2.5479232955996167,2.533453482790818,4.570965262535642,3.821788203696862,-7.016928618073185,-5.198299964743311,3.566243951719502,-5.476588976497282,-4.235364782294911,-0.060244039017796125,2.257669073673371,4.583148896110536,-4.70656674215842,5.878406960157854,4.17815595064777,0.6868562144346899,2.8562045795763247,1.4021472940311548,-0.7238758953024154,9.97073270177938,0.1259755186812948,-1.5265100431387133,1.3942902026219521,-2.6067578394319746,-2.8086693311400475,1.718210173833553,-1.1097719514653055,2.549773905016888,-0.006126852515668545,0.22454893775386647,1.6886975687840309,-3.1134903364406514,1.8014631476390146,4.547261874640072,0.24286208617094912,0.536578347147399,-4.16446068901299,-2.8770608527769075,-1.165790385770286,2.5551692313346472,-2.226281804843385,0.16556765852216845,-1.3358267595046225,-1.1079054547239549,-1.7108414839577066,1.4268758374056956,2.6907737985306097,-3.0840770375960593,0.4969770576593713,-1.311774165356607,-4.538282751958786,-2.2913234792755492,-1.0131658011979008,4.20281477134164,2.342330935123197,3.9384380056518093,0.35752528442335857,-5.031266132664063,-2.473405738974075,1.6056048015537328,0.9927310128423539,-2.973208361772601,-0.013698993175859129,0.18416815295291952,0.684293948586877,1.5548238323891943,0.901665442472413,0.7434976315147049,3.2213693049902763,-1.2595534744525434,2.481690594679435,1.0377442085077622,2.3322398447657875,-1.4579987395297744,0.9308771581437686,-1.3297471310448503,5.508457404133886,7.159622472110016,-3.469182935215455,1.545773843664636,-3.9554461391109474,0.4583828081314592,-0.7141634497895557,0.25665523428247106,2.2908125221182307,0.5230866790818558,0.02615047757967485,0.1515735447667046,-2.7817176999554927,3.424890230400855,-2.5690526461304612,2.1068427447079405,-0.1825429517499062,-1.2939163536362308,-1.4009674893000217,-2.0396051586013964,0.07897616072909791,4.240823570911721,-3.507528362072663,-0.16078359780244825,0.13773132443837563,1.8367293172447863,-3.6869101548255547,1.7248504374282618,0.7018175780398566,-0.8780512562187123,2.8127257270642922,1.5730277246420596,0.5639336211730486,0.9269667874610326,-1.7659558605185222,1.646863651183757,0.004995255839786377,-0.9123177162365237,0.5672988258931693,-2.265804532932654,1.7793972934574247,1.6472957031927904,1.0071407352637944,-1.0180698360679012
ungraceful,12.69039280451205,9.319325601586188,3.2673731659031744,-0.9317895667195645,-1.779014155204909,2.3254648905292608,3.526539025666226,0.8739145546855692,2.061097580411,-0.17030628250663613,-0.5417559825674134,0.14450095632892745,2.0128908978949585,-3.1318485364794526,-2.863251541917664,1.0463504763911846,1.19539820330416,3.786724739181197,1.739967843079395,-3.6312619051055033,0.8495788613726021,-2.5553806213828394,-4.773999801924508,3.597750066235092,-1.8757456786025528,-2.123352886978608,-3.8536809909977063,-0.4443863216743608,2.6522942385118773,2.184527748482171,-2.43609379796729,-1.4934101222780527,-3.8341887040611455,-4.464658877242053,1.218145921931753,0.13253414142518838,-3.6054029305247397,-0.8068846204864398,4.8427801808944455,-2.978788171957066,-0.5228703565559398,0.8234303549018499,-5.287875545669532,4.184192920259741,2.2911043935051554,-2.17667881551381,-0.2691742814712425,-1.3155885275448393,0.509758934204381,3.51925765728863,-0.28678371128376634,2.3488628155343623,2.5031774652982364,3.039502144616238,-1.3047789989412732,-0.9416053482302034,2.0692777090664976,-0.12273483839915295,-0.4778076018004712,-0.6007789347347856,1.6930270898195714,1.5496153447500938,-0.00887447993935195,0.7709249645529951,-2.3273551767823193,-2.1117338530993237,-2.1696874978422533,0.3404406055676906,-2.557728757303086,2.5622383663591495,-1.9496643754221918,3.1587265111486733,-0.5695962150859162,3.681849982086686,0.7560109358547149,-3.1340704390293066,0.09751289533487377,2.3070103716923303,-2.255604225541111,-0.8906888949633962,-2.2082144890873905,2.578068141391627,0.502035818811426,-1.9522069112254115,3.204309734351624,-0.711085828511397,-2.2291918215553284,2.307089325735364,1.6855911317372239,-1.1875131517546174,0.4878999701734115,-1.7314644599855582,-2.550899158967458,-2.3806391515084937,1.3791239738948018,1.8441916023597047,0.044453999146293006,-0.7889075738747883,-2.3856002382632275,2.647770909785023,-1.3315560590668727,-0.22876662723852087,-1.1398334679492141,1.180282404252228,0.762213703765173,-0.38601118608051865,-0.56602543638387,0.2083661838012282,-0.5191698675050828,-0.6515202059984837,-0.7260572132834316,4.696010025367681,1.411607171238688,-3.3656003569761173,5.189763120356515,0.2072954244863885,-1.0240231603854129,3.261108520892879,-1.9996233294242132,0.8697457112301273,0.4111774926254832,0.07272809995631847,0.8880716277683621,-1.8800337733546286,-0.6970526312507199,-1.3678760292869498,4.9457508522270395,-0.026207585388948282,-1.4496754777461796,-0.9742147681913806,-2.044128499018589,1.953392969914548,-0.41111437974646475,-3.5598099241975434,-1.2984925533292833
inattentive,11.732699875098254,3.885681298792413,8.502229226265522,2.802834565566392,-0.020427226321260664,8.413881561381134,2.2227529886608957,-3.446943071129705,5.101351448563443,0.024737270852682482,-7.115816990231707,0.21704008303537564,-6.6708373960860685,0.4980666486591524,-3.5068038713766434,2.260061777240959,-3.015796446036117,-4.075382439602101,-1.920598442045804,6.668048914774702,4.997340577133757,-5.003992725757862,-0.5466539514297,2.305889173662384,-5.3613902392567905,-5.535765925133523,-9.356681721827432,-3.392044901776306,0.3930611433388394,6.824330038544261,-1.1494138609706943,-0.19369463512927168,3.8753580594235153,5.174171027784178,0.010267154803690465,-0.5122975771360644,3.0278848142930177,7.314887196423383,-4.829283295364199,1.9580768912556352,-1.055673195756607,1.3875283317254445,-2.1529927561670523,0.5240931701665487,-6.566781994375243,-4.430573494253593,0.3347293277733578,2.045293590915781,-2.355183921786379,-1.1423188729993337,0.5357064861028349,3.0930021631196176,0.9548208630619014,-3.9063598685964913,0.1339089682409565,3.2064975660650767,-0.09111622158762052,-1.038309017704044,-2.990262612140386,1.9290158706625562,0.5966366093843495,-1.282757933550922,-2.0152701920186282,1.869074080994344,0.4945041850989972,-0.5203380444625867,-1.1185504856394775,3.5347461702676224,1.8272382662695432,0.44492265083287524,-0.022287025188870418,-0.3614605035611238,-2.3945218524762177,1.603969315669119,-1.0165551802509105,0.15187927258811712,-2.1495755796988028,-0.4720720877719408,-0.7866035573941912,0.5977476781070161,-2.5478730437204224,-2.207714210239881,-0.045272579567507895,2.313875764405284,0.3433937725699632,-1.519389233306009,2.3881711370605005,1.0112306814771967,0.31034384549813526,1.7055760861979343,1.6710014521767655,1.999621439827879,0.051120884746100256,-0.4517988946439685,1.0872404834435059,-1.911863043732884,-0.2318431854902512,-2.113619860079692,-1.0702727102424932,-1.756912716076087,-0.5134286539681823,-0.6618508510177206,-2.84448348423215,-0.8310516657554544,2.1970907780380324,0.5070504478505737,-0.1325421442283763,-0.8993095186287282,0.6220437783389671,-0.3809317162641779,-0.3601136543497161,-1.4568744433152898,-1.9359596577715807,0.3974356265733283,-0.593657050981573,-1.5818153311949985,2.171017391089566,-0.5049435069597736,-0.34029890229768406,-0.2597617435695019,0.368582421855873,1.4294844327480802,0.026951800424185265,-1.8413832324611383,1.3125738607417357,2.751357266774114,1.1013393136635685,0.9084776423951126,-0.7504759684245595,1.3496122915073243,0.3561960072922771,0.11281752649093256,-0.04790409267310219,0.4706478752995871,-0.11593889695301707
insensible,-3.0476194998334747,15.51752908988809,-8.19933239687337,5.1044518540920905,4.468671148104163,-7.5392724037868675,-1.5459617701011672,-2.2370724392660635,-2.660057378532239,1.9256264069752216,-2.5003339390315067,-4.462360214607195,0.7409643217945866,0.5863669495369008,2.1547665561207205,7.703218886024748,-1.0709944998662553,-0.27858577830110515,0.3640887170930315,-3.0019942574837235,-1.0926236205511746,-1.2647735258681327,5.283468784810999,-3.789374283696961,6.101033282557885,0.7034247842283728,2.404303212119942,-5.879313037768941,-1.0217863781319603,4.236048520414858,-1.0251115898475038,1.9011843007915552,2.6237966581818055,-1.8891005594140475,0.3634020834414248,0.625927501820919,-0.5565785981118816,2.3298010942474505,0.1366733210988903,-2.078384585029378,1.5643148299266543,3.806502927456805,2.4554951310258697,3.085543237703075,0.2184966157712959,-0.27955751310877935,-0.20041806892136402,4.67517584505439,0.2460558652914428,0.5782288682723472,-0.7518108282928971,-0.639905072258861,4.84035789497254,3.2308143865387686,2.5648811846952198,1.029761896676255,0.8769240247072542,0.8412245899482821,1.4855862190356375,1.6766289685541076,2.2283334058534248,-0.4533259242850319,-2.0638210311886294,-0.4784124282053024,-1.9598479113724543,-3.0697610809287235,-2.822810359380299,-0.18036984913218973,0.5506076452647363,0.5001687243724596,-1.645378502425299,2.1428077688691722,0.2036731055737046,1.8747570552211374,0.013454485779451247,1.132817843793284,0.5257588414326516,-3.704233717900363,-1.0709455264127776,-1.5388363595052132,1.021408919871862,0.9807663566831314,-1.1453290219739438,0.0816016662010117,-0.07184769592394541,0.7331631335041022,2.2237220294665403,1.4734730779809464,0.6557219150940203,0.4742963917746456,1.4927477252952852,-0.43878326273226287,1.9988669858397978,1.0430162791578343,-1.5729869693068252,0.37804000491773704,0.22682298158028347,-0.5131722020220554,-0.0620529615505094,0.24657834064693057,-1.7841524067463508,0.337886926825598,-0.27669193608805726,0.9352936889300957,-1.7646092431070255,-0.894997172324497,-3.587528698655606,0.6130859735011662,1.2248396048390329,-0.24315330455304546,-0.6296004368301731,0.7539896290743506,2.053153806552062,0.5955932001441573,-1.4210709697225168,1.430694520618018,-1.7472241754348745,-2.4650004061139157,1.6760712430191362,-0.7337630474311729,-0.5996952980208418,2.913387758943887,0.3307045468954577,-1.858580026286271,-0.2522121385807953,1.4695157810945063,-0.944236409467776,0.47933662760208107,0.37563367894720484,-0.9629076585869077,-1.4821201542395859,-1.4234916688920385,-0.8679711235424266,-2.536657296459172,1.0225809638559538
sane,11.675143073645524,7.254794430250876,-3.1472024779099543,-0.11159119127784811,-3.738621699184999,0.46337751972254154,0.8547236202599695,-5.091622878973718,-1.1557913832955253,1.2265832524971774,-1.504740709892239,1.5779763319483173,1.2029719395161014,-3.941631451888124,-3.216573220040763,4.294341335063047,2.8434515210467524,-0.9849646078989712,3.6526502258600213,-3.711485641993943,2.440846318809522,-1.515143893706777,-0.7461504481316421,0.689926158652971,2.5104086056317816,1.4411148218937722,0.820617018807679,0.10329301643934075,3.543799442996978,0.5869893155825114,2.406102231164194,-1.3742831421049604,-5.8195288055589325,-2.408998723152867,-2.4058523160091134,-1.8414436377106425,-5.734454168251996,1.0487643246469456,2.1126893574177377,0.7732311089653116,0.46629069576259496,1.0263168836632235,-3.592348584237139,4.354881114998012,2.5096825843071477,-1.9849417076728468,-0.09209924246072788,1.4199207518751462,-0.3872532179327509,1.2692418359371453,1.2791800824675277,2.4448058121237044,3.084867122549971,1.55779829493458,-0.205806154172186,0.8505476675284156,3.0644280271403184,0.4096318248176479,-2.6242283017911365,-1.768003110345396,4.9435114855773294,-0.19260540905227497,-1.1159559831208874,1.7200574856206428,3.429096660930516,2.931014478501397,-1.316108218499969,-0.12102735015928251,-3.4230725352214795,0.7975759265940521,-1.6908567577193074,-1.188425937790907,1.0351790154385736,0.19719390734585468,-0.4374149812844998,-3.898944362399945,-0.36961590542702716,-0.7699371308543648,2.443997623525733,0.5859086448932261,1.1768825916286083,-0.19689146132006363,0.3861205593898367,-0.998649968883258,1.918620564084851,-2.1941871251752834,-0.3187828826718045,0.8890687999525141,0.6293013422797716,-1.6758987040468674,0.42598152623765345,-1.2607696244182967,1.4895933699093458,0.9419735822337985,2.399925962395671,1.4821380227676328,2.5348648492800763,-0.1404327535614045,-4.484750526321509,-1.1227251102309506,-0.01873630700955722,0.8256025009790832,2.4098960396712745,-1.0054528230874313,3.3278856474560103,-0.8428191041318124,-1.1351369245456866,1.1730289788614612,-0.43705809014069075,0.1911721077786586,-3.7879077188571713,-0.24871920411698303,-3.7060289831201727,0.7853115657900823,2.908197935587478,2.6406814160433,2.1446647739861335,1.481629499922579,5.6203798919827515,0.20942869070530337,-2.9083446401883357,0.9268082059215278,-1.4232045539210367,0.18900074088812327,-1.4790112665864754,-0.3686821127330028,0.08421184792471999,-1.3980249486141467,-0.3349683595217301,2.9176430172039662,4.559342639115006,-0.0640701232232135,0.3798390603308504,0.8527064914983875,0.6871407134629065
remarkable,1.266921635793543,9.967648974598045,-10.85101837178153,8.137201350998861,-6.657601999888034,-7.354401619512894,-1.8681583720986508,2.0369225173524628,0.42162711050857354,4.2834528892811345,-1.9354156256914583,2.3997067172383484,9.577666509263654,-0.7257992957822081,1.2188137198313118,0.6214363241461728,0.4757103619173306,3.3684955568340924,-4.680880540231874,1.1354150717868658,5.5297160347669,10.713721005552644,7.580547813560836,-0.4971868592044988,0.5943376130073326,-4.953579981997272,-2.907802536548372,-2.5675439717047888,0.7787520201945424,0.4730842902805661,-2.2183136439273023,4.062658324899345,-3.644867779330642,-1.577964296121716,3.1505424426463473,-3.8484344757889053,-0.6551869379864477,-1.7448319388031377,-0.517158510843089,4.267671803140634,0.8256168540336594,-3.871806134336146,-0.6611022218540116,1.8386567484997762,0.36032249428432656,-0.366859100289187,3.9636032805344623,-0.14453252387194782,1.781332355308326,1.2305180921003036,-1.072679540893552,-3.305767546288524,-0.15666406101738792,-0.5312143090125695,0.7990975372033174,-1.276068805033338,-2.923316260996822,-1.9973344877914418,-4.006928092078818,-0.24096602058454797,-1.6602760084066894,2.5969961631696186,0.8639470185447129,2.062003619343043,3.1162946587924294,-1.2524873906312188,0.49088159305049694,-1.9351233450892205,2.7047659253961536,-2.5123148507172353,0.487553844213002,1.1502081959487727,-2.4024172622573996,0.5415539835778197,0.5295572042077445,1.0705957310333218,2.380027588217147,-2.5478720481362434,-0.8058016480234472,0.5086306870580274,-0.4223039849941136,1.2161072305143035,-3.0386133216460793,0.6102522377696121,-4.1543193980221975,-0.587522203938934,-0.45862694785953984,-0.15457895350825543,0.7719006236975992,0.4337607864602873,-0.07315600266689572,0.39337751937758253,0.6233475864157345,1.2795335627049302,1.1774771714181018,2.8055334735044157,-1.4724532593127773,-2.243683525209627,1.8796950561231007,-3.598007212321984,0.37653012101835454,-0.5963977954361661,-0.4218488843714513,3.332824717768844,2.7198218491779556,-1.1117070662272617,-2.370594096045024,-0.3690489468338962,1.129449197604803,-0.08186447487816859,-0.7742796669474724,-1.2327421409442887,1.6406673174637263,-2.606795565091798,1.041108205326063,1.2931200890195984,-3.9334832156839035,-1.170627318117862,0.5121440449884445,-1.6520341028841667,-0.6240625574498246,0.8759164378413061,-2.0831380144253,-1.5599739452177674,2.4450058863596067,0.24843954850122527,0.22306199672925442,-0.06383761297059551,-3.1520129702168735,-1.7144011745400938,-1.1234013361383768,-1.8647156022497042,-0.7862842697889926,0.6649108825181856,1.9126725010641923
effective,17.133332013696126,-10.37962789225622,-6.43973554570725,3.340176485775637,6.204518412467261,-0.14469120774631827,-1.6616588033985085,0.8857580619138532,-2.500838785735435,-0.6138637490494324,-1.8847880750451687,1.3439272304091645,2.5220741288637454,1.4321189067534879,2.360669027967013,-0.23553753325484347,-2.1088203924247164,2.5637926977352645,0.4513945996915453,-0.05039746312676871,-0.8019398786540528,-1.1575081612044267,-0.904445688860216,-0.3033229444795482,-0.04333528607581838,-1.110652743228528,1.438606653670189,-0.1391538563940335,0.6701007663506949,1.0558903422408958,0.34427851930412773,-0.09350135494000603,1.1203004132884755,0.8553545012365369,-0.16673967722093522,-1.3965645080866906,0.4408910272969418,0.3059852778114166,-1.1412909946403582,-0.9524519225380275,0.5764036229758852,0.7052227723741438,-1.4994365603690003,0.4635324114075851,-1.7180151559153651,-0.1382074960850063,-0.21656387422440992,0.8252690677885244,0.04060459542499997,-1.2362887775246225,0.28315548328025253,0.5463771703276287,1.1448871811103856,-1.35832272533418,0.3450546921153108,1.1030111857009792,0.615419804922767,1.35072062303682,0.12418692634281231,0.03206723670028329,0.322961108171135,0.9774990932541446,-1.0523278674460579,0.29856592148057914,-0.4724406168228334,-0.6350682110660546,-1.2482579726767402,-0.6913724646493138,0.679455687342008,-0.6014434251197222,0.1922877861721665,-0.7430418239198352,0.23172519696400215,0.2718258147609872,1.9960967324138854,-1.0038681441080497,0.46114135998662514,-0.3201617771515855,-0.17795179955044946,-0.6021839847327215,0.6063881190493471,-0.08142799989112165,0.46794621683904897,-0.5997396169924177,-1.9517238253646954,-0.29082243780213546,-0.7408726448106668,0.09249650943137849,0.6789948911771541,0.8713653557029167,-0.6317031861642568,-2.108438540980467,0.19452216833080072,-0.931735314171449,0.19340265147458732,-1.0058046962346572,-1.0179887181096596,-0.03743536902909079,-1.3953340472477938,0.6436810890782095,-0.5549901598212532,-0.5674295283432388,0.8471806233395964,0.6346481131689602,-0.6515321922705586,-0.5360757847590034,-0.02220288786384102,-0.5806093804369925,-0.7434198302201354,0.07407286469203747,0.42605511140509345,0.25306987584990237,0.06662307822432198,-0.5332015401956316,1.5818520413478518,-0.5713310647594919,-1.1625184933316675,-0.6334380643583551,-1.5783039151883493,-1.8288578761930863,0.45262790771003086,1.6345388733570252,-0.47068143854078387,0.1179184223851488,-0.9648439173579153,-0.7072709255846603,0.19081296365928518,0.9676683199070706,0.11113069504643237,0.043803928364966355,0.5746135598040731,-0.43726370933721465,-0.08560787502367394,1.8678680458784462,-1.3492651080851563
dirty,17.53967717718093,-11.61818476442724,-5.308743648313502,-2.9425616368515826,0.9006741239783125,-1.4072741343688524,0.5509248211628687,1.5896419176053178,-1.4699967932814073,-2.117299186307047,-1.9111758993889152,-0.2996679698307501,0.455513034792668,0.6536114503060653,3.783899411057681,-1.0880958908168579,2.2887759652847723,1.0148805059390573,-0.9841969617733991,-0.6968634591566667,-1.8346939537223759,-0.03822874099017613,-0.5511342874016466,-2.940693618290966,-0.2855325898094221,1.4816873338176784,0.04511798000451283,0.7856662061093248,-0.4004852032787733,0.006354774669651586,-0.6316229272683618,0.05684033788541572,-1.3484075026545412,1.5776183084718636,-1.2029810530179097,-0.8355211210538743,0.4495051576999203,-1.552430457344393,-0.3055484025201673,-0.7719336019985806,0.2643467164611979,-0.3207605225269355,-0.4046732132987865,-0.774129366621805,-0.9751485530972999,-0.7981435816453039,-0.19063403816154223,0.08066478427641197,-0.5707164885628304,0.2604516684575159,0.37753804221510057,-0.7659211387323803,0.4931467213169502,-0.2207752968236084,-1.1600798107538837,0.280333798367451,-0.8813981411865839,-0.4465441147608676,-0.39707491975823395,0.38512720388249,0.04996059053701507,-0.134562715935649,0.30151214087338274,-1.0650012324891982,-0.23402317183687021,0.9030044288280517,0.07896728148149046,-0.6693091448354478,0.21798765967978134,0.8225053395448352,0.5043420259400989,0.5503655631996375,0.09101116165832224,0.10651809744872064,-0.4854138114548102,1.071011248567523,-0.6596808074790601,1.6891650031097336,0.008477804541778175,0.1809637579886785,-0.4342584016326092,0.018629114624484747,-0.979092612708742,0.27823355710701975,0.5282202225787609,-0.13929565656828355,0.5324841289016022,1.2403072404218767,-0.46437045709593155,0.3933425394767293,-0.6565235298002855,0.3986855331745928,1.6623047745737545,-0.8391816034078649,-0.5484250211685034,-0.14690755205609995,0.5364849889319339,-0.5062028220000697,0.24526444920833435,0.7102159673328448,1.6474042035910257,1.137460388349498,-0.5489658575018334,0.1539675635475758,1.4799030763498984,-1.3274137608449461,-0.9337684864653492,0.24701527143990967,1.332086721296211,0.1738894547896178,0.523748654719517,1.1789607359837988,0.2055773316649632,2.1727284427250764,-0.9935736690033997,1.599478862006662,-0.6126664161353245,-0.6612062629881654,0.9767292043131257,-0.3340724583472458,-0.7038151627163531,-0.4551044894659847,0.518003184674506,-0.05803658419406721,0.5688368780302606,-0.27965510767519997,-0.7958625239995398,0.47215204481608075,-0.30554628691705654,0.6027735874589041,-1.1384407227868185,-0.09726204164986173,-0.16605757246648659,-1.9215018952562979,-0.23205385788933805
smart,18.21462323041477,-11.63436292440579,-3.8723625496882086,-3.776544625665213,3.7314049801257227,-2.381947061466424,-2.7339373291146973,0.6320140368157782,-1.6440709407172178,0.46510403553092716,-1.4011004105896694,1.0214928844909665,-1.4778613486665246,1.325434840913192,3.8915665439934557,0.6937881216816496,0.34088544008717353,-2.0790945972096404,-1.5638802851200846,0.08386930610368201,-1.8119113967178284,1.2630143512237313,-0.9792918558438449,-0.42143988150857076,0.6633587286537259,-0.16839871747127946,1.6819879781837863,0.1123762585135183,-0.9722264231731244,-0.5457086359806242,-0.5716191579178095,-0.04391880812189636,0.5418541295828359,0.45640698984682554,-0.2249153060663217,-1.947593279453803,-0.5732020350099833,0.5511285802001953,0.10140267536683442,-1.317250556558453,-0.4360737067379283,0.05354616142471426,0.32365641608357,-0.6677117725089026,-1.0774638462814885,0.46881216587031976,0.7132874378316564,-0.7984901492561297,-0.47895299908742744,-0.41562263747897044,1.2601619151439551,0.05647158671421614,0.11657451660321563,-0.5089301847294994,-0.6528503646932292,0.9706600621950638,0.16008895576905444,-1.575171656749674,-0.11236017342628424,0.8016309226160844,-0.15744061951162885,0.5056025344340477,0.5142190156214856,-0.2525952776689466,-0.2995989212744842,0.5576429478340226,-0.3685504367378462,-1.3089151349948027,0.02185051190532494,-0.042848732437494284,-0.19106414549871778,1.0072870700321994,0.13947863855106613,-0.5914452153280599,-0.532552155353194,-0.41097077422929007,-0.7042127149250682,1.1503130822616263,0.171530600796401,0.46303683955723596,0.0907451006319569,0.6604266342822324,-0.15249871320362207,1.1327460793892916,-0.028801111452358127,0.24929512787170202,-0.2622257246296087,0.33301117624791604,1.0669019686962604,-0.5533546815410118,-1.2507077985806783,-0.505741184909519,0.920252296228006,0.2898697160300118,-0.7864480165953172,-1.1578702951447897,0.3755972694775148,-0.5364007134102444,1.265800595753359,-0.8509110829715056,0.48303493900030176,-0.2959797389563448,-1.1659696975698797,0.7544699945210478,0.901511456702764,0.40147689946142906,-0.20201818296049365,1.0158860996536825,0.9137932162596741,-1.0331691935513623,0.7055811708925911,-0.5248376689813651,-0.769905065117121,0.8377972925500118,0.4721219843727706,0.44515870454833345,-0.8919963741122041,0.24751673713367733,0.00671622373974717,-0.3711163623175899,0.2966006122020599,-0.40886721042478036,0.3810167335250218,0.6409920785100537,-0.5758300950834374,-0.3491720849927446,-0.9771544418207154,-1.59180678800633,-0.48256390163096113,-0.37464374211229445,0.2782462084060315,-0.3673534578002936,-0.08607575885346722,-1.059308016524235,0.3719141105339197
unjust,6.758960885568669,5.434673630168157,6.451839885900178,11.251998512773982,7.398970579988655,-12.783461674167846,-0.6660179023157708,-5.556561347177089,-5.857549435045025,-11.46845299686553,8.947514740342946,-13.1086718922712,-1.568340087074136,-0.5131485457134034,-8.550807235425792,-3.90719184109486,-4.489438495646302,2.6432494503927155,-0.24086532046473186,-0.9098957544520442,-3.296262770149156,1.1729221668569092,-0.7717346900379016,5.702251864064108,-1.878485906097057,2.1310080638219024,-1.3859074587001812,4.932695029379823,1.9068559273084322,2.3943066969568925,1.843981392062728,6.82752051483503,6.239136241293595,-1.425785751578063,3.5849787515490346,3.9608344040803414,-4.109101590423223,0.5046155121203524,4.022411813184284,0.5208307702710393,4.405660781178612,-0.9349572106829986,0.830266695269474,-5.038462835643841,-3.9844643628353844,-0.31305922173065875,-4.2510127491851675,-0.695797335126026,-1.1276207856933411,-0.21544703246608785,0.884085012463774,1.3360870822964033,3.8560320048694186,1.3853493586408496,0.9059582893564404,2.67956223038377,0.6735037340537243,0.4476312859309845,-1.6985461206605708,-4.808593427750407,-2.342443307175652,-1.9065140652175376,4.576652255136842,2.7421309440168056,7.683428880186677,2.5095072614739093,-5.123798179802583,-3.7505401123835123,-1.3094209040815874,1.8267777776831309,0.5716662807984916,-0.07164691130616402,-1.510425292210474,-0.8660873313431385,-3.2171164755052883,-0.16305142853919694,-2.647090218901494,-5.391133732832557,-3.172662609603436,-0.17635649165060818,2.7775380336078825,0.17996292034475003,4.033652015939844,3.2298834396225913,-0.758175657943789,2.0520820695063535,4.387583854585189,0.22257902352872042,2.3805100722793617,-2.3080103731996973,-2.788601858103092,1.9079168969523137,0.23949850228040628,-3.1695393303420505,0.06699979967969344,1.111950312279256,-1.1253740979576359,-2.1767970418225895,2.479618042133628,1.11693809746052,2.8115272023052165,1.040893308193039,0.9205045673006846,1.3996493922517639,-0.8286716694021051,0.014961592316949306,1.0449131302386248,-2.6942620902692145,0.7317702076939777,0.1762105156090995,-0.659138877378689,0.5242867411937956,0.9381976662610787,0.6562932621342831,1.034503559278594,-1.431634815747388,-2.7790382595065672,-0.35854727209300546,-1.1134559717740915,-0.31542874098253265,0.40482827003748073,-0.30190248102640194,-0.9374655203380783,-3.0408365557836126,-1.9572747518555353,0.2552045436270344,-2.039692394655381,-2.090124144865676,1.0767330016659282,-0.09839056998234028,1.5202367873249671,1.8888451921469478,-1.1091344435351174,0.6674866402711975,-1.3748595104863144
sad,9.573570067077231,4.559543439465428,-1.9068279537647175,-7.10794176640382,-8.31913233180731,-5.818259647905279,8.117119750662702,1.2739602817228295,0.7521671934607759,3.6391210678430235,-1.0188144596693476,-1.3320156770563463,1.725316576347148,-1.9743912785045017,-0.30883416679124837,4.02637900816288,-0.6469823002237497,0.41100203686098624,7.671844500448422,4.2026394846216615,1.746346036925207,2.0728762096614113,4.174892740398297,3.340391086230452,6.6055401573976065,2.1417970429859015,-4.2892479462958475,2.3502852777092187,2.739775144259588,0.8718839391047701,2.3442333557180395,4.381879100676709,2.4050149553101408,4.368383016600165,0.5356385581742386,-4.225707367496806,-2.1481004293912473,-0.13297640958530663,-5.047885982344769,1.2648282844340646,5.962129764859864,6.489443972312737,5.8687037491872385,3.622461336430049,0.0314333845226889,1.7433712587398575,2.7142458007883885,1.2600318887000737,1.6844025357042771,-2.4450100606997744,-1.146843912640507,2.6574460016370383,1.9024214332341194,-1.7964582493919063,0.042435130973630324,3.87431793387435,2.970120459566258,2.071248823482333,1.188256696539224,-1.4979201983134225,-4.414161535378271,-0.33132577676306096,3.7004659766755936,-1.2720765329934824,-2.9756178405564917,-0.9411449233568683,2.5339623570666667,-0.605524571240346,-1.4072518699081153,3.945364459530974,-0.026981244485411712,-0.6912111470303405,-0.1887842456408957,-4.346422437168972,1.669602461407509,-1.3825911471979768,-0.5369466274983764,0.44833119898750545,2.3657264867225765,-1.1314146125901923,-0.7056305970436902,4.613039098596155,-2.4798693007533816,-0.9802199693166336,-3.8683801523681765,-0.053436278492256205,-1.023178011706208,-0.35162848642393757,1.3627358681344746,1.9610194448648948,-3.7109153140380724,-3.478228353072436,1.2113884742414187,-1.183689308561541,-0.20495417967234836,1.2372248358879518,2.34325331137071,-0.41084961164628225,-2.0805931740265846,-1.9187683330201821,1.9632477786716633,-2.068774277361633,2.105677977764319,-0.8045063452455112,3.2781085441107503,-0.7999084401550073,-0.15017348255639332,2.4048117913588407,0.5790044800611596,2.599091958370361,-1.7345859034022986,1.5947455305456242,-2.641595093258371,0.06461383816662604,0.0941532527206996,0.012965379068601257,-1.6037238864760293,0.2957490619814087,2.393057417217663,2.5148244526020918,3.4746531390421573,1.0426083943826963,0.6002440310650476,0.3357005296843167,0.3399507792774976,-1.753295638201186,1.1803090251286505,1.3895640340714954,0.02982658781633921,2.0580011837351586,1.5111375558858633,-0.6605520729302474,2.021903778875335,1.9074822225232508,-0.9467024281831903
useless,2.941266479609919,10.97926599634397,-7.099332335231428,4.979765821521275,-1.5569554197021251,-1.9907774529265783,-4.798293865362531,2.9643592164188983,3.9800638901597845,-1.92139392342844,-4.440005522690863,-4.693054593745762,-1.18033573035137,-1.1338358695737236,5.432723348222162,-1.6144626800555948,1.7021979960449876,1.6975671302560988,10.57561477897988,-1.7464300030764384,-2.6945273824546687,-4.464555062499013,2.0950337217646156,-3.932539253702153,-2.362541692488532,-0.1854079927181479,4.180926824087602,-1.6078215327794376,-3.100001958184917,-0.9958598202064438,-0.18702166262067924,4.980200178805284,3.983641255187473,-3.0395805401601783,3.1452284439101303,3.664659616701596,-1.3402626031311269,-2.105019962242609,-1.8922697160076833,0.5561199341072222,-0.30168655478148004,-1.929992907226866,1.7668414967314796,2.4242379358737636,-3.0947329400285084,1.3388665980988894,-0.46986082023066933,2.6914917771720255,0.602376141298625,0.0016799976618236759,-0.014016685890728527,-1.062777240547345,1.6596134376758713,-0.5891890897016469,0.7218547419935398,-0.6109440866836143,-1.951654586849684,2.2401853893839756,-0.4580151365447219,-1.8982588736443322,0.07422688755877002,0.9922097026056226,-1.7315509451309499,-0.9389502349539212,-1.2481167273048128,0.017608124067462098,0.050395865380750436,0.13990581301507943,2.645851337797723,0.6142605603451857,-2.624371163343147,3.5005888355381756,-0.1421025169528421,0.6463286655456748,0.5020785446564386,0.04282484727373276,-1.0844793574181175,1.1993312169337595,2.2300731440350794,-4.829205256698588,-1.2222501868808737,2.976466003562455,0.34909414776967795,-2.4414727224441024,1.7458812189803,0.19669542527901213,1.0093305947335847,-1.1131675198028463,1.6716881202067553,1.2815291951846757,-0.3778118264306601,0.8786554715931411,1.46325377071554,-1.6855614644552606,1.8374845570201757,-1.1991454462562081,1.6611709218813822,0.5512465862822501,3.038858222940928,0.1303871894698682,-0.8310156855108097,1.0601321194589508,1.880256544797389,-1.832271926856927,-1.1130149334758928,-1.3665827861170432,0.3872535178928666,0.3186813971530037,0.5947018602873396,-0.2922443874868371,2.028986319913239,-1.054833748951766,-1.0275001203275742,1.189856476973374,1.1463882415833677,-3.1327169530422703,-1.7884772027738571,0.48760370005721526,1.6814329018608631,0.09030504787461752,2.3233398777207532,-1.6773750992906387,-1.480521218300879,0.5069977254149072,0.4697206725693564,2.518126998876188,-0.9585694917888683,2.947163548593812,0.41629988011109265,0.20843545673198316,0.4933868657242355,-0.2786320502082347,1.1499815835779423,1.3613282585078026,0.03642313649432568
useful,3.898954660842425,11.147884182990234,-12.612317479177095,8.276686643698381,-3.8465911784996383,-3.145004148838033,2.331843000236982,5.783328074707052,4.048928100770718,-0.9930193712986934,-5.343644919776552,9.317301018650873,-2.894023058395241,5.489438006552853,5.666411866658669,1.8860361539681665,5.090814696214318,0.4611516105745324,8.734553347815204,2.485216855408991,-1.5469070964952019,-2.5180930488744915,0.622750321590571,-2.31472970939624,-1.172250078111037,-4.974672989866527,-0.6302254609329779,-0.40737282045276363,-4.660172359306395,-3.7809643997408413,2.5425303470198264,2.685288031321491,-2.0674040380020373,-2.983151499994262,0.4928974274253258,0.8816628574539519,-1.1875785080714942,-1.970200738957896,-2.0473311144258433,1.9937835402552389,1.600779692767187,-2.775686238307864,2.369776276018306,-3.7383760963491404,-3.4531976221915044,-1.0126304156731902,-0.23986541382461657,-2.225603988305867,-2.530588071152705,-2.0341678461240233,-2.4888276501227087,-2.7509677276468913,2.1183953880980075,0.8531432466303398,-4.686643542174338,0.5227928074923243,-0.22090686423793232,3.4121246372732488,0.6559427959228293,-2.374077184416378,-2.660653250099975,0.22506452653763834,2.384283691699148,2.9247227720352074,-0.6504792314365007,-0.2392424494127295,2.2072616108363383,2.928734945417554,0.179253400158078,0.6978677035788392,1.1921314365735665,-2.0810361147364373,2.557525517468156,2.523122336046644,1.6968321090510075,0.7546364282323744,-0.8683739883284493,-0.40510466512365845,-0.8870713860815187,-2.3062853236431677,-1.0300513929854387,-0.24284561448252964,2.7751338520499074,-3.0041019579832287,1.3856539767132394,-0.5739244909954764,0.5760532637073635,0.3628924793795543,-2.1936559146232875,2.226765697366788,-1.707627033184629,0.2477424258275609,-1.4713115300694808,1.524417140129804,0.9510640851043386,1.1344183939863246,-0.05239500562900282,-2.062458794698357,2.30319732725181,0.9896594439691457,-0.02424392155821276,3.981877500276639,-0.2669613665504133,-1.5978605012366889,0.4909137005602297,0.10442435095783692,0.28841697248122566,1.407435229427589,-2.2752540514992563,-1.051295248226899,-1.5387159407700384,1.3366952607803138,-1.348341502664665,2.886810691816357,1.791408404796452,-1.117020955363021,-0.24343097290614785,-1.0971948890537813,0.4704560043719235,-1.2598760658250077,-0.2509250066882404,-1.2899312800323324,-3.155621169791784,0.9668655930987523,3.500705772591724,0.3857396621782744,-2.5604988894334006,-0.9759539333383257,-1.0365193937990713,-0.14527475128170414,-2.0394446786611367,0.5705956365318068,-1.2959635422512157,-2.045603772209569,-3.2161295100109486
mature,5.939304662618125,5.594827546496214,-7.377762544533045,-1.3471467619403792,-3.760901580665863,5.540434421420691,-9.937542180119202,-0.18028739436237837,7.638872373652572,0.4627286482765492,1.041514821617621,-2.8205731937560587,-0.9921547286998226,-1.197223099216233,-1.4901058354316583,5.634747644435953,-2.4971490077588476,-3.061763976952096,0.408043000627478,-1.2403663725576197,6.9154286679533215,4.5270435248298435,-6.176129466765554,-3.8826962525586994,-3.6722510139488223,0.06963371451845088,-2.4772251269156533,13.57606427631812,1.0650296407960658,-5.7941200961328665,-1.5241211799424772,-2.969216611667824,-2.514592009779063,-3.0953170378747696,-3.722907323091334,-1.7320492788918467,2.120404626329558,-3.2670399839543376,-3.266365006945402,-2.0613790749890186,1.820435583487806,6.788129502790515,1.683944362227726,-2.106914337114805,1.7904576248354622,4.075822883131245,1.6675101063946518,0.3208342633016237,0.41362941443732865,0.7373851092477977,4.253691562886212,-4.176260551725149,2.6793823907185006,1.5127788220946765,1.511834131058211,-0.5513136279649197,-0.9804266499347654,-2.503518979626767,-1.4809701718715529,-0.553401285560358,1.3795379455978203,-0.6774818838487578,-2.363999782623285,-0.43274892954385463,2.6492571833514083,-0.1824842324814984,2.5237811332644062,0.48901309395274817,1.0547774337505043,-1.8191074616173148,-0.1685104583156698,-0.16570066731325414,-2.3390116594954864,-0.6785634851605805,-1.8188115237708253,-0.07050716423020043,-1.43642968399895,-0.17970232547468343,-0.3994940988570089,-0.06202227430402955,0.13264580202608792,-0.19313020654042806,0.8058550518408354,1.2958106652687031,-0.6751114357136638,-0.2682878447417328,1.3409708006155348,-0.15397861302835758,-0.4621609202202688,1.787343726858933,-0.18052716675399383,-1.3171784717653112,-0.8191402633635482,-1.0567333252111852,1.2296997172266313,1.087350632974572,-0.3614717069658956,0.2930767751407688,0.4175129355586914,0.4725160073008222,-1.6610456034290357,-0.5755692067122791,2.4245874443193385,-1.4272347794796973,-0.5556271284636329,1.8763109868706376,0.1415150832132052,0.38618756524328746,-0.3472975486796377,1.0946887024389795,0.00905890798064548,0.36149095277005877,0.3778574856267576,-0.2746531779023978,0.3233072451917486,-0.9956203286414166,1.8938158929239044,-0.5991908727002258,1.1526171345432088,-0.3622750005093458,0.2412603120203469,0.3160851952526065,-0.05246540727530912,0.3879355388919598,3.3519944376717525,-0.9552006410191491,0.23906792477379663,0.46132490350768546,0.7675848718299166,1.5842824305330538,0.27370374993890223,0.7144018404858624,-2.1590103310331097,1.1542590911667,0.41901487916105995
healthy,17.832643238123158,-11.666501909911174,-6.33474006067676,0.17287268704221068,4.03730916000911,-0.6537418837826123,-0.849582429185688,3.6423226071327903,-2.355108857621276,0.10609604186769425,0.35795039559888703,-0.6020123034602934,0.23972439079163954,-2.0595034955685922,1.9440556180612765,-0.10043130542502014,-0.8120320984913758,0.35321197992282216,-1.4455446968107257,0.3493714776777983,1.1021174540686556,-1.0300488319950214,-1.9306736929886414,-3.570007142432905,-0.1587334863027856,-1.1033472065418866,1.7818664588533086,-0.36331652973888173,-0.7702199421000773,-1.6707117071677808,-0.5382459060076064,0.5121401135938272,0.4107664111738009,2.08156074368033,-1.7654987653374705,-1.317300296714727,1.835464918265782,0.32214372925932105,-2.2852085154403095,-0.7551115608387088,0.23141273305212018,0.4699611748501902,-1.8256386415778618,0.7428300893231878,0.8300574494669309,0.3920543168539515,-0.35706320367497874,-0.4003854239699715,0.4063989193237608,-1.0494597533871994,0.8574278001849445,0.2650056721101125,-0.7168035129689485,-0.5563291753302302,-0.38792583184989077,0.9032243697874365,-0.22094543365707522,0.6650220455538256,-0.5606028173919384,1.4412937619375588,0.3948702718426932,-0.12723717046408317,-0.6304395361771333,-0.47631544766564554,0.11083235303206858,-0.20932909830698498,0.036107826954306976,-1.2134242713788237,0.08175264626271506,-0.7166164916193005,-1.0684606119360471,0.31024572218414553,1.3791028591379875,0.28047677671661253,0.6079369037563918,-0.2831939843591918,0.7482351635129791,-1.1570329421106584,-0.4178747077001397,-0.6703485806839394,-0.20347910261417276,1.1152331096141168,1.1174411413526897,-0.11471452754077385,-0.634837622029293,-0.19514695144617783,-0.13401139191195371,-0.37847846809175767,0.4471015614706776,0.39299603922865234,-0.9902594349925559,-0.06460218634724804,0.9353210441189318,-0.7855804340170573,0.5386960255326738,-1.4538884079249397,0.7822452814994639,-1.2854368725087006,0.0022738799717144102,-0.02524275085286323,0.39625229295413167,0.5588611853099141,-0.685739084300775,-0.019399950338979337,-1.035648732626426,-0.13574912498694108,1.534534570630858,0.03879665479809816,-0.8545291609122572,-0.7233248603585871,0.6354132692479108,1.0076932124393216,-0.6493750981349375,1.4921886519701595,0.7317113225615308,-1.7970284532321035,-0.5809644991922296,-0.11655997407985709,-1.1248132318330395,-0.9572972665571816,1.2578055025061459,0.5514019760702619,0.8558756209895032,1.1374213208763098,0.021705533054567506,-0.1723921090865757,0.3084459573328248,1.4587802338848803,1.2750112927142692,-0.9719486740794316,-0.0751100240052532,-0.2141811566369015,-0.21565094272970425,0.4565746550956533,-0.4970201401451786
convincing,8.020179723617087,6.680781319926888,3.4563940186863498,6.272945101425553,-4.414956417857666,-2.1723106185277206,0.728057836921121,-9.502559081573763,0.8638144342889357,5.53828486185826,-4.168613168145164,2.957815529107948,2.776627181242183,10.289045281139998,1.844778078086458,-0.49178368583256127,1.683687396625739,-1.5336621132134967,-1.6211987548805211,-6.048303400389874,6.836132168549584,3.650219564272979,7.892314948178959,-4.072336571506358,-4.8503479992361855,-3.5225384296346767,1.4709009074734003,-3.1073089036854338,0.625289151935419,-3.9261171683130796,4.48462598034011,-6.726368831864301,8.995575747333737,9.668024271684391,-4.9957237500285485,0.3519992070446215,-1.9949394646186969,-3.9955835605253904,3.558967624490242,-1.0229525550385399,3.1855630997228044,-1.9827220729694341,0.5908633153971186,-2.2094359616547683,2.579007148236668,-1.5327618693619165,-6.711700570494576,0.735006139624074,-0.19346205281294326,0.8199249129256134,-3.4518609564420744,-2.7082095454122213,-0.9673822602649662,4.219637590272547,-1.2456399722339468,-0.3485546713785823,1.7438910659925184,-2.070751415436449,2.7253034020973845,1.6573967254160613,0.21164251028438533,-2.548786974615797,1.8169043922154862,-1.3549729264454249,-0.9613650210652979,1.5674709026459859,-0.7888004824324946,1.3072047697881446,1.7875956870452376,-3.29995406264334,-0.6058118404182895,2.928127494430467,-0.4173308086480132,0.24731116949413257,-0.059622257218820814,0.9567017604957818,-0.8458380456650981,-0.7295416277942027,-1.4110430343382188,-2.25947373100472,-1.199678261406364,-1.4043413508725775,2.9512906024724703,-1.329662215051796,0.8094526630946068,-0.9515024808424629,-0.704440794694004,-0.5176942822037759,-1.6581793297821779,-0.8046199261682843,-3.158666688901762,-2.7894353098840754,-0.42430248816880023,-1.6878904851534224,-0.18626004570600133,-1.0556802438812523,-1.3886223885772375,2.911734043376133,1.853952828122873,-0.10784534199586333,0.2492077316545047,0.325530542637789,-1.7625467573432079,1.8532077617507894,2.7982059636549925,-2.001114097933495,1.6155373360743948,1.4528256899607788,-0.23972694417023724,1.2882075104677628,-0.5216064509281854,0.30112394534159365,-1.9463207666822824,-1.727349840827103,-1.1076538467779147,0.8305434859174912,2.580479661767551,0.5597205707331605,1.0948806306697012,-0.6132010892596002,0.23043361332628987,-0.6127987403699685,-0.01572637668504721,-1.2235820083366815,-0.12924104008586956,0.6157909781433303,1.3453801601354416,-1.4107361985166873,0.2923738909669972,1.0687498848421686,1.797500190542123,0.920604800613596,-0.694346650028517,0.4591807068340024,-1.753408506475761
short,19.11732587984132,-13.990258475205183,-2.1345950911521965,-1.675639985071406,1.3313554130691942,-2.2338829560986233,-0.02205701669059649,-1.9931272207872237,-0.31774106890160775,-1.9709897521607809,0.4170983066510613,0.05994848418721864,2.085330461141333,2.7737259908927694,2.1898311785230793,0.8547151441534545,1.2319017947143305,-0.463811133929292,0.5786064922644084,1.7333645459247025,-3.4626995451778537,1.587831283291152,-1.2265298657088821,0.1731028757693496,0.6269747003918212,-3.191929056069246,-0.7023475234908486,0.07675833135396894,-2.8283799996796444,-1.635992457655842,-0.7340239029855847,1.9623727649581502,-0.2870608894050197,2.8979814394294277,0.29226213579933186,2.212664050803225,-0.28662977901928877,0.8180382772217316,-0.9662062933783636,1.9239214523491392,-1.698895102981693,2.0958901375121703,1.9743284753321546,-1.231372919845673,-0.025967681999344648,-1.3695713073719538,0.4224920308820641,-0.5884119066934462,0.36964363177413256,-2.016452141837962,-3.1282694552855745,-0.04749199913936453,0.052206232046865746,-1.219146891511086,0.17016022902666428,-1.5411691144466455,1.017667132412298,1.74527118243063,1.9467939197118944,-0.8115118390141554,1.2286694585197746,-0.8968459758212511,0.24610461016048868,-0.43292270793288845,-0.3720795106335726,1.5626975784107917,0.9252848839348697,-1.7340977270206135,0.10247193419093725,0.3174415089802577,-0.04712364358202102,0.5564850952674959,-1.119640749488584,0.1559059381676674,0.13483724074789685,-0.21732156548131248,-1.6967231427477738,1.623342755479915,0.09080115000342358,2.1000259449387504,0.37026733297928727,-0.1864341095066192,0.13727740224858945,-0.23351363854808785,0.3681150995604648,2.1618804215469565,-0.456815729054557,1.8998600234105978,-0.06139438713662241,-1.7525820747083296,0.327842379777841,-0.08357307974008006,-0.6815075507996656,0.43661233415275025,-0.5484681269526099,1.0034966170917454,0.6319915018585511,-0.21830130463274403,0.0024772160605694175,-0.3886179837832246,1.7090132597794667,0.5618525006285308,-0.7478278290896286,1.3039756948388097,-0.24216826543359288,0.6222727227661519,-1.725673957960969,0.36406807674710373,-1.6565401126724812,-0.06600289538361392,0.35835053174670767,-1.4662714104049168,0.6401662510759845,-0.8244662651475109,-0.8570326684881915,2.056543664073008,1.5334743152867139,-0.9658740387394117,1.243112851890632,0.4324778587575135,-1.7102175580967909,-1.3494429076705874,0.5563755870587952,0.11575611660955241,-0.24816478731222713,0.9040810245708699,-0.49272902384160483,0.06274306310747962,0.8064446993135458,1.9465477032517353,-0.32459045371771156,0.5874370787326971,-0.5133457245911287,-1.652752664653165,-0.7659322639023615
unintelligent,6.090711496378509,8.812246663819556,7.2985411802542055,0.419812142043735,-0.6602969088369353,-1.847613983092113,-7.195024674096139,-4.316959329966708,0.9973046461710344,1.7571851091157218,-3.4975564504588523,-3.285675170375678,-7.548238342790395,2.8106559638536233,4.026361495219954,2.890566073134962,-4.939627150313097,-2.646538947645595,-6.098312879036273,1.3887887511917578,-2.8946555319495206,-2.376728254318916,-2.3682738126136464,5.553047184562352,-3.789494417350514,-4.3843897291085945,0.6687654558582788,-0.6827848420968419,-5.665256356794642,2.9324558226821997,2.358715785282401,0.7253175988701829,1.13784948792277,-0.4230794976466894,3.054886054716943,-5.715656301965915,-2.1985222379829077,0.17704310745723176,4.7795594211858665,0.5388415467470554,-6.269002580477709,1.0657819912383275,4.0283783443276135,2.3910429520034877,-0.7516519777132555,3.932648229787022,-1.642956597721266,-2.6879069110095926,-1.7372281681024997,-5.8539660600557015,-2.067918468073852,-0.5547369200735166,4.185592884069557,3.7402338175279524,-1.7819246039304957,-3.101758066293329,-3.042881566814541,-0.31054933545515706,1.306461876790815,-3.330870899012379,2.8215699713923335,-0.6186515673389418,1.8097785627391536,0.5354233939462542,-3.13984856712536,0.8204115672839277,-0.02004089552478696,1.727585978856771,-1.4242130771944785,-1.0748257014444857,1.2643102904046164,1.60099652705697,-2.3655913755923437,2.207647257981991,-1.6960162544880486,-4.665379256385626,-0.9791454226558662,0.44737315088222485,-1.1075958852385417,1.5197072120055435,-2.256320583489516,0.6416073990613229,0.2469431711932012,-0.33330059699457953,-1.063277501752916,0.1630497757206668,0.26733123264953823,1.4149200998458193,-2.981833070777781,0.8642328677279841,2.044984521236729,1.6994072345206004,1.039987824695225,0.1961080842558951,-0.057026604686764626,-0.6870741050750271,0.6991109840570612,-1.4222275190056417,-4.105401753194161,0.034755187165718966,0.8404605503893339,0.012409379883340094,-0.5314433389718868,0.2901781755377557,0.7952142752787263,2.0161055357301385,-0.14673240768555518,2.1961415072148327,0.7201891162192413,-0.8040220282771774,0.2030148482808971,0.4716636745599337,2.7147458603648826,-0.7461716739152127,2.413827883771325,0.802455626286193,-0.7849366133223159,0.6103024094707689,-0.3457838232913097,-1.0971075379864617,0.0337743566233958,-0.8401086669090813,0.5600829362340979,0.291567146341712,0.17393855168924144,-1.3682674905344847,-4.539659902788835,1.981368179542241,-1.6429397223883901,-1.4070012629528887,-0.6444634338360978,-1.9400866080358399,-0.37486797156129975,2.7700006082388002,-1.0233976350138485
unkind,17.309119948024524,-3.5242848689467814,4.612999078079058,-1.176994117153704,-1.0190149568101572,0.2706620056584615,2.7962561832107373,-3.9386582915824198,2.498211426299575,-0.08049079403095986,-4.245150861690052,-2.530569876097216,-1.8997720810717353,1.4678298474575162,-4.196498376255157,-0.023406163364156216,1.3867396535055867,-3.9715636101302936,7.915294995279399,-1.3601034675780852,0.14797482599434247,-6.0537136960657465,-0.8450734262363839,3.661829429974625,2.713775904956,0.9368685196365457,-1.9833638305376005,2.666653690827565,4.782503232966869,-0.686205371358661,-3.706331813156048,2.6008967012398116,0.836718853067236,-0.570918290986766,-0.48545365361950066,-1.3773666215762577,-4.370699304893073,-1.1141859923384263,3.4116949862631665,-1.4025510997327282,-8.042023777210797,-1.1914702832573603,-0.39935568256213666,-0.8062239429632111,-0.4213469457372299,2.1923816496496933,2.411031382845657,2.1892824698479947,-0.8896808429560115,3.4714415619505092,-3.113058493060861,1.143962783530676,-0.5668392549385084,5.052750835364174,-4.017730462192081,-2.530770830639721,5.358156086480796,-0.49390792543813083,-2.091466508352571,2.268636507058225,1.7547225804003457,-0.6280366512817133,-2.299679373315864,4.134305413447998,-4.7423711088601435,3.7477159461656835,-1.1004158366018664,1.8875575392959658,-0.6069241209598963,-3.255645339506877,6.649537191762069,-4.471237869074244,-0.1854822147331091,-2.404288697605403,-4.459122399312077,8.613381347086138,-5.580281783479317,-4.022409203323224,2.690496935287316,3.423915816130803,2.86013791741999,3.160079938735359,6.279361553677157,0.9935814004509032,-4.04104274789889,-3.250326070511949,-1.2749774735860666,-0.17514897333718166,-2.656210324808656,2.021181263642273,3.1993181104512987,-0.21720759571083245,2.060373456317286,4.011142505494989,-1.2590114463652644,2.7235066173925095,-0.6747619129698761,0.7077872125126734,0.20402874154210007,-3.762727723018396,-1.7024862063764419,1.598213156648756,2.2185913537847655,5.514966193365286,-2.9521080553936456,-2.6238985489841826,6.233009955118144,1.6367238904760306,1.8624807733323812,0.5327263479334585,-0.49925795189164524,1.3025654376371392,1.8562115317433237,-1.4524871621228048,-1.1830001639432253,-0.6911015183035035,-1.9301000956523997,-1.1025641320453243,0.150983831625847,1.4194252183547296,0.9004764934521732,-3.3875555088487053,-3.8447343314396183,5.284965742962184,1.238026289890984,-0.32205072619692576,3.931592078234383,-0.4296552562598828,-0.6506731809141478,1.8514731506652518,0.3635756865322681,-0.3926366154409034,-0.11770374164894537,-1.664807089727531,2.603695074343112
impolite,15.802531986153257,2.6286752387743753,4.668982565735977,1.541409545197139,-6.763654331276332,1.650724311688548,1.9678744180249432,-3.2959624740791744,1.9252886571320111,2.6710486662525694,-4.78037866881219,5.768883979052392,-1.2979658826231357,0.40050970878413755,-6.779758430556189,-1.5088400296902642,-1.3040656170420055,3.4541307431693618,1.8461907689632313,-5.971077590207798,-0.4248306291160247,-4.574155537113104,-1.3718833376902762,-1.9053371422193741,-3.865881695025173,0.7309250499139262,-2.68750475911266,-1.25521181126732,-0.9273891107800425,-0.09237661675072294,-0.7762320170617591,-4.695087490216524,-2.7036685355386214,-6.161419255140719,-1.8774860393813084,2.9120966065980443,1.109555669176992,-1.5415115153682684,4.598379333676813,0.985851077102706,-1.4422764576816087,-1.6564461184477839,-4.803393169582407,0.10955611006475503,0.41582864577914624,1.0288069780251943,3.967670821987151,2.9708381863222066,7.719131180696893,5.197070532788386,-0.2461942731401465,0.507388906070828,3.3254937305704515,0.5197359029907603,2.4060554923080226,-5.0211797027888485,0.5453788098118069,-1.3024289080641323,-3.3065040176396594,-6.460317487202231,-0.23608336730348703,-2.369016573730014,-0.6006896076636483,-2.6360436264557254,-0.0773505015916026,3.3285893475705324,-1.0662595288550216,-1.7343869571352764,1.3314672605918618,-0.5302418886963138,-1.1833938374272361,-0.41478849603522994,0.26685916551028843,2.0598489626197316,-2.0601535007240113,-3.4498613627324275,-1.955307756850811,-0.4475340908225427,0.7335354408386059,0.5678581733542718,-2.8653980488111115,-1.3395929195424163,-0.06118353764222699,4.305572781546312,0.5789518805793032,1.9637720126364395,2.0830868724684644,-1.2759032640700099,0.7007358460821066,-2.76253974952453,-4.872649941293001,0.037236253332955924,2.6369648116576694,0.27640875348332455,0.08068175778266373,-0.41392442839092486,-5.261416459028856,0.42756558016915,-3.271510365106298,1.3813620402878868,2.981410253139638,2.91198538982177,-2.9477429984829766,-0.20061685119160513,0.9884859517331319,-2.2022496510860132,2.068665764483237,1.8175560312684587,-0.2800227662953707,-0.10736681544509562,2.9219523454301783,-0.7034305700433168,-3.4749505962137985,1.3776894111863869,-1.9493457769054847,-1.457496811348626,1.21622226511599,1.7421614237242837,0.270570169941921,-0.31345207068789693,-0.829562939564119,5.964329509102355,-2.7138355588076037,-0.8534295448761714,0.1925799072481563,0.07049313793959078,2.6768130405043,0.9133797074803154,-3.63242346973081,-1.3773156228892556,1.1370846954069616,-2.375559964326123,-1.0978213783297806,0.19737107684009306,1.2787141855939368
pessimist,8.997034556361584,11.693567432433136,7.974474895160834,-1.3110382524583206,-3.9895435882173462,5.06413535349176,6.225836240804957,0.6459043530331912,-12.446914529847984,19.40446655496891,13.129042940651948,2.1827360926022115,-3.790733824457024,7.856926894654856,-1.4922085358232753,-0.9570352347440426,-3.542992878164796,-2.8358058756382234,1.738703287899163,5.161647429313661,-4.410506500423509,-2.6739185455603867,-8.450126045846973,-6.154994028077189,5.339451673431168,-0.5149146074156928,3.325041166509079,2.936597204648727,0.8375052725908149,1.0211524293846852,5.144999553547182,-0.856927056722145,-1.123118868140735,0.1401045962075423,1.27541294692534,3.1308130899482065,0.5743975324484567,-2.22801844439261,1.8160517471853561,1.3936579031441974,2.094426225946047,1.1875951165232352,0.47583360036582056,1.9319453392425063,-5.283214338386003,-2.8046534468083006,-0.6353026638097743,0.13879602089007223,0.4846166488625412,0.8422562650838202,-2.1245524412365593,-1.0456999951855288,-0.4061279146955538,-0.933513270206028,3.983724605703253,-1.044769739974916,-0.6647910194314981,-2.8104220282774386,-2.5900495301254463,0.38976266729114445,2.583921280048683,1.4916575500072682,-0.44496096025918197,3.277573861012909,-0.3720193957980987,1.7131320082620543,-0.4133286776810404,0.141030173734926,-0.8399435285309071,-0.543301274254697,-0.527607387953952,1.661179076751512,-0.6236077844235025,-0.09455362111490431,-1.5855188237722038,0.9454066215199216,-0.9465354177221583,0.10811849640474519,1.8235590057912807,-0.10985905118453383,1.4935510525105118,0.18011724325871695,-1.759133259093621,-2.8329940619566254,-0.3399162583344603,1.256406659644081,-0.2592075103315343,0.29148310920994225,2.1770730875603843,-0.06684430252520258,-0.25854270872617685,0.7402616301399544,1.8806280869299115,-0.007514141248062469,2.7154529544282777,-0.8718100970212579,-0.9489538441909886,-1.0181648432577968,-1.524018023893926,-0.49535572419809176,1.1138255634368395,-1.1205895140560582,-0.48518247265066233,-2.2152904937306284,1.683737821420591,-0.755388549195908,0.8286787464077249,-0.04397244115362518,-0.934285583401069,3.4431337760683673,1.9531087578040505,1.488582894544586,-0.9975081462552674,-0.011350268693445603,-0.08880463005580122,1.684572976092573,-0.6958380369279791,0.3727861375237195,-0.5976337896029114,0.1404122977807243,0.27678692325376053,-0.9143296548425792,0.7751866000081692,0.3557464512651893,0.11757332373441096,1.585906405433489,-0.6112518869306676,-0.5639065936726116,0.1362573685744657,-0.5175207456880921,-2.477704689168174,1.1679456287433132,-1.9827867357688684,-2.8045005368735874,-0.10658929807966265
unpredictable,6.494318491751372,10.505440836852166,2.9760846288288243,10.13601495548821,-8.614357069997967,2.7432012164661708,3.1632090664168064,-7.478980885212298,-4.502540263735108,1.0281190285767818,1.190870588077508,-0.8739123820409205,-4.236731515084666,-0.5673961716814663,0.8277689658264481,-4.653751710412782,-1.1006000927490442,-2.8797074755257226,-10.793953929066117,2.64103078267032,-6.6029978807181005,3.3738876650725347,-2.939114284708033,3.6317435329159813,-1.1879583151433095,-1.6709085974783668,3.1318651915488362,1.6100240347120283,1.644838624247308,0.2776501676603319,-7.829456292832243,-1.9339645687801654,1.2166214268647288,1.65266168810678,3.6938511300647803,1.56954683496798,1.5290176229787062,3.0208453901640255,2.598798683787718,3.334397835841168,3.409946277481454,-2.9805499456579896,0.34965204512068715,5.839043321800221,-0.2303808456419702,3.3149591889803807,-1.418234946945558,-0.30344678326008434,0.18288455497287853,-2.3202107698756267,2.5613681436407423,1.2380661878692851,3.8103935065120935,-1.2425955533376354,3.7712750392913947,-3.7908630218252024,-0.184127638635162,5.5488185655106,2.94040255935988,2.427216320003202,-2.202048125313301,1.6972300214510294,-2.615711636403615,-1.7869673247369027,0.30643307764309713,1.6441656534260025,3.2514517913811116,-2.7916795008115804,-1.416738434818881,1.589554832107534,2.7631053877690763,2.901640827187987,2.6272891536672938,0.7096653138972238,-1.199896502606499,-2.366133295482054,-1.2790400411090979,0.34288450792942293,3.3000606524185927,0.7091929350432219,1.3236629274031528,-0.2965600701028217,-1.306980542205098,0.09220274616722142,-4.740984895413781,-2.5771548421994392,-1.1006457312784401,-0.3269608064964808,1.0139816094982674,1.4858589730485734,-0.5737238801233996,0.7249258184652678,-2.0544590868821535,0.16068313216389604,-0.6281819109603504,1.6670921378868115,0.7806592845214618,1.3859692015499818,1.0433894760334546,0.8235099428635613,-1.706366303183707,3.5701165541621447,0.043902419886415314,-1.3150652284621245,1.5106988258277745,-0.7082888507353406,-0.5500870062505319,1.3729345012241858,-0.7183060731984429,2.320844735046707,-2.2870031560627266,1.2401294277376531,1.1196884832753742,-0.6678653638454295,-0.1460889614324992,-0.957778811411406,-0.5880924169723768,0.4220688757423133,0.514811711289448,-2.853500848629462,0.9560645142880992,-1.4005092739644063,0.5043217564550256,1.51479057907553,1.1554980862777442,-0.5136305724507121,0.5044242211334313,-0.19809090781016767,1.2572572480696358,1.2840431806895467,-0.13015066088151295,-0.16480573316798086,0.5821168502591599,0.23222205164604723,-0.43610490068610475
brave,6.722186882278931,9.205595689881369,-1.178686190642983,-9.687155285280603,1.5384872445092042,-7.798483890448405,-0.5296871016821952,1.5143905177472634,8.164207885892905,3.6874401143048177,-0.6929105311152166,3.9610404418205465,7.441302139695812,-0.9677877242684959,-2.5162965767677052,-5.315310567636721,3.8035811632847354,-0.2526870005283569,-0.7587370084121521,-3.8477826471171706,3.160814319298089,11.188338683518877,-0.860613122807104,0.9980775632029807,2.6463401590593327,0.6376600166676445,-2.7620588856115007,-0.9745421194944622,4.81106243152304,-1.9323139077134306,2.408721699341871,0.010061221855956362,-2.4719832454491466,1.7593006105804752,0.728514564168158,-7.366450538702469,0.3962180532148743,-1.7650549042002408,-1.4205284055476652,4.032613227256815,-1.4305375108218583,-1.1155248248963536,-0.7831842796119811,-4.184398328469568,-2.356566976865526,0.5835010344925372,-3.68841986199743,-1.8461899731555282,1.125654430927852,-3.0605494434516,-1.7695910391597092,-0.28798771651063404,-1.9937830943232755,-2.4941324722293596,1.5137286081041608,1.0894925935330744,1.8400383748526434,1.0349629514629346,-1.7072972196782945,-4.298186837211838,-0.18075185205190114,2.3230325277514083,0.010813412330562665,0.7944714881955082,4.130740871592573,-1.6538480927284727,-0.07402046164387707,1.7103702223859039,-5.808574762163605,0.13525562323119494,-0.567295339433906,-0.3062354212955032,0.4557569283927899,0.6534397892683251,-0.2984778158219066,-2.3106318482764063,0.803513127065258,-1.9485150459709941,4.657067588608688,-0.5570516434848326,-2.35418728326277,-2.505885096025699,-1.102039604688801,0.3091201265490107,4.070514253372183,-0.9890430472566187,-0.29043927738971603,1.103096571228532,0.8278315830287952,2.2881287619167994,3.033089092513881,4.594612809143966,-1.0697098816786166,-2.8496598622235996,0.5798500583749894,1.831234711559776,-1.5877181846082962,1.320539783702352,-0.21458515678407789,-1.9561376165751616,-0.5187345233269376,0.20204988388562128,1.3224719782958854,1.4421135546133579,-1.4965401604205346,1.7555242790696601,-2.0562965928994568,0.5879030380735291,1.8653387431212916,1.3933111639584752,2.3300280039997268,2.618511823380149,-1.0182417383576539,0.7023944763601754,0.886678270827664,0.9770909863241927,0.5762646154030721,2.7287274391465246,2.8525723303128543,1.1149887500641085,1.6999807917332976,0.8233088993712243,0.28180663788025084,-0.10614790256799402,-0.6147139645443468,2.805444952869881,3.249143339416926,-0.774082156061947,0.6752905078601437,0.10848324576146343,-2.3824578587856795,1.8570960339090277,-0.8715448940805066,1.1076673765659089,2.734559712502066
entertaining,6.573290655218668,9.05239134525037,-1.1684800673172067,3.0196174538651483,-8.5796101417196,-1.0525595256329414,1.1683811713030663,-1.4311550652497678,-1.0831731894221954,3.0210208078741965,-6.274830610641091,0.39539903135466486,-0.24704377216146592,4.448974619998443,1.525075275004781,2.8063978984592874,1.465607746525756,-4.339462808292887,-0.20681725194572964,-0.22970889085991844,2.7200383572024918,-2.1022808964813726,3.562452277820912,4.235193442506438,-1.4701776288865571,-1.249065712078662,-3.1976154693955485,1.1494150276647392,0.964733941736285,0.4047013092044288,-0.8858906501009723,1.7041646572671085,-2.147020616329991,1.413962776086292,0.3166546800163231,0.6039749349662807,0.06782341245239681,3.7866957100584147,4.754010419297398,1.9884469591320584,-0.3440994808371413,4.1591946903736,-3.0703865941574127,0.02812307708134855,-2.052155659488381,0.4589822948482992,-1.1940091654524578,0.027456683062096594,0.570605699527476,1.4760522353792975,-1.261489891786635,1.2762097766967468,0.4962818906679181,-0.27658184573826045,2.681356772191305,3.9071273524067713,-1.1888129414284763,-1.943759369507488,-1.3678559039032145,0.4230851785733981,-0.8123936407169103,0.18400375059848476,-1.5162697309464555,0.6296035713151966,-2.4409549932966645,2.1014878266441084,8.06198791433006,-2.1634853133338794,-1.2249980264393394,0.88020269348976,1.2842040489796254,0.6051946384559523,-1.9080528362565434,0.3758731710504394,2.2361824476321095,-2.6480279001594766,-0.8094779796002429,-3.111559038130175,-1.8371066756221077,-1.8320933222782803,-0.18834499754433498,2.7445643207898422,0.4905190955961622,-2.7331761638258287,0.42160133249268716,0.5948626504051537,-1.6865401461440748,-4.053027829722512,0.5706706769918195,-0.9489351575276845,-0.09453262675098785,-1.1160574730756538,2.176650807251668,0.35148508005961365,-1.6466516611669428,-1.9264169136986953,-1.462647419703844,-1.3254823349170286,2.2761406870520555,-3.452049852362518,-1.261903456058319,-1.538456619346983,-1.7396513304479613,1.8534837185547721,0.1543779322612589,0.45787574891969607,-4.660754517492006,-4.407708693000089,0.47232729294433207,0.6627670859183022,2.5622253144863527,0.29164178467000956,3.952931259189759,-2.7250978481781543,0.6911654282857528,-2.5606980834143767,0.7258813455342841,-0.5744494219251143,0.25508801440890355,0.06905189408218294,0.8508259271419724,2.2490852110581696,0.4804138513305417,-1.3976257307070301,0.5892991482473808,0.13632378009076868,-1.007885358796827,1.1176550916046226,1.0574605863780253,3.350061780795561,0.5811220519208151,3.5681698793060264,0.04632552559550422,-1.8355312586730255,0.9302267807053569
strange,9.55358829531851,6.839102479342452,-6.141640132434717,0.20651068300161526,-10.822574594863118,-12.243904934108924,2.462709409238919,-2.3377197508523033,-1.5749924421564059,2.6099617241094633,-6.949154141252682,-1.446870028803146,1.663839553096129,-3.9062820802187117,0.34072595482198836,2.158118284517802,1.246605378919443,3.0313566764304727,-0.5263519168404337,1.7342712436960155,4.503273988536261,3.5072337834947804,3.828295663867583,10.653175581820214,1.8843242222214902,-2.687545753173357,1.745909881146571,0.23248863401227285,3.5998472177744425,2.9333229686304167,-2.3623579379532513,-2.0273172821622345,-2.523740913741876,-0.7545273072669988,-6.948198710076108,-1.6727535795198962,-2.370081274568479,-1.9114115120508455,3.0558292079127005,3.3697815877031654,4.1728806591794765,-1.6416021100874307,1.4772683199471284,3.379954202414072,-0.6991256863770663,2.922581470964964,-3.4190907001248187,-0.6905768689644519,-2.005642793164062,6.584548733981073,-3.1525386920239624,-1.6269113525895882,-2.1182269497354977,-5.048111085224589,-4.753148908040229,2.710694975372787,-5.413419683476302,3.106515235672306,-0.42147369885449637,-6.025692598531855,-1.555519744061232,2.3810398216745914,1.5730610754540197,-2.586882655411157,2.3745191527177454,1.9525986232429937,0.23709702718410544,4.014189545043979,-2.699494369482025,-1.564182998858767,-1.7899327621908732,-3.3850632858375023,-2.126288842355639,-3.171890254637019,0.2375361332475097,1.5620858707529641,2.558118093503604,2.5695943901587066,3.8981479695734285,2.7535123357411764,1.5561266339059523,-3.6962370479465037,0.2692142159891362,-0.32799062487362796,-3.8214120258457323,3.2979824890882354,-0.05268373015609127,-1.2780974575522124,-2.6887470920636236,-0.37736616739567524,-0.7032454283439703,1.8703996272914087,-1.197092372249536,-1.0853928160417736,-0.031062931064187286,-2.576877559991532,0.5590746992419854,-4.953122323062521,3.1813833454065787,-0.37615428240912013,-3.950759424446643,-0.8944351692763305,-1.4297321499690336,1.4024046551419613,-3.7114304267710283,-0.2894747339925621,-1.313319695691304,0.06750809635039709,-1.7175410829338258,-3.271484583281029,-0.1388444242123031,3.333718630984835,0.013817483854696751,-0.12814532202529913,-2.652843062770185,-1.3703274668271632,-0.18525739019847487,0.6579747173493772,0.7480287704424406,-4.244069083191045,0.5245425795054715,1.0231814728523303,-0.29162153546671343,1.7735949194117575,-0.2824279386189977,1.39108666005717,1.288417800575339,0.1456436843653255,-0.9637980512531905,-1.6333619391415846,1.3243057565293777,-1.644563695338948,-1.3496314154254643,-0.6067942235292703,0.6677202797180308
friendly,16.767864887099012,-9.488194046187369,-6.44389862099184,0.351006971502899,5.140293583009892,-1.136550730486257,0.22897702413122958,4.013064845163953,-2.6503327027959407,-1.6321841254290355,-1.402788375580297,0.7217957967121554,3.2105503320343547,0.6800178920442721,1.7837250292050468,0.9208949592044928,-1.259982592601683,-0.5934473845209491,-1.541077505085356,-0.07540802181964132,-1.691808556453592,-1.5652617873324182,-0.013565004419887255,-1.010923427212699,0.3038543971612833,-0.7705138393873704,2.8931578441557977,1.1942144028061652,0.8128545762408459,-0.7495923140981278,0.11407687242301782,0.168947656303861,-0.7637484212807285,1.7420565158724919,-0.047823082666070306,-0.409244241602461,1.3166442361637802,0.5798328031314832,-0.6681163754855636,-1.088345841665213,-0.5786961554198146,0.27220645705721885,-0.9032793860943732,0.5255680299249639,-0.6804368808012722,0.5523538829620606,-0.550268671512241,0.44743783277984284,-0.2560372130258225,0.2585097530381688,0.8076763631114982,-0.5765620271531832,-0.175376820602134,-0.5169829258300022,-0.4322071144178068,1.6214608571544724,0.432006186609328,-0.08242431508216373,0.5947818087880642,0.2852772201703061,-1.3893858574396702,0.5081024321165689,-1.6729450887446051,1.4537007799921162,-1.383877068269542,-0.7183380343596868,-0.35684126310783615,0.10802056824744927,-0.8261689936244485,0.07776391485787441,-1.378817173254427,-0.24896728051285155,0.014736227503723732,0.20695420599175146,0.7631549519612065,-1.1096340057797742,0.4083338759154564,-0.20324519641264263,-0.1241659133242332,-0.419949562145446,0.07124537038586427,0.4258378455245386,1.2162131082676702,-0.8744693421988134,-1.8854623164166389,-0.5432985354590866,-0.28654287218183633,0.23894588561515065,0.005392439668051382,0.8630152889370132,-0.38903247615415953,-0.41768201476223266,0.5978118605104636,-0.41224393616669813,0.5930332265608175,-0.9798126614393571,-0.4166343720796903,-0.055081519577388764,-0.5944919461377216,0.6480208825854514,0.9092421723538693,0.1530942465149787,-0.44052805653147825,0.45822628089032136,0.5506941125286897,-0.3529400675759463,-0.19359292817005605,-0.4397252064652336,-0.5438942464844294,-0.03609787185983899,0.8053474828919851,0.20060199004628296,-0.45089114393346585,-1.0667883960579054,1.9589327267157257,-1.4628936804968689,-0.9770406849729553,-0.22685099238870965,-0.6854247618838132,-0.22075714925876258,0.8765458598355365,1.512434018503438,0.5724702379328572,0.6886030503419365,0.07572274601003867,0.22505255288162893,0.49761648644947537,0.4284144134398857,-0.37127438499033255,-0.6119260983335538,0.4411407375010493,-0.9691776962168177,-0.061720127047991145,0.9951748789456017,-0.727222803885491
polite,5.453293549844202,10.639012214881875,-0.3288886826953188,-8.840448600372454,4.551489871032996,-2.196444073598257,2.6557479188443835,2.4083343170760982,-6.837908405442739,-8.362140831076102,-1.9312828656717758,3.202198943725255,7.529211147491127,2.28784558154438,-3.767927270440034,4.4367415102561605,-0.06301358103671985,-0.9686627147384229,-2.472560682499231,-6.806753684398269,2.5397235171480994,-3.146189715619114,-0.8920004587916259,5.22067245059,4.530211623017946,-0.5694660140658622,1.1687236066333089,0.107797619017681,-2.0991945949772823,-2.3092969768372287,3.2033593241894427,-9.891345340487778,1.1733718771169268,-5.701667412564394,2.606308871421311,-0.03860121841546163,0.032864438342724,1.238084568232287,-3.4780719970896365,4.492304957279495,0.28550317969621425,-0.27299520334030813,1.2809891040853751,-1.864957557432911,0.426076559060812,-0.34582639756820194,4.71066135951478,1.233225785205341,-0.6071931281893476,-2.0830194854563513,-2.863619135781394,-3.6054660019544356,-1.3200166766481043,-1.487544691220857,-4.434794290287354,-1.6044698035111224,0.40067454659490054,-0.3092899781082168,-1.1832080448130005,-1.6994803151274578,1.203861207405723,1.0492033340899753,-3.7393159104539673,-1.0140406474464863,-1.4448051466707184,1.0930115016195248,-3.6865944460629563,0.21534730133697652,-1.5665108154455458,-0.45749029020456394,1.9203534513514,1.5964667133297668,-0.59747727989561,-1.354340231266853,0.2715748549991511,-1.1577741260542584,-0.43085038197754344,-2.115753914096465,2.198016514786586,1.5792304991940775,-0.8139864143349502,-2.2090210711389275,0.5924321013187619,-0.24287342815958626,-0.01856145230299732,0.02330438075081806,1.6465488964442456,-2.679754487348931,1.831676264051623,2.0308176129920894,-3.3333679179320104,-0.6575980172254206,0.12468535869122224,-1.1914107392641782,-1.821022968995499,2.065705522769476,-4.2312987879872574,-1.4754690174030611,-0.250245795992791,-0.33594154363280326,-3.166780472182188,-1.8031723783552835,-1.4110696406874579,-2.5820068399988134,-1.4132241659862061,-2.8560715469134004,-2.791845914324595,-3.7281354605681325,-0.7469000584156431,-0.1778748124091737,3.096537254710387,3.0806068920429484,-2.046487589276711,2.8040151811562635,-2.9623353547969278,-0.011041943516653722,0.29014984824238016,-2.2128439798275554,-2.107174721254123,0.1897030100684226,-0.5572751663156629,0.28502035867958964,1.718532361991827,-0.4328613685545811,-1.4468803172762794,-1.041855704487032,-2.4276432645627795,-0.5318404753926784,0.03530483012820447,0.36287896863786023,0.5865328927187254,2.3816032322003493,-0.2672464422595094,0.5926646677335553,-1.0399071451903907
clumsy,0.0624716012717304,14.722198240804977,-5.988126822556651,-7.2371834791198095,0.5601624945693461,-1.931707712468174,-6.964064470938786,-4.7111734924939235,2.335711164760176,-3.53766341965155,-3.6524226146357455,4.01298515600135,0.8238603916053723,-3.245951678334384,3.570725429877421,-2.0430168276816616,-3.423856577502963,4.510821378034626,0.023180285496934745,2.8018672012237382,-0.9841033453611707,-2.302802025109401,-0.6713756814965363,1.5733541616364448,2.3396439139883567,0.6459831513495325,1.1400234021463445,-1.2452418273879284,-1.0374221351107527,0.8772193115619235,0.4188679081653457,-0.8739074867787847,2.3033358272211895,-0.043551092267117966,-0.3996429445506746,6.230225909452532,5.159132834659376,3.526503040658389,-3.876187717216533,-2.4609564230714143,3.929945837348292,1.5246580422620009,5.14919675919236,0.31992910913471057,0.9866302443915335,1.9449831265135527,0.6334070297952415,4.273896536559552,0.9211971632730934,-0.007681964883867551,-1.3368533752256566,-1.3595140711983378,-1.897809602931347,0.37695133893785693,3.265180099082332,-0.6215236115767425,2.0332140081331675,0.6114416282053511,1.2241864499439212,1.3759680071119464,0.10297171656842817,2.425255135709478,0.429086247341846,3.134915315065961,-0.9465518346874049,-0.4093686416462614,0.41707879211534593,1.900231949877707,-0.7691981575482882,-1.5003829277385987,-3.3690377704168024,-0.8864677920795272,2.4695337906684878,1.386093217961265,-1.1906594121859388,0.10061223996953875,-0.8843284588205389,-0.793799190475288,-1.868979346114452,1.3308863680628764,1.3020204991796414,-0.6471349070474961,-0.7534681717866302,-0.6292331877595513,0.2792035667054258,-0.939429474107761,-0.32507157319200447,1.5169148965573522,0.3615414721666635,-4.461526844886083,0.7635993637484303,0.29217627114493994,1.5265359429194798,0.8625916628298963,0.8317779617792793,-3.8234318654407495,0.10389384243398274,0.9515820133561218,0.16032073920383305,-3.331889031512787,-2.7537835266180113,1.2289473544055807,-1.2164734726211017,-1.588776460647366,-1.8331539087003965,-2.440080053280109,2.43112345144467,2.613518460917389,-1.2854421707988817,-0.6114734824992176,-1.042288746225153,2.949328346228733,1.9112159385674814,0.8180665356784238,-0.3118937385453979,1.3660052346641682,0.3248417953768519,-2.1466137314112332,-0.5865049489822695,-0.10835806251761688,1.986585029755157,-1.3647892144200782,-1.280859382917121,-1.1200477223359078,-0.023426957704362112,-0.056289273613943,-2.8122538057095836,-0.34481478919454617,-1.2620503006970016,-0.48217031139866373,2.3906664421748034,-0.07871547850587911,-1.8065899029842931,-1.5752147643127639,0.9324185525559482
inefficient,3.525489212952762,13.374759466526067,-12.419838965797899,8.012861313242848,3.414145918466853,3.3680669780629633,-9.728525390605105,-4.72490088763845,-3.0974444026574486,-4.701018167735339,0.01838429439458934,7.008821345415695,0.9596759880661377,2.6182655143547073,-1.9273808869790725,-2.382216883650643,0.7041904908423506,2.8886188591573436,5.691483051521174,3.711764623326557,-2.3618151543708126,-2.304553385990263,-3.3418348650839476,2.685387472324328,1.8100482443720058,-0.10190236510738084,4.5025578891608,2.1830466761189125,1.2827239361393712,3.282256413055709,2.390058370770012,-2.057941602889883,-0.6638656944766792,-2.2491177375388847,-2.6259318945422816,-3.4038727490717053,-4.225812530049978,-1.0756617605726864,1.1548287702505742,-2.8385872551389855,5.811753479386552,1.4252024729384019,-4.673684679483498,1.7816483580924616,0.6075002549250765,1.8951104881982708,0.7131416519363425,4.727990384082312,1.4346245852528807,-1.3143765225284563,-0.6791609623924754,0.8441037250625378,1.4935262363169004,0.15854257154538365,-5.360118243754692,1.202029322433618,-0.30697838755535467,-0.5738146472131055,1.8253395944815203,-0.05393366498824922,-0.24575968914712287,-2.8313655000154507,2.0237487152527347,-0.20028074210686211,1.9132375139159918,-3.4245070385876972,0.557263576155352,-0.725284535671518,3.714762947551137,-1.2734657104806941,1.5509670562933922,-3.411606368365626,0.2663788390624417,2.0331226338868094,0.5186981639647952,0.8870022042576797,0.3298589452039848,3.8726506475201288,1.7994183441821787,-2.88571760387561,0.8397090534153969,-0.7373497294944176,-0.05296356027928637,0.6940352431889,0.6621115763716322,1.1934708742635425,-0.990264112099209,0.6977818864343959,0.6779566645324325,0.9752748522569341,0.5227766946102973,2.447696982713219,-1.8074648124751727,-1.8973753452954036,-0.06628702438149581,-1.3149309548714163,-1.2231701367985688,0.8528252364759333,0.3371909171457226,-0.11683654579607507,0.49719210184544366,0.4458166678007663,-0.19942875623156264,0.006881655999792754,-1.9838940139803285,-1.0560152268255587,-1.9397998872421869,2.3520827163733986,-0.4260227447545549,0.16873795840558842,1.7078860591500928,-1.7017970967476086,1.7187444601914232,-2.6954659742799945,-0.2478242172311602,-0.43331822602339914,0.10676480494017258,-0.1776578442344531,-1.8883915773541438,-1.6627209107074103,0.9543156255831566,0.9651530451938571,-0.8200439144631579,-0.6523246923813447,1.0758614075236006,0.1004580784047025,-0.5950731726599007,1.1183674100364842,-0.3417583314865101,-0.6413691855840309,-0.7698213114530548,0.4960700743184338,0.3015089655005262,-2.3012110614914105,-0.04233054219115543
unattractive,3.1333640925343356,9.299772009426176,1.0839222915216506,6.066307563966863,-8.892955077548574,-1.4997403779389908,-0.4327414687887062,6.051750208173168,4.0046512145808,-5.686873695740019,-4.142831892599001,-3.74813703302531,-1.7546426643046984,4.726532265758497,-6.407984147966278,2.5718284146839965,-8.778956515967865,-1.0454613641282093,-7.67830934557447,5.733649608601,-3.1535414802009964,-1.8293386576835218,-4.597661426110065,2.032132337468795,-1.981648489941718,-2.823837375225474,-1.7405760362811789,-4.995489418444289,1.184483009611905,1.9577655305396142,3.837188414455243,9.055208676576218,2.5988677714739743,5.803523342503201,-1.4388287449305712,0.14486507323073838,3.293877443846913,2.8512271087849728,-2.5908199619589563,-3.1511512588327526,-1.7493405415314724,1.2933642983114988,-1.4405325827667221,3.0326730035033025,-1.6886287157305295,2.358529104094906,0.7679351485817524,3.6188131200099867,0.02549071072320165,-0.8968759501141892,0.6194059748421354,1.5184107770584587,-0.5469183994091668,-0.46367484659189656,-1.7562140383087297,-2.750729125256603,1.2364383904244194,-1.936359340987843,-2.5497682250488345,-0.15896398719983568,3.7633189683460158,-0.6998524448102525,1.8060202188634962,-1.4640541134885101,1.3431411645245137,1.565150609990354,0.009265473189336943,2.8784355857440813,2.8581445742492195,1.4652154877255315,3.5444547683339094,1.8296074612202835,-0.782758039435907,1.6869098587539777,1.2170553302681222,-3.2349440689268545,-1.5116446836193982,3.269779263856656,6.354819307652374,0.1417892116287814,0.24993937202174352,-3.7251982940569506,-0.530969494202502,-1.2547490905299905,-3.3247490704403653,2.519456639615047,0.3383675030180143,-1.5759292476052382,-0.5055104246441722,1.1595407146486667,-0.8998481433867231,-2.254781750825726,-1.8180092729968238,-1.1641594751694753,-1.069745693835117,2.2951467849683955,0.0327966224057045,1.1281923578256414,2.3991788928557036,1.059091561227122,0.05059210406661729,1.6965877829578706,-0.11462827482937821,-1.081364793569171,2.096949251315847,-0.3961085343920767,0.36139033172499024,-1.391231211664229,0.8633606732248098,-2.1878458377980374,-0.5044782637352464,0.7826415810724086,-0.8935848123954843,-0.7338932073219571,0.7455873047940987,-0.16381722396522638,1.724203512816051,1.01026575326791,0.49048825921030237,-1.3495714411779807,-1.6416554497597662,-1.1736778043669127,-0.7607961800367148,-1.0761676944571141,1.1594159213911452,1.393030581649639,-1.6123948954411855,-0.15726364824156963,-0.9394385546620464,-0.6707164164669563,-2.610317881824034,-0.17916400015419082,-0.9977103769117308,-0.81627018740983,2.254939499362156
interesting,15.210142633573549,-11.263573842812274,-6.5609643271595,0.8417031250183935,2.137302568218072,-3.318861175803925,0.759201557752245,3.5673700512438344,-3.2194724720215455,1.0932478346130812,-2.9540225757326817,0.21364773584854177,2.4327900844087553,0.40582357219404563,3.3069702668522973,0.10873539147674394,-0.48962221249776344,-0.5223964306668214,-1.2586488436266074,-0.17523114443313403,-0.16261629297604216,-0.08976599169783614,0.04571724584521796,-0.7477912013483837,-0.3898796314407128,-1.5555692088754924,0.9680217147096759,0.4535390881556006,-0.07099702827979831,-0.030858467106959758,-1.2621386508839476,1.808056880746124,0.10990174766544293,1.7140702971277804,-1.1460983312913815,0.02848755690929378,-0.6685300127765798,-0.2755493512475632,-0.26921774779920804,0.7240045039242622,1.0548145146348202,0.10092274332598036,-0.06253476398398691,-0.9878935545437432,0.11135733914953821,-0.02794560308457773,-0.09237247759454813,-0.09008062438752582,0.06778147014790159,0.686142436541118,0.30606578879019497,-0.17742332865908078,0.15193063485630637,-0.16396638253540005,1.0461178660377772,1.0823881216434212,-0.6912322763407911,-0.23966047681661143,-0.5166342243873824,0.5555774957978731,-0.24323905017464054,-0.4435840393381715,-0.6212061268631599,0.5918209549563221,-0.18802447616356016,1.6964047900593426,0.3496256204369597,-0.5394267270824243,-0.32087365522256406,0.311161502671761,0.3757542400404975,-1.1715382516861528,0.26412417752216344,0.5843951999042647,-0.5047891312981726,-0.4758485946412299,-0.09937758650802389,-1.120206082188985,-0.25782534218331493,0.046868019528095405,-0.0919276400959051,0.490311199935405,0.5195460972156105,-0.8025766227993817,-0.39737342109533175,0.19667394793917026,-0.3105741477732757,-0.19853659887620817,-0.002756969880550985,0.7583344719580762,0.359598756772268,0.20175625532036526,0.0736899872892841,0.3381768420549234,-0.02669973340801846,-0.5857482155195327,-1.0421470064043807,-1.8992942495663399,-0.13758444733402012,0.4478112537245095,0.5781898327036109,-0.3313384759450084,-0.6595965443998456,0.08385185653359623,-0.1320721179541942,-2.103310276667759,-1.1814843696478479,0.24983371160532808,-0.925306824398621,-0.9047030972823996,0.26409075479577127,0.2205464379066033,0.533656215145839,-0.7747081103411201,1.018676877388936,-1.3278189164803655,-0.8039033924559382,-0.954491333600452,-0.33991122748757185,-0.1348243485607021,-0.4799648972544868,1.3986440827028357,-0.22580819287938905,0.5460914499896506,-0.5917124615563112,0.08321485499243557,0.3129787516019081,-0.20898939728314528,-0.6464559642198898,0.8261880061036591,-0.34875924481019294,-0.045222181637752844,0.0794717232946181,0.22963749765354022,-0.6139927640775712
slow,18.81972218024756,-12.585339673644278,-3.259894171421797,-1.959315475224191,3.1971979364685255,-0.8193466967974695,0.0021676113583288656,-1.4242338504468073,-1.8552738876692465,-2.0401721379706848,-2.2950926898076163,0.1354083760653756,0.6416972010291058,0.10566217712484631,0.8988062312587174,-1.9268220341486118,0.6915558168795152,-1.279437890450616,0.6406107595370905,1.9535069042335766,-1.228477137440005,1.006868649448274,-0.7594514181432716,-0.9999232086223556,0.6213940853261046,-1.6507639463126347,2.0383132730214037,-0.13602876370365571,-1.0814901035617435,-1.894512000344718,0.09713847403644746,-0.6258279315892311,-1.0667416695562384,1.5957286598465894,0.4037514116100871,-0.4948135906238227,-2.6820813950913522,1.2386801057295953,0.2300333768445862,0.05781826135864371,0.7980912096610713,0.3394855382357391,0.4519468672690381,0.41898719078432994,2.275749744185127,0.6344529651066438,1.3070859159542487,2.0664968870845697,-0.6457623195601825,1.1926951292574575,-1.9119449141357727,0.9273701301488156,0.3108933510281087,-2.3813398428306836,1.0335363383475231,-0.48554932737635637,-1.0565039530153493,-1.5076493471030452,-1.3330065869650267,0.07112717286606687,0.7064920365825499,0.6607844300400845,-0.011704246248362036,-0.056611275518547416,1.8224418004760066,-1.5058135352726394,-0.00881068031951513,0.9809244966466011,-0.027374631662540234,0.8648115479345098,0.0002949983622316386,0.0018290265985367203,-1.1960321472397613,-0.21566403597133843,-1.2434834116779692,0.6288869973091633,0.18239006401529864,1.0966868071917621,-0.7520034602664819,0.3766223308822286,-0.9560844765858941,0.6891565196669402,-0.5196022020133496,1.0023941395546205,0.320388013658356,0.3536409366094689,0.7373494209178306,0.7263903361329384,-1.312820653286312,-1.5141065116660253,-0.46312689874399926,0.6535918303076356,0.27153245342588533,0.9041406157365137,-0.8907553122641908,-0.7890125591108175,1.5941585803719147,0.2781845980885101,1.0396475075375051,0.6861534786522875,-0.1015607096256733,0.00936532700656028,0.26166812159809544,0.14182933048326962,0.08973240019510843,-0.0338839078834853,-0.3244943495185459,1.4863836618762067,0.24063812317451846,0.19255837107303583,0.1667431229422751,-0.6352714561236334,0.5495022268163584,0.44717817809345833,-0.8490952326560203,0.5469638482815784,0.4501506332313244,0.7436692766237012,-0.44150309935656595,0.3976396938448768,0.7097027263271405,0.048627036326763115,-0.3264411382085733,0.33569163705576066,0.8016227783358686,0.6474423359853884,-1.0885248971334753,0.4165001127338148,-0.42171034581786376,0.49266991323457054,-1.0993200064739308,0.03161318089056131,-0.706638450846478,-0.2822897073861956,0.6267362315612294
