unlucky,-0.038710825,0.05451312,-0.21637888,-0.053409796,0.28332537,-0.26030213,0.3780225,0.019042293,0.16790976,0.7069494,-0.14171886,-0.035838265,0.10748681,0.04564456,-0.14666043,-0.15941085,0.22630222,-0.38757223,-0.11724305,-0.16092241,0.075751446,0.19796407,-0.42414808,0.30360705,-0.24149899,-0.18202913,-0.41109514,-0.06880585,-0.19056775,-0.37695628,-0.027595114,-0.061461724,-0.39141196,0.09552284,-0.016202623,-0.16128838,-0.10360525,-0.030362427,0.06082674,0.35601133,0.05753886,0.052511264,-0.13641417,-0.14375345,0.030611198,-0.23408803,0.15063217,0.17238781,-0.18010698,-0.023719452,-0.041905247,-0.7032901,0.10136928,0.31133693,-0.18323448,0.016347652,-0.50511795,-0.2078987,-0.40753144,-0.32879332,0.085605755,0.2100726,0.12870508,0.17088458,-0.11812656,0.0893326,0.5333224,-0.0058042645,0.09660716,0.028052863,-0.6322049,0.11661583,-0.26068076,0.30167794,0.16110165,0.107192874,-0.110605955,-0.04206521,0.11237419,-0.16452351,0.29814744,-0.026077047,-0.17969523,0.13289386,-0.11202971,-0.18316391,-0.10665445,0.06728239,0.011764464,-0.11918082,0.07079788,0.016135614,0.084586605,0.06195668,0.18507054,-0.1194157,-0.07366659,0.032672547,-0.01969264,0.30780372,-0.057742916,0.096855685,0.23715027,0.3074576,-0.089776926,0.25410613,0.11395712,0.34139538,-0.26612607,-0.08641367,0.20841236,0.05639239,-0.100686334,0.011087296,0.113374904,-0.22795765,0.077645555,-0.1440326,-0.20834978,-0.3989818,-0.12152884,-0.19889157,-0.1205316,0.07667988,-0.17438944,0.03333785,0.053394042,0.3493814,-0.08705067,0.07191738,0.21873045,-0.0909029,0.100441396,0.3709632,0.07310806,-0.13746367,0.016903754,0.037046857,0.20995367,-0.24094109,0.13825111,-0.41289455,0.048706103,0.1881112,0.053571485,0.5519131,0.13996607,-0.055256058,-0.049741067,-0.3372606,0.2776438,-0.099418394,0.099371284,0.12113775,-0.3089623,0.006532629,-0.013109585,-0.11435249,0.21339723,-0.03321164,0.019785333,0.26578885,0.04686338,-0.008867779,-0.037157424,0.15856196,-0.22038493,-0.3988221,-0.09280918,-0.11400919,-0.20883504,-0.11388514,0.05266906,0.09320743,0.23646918,-0.07498191,-0.5038655,0.24973235,-0.10238892,0.352022,-0.3796975,-0.3119203,0.10300732,-0.24385972,0.14601846,-0.08595366,0.16135633,-0.2681372,-0.49526438,-0.24733563,0.20041856,0.35554287,0.043206725,-0.24870905,-0.08516932,0.14271088,-0.04990221,0.1562438,0.22246012,-0.08586441,-0.14992583,-0.278087,0.12419144,-0.566678,-0.0015332669,-0.36947006,-0.059005033,0.123950385,0.072648734,0.15422803,-0.019313116,0.17537323,-0.022723937,0.31808168,0.17687848,0.32691798,-0.041300647,0.25861183,0.25521952,0.32046902,0.34143478,0.3231868,-0.31743732,-0.42316857,-0.493793,-0.27361438,-0.17523439,-0.17321786,0.059413344,-0.4348269,0.36580056,-0.11936551,0.1411272,-0.023343291,-0.150141,-0.4753973,-0.23344095,0.019328507,-0.15789351,-0.14685233,-0.106206834,0.05291034,-0.038773417,-0.06687882,-0.051662643,0.17969851,-0.17020208,-0.1841422,0.018431807,0.15293713,0.23604354,0.32726344,0.35290784,-0.03706909,0.17677793,-0.05771967,-0.19935861,-0.19083793,-0.30124944,0.39707223,-0.17520264,-0.09952844,0.39518034,0.0704028,-0.15087618,-0.2248594,-0.1541929,0.33534366,-0.18239239,0.17415759,-0.16515914,-0.10426788,-0.41493472,-0.05779981,0.31963432,-0.1908398,0.029646298,0.09484939,0.22368236,0.20400271,0.91985244,0.22868744,0.1443145,-0.10240959,-0.074022084,0.18906899,0.0011706396,0.042776324,-0.27590513,-0.06679411,0.051738787,0.008190858,-0.030590767,0.063793905,0.05997495,0.22544222,0.5075534,-0.21505406,-0.022115843,-0.1493263,-0.03450317,-0.0766183,0.44815245,0.08259425,-0.23279421,-0.29377118,0.25825432,0.21755905,0.23832254,0.0067560747,0.19521594,-0.0049019037,0.4073019,0.033963475,-0.50937116,0.33292565,-0.024511965,0.022451084,-0.1326066,-0.18185939,0.1171032,-0.09065386,0.068891235,0.10224205,-0.10246952,-0.49369422,0.17010094,0.3112617,0.5424801,0.10201664,-0.15469228,-0.26978296,0.21734834,0.19853708,-0.13440095,0.21319178,-0.16634925,0.038248863,-0.39661488,-0.08237485,-0.023211973,-0.29428905,-0.23945022,0.36952806,-0.19017187,0.31376544,-0.01879506,0.050347317,-0.2360088,0.010949214,-0.10421263,0.24577971,-0.35970074,0.0003736064,0.073940866,-0.19440031,-0.37833813,0.045596495,-0.15657954,0.030681109,-0.22556457,0.27702284,-0.11377175,-0.15985957,-0.08153055,-0.20255156,0.023728028,0.0153074805,0.062857024,0.26577446,0.15697208,0.33547306,-0.21601322,-0.17241581,-0.14318714,0.1342822,-0.26103356,0.05543525,0.08136183,0.22958937,-0.03552353,0.23931368,-0.07615485,0.16497672,0.1331071,-0.026340839,0.48072234,0.049925163,0.09829726,-0.29968196,-0.3645322,0.1794823,0.20293638,0.20845452,-0.22522876,-0.07359862,-0.28148255,-0.047438692,0.05591795,1.0915862,-0.030599331,-0.096543275,-0.16968244,-0.5955027,-0.13607806,-0.14826766,-0.029965322,0.41925606,-0.11834524,0.057739414,0.18670636,-0.17446946,-0.13464633,-0.28034514,-0.050984073,-0.32917824,-0.3212731,-0.18301474,-0.13038106,-0.036011524,0.008178702,0.15323469,0.03823156,-0.20771718,-0.32807532,0.3604486,-0.4620915,-0.2681751,-0.032047786,0.024325069,0.28922662,0.22907373,0.2068905,-0.12230301,0.06022791,0.20823118,0.021296283,0.21746545,-0.21245387,-0.25233132,-0.19294319,-0.23904534,-0.0457106,0.06143608,-0.13185066,-0.09836584,-0.32375863,0.35505766,-0.2755516,0.25775805,-0.2829365,0.13187732,-0.048826165,-0.18116292,0.2990231,-0.053739827,-0.0015962835,0.08752018,-0.19859913,-0.10114841,0.16540259,0.19202243,-0.11131588,-0.087012514,-0.14208555,0.4029533,0.19756064,0.25721097,0.01068456,0.21887317,0.54943377,-0.017061774,-0.44463912,0.01299831,0.19850633,-0.055689733,0.060011625,-0.052722692,-0.04759699,0.080328986,-0.15705934,-0.18486814,0.049922604,-0.06481935,-0.15357365,0.33304507,0.10482357,-0.27307945,0.18761039,0.15728983,0.12293458,0.16172945,-0.21023393,-0.08718127,0.23455162,0.18194266,-0.33291125,0.06845011,-0.14642751,-0.19107239,-0.3151793,-0.014063974,0.35878772,-0.12574916,0.21325502,-0.24893752,-0.05371988,-0.102418005,0.4286948,-0.19781932,-0.1781046,-0.22409117,-0.019832412,-0.3381346,0.10258768,0.16353375,-0.021757137,0.33279446,-0.047652394,0.57976854,-0.026049927,0.30222222,0.11659165,0.1443331,0.09512608,0.28691953,0.069378145,-0.02688489,-0.3409632,0.04659304,0.45348057,-0.080612704,-0.35296962,0.10959449,0.4255671,-0.007450331,-0.028942462,0.20176688,0.015507308,1.1197772,0.008864835,0.18212132,0.21380723,0.18909347,-0.023386726,0.31719962,-0.17094268,1.5214634,0.2180121,-0.03825225,-0.15795085,-0.19210023,0.17516243,0.1642237,0.21270266,0.004480089,0.5389974,-0.016319277,-0.264888,-0.06215886,-0.34418324,-0.015067461,-0.05580666,0.10031404,-0.22246464,0.29106116,-0.04847029,-0.101367414,0.3843416,-0.20402972,0.074789844,-0.25077686,-0.14686266,-0.003924961,-0.044415116,-0.21501258,0.07178377,0.6038727,0.1318469,-0.051278077,-0.03694007,0.22112599,-0.030790333,-0.074320756,-0.014977646,-0.022235952,0.13663372,-0.35654375,0.049447518,-0.18007886,0.27779365,0.09445169,0.20451207,-0.05630278,0.11270491,-0.13464566,0.15066421,0.038150843,-0.13233182,0.2233851,-0.15853028,-0.37928626,-0.17229836,-0.3506086,0.5129738,-0.20721443,0.11678815,-0.03675325,0.021996746,0.21606278,0.08030413,-0.1457241,-0.13269897,-0.21936946,0.22270648,0.023121025,0.89917105,-0.12337799,-0.16297214,-0.10159167,-0.13201319,-0.41289562,-0.012742886,-0.15258889,0.21434656,-0.061954778,0.044692915,0.17790446,-0.4601038,0.11094509,0.1786768,-29.503326,0.006946555,0.13099977,-0.11060312,-0.042798124,-0.15029898,-0.009244409,-0.053397752,-0.24132545,0.2692166,0.39976865,-0.06514035,0.051208057,-0.06366671,0.24552086,0.2504742,0.43879247,0.106609985,0.21666518,0.10335542,-0.017473977,0.029795682,0.120947585,0.176277,-0.18959863,0.15046954,-0.08590841,0.102628574,0.23445892,0.2606419,-0.1469033,-0.07977474,-0.14348666,-0.4155059,0.25026935,-0.17394927,0.12158902,0.07946896,0.089937046,0.029532295,0.18665458,0.006022849,-3.686465,0.23242044,-0.30689973,0.115224876,-0.27179524,-0.06190901,-0.13319555,0.10140606,-0.23961444,0.09667716,0.068855405,0.18264559,-0.24582207,-0.19016734,-0.12860832,-0.018420693,0.07233077,-0.0477287,-0.14198013,0.12096946,-0.41304597,-0.15548247,-0.17799865,-0.053077854,0.09346382,0.30747247,0.18425393,0.21042745,0.19396806,0.18768115,0.16955838,-0.22657919,-0.28076312,0.3998751,0.25577173,-0.09131344,0.12578908,0.2140899,0.05634228,0.41842002,-0.09639768,-0.3357364,-0.055746693,-0.012044014,-0.06056146,-0.040474243,0.08606582,0.37422997,-0.080317214,-0.47524482,0.095204666,-0.3888086,-0.054512776,0.28923532,-0.14102764,0.22444952,-0.03510933,0.09673959,-0.12442052,-0.040595144,0.07849147,-0.13966602,-0.29082796,0.07148006,0.04871662,-0.028459072,0.1695617,-0.07784704,-0.08751785,-0.10011791,0.13886017,-0.16440916,-0.13234517,-0.070330605,0.046164192,-0.016580228,-0.10832653,0.006363583,-0.3363734,-0.032717995,-0.07726481,0.28377262,-0.024186464,0.30835044,-0.41235065,-0.38106486,0.7954794,-0.2202523,-0.30709127,-0.3606472,0.122217596,-0.10964533,0.069117665,-0.23880382,-0.063386366,-0.12849213,-0.15875034,-0.31908754,-0.27550575,0.04700815,0.31288427,-0.18223749,0.025069868,0.021296944,-0.08606012,0.538027,-0.17789188,-0.14002885,0.33401832,0.07387528,0.071278386,0.046346392,0.30785185,-0.2525955,-0.1988157,-0.2576086,0.15411465,-0.283503,-0.1958528,-0.19592327,0.39577907,-0.009333776,0.025455922,0.042938728,0.48547736,0.011226071,-0.19045879,0.21520345,0.27044123,0.2484736,-0.023771768,0.08789869,0.004918742,0.07865018,0.48785067,0.4451646,0.21590737,-0.041242547,0.014174527,-0.5495638,-0.1283957,0.084126756,0.34898087,-0.15553787,0.054320056,0.1398556,0.005052471,-0.1401417,-0.08896826,0.080860324,0.16729166,0.16493678,0.13668874,-0.10652517,-0.052425146,-0.042203914,-0.23411687,-0.054611463,-0.03089666,-0.12558912,0.046051387,-0.1190642,0.3929636,0.051998954,-0.2142508,-0.3748442,-0.35656205,-0.015995711,-0.13574633,0.8415826,-0.3312236,-0.0696888,-0.12572867,0.26965,0.081095144,0.082880065,0.3128456,-0.09582474,0.21394093,-0.12699461,-0.04791613,-0.18870339,0.24330953,0.05271511,-0.06071503,-0.51763177,-0.06651479,-0.13556933,0.22362697,0.08622514,-0.15774938,0.094460584,-0.005506753,-0.41145557,-0.34112448,-0.1560675,-0.3598648,0.10937764,0.16407552,-0.4419549,0.089215465,0.43481478,-0.42652017,0.08804027,-0.5002661,-0.15639031,-0.16282572,0.065537825,-0.10967884,0.02211142,0.016777145,-0.1278896,0.06063956,0.10089026,-0.1696393,0.04943137,0.24239111,-0.035904657,0.097453155,0.39337096,0.123462416,0.16091993,0.47018367,0.21126166,0.3789342,0.16519472,-0.047213,0.04786814,0.064335465,0.02655534,-0.41717187,-0.22322515,0.0584419,0.021635747,-0.3621396,-0.21360083,-0.06648,0.07122234,-0.031372685,-0.030231316,-0.030698884,0.6705968,-0.31328335,-0.062269352,-0.15198097,-0.09872746,-0.15156235,-0.28278193,-0.083685,0.245689,0.05250246,0.08460976,-0.036599975,0.3718436,0.015058954,-0.26479188,0.23694345,0.047789726,0.13690491,0.15499112,-0.024107115,0.11992469,0.21061608,-0.07255176,0.13532045,-0.093992874,-0.38651085,-0.030311555,-0.042462863,-0.17748621,0.18007115,0.29909673,0.07240367,-0.17648529,0.06323217,-0.3094651,-0.047797382,0.14642255,0.40448776,0.015291268,-0.2120616,-0.0598809,-0.13370886,0.15967013,0.4249724,0.036963057,-0.0242782,0.12754399,-0.37719396,-0.20731258,0.18738475,-0.08217997,-0.22423263,-0.33183277,0.3243378,-0.011207199,-0.046555005,-0.32241645,-0.14121975,0.042166345,-0.010043872,-0.0936803,-0.40200752,-0.3131357,0.04980404,0.014718664,-0.018298421,-0.15047947,-0.062835075,-0.6487545,0.14512,0.5636824,0.04554703,0.2071208,-0.14912474,-0.23957554,0.2953542,-0.1050725,-0.31070012,-0.039335437,0.13894995,0.32291165,-0.2863844,-0.2862174,0.39936066,-0.5345012,0.05243705,-0.13571218,-0.07372576,0.09118983,-0.18585443,0.35191885,-0.14550218,-0.16469462,-0.1877285,0.16065434,-0.07679549,-0.14825621,0.19544463,-0.13021189,0.27464652,-0.35303435,0.16589591,-0.10230503,0.077924855,-0.12604807,-0.17066284,0.18642125,0.38432986,0.12466321,0.022532076
dull,0.008839924,-0.38997102,-0.20616436,0.17932732,-0.11190879,-0.36837474,0.13713999,-0.20315602,-0.011762299,0.23436515,-0.01652293,-0.34694377,0.028170008,0.013392948,0.21489993,-0.26110598,-0.023031432,-0.30910996,0.19353943,-0.029345892,0.21458101,0.16307302,-0.34283468,0.18326807,-0.2267914,0.04885094,-0.105766684,0.26099175,-0.11946464,-0.36942896,-0.05483586,-0.008360878,0.13977441,-0.13971262,-0.17287669,-0.25530645,-0.3363542,-0.18170737,0.13676742,-0.025535129,0.14931852,-0.33292612,-0.17393745,0.2574109,-0.013763271,0.05232902,0.3757254,0.10084427,0.13089916,0.06541203,0.036656905,-0.7221492,0.1260795,-0.05052562,0.27451324,0.1982942,-0.21408868,0.032416873,-0.03316331,-0.4680942,0.23491587,0.055962928,0.20837283,0.15405315,-0.06883935,-0.052891806,-0.12893192,-0.04920119,0.050743397,-0.08098522,-0.5234968,-0.13184012,0.12552756,0.070263736,0.15988082,0.12064393,-0.08218465,-0.00854478,0.32914475,0.10150282,0.22892869,-0.14071187,0.16105255,0.06294173,-0.13411696,-0.42633373,-0.16604677,-0.069097646,-0.17432396,0.012540339,0.10002699,-0.07935603,-0.10684472,0.20646906,-0.032071732,-0.23562309,-0.34269267,0.10925418,0.07030063,0.16718148,-0.12686913,0.24282373,0.0957368,0.29377794,-0.28339952,0.22731024,0.007817311,0.22383238,-0.21884318,0.06778106,-0.07461596,-0.06611863,-0.109145135,0.1357249,-0.08219235,0.0088473,0.27931193,0.018631287,-0.0441605,-0.2638737,-0.12678109,-0.22768372,-0.019375209,-0.36096957,-0.18294923,0.2533835,-0.04140196,-0.061880596,-0.030211605,-0.023454174,0.21400145,-0.23484462,-0.2008851,0.2985573,0.05794147,0.1252161,0.19138417,-0.0072086365,0.10849821,-0.21759504,0.13039055,-0.0042335987,0.24454208,-0.024670046,-0.15257277,0.13522963,0.11731994,0.22650427,-0.15200007,0.14074619,0.19828533,0.05901761,0.22931835,0.19858855,-0.20563892,-0.23636706,-0.0067995675,0.11893582,0.14876989,-0.21815994,0.058617517,0.29073074,0.37692526,-0.19335426,0.14489245,0.13359338,-0.22224395,-0.25982895,0.001795873,0.18522401,0.06832211,-0.0014077947,0.2541537,0.09812021,0.04817741,0.018014908,-0.042518027,-0.037787586,0.031168554,0.036553226,-0.2203326,-0.16255808,-0.15917861,-0.20392978,-0.17950824,-0.123273484,-0.21713944,0.025577959,-0.2084772,-0.21692282,0.103238955,0.46084437,-0.1985445,-0.24058934,-0.10645205,0.38089353,-0.09705359,-0.20823225,0.23421535,-0.08078293,-0.18117611,-0.16252027,0.039452925,-0.69728243,-0.010097995,-0.2222377,-0.15818869,0.14994238,-0.08116363,0.041159198,-0.04043071,0.20291069,-0.042243183,0.16294813,-0.15724275,0.05250771,-0.25141585,0.13497928,0.15111761,0.46468878,0.11665456,0.115542114,-0.18824242,0.01565979,-0.43556523,-0.19852701,-0.37749913,0.16975813,-0.07155955,-0.19469672,0.18937603,-0.06400117,-0.09848517,0.17991103,-0.235549,0.034865614,0.004760728,0.055646673,-0.07566749,-0.03512401,0.07775546,0.10923034,0.011225255,0.026772825,-0.22275409,0.100698486,-0.19110596,-0.19159545,-0.013044344,0.12802577,-0.08047985,0.10741692,0.32808366,-0.3405986,0.17116112,0.20857534,-0.23950341,-0.08069411,0.014077101,0.46926105,-0.3289987,-0.33934933,0.0006956905,0.16693223,0.16784796,0.008393638,0.20448318,0.23895295,-0.15071921,0.15578996,-0.30211723,-0.03400278,-0.29910886,-0.1712042,0.015429009,-0.45485035,0.15956637,-0.17126879,0.19923209,0.3621932,0.76879734,-0.20663913,0.15262243,-0.05650252,-0.03052943,-0.0803315,-0.1471943,-0.14119482,-0.09282478,0.0033573136,0.16959992,0.111484244,0.31930542,-0.0022854432,-0.3322514,0.29798266,0.27420232,-0.28411216,0.13789517,-0.17493707,-0.09548962,-0.04488801,-0.009166811,0.08345963,-0.08712767,-0.21066931,-0.017139241,0.26678914,0.23350313,0.022692723,0.19026747,-0.5512248,0.121546336,-0.25726336,-0.20206779,0.42630845,0.18944457,0.04469433,-0.2113544,-0.23723303,0.33923712,0.061404727,-0.13127828,0.18089283,-0.000824105,-0.35751808,0.12746868,-0.009855647,0.27923715,-0.11952972,-0.15240672,-0.2891158,0.23249018,0.291284,0.033411328,0.055203207,-0.4304943,0.09646013,-0.42658168,0.21629664,0.012866581,-0.19189867,-0.3850527,0.39836392,0.04632762,0.44517446,-0.12639856,-0.119177766,-0.029251661,0.25733042,-0.29990298,0.19833082,-0.47549158,-0.23965648,0.33510777,0.070418,-0.017777443,-0.062523544,-0.20115475,0.06209288,-0.274396,0.03401874,0.08073786,-0.087295786,-0.041846395,-0.5116432,-0.008971191,0.0213442,0.16876265,0.22475713,0.12000919,0.39614266,0.0029644305,-0.06204623,-0.11332975,0.06984635,-0.3030854,0.11224997,-0.18040046,0.12033788,-0.09735227,-0.012134895,-0.24211943,0.06668874,0.24362847,0.28250638,0.36691037,0.20262916,-0.03263657,-0.30444825,-0.12735096,0.17186306,0.12191278,0.14589863,0.13976349,-0.1819796,-0.21955119,0.19198865,0.30908304,0.82879597,-0.051636815,-0.14433837,-0.11636555,-0.21938199,-0.04348147,-0.015061684,-0.05613237,0.07678199,0.14509623,-0.015093699,0.33786878,-0.22669657,-0.10823302,-0.42308766,-0.054498263,-0.28501487,-0.24285264,-0.0677131,0.0025335858,-0.09795715,-0.034790672,0.41565382,-0.20663945,-0.21232106,-0.4501075,0.19739455,-0.22751011,0.12008189,0.23470502,-0.020137515,0.34058082,0.028602548,-0.09453332,0.090114996,0.1108218,0.30612808,-0.15632288,0.045322143,0.03526498,-0.1880444,-0.16790351,-0.20052943,0.07018537,-0.06211165,0.03729015,0.21777329,-0.026803128,-0.08058794,-0.18771029,0.12730633,0.004242372,0.31893033,-0.09476434,-0.025518218,0.19404663,-0.030182242,0.07593656,0.2040518,-0.3790794,-0.13302457,0.15861228,0.0676671,-0.16619499,0.22826277,-0.16229154,0.28478596,-0.06342621,0.16781038,-0.022018403,0.3171002,0.20265193,-0.24479622,-0.30974284,-0.020522565,0.31233144,0.41624594,-0.022129837,-0.14162253,-0.035655167,0.10508615,0.11594982,0.088027865,-0.059453737,0.095909454,-0.118718065,-0.039594635,0.15692283,0.088976294,0.099830866,-0.053986788,-0.08925066,-0.020782482,-0.29447865,-0.049008735,0.15961504,-0.04293951,-0.07980376,0.3953122,-0.16539094,-0.067238435,-0.24738973,-0.09694966,0.41590926,-0.12531227,0.18356556,-0.28829584,-0.028368734,-0.14300503,0.42302442,-0.21767898,-0.09898775,-0.2855064,0.12855367,0.08963327,-0.011880849,-0.032909855,0.10082359,0.07780744,-0.0011531096,0.3077216,-0.30353734,0.07240331,0.022633288,-0.09503631,-0.05199494,-0.073449045,0.09825196,0.19245748,-0.1865972,0.20646375,0.15570462,-0.28644693,-0.3944325,-0.010056328,0.30159748,-0.043332584,-0.15409857,0.051922772,0.05430767,0.68674105,-0.080408886,-0.04368367,0.032271355,0.5590059,-0.14676216,0.26624015,-0.30018017,1.2660178,0.28276983,0.0288538,0.06888838,-0.488032,-0.09040204,0.30253118,0.20406106,0.06733921,0.4233875,0.19760552,-0.2903211,0.07578411,-0.250834,0.015109453,0.09704626,0.013487191,-0.096605726,0.36298323,-0.12833291,0.19080217,0.10342882,-0.283703,0.28609404,-0.15369573,-0.11826233,0.12690797,0.23488383,-0.302008,0.046606183,0.16637881,0.037854545,0.23245151,-0.025384033,-0.030840555,0.038000602,0.018358015,0.20648386,0.100628056,0.1867446,-0.1328565,0.16956483,0.19724749,0.14553615,0.19069262,0.14485423,-0.14264202,0.039221413,-0.023829907,-0.03997197,0.36806908,-0.25281015,0.13596855,-0.24333137,-0.34553844,-0.08923757,-0.16973948,0.07509401,-0.42455298,-0.026277507,0.28153473,0.13565665,-0.06584309,-0.08022092,0.0024095345,0.0828039,-0.15056287,0.07165819,-0.15043448,0.8375583,-0.18936911,-0.047732618,-0.020417672,0.27037677,-0.3069928,0.34829757,-0.039490312,0.04764998,-0.13457885,0.022596166,0.28501764,0.028342417,0.10105569,0.34746367,-29.598608,0.09081581,0.3336789,0.050826997,0.120487615,-0.27191037,0.3058159,0.113240406,0.124138504,0.23367259,0.190846,-0.10288371,0.14778897,0.004278154,-0.11147532,0.1337866,0.20950992,-0.11931065,0.23393807,-0.0052768495,-0.1731566,-0.09532972,0.024699636,0.38261676,-0.38794306,0.015245004,-0.17345557,0.09649676,0.36369818,0.20384733,-0.14315322,-0.11140356,-0.30990544,-0.0050166007,0.24694452,-0.24376492,-0.13434431,0.19930021,0.09237383,0.04978221,0.23253621,0.21855886,-3.5808225,0.22257465,-0.3123365,0.1661804,-0.27777207,-0.22865106,0.25413743,0.18079141,-0.28410658,0.08079181,0.2607568,0.261347,-0.37178072,-0.1392315,-0.055838943,-0.14154507,-0.057091635,-0.21420996,0.09026604,0.3367622,-0.3484009,-0.1955947,-0.023028778,-0.21299243,0.046806548,0.4084151,0.11020077,0.07559428,0.099813126,0.012275493,0.13648961,0.12554558,-0.08912587,0.0068238974,0.0632343,-0.067414,0.25049147,0.19386472,-0.12424636,0.4383005,-0.0036282334,-0.035162017,0.1594544,-0.07659697,0.25076094,-0.17021567,0.2371875,0.17342637,-0.07192988,-0.64461863,-0.17620575,-0.44269747,0.17426911,0.06819455,-0.2603915,0.021581415,0.024230149,0.06658237,0.028654873,-0.0682307,-0.021770548,0.031716418,-0.21334416,-0.22025326,0.087351225,-0.35232177,0.050917573,0.024752904,-0.39933914,-0.053039152,0.21042572,0.14704919,-0.14797913,-0.37929472,0.056168128,0.06420349,0.1154302,-0.13914599,-0.26930645,0.042712115,-0.010333478,0.026845274,-0.07232477,-0.04235766,-0.2682412,-0.3872749,0.28592217,-0.18492503,-0.10138156,0.035826914,-0.048039272,0.24941641,0.047948394,-0.23107304,-0.0064320117,0.1436812,-0.023542602,-0.28765085,0.18137176,0.20550066,0.44333667,0.06473933,0.075753555,0.19860055,-0.32357126,0.38667932,-0.20005077,-0.118072964,0.05874463,-0.29701713,0.17944863,0.11556414,0.031086244,-0.08265747,-0.21262667,0.20828117,-0.2221514,-0.35472718,-0.02802849,-0.12077495,0.14587118,0.13812765,-0.21304582,-0.13909921,0.41670862,0.101501964,-0.048515033,0.08928478,0.0073311403,0.07347998,-0.14781108,0.11423968,-0.22781008,0.03615662,0.2988814,0.6228381,-0.03790804,0.040393703,-0.279423,-0.5426652,-0.3070743,0.052919455,0.4111937,-0.1158162,0.2070195,0.0047776923,-0.13433811,-0.04313371,-0.23909491,0.0678748,0.43800253,0.09135776,-0.010713112,-0.2379185,-0.37904906,-0.044180706,-0.102084145,-0.304387,-0.13872775,-0.19273907,0.03238974,0.15762693,0.38810843,0.052686162,-0.055490866,-0.017371684,-0.02661517,0.10604384,-0.06340467,1.0855993,-0.29907998,0.11367211,-0.019707844,-0.09091298,0.078455016,0.050615255,0.24936245,0.042069938,-0.17586635,-0.16449836,0.03928519,-0.23189378,0.09888855,0.11491521,-0.23600231,-0.21621111,0.04030905,-0.00036262162,0.5709847,0.019184642,-0.10941862,-0.1049708,0.28767425,-0.10913688,-0.028113626,-0.32533902,-0.30155283,0.05914619,0.20270848,-0.2467812,0.34039202,0.0896955,-0.33812404,-0.16993152,-0.17874995,0.13199918,-0.2043533,0.3530884,-0.077565886,-0.18913062,0.17189848,0.06523804,0.2299957,-0.2622038,-0.0015305253,0.24641165,0.16805834,-0.00093844533,-0.04170084,0.38554206,-0.048523556,0.0726101,0.35411924,0.18196009,0.1680538,0.19504125,-0.11825858,0.08334142,0.056789633,-0.13948816,-0.13861816,-0.21514492,0.3728343,-0.10735889,-0.15565306,0.046670277,-0.25883445,0.003366083,0.07813733,0.18018413,-0.3219317,0.5155928,-0.109285265,0.2054747,0.0040424485,-0.22910222,-0.386599,-0.24049988,0.30836627,0.1619633,-0.105025314,-0.31625497,0.39691895,0.13504224,0.1245258,-0.2678047,0.42844754,0.13571411,-0.009695348,0.46216044,-0.34176293,0.13447897,0.14139503,-0.044976212,0.008872673,-0.027405899,-0.3393564,-0.00721024,0.19984418,0.0034191795,-0.23743041,0.17519717,0.42138848,-0.13966103,0.24074194,-0.053967163,0.10487609,0.08671954,0.06423336,-0.07317379,-0.097292975,-0.16697493,-0.0211875,0.09337961,0.26212475,-0.023058517,-0.22037697,-0.022985332,-0.49472892,-0.35808003,0.22438729,0.004471723,-0.380462,-0.3051696,0.13161188,-0.050278127,-0.21523848,-0.24163178,-0.06632254,-0.092047855,0.0010399222,0.03053611,-0.3234168,-0.23743239,-0.2761639,-0.0041549765,0.12239534,0.04946663,-0.45610774,-0.32043368,0.03081386,0.4439658,-0.1061288,0.10797099,0.0052834973,-0.36125016,0.24712092,0.11995773,-0.27317938,0.19124876,-0.24479334,0.06725661,-0.27407774,-0.15234867,0.041302033,-0.3043804,0.17870727,0.2301698,0.10608272,-0.020352796,-0.27061003,0.13746059,-0.36206937,-0.15598996,-0.13310075,0.032516167,0.30962184,-0.060760193,-0.049929064,0.052118536,0.44311598,0.1070233,-0.19927539,-0.11821723,0.21600574,0.025433347,-0.03682372,0.039736994,0.064906955,-0.16343689,0.034831293
arrogant,0.017963037,-0.011324629,-0.25105911,0.27709478,0.06983739,-0.2908698,0.19799718,0.04472172,0.16589247,0.43555054,-0.0378089,-0.06174645,0.07688717,-0.1016912,-0.35285214,-0.06921361,-0.02214102,-0.11978781,-0.2973246,0.05169764,0.20573902,0.38515085,-0.042716473,-0.10154241,-0.36188135,-0.14351839,-0.17338464,0.17637257,0.18412139,-0.29663575,-0.215656,0.21307142,-0.54044324,-0.1786828,0.19321087,-0.66878474,-0.13363716,0.13225302,-0.155881,0.16684943,0.14132349,0.048393,-0.31990188,-0.0011156946,0.086044334,-0.15221822,-0.040569354,0.04479801,-0.011009407,-0.08796094,0.08720894,-0.8191126,-0.034205996,0.11456152,-0.028909538,0.18842715,-0.41846952,-0.1161253,-0.24107334,-0.31390628,-0.024449864,-0.035050057,-0.028899526,0.21570699,0.12145201,-0.054879837,0.316511,0.34347692,0.26373643,0.012250239,-0.78655404,0.21310854,-0.011997241,-0.24159725,0.18020329,-0.07870299,-0.0518739,0.16991124,0.25721854,0.18858036,0.043479092,-0.0984689,0.029726574,0.13773504,-0.17997678,-0.35769892,-0.16634193,-0.09949405,-0.011881794,0.26060897,0.06661388,-0.09934818,-0.26093557,0.023785453,0.0025542825,-0.11074801,-0.40199342,0.02891115,0.3409589,-0.18987413,0.083762795,0.20695159,0.30876455,0.027850473,-0.028397005,0.00878072,-0.08212599,0.38681328,-0.15449026,0.10778233,0.15224281,0.19694018,-0.022992123,0.03241312,0.044668,-0.1710889,0.08757156,0.106120035,-0.20724949,-0.3369259,-0.09991246,-0.21943152,0.25567475,-0.19528261,-0.09864505,-0.077990845,-0.10850606,-0.011018897,-0.03496976,0.1421412,-0.06951895,-0.05464982,0.14876011,0.3668035,0.33075267,0.022702163,0.090785295,-0.041129593,0.3438583,-0.5353286,0.23875539,-0.34801388,-0.012963375,0.105053306,0.3872337,0.28161353,-0.047877006,0.01552471,0.0057803094,-0.052322786,0.1555559,0.032965347,0.35672605,0.22098987,-0.0026375116,-0.03944521,-0.060840834,-0.022611653,-0.04178769,-0.20646675,0.10106067,0.34598222,0.1944896,-0.32224244,-0.052707054,0.14491539,-0.2599404,0.19153742,0.1313405,0.20050421,-0.11935522,-0.19142078,0.1337939,0.022231454,0.18289857,0.035675354,-0.285544,0.4844393,0.1455399,0.1537729,-0.22524445,-0.1256985,0.5103471,-0.052018367,0.117303155,0.042223163,-0.19336268,-0.151673,-0.34636918,0.09146781,0.34580714,0.32929665,0.12537579,-0.39001635,-0.1463995,0.028558547,-0.13131574,-0.015730625,0.044267125,0.21268277,0.13218233,-0.24358892,0.2019933,-0.38150156,0.0374813,-0.38175946,-0.23505458,0.18398465,0.15610024,-0.08956196,0.1826109,0.2556475,0.25517595,0.033175245,0.025033649,0.047058422,-0.029134681,0.06671935,0.07663803,0.115230665,0.58460104,0.26132306,-0.36549908,-0.20110103,-0.39649764,-0.062439073,-0.14798875,0.13896012,0.08606917,-0.19300474,0.11985378,0.0054167463,0.23268941,0.35591176,0.12401436,-0.50431484,-0.105083466,-0.32548133,0.15786204,-0.16744067,-0.117802456,0.061987646,-0.08652131,0.21246405,-0.059053205,0.22979525,-0.30637428,-0.24635069,-0.17882696,0.053949464,0.012176516,-0.032549083,0.33129048,-0.13376555,0.16591248,-0.26719254,0.12405987,-0.6764327,-0.22927777,-0.18421392,-0.20027289,-0.21565254,-0.1543753,0.122115776,-0.30338794,0.010814468,-0.13424256,0.118315086,-0.06275648,0.11850502,-0.21917275,-0.4176573,-0.104000196,-0.08773713,-0.027743172,0.20878606,-0.19426903,-0.23127708,0.22447142,-0.24221973,0.8374637,-0.10100553,0.17952973,-0.28989846,0.016293084,0.23328939,-0.2376194,0.28627688,-0.44507584,-0.04234521,0.037654564,0.25819412,0.054456495,0.093560316,-0.2818789,0.25479987,0.53421414,-0.18597102,-0.18552396,-0.25851068,-0.25740233,-0.25019065,0.07677861,-0.1512595,-0.23248923,-0.040756088,-0.06701402,0.41993737,0.31820208,-0.027229477,-0.1354922,0.084582776,0.15923615,0.056090087,-0.17762817,0.08534144,-0.09198749,0.08905888,-0.0040725977,0.11536308,0.109704055,0.14326517,-0.015001038,-0.13979322,0.2091176,-0.25021616,-0.15810084,0.6223718,0.15814513,-0.16186443,0.056479603,-0.20270777,0.33496696,0.1374332,-0.1475725,-0.26780945,-0.129482,0.30183578,0.017207902,0.13976589,0.14014843,-0.33527476,0.01132833,0.39365414,-0.16464947,0.40674275,-0.12261365,-0.39356324,-0.055201687,0.0039058463,0.12341076,0.17292663,-0.10395523,-0.36024982,0.2589413,0.17206207,0.28599867,-0.06686413,0.15115246,0.097417735,-0.47587007,0.11108488,-0.044455547,-0.33147985,0.023616262,-0.20845267,-0.19159262,-0.112703905,0.28048292,0.21298786,0.15385152,0.44783822,-0.026500741,0.058468677,-0.19113532,0.28912994,0.22504115,0.051998567,0.073528074,0.3949561,0.09371998,-0.047896422,-0.046322465,0.008315474,0.27354372,0.20004325,0.02048561,0.06832745,0.031210154,0.036036674,-0.10337417,0.027425593,0.09117611,0.54304093,-0.11777838,0.19805188,0.1645396,0.14522205,-0.012257939,0.89043474,-0.18636733,-0.35970777,0.07720582,-0.62383384,-0.24535115,0.12610699,-0.15285684,0.4996051,-0.06747566,-0.06740359,0.12992105,-0.10553479,-0.32418224,-0.19798616,0.024286827,-0.14339086,-0.12955005,-0.022845034,0.10631637,-0.16997781,0.14234199,0.21095052,0.0539848,-0.39670438,-0.26504016,0.4741284,-0.2186141,0.21048191,0.08388216,-0.124343835,-0.02173723,-0.11598419,0.2328788,-0.32613167,0.15381971,0.10080092,-0.02373391,-0.18391979,0.114276744,-0.5181895,-0.18091781,0.1379059,0.040635608,0.28579557,-0.24651809,0.23380847,-0.21729878,-0.06504141,-0.010930851,0.09451719,0.10573216,0.5568098,-0.11822368,-0.12790498,0.19678608,-0.25510132,0.2183625,-0.0017510385,-0.23379393,-0.09559179,-0.12685327,0.11318479,-0.31163016,0.11170962,0.04657357,0.3809512,-0.2513548,0.2834949,-0.45304814,0.64654124,0.6889976,0.3137064,-0.37261838,-0.13670067,-0.050006557,0.11335212,0.2759015,0.25913188,-0.07521798,0.16588323,0.008123228,-0.054627977,0.022393368,-0.10933225,-0.18241082,0.116613485,0.059025668,-0.04283791,-0.042972703,0.045310963,0.07676112,-0.04525507,0.06915058,0.077230975,-0.0124526415,0.18174054,0.004246255,0.34499764,-0.31508216,-0.38282642,0.21728401,-0.023938024,0.42245165,-0.02456522,0.022411825,-0.14629506,0.15886846,-0.10404946,0.055793345,-0.22597983,-0.13423637,-0.24553344,-0.012095961,-0.064685136,0.17224357,-0.02219209,0.20727184,0.10028361,-0.07457068,0.387129,-0.27070582,0.053154267,-0.33316144,-0.2473443,-0.11987054,0.11577529,0.29962122,-0.08296761,-0.41686732,-0.043587197,0.3726477,0.12727025,-0.24187918,0.27512306,0.0918172,-0.19361264,0.18938228,0.29751545,-0.41899252,1.1355169,-0.21748643,-0.10217394,-0.04250008,0.07737559,0.13045304,0.13906428,-0.015883442,1.6129993,0.18308637,0.033030752,-0.04114104,0.062064,0.25388855,0.37349764,0.20875835,0.21238807,0.40651265,-0.17387061,0.017733036,0.008407673,-0.23931797,-0.16554499,-0.06642894,-0.07229076,-0.17044409,0.23620944,0.08057745,0.03830564,0.21272197,-0.07720038,0.22399521,0.01230636,0.04124062,0.15666604,0.021919793,0.017322164,0.49757433,0.3270257,-0.0035240233,0.23007569,0.029823909,0.0012727634,-0.019160142,-0.10186355,0.2842302,0.14613959,0.02926929,-0.31257465,-0.30671194,-0.0864933,0.14912277,-0.1228434,0.28216034,0.100104645,-0.08915521,-0.07316678,-0.14522389,0.12305506,-0.4267203,0.0887481,-0.30686948,-0.107057735,-0.48000646,-0.4521326,0.28249693,0.030102855,0.21470919,-0.02603156,0.12635235,0.094033346,-0.29519987,0.14031427,0.11915834,0.122498155,0.42742547,0.028765406,0.9822615,0.124095716,-0.012669968,-0.0971369,0.16257437,-0.2898168,0.10450858,-0.37616017,0.089060076,-0.17291713,0.0062481733,-0.153705,0.06544517,0.07042782,-0.059945155,-28.823154,0.11785779,-0.09916471,0.1898093,0.015344977,-0.09516396,0.13017413,-0.031980086,0.11275737,0.06349121,0.3228975,0.0024657652,-0.26062232,-0.026973695,0.021066234,0.15495846,0.5901536,0.10410933,-0.031052921,-0.18228279,-0.30627638,0.15223384,-0.23196582,0.32178813,-0.37199688,0.2708989,-0.19537099,0.14377432,0.18641776,0.31262416,-0.13215767,-0.23587254,-0.5891808,-0.25292784,-0.17732354,-0.038967684,-0.014071184,0.2133642,0.090786755,-0.383236,0.062392253,0.08822427,-4.110841,0.4245731,-0.046535753,-0.009761321,-0.2095447,-0.30713987,-0.27571064,0.15664566,-0.34215465,0.14940125,0.35348177,0.2530045,-0.13431506,0.020007228,-0.2192013,-0.13289204,-0.120938316,-0.03598001,-0.04842388,0.38346225,-0.12825684,-0.30054528,-0.16712406,-0.13868144,0.07042848,0.1293136,0.19504417,-0.1505163,0.14321138,0.0071556224,0.4187653,0.051470406,-0.4375225,0.12549499,0.16575475,0.02798459,-0.009089969,0.19777633,0.08275275,0.63519955,-0.17706078,-0.022023188,0.040928584,0.0031773285,0.17650339,-0.17000541,0.12486772,0.0030842007,-0.0134409685,-0.23887582,0.02543753,-0.1492557,0.16702738,0.13382772,-0.43108615,0.017204812,-0.23716311,0.21868129,0.050588083,0.24855117,0.36309177,-0.12991998,-0.30237478,0.12087548,0.01112957,-0.22895806,0.21455944,-0.14466082,-0.030911991,0.09363131,0.26623183,-0.048765805,-0.12791346,-0.39280763,0.073388934,0.09487127,-0.103312835,0.09725308,-0.2539571,-0.04699267,0.29464978,0.11366023,-0.26511264,-0.041794527,-0.5251917,-0.3028652,0.062561005,-0.108973764,-0.24469137,-0.5885957,0.1886951,0.027889956,0.18182679,-0.2890841,0.044554748,0.09130124,-0.14438301,-0.08878856,0.15475623,-0.06321508,0.49418288,-0.20217404,0.08585979,0.22490576,-0.1015811,0.37380308,-0.32604244,-0.115880035,-0.09454204,-0.5810508,0.17569003,0.17085089,-0.081296176,0.08136906,-0.0096199885,0.17832041,-0.14356506,-0.41067433,-0.4441735,-0.00044987202,-0.004130623,0.07320574,0.057948392,-0.044908024,0.4845446,-0.013315176,0.08293669,0.03498455,0.050228465,0.058197957,0.06959344,0.43527985,-0.070512734,-0.20817503,0.3043763,0.28445187,0.2167023,-0.2558533,-0.17918508,-0.55123204,-0.23025635,-0.22997043,0.22335652,0.112151876,0.012533249,0.12437733,-0.29695326,-0.13510078,-0.16548285,0.044288255,0.034190238,0.34273785,0.08298615,-0.12410648,-0.3357434,-0.20462184,-0.2661394,-0.39380547,-0.0197847,-0.12001069,-0.17255698,0.31176388,0.16149719,-0.2934947,0.16366811,0.0076425252,0.2547548,-0.09813897,-0.24405661,0.70433384,-0.29491207,0.046874117,0.20792858,0.15366596,0.025636578,0.2446521,0.21944392,0.21339908,-0.10046665,0.035623536,-0.14377345,-0.14532703,0.2400007,-0.08476046,0.076643884,-0.24833103,-0.14645179,-0.14923611,0.115535,-0.21096039,0.25715306,-0.030916836,0.026673365,0.08729534,-0.19590881,-0.3015286,-0.39415103,-0.10660853,0.162812,-0.48326597,0.31126583,0.17649074,-0.27334085,-0.078652106,-0.40728226,-0.24068363,-0.4330863,-0.0401474,0.019823615,-0.18881735,0.039782856,0.24661799,-0.14792761,0.053990453,-0.20548096,0.30762842,-0.17301571,0.05086515,0.29775074,0.4468884,0.2523496,0.049922,0.2696448,-0.044718415,0.23098168,0.06668491,-0.10695014,0.15890865,0.3131996,-0.03221021,-0.2564737,-0.12825757,-0.19714776,0.41361386,0.1641667,-0.20827372,-0.24352142,0.2074841,-0.19169562,0.2525782,-0.2507988,0.587288,-0.03592437,-0.03991542,-0.093337566,-0.15492496,-0.27255726,-0.39442077,-0.042136736,0.0059524267,-0.106884226,-0.11334348,0.19186062,0.5500902,-0.11508813,-0.31499413,-0.010671061,0.11736264,0.40452433,0.24914551,-0.42136845,-0.009625405,-0.06966263,-0.22675958,0.21602571,-0.063771866,-0.29376417,-0.12710193,0.5209764,-0.47653514,-0.097673014,0.080492906,-0.21223554,-0.25498027,-0.06769484,-0.23848037,-0.083900034,0.31326735,0.15554231,0.20761666,0.010091057,-0.26431993,0.029337332,0.14922184,0.06402685,0.05167166,0.10001656,0.09339318,-0.3707931,-0.39401016,0.032627612,-0.2113359,-0.1831231,-0.33461767,0.16289008,0.30635962,-0.2784479,-0.3755379,-0.17660825,-0.21315232,0.11292815,0.051118195,-0.2512715,0.07860963,-0.12025275,-0.14986917,-0.2631851,-0.29264256,-0.26686838,-0.28779468,0.20226645,0.12379305,0.24292497,0.26321623,-0.07009493,-0.6724347,0.08407786,-0.22667241,-0.018398393,0.20351382,0.07933839,0.22082862,0.008517718,0.0713286,0.09922706,-0.5592828,-0.10492407,0.08739545,0.050614495,0.08657404,0.023429852,0.24781497,0.4050428,0.06364284,0.010161234,-0.2066154,0.021034451,-0.16636452,0.13636358,-0.4731815,0.21789257,-0.07758194,0.24837859,-0.035056554,-0.04833247,0.068126604,-0.026904762,-0.1243553,0.14676933,0.017701533,0.09489389
careful,-0.052569583,0.021778407,-0.12611881,0.050983615,0.16671486,-0.33622107,0.19299889,0.213305,0.12253807,0.38151777,0.094198704,0.06533604,0.0025837068,0.0065689143,0.1521911,-0.08272471,-0.3447606,-0.17717399,-0.121062696,-0.03741184,0.25758073,0.035789967,-0.45744666,-0.0062309355,-0.2109203,0.038346708,0.0038320422,0.08045954,0.1098005,-0.26149982,-0.17298429,0.115666345,-0.2072841,-0.10701276,-0.19724667,-0.47475913,-0.25579855,0.031236954,0.0044709463,0.2206183,0.07604428,-0.11580725,0.18730122,-0.042376246,0.13213503,-0.3386593,0.09201473,0.010005806,0.0041289013,-0.042085316,0.20422347,-0.69847065,-0.008093648,0.07934712,-0.06745014,-0.14669545,-0.3839474,-0.21594702,-0.29376772,-0.13599762,0.10674813,0.3302243,0.18942797,0.30560362,-0.14692198,0.2099715,0.22317325,0.19298765,-0.01788815,-0.06893632,-0.4827685,-0.14450826,0.42175627,-0.037415225,0.06864561,0.14317676,0.014366716,-0.20749894,0.29988432,0.17634496,0.17741571,0.08811805,-0.00014661998,0.06128847,-0.25654277,-0.50908613,-0.27933812,-0.26482978,-0.40221465,0.15571456,-0.037021566,0.0026110727,-0.054878443,0.08697402,0.11463173,-0.06454532,-0.112431236,0.32258475,0.04224074,0.11426618,0.0805232,0.30916092,0.1739524,0.0062315892,-0.08614608,0.24280725,0.024352115,0.23262474,-0.39273927,-0.08989078,0.09204629,-0.059222065,-0.005050201,0.21318981,0.26404935,-0.2451325,0.2654919,0.14347163,0.12236485,-0.401101,0.014941312,-0.12180153,0.38942552,0.08087657,-0.04173714,0.38389766,0.012553886,0.19879143,-0.074765176,0.19218375,0.36655536,-0.2789387,-0.13383627,0.1733168,0.044454634,0.39441556,0.013562508,0.11922705,0.049272805,-0.068028204,0.10117303,-0.34693283,-0.108545706,0.11394687,0.29749703,0.21343559,0.110744834,0.3958171,-0.24665362,0.011444314,0.11993782,-0.089141086,0.31010872,-0.029326491,-0.34962845,-0.21002968,0.14448884,-0.27990985,0.085209064,-0.29875436,0.08458297,0.17433235,0.09724656,0.16554263,-0.08419656,0.40363193,-0.1410244,-0.19038057,0.22635317,0.005724039,-0.14350985,-0.18273383,0.057688676,0.17682266,0.12307179,-0.02875847,-0.24660969,0.1580626,0.06532972,0.14748919,-0.10117899,-0.3364679,0.22595122,-0.01048854,0.20378888,-0.28641784,0.082062766,-0.021252383,-0.51839894,-0.001916185,0.048330847,0.5673093,-0.020802159,-0.48770535,-0.11771258,0.22308084,-0.042090073,-0.013210889,0.13082911,0.10564227,0.1833223,0.15934247,0.04081391,-0.6877331,0.009473313,-0.062073864,-0.292725,-0.19510709,0.009481027,0.23207058,0.27292392,0.18320218,-0.052151714,0.39012563,0.01711078,0.11559917,0.0051133707,0.22356936,0.43436563,0.39275372,0.28287014,0.3008566,-0.16996239,-0.36035177,-0.45614898,-0.15927425,-0.1454695,0.05153996,0.30874628,-0.3383224,0.47579116,-0.018090092,-0.19242063,0.1476493,-0.25436455,-0.35957438,0.014928282,-0.13980821,-0.092775576,-0.2712859,0.018020364,0.018730737,-0.200292,-0.28510016,-0.30609977,0.0848503,-0.22891185,-0.11156971,-0.030365068,0.08834305,0.10569583,-0.0127744265,0.39076647,0.043429904,0.07778495,-0.19976667,0.14463738,-0.26094073,-0.051629767,0.1471114,-0.23794527,-0.21786511,0.1170473,0.14212443,-0.06296123,-0.12640096,-0.28743342,0.3879537,0.13329257,0.23549755,-0.23566876,-0.11376947,-0.2824692,-0.3284975,0.31476632,-0.1178507,-0.32983536,0.0129297,0.028962351,0.3237738,0.53595084,0.049357526,0.30723235,-0.1016156,-0.10135568,-0.08707363,-0.18050048,-0.12826054,-0.19722316,-0.15276138,-0.07397407,0.14703438,-0.08853312,-0.15511331,0.058252264,0.11104751,0.48312625,-0.1274399,-0.11937168,0.03527776,0.27330577,-0.13175204,0.12882125,-0.20807822,0.08295543,0.16612068,0.040933028,0.44680268,0.017020524,0.12377103,0.19401598,-0.15580426,0.14359921,0.11450352,-0.42922843,-0.13325621,0.0038321028,0.121009976,-0.0131088495,-0.28513092,0.08357261,0.034487322,-0.122815475,0.073150694,0.18640305,-0.2771356,0.048721317,0.14053318,0.19842197,-0.08228243,-0.057984523,-0.18935907,0.07169655,0.28651878,-0.08723732,0.013378488,-0.27208757,0.07543691,-0.27382454,0.15996107,-0.22016594,-0.08936265,-0.47970137,0.15449603,-0.22050658,0.38948238,-0.06638433,-0.35642153,0.109047435,0.11942322,0.056527525,0.21539038,-0.2871991,-0.15591012,0.0714756,-0.14602149,-0.34539348,-0.05752735,0.15755142,-0.015664805,-0.10046363,-0.027004942,-0.112870164,-0.05680836,-0.115444005,-0.36682028,-0.06463202,0.059982084,0.10321827,-0.048118636,0.17736463,0.57619894,0.03154136,-0.011429184,-0.18861201,0.07503327,-0.09682062,0.093774244,-0.17979203,0.3770823,0.17205983,0.17621529,-0.068634816,-0.15094072,0.13749412,0.23708108,0.38116968,0.14072447,-0.034569077,-0.0055369847,-0.16341144,0.1509946,-0.02072763,0.42947856,-0.0607858,0.064525254,0.04287185,-0.20195279,0.14091216,0.8005734,-0.07571667,-0.12453336,-0.23080683,-0.3929377,-0.1806722,-0.19555023,-0.046098437,0.20397215,-0.17968467,0.082071744,0.23327565,-0.19785964,-0.22629228,-0.123442575,0.1241013,-0.03295788,-0.09379923,-0.00049073994,0.08999474,-0.5154203,-0.2518512,0.32660314,-0.1815179,0.027179148,-0.367701,0.266648,-0.16583012,-0.1978447,-0.078681275,0.115405366,0.089208946,0.12718399,0.036804374,-0.0805175,0.12756422,0.121553384,-0.049525037,-0.016717337,-0.0904601,-0.15163492,-0.34376925,-0.33233988,-0.038879674,0.21548802,-0.23918319,0.028699258,-0.35176393,-0.30427086,-0.02112377,0.27862772,-0.04242735,0.1503706,-0.19556606,-0.033426613,0.12541585,0.06116928,0.08776508,0.2329704,-0.33284304,-0.13730606,0.25794238,-0.0064442977,-0.052537013,-0.069374226,-0.020414496,-0.086659044,0.010900732,0.22967963,-0.21360086,0.21201575,0.21877338,-0.015756365,-0.5014488,0.07959254,0.2147674,-0.05980955,-0.06830979,-0.10347375,-0.17455655,0.050445564,0.24809043,0.19303136,0.21670578,0.2516703,-0.19087924,-0.09191395,-0.020728648,0.15807407,-0.09378156,-0.13495322,0.013328908,-0.052947603,-0.09252525,-0.26114714,-0.14123556,0.23524797,-0.10892786,0.4220864,-0.11801234,-0.17532842,0.0074797645,-0.099912845,0.28511542,0.14640923,0.17355594,-0.22468317,-0.07383059,-0.037370548,0.24678522,-0.11856811,-0.3507897,-0.09778999,0.05669755,0.14607696,-0.076855615,-0.031737015,-0.016981896,-0.029635983,0.028839884,0.50232685,-0.1919989,0.14311525,-0.029169032,-0.03479446,0.11397854,-0.0035184901,0.28210416,-0.2387148,-0.05094415,0.23641104,0.18199006,-0.09633397,-0.5285015,-0.118461125,0.23416555,-0.034901667,-0.223466,0.38857397,-0.17991734,0.47474986,-0.010862224,0.035216928,0.18180734,0.31349048,0.18674277,0.13304009,-0.04307166,1.2762983,0.4292838,0.01532156,0.24319729,-0.23401016,0.24611191,0.14114796,0.28760624,-0.03362674,0.4127679,-0.20179145,-0.030748863,-0.07673209,-0.064422615,0.058234006,-0.14221202,0.17818446,-0.28493518,0.19933912,-0.01736939,0.35752434,0.13659286,-0.17631018,0.27186945,-0.14315936,0.041393008,0.15633303,-0.044276223,-0.0712717,0.16050941,0.5853427,0.14431396,0.08434472,0.09449384,0.1578615,0.06431499,-0.13087955,0.34845936,0.2986644,0.02995845,-0.23713423,-0.11162882,-0.09756257,0.17522399,-0.10815259,0.118859574,-0.0097767,0.13562103,-0.059652586,0.274763,0.31348318,-0.5313964,0.48265556,-0.29584605,-0.47732234,-0.12886678,0.04786796,0.123407654,-0.3276311,0.07906422,0.09088145,-0.11068231,-0.07364669,-0.035206627,0.3005691,-0.0060078856,0.037940074,0.11456694,-0.05502733,0.38674277,-0.11395647,-0.10157971,0.13144442,0.20925485,-0.39779985,0.4470053,-0.24140134,0.03567472,-0.1744712,-0.03892418,0.1846056,-0.15344378,-0.11451682,0.098480694,-29.852337,0.10715361,0.20365456,0.18315041,-0.06993247,-0.1371437,-0.070851825,0.09412685,0.2693707,0.005023621,0.009765744,-0.035123613,-0.09119834,0.06577174,0.02659574,0.102106735,0.047647297,0.033659667,0.09976716,-0.059935283,0.052668143,-0.09076577,0.12962456,0.16781864,-0.0638788,-0.08368395,0.089504324,-0.046058875,0.29177994,-0.012317125,0.28166345,-0.1373614,-0.031544894,0.021602454,0.1151205,-0.09153409,0.13660946,-0.0008365279,-0.16065769,0.20321852,0.2017267,-0.14145672,-3.2922373,0.3460204,-0.5107351,0.108748645,-0.2911516,-0.3462704,-0.04286272,0.007284213,0.0188154,0.03342615,0.054315384,0.45551056,-0.11336252,-0.16563201,-0.064499766,-0.20506029,0.021572422,0.024105886,0.031587582,0.35819402,-0.15826923,-0.03958937,-0.08686275,0.16835098,0.10298763,0.13966486,-0.06342756,0.007202481,0.17064723,0.28212366,0.12309213,-0.30721387,-0.13364011,0.07561359,0.08210517,-0.11216611,0.24509448,0.28227726,0.0885297,0.25896874,-0.0446446,-0.20235603,-0.14478195,0.0060324767,0.19414702,-0.14968696,-0.18545869,0.35899618,-0.07517988,-0.65214515,0.051741075,-0.40918002,-0.019261096,0.13963227,-0.10348264,0.17434306,-0.11637905,-0.40207198,-0.21349634,0.022930153,-0.019536637,-0.06429542,0.163957,-0.023584437,0.12859543,-0.35566497,-0.16408007,-0.26872072,-0.16350776,0.069373116,0.3771285,-0.07122637,-0.008980026,-0.059114363,0.18419145,-0.0007565459,-0.2666911,-0.08490121,-0.40210435,0.08217601,0.06845328,0.16463448,-0.045386527,0.03314096,-0.29527804,-0.22883908,0.36355633,-0.10962123,-0.283446,-0.07676254,0.31518412,-0.34538278,0.11793381,-0.017575964,-0.044141512,-0.03223315,-0.44408774,-0.45009395,-0.1626889,0.020124529,0.57144517,-0.24649704,0.12513207,-0.042273406,-0.41497466,0.43300843,-0.09855133,-0.09881574,-0.05507923,-0.24511647,0.07207693,0.23427908,0.06302421,0.010733878,-0.1745711,0.1030086,0.07116935,-0.14847255,-0.1646368,0.17006077,0.12108569,-0.03228962,-0.014369177,0.037140235,0.17936634,-0.16546203,0.050396673,0.20723175,-0.07614331,0.08718488,-0.12048873,-0.12208584,0.042254835,-0.25807223,0.30617517,0.33532244,0.18892294,-0.16294257,0.11364813,-0.51992667,-0.187693,-0.027452577,0.41136155,-0.10604669,0.1018319,0.1499828,-0.12524761,0.0028364435,-0.31543517,0.11685085,0.27249587,0.24291973,-0.028424896,-0.27399832,-0.19399796,-0.098443516,-0.30101502,-0.08182865,-0.054682914,-0.15348572,-0.14447157,-0.17208098,0.21451274,0.18512625,-0.06332214,-0.31234246,-0.017930744,-0.045452505,-0.18031205,0.6324924,-0.21522951,-0.15310037,-0.040426742,-0.018876325,0.17558119,-0.055458054,0.10810876,-0.0076746233,-0.08473688,-0.16057068,-0.16242269,-0.23955691,0.21991809,-0.04805025,-0.09454441,-0.19352607,0.14941125,0.04479888,0.107881226,0.06745601,-0.14982359,0.016505785,0.11588061,-0.26429936,0.019438697,-0.42604965,-0.19614671,0.0005429692,-0.05788546,-0.17140041,0.19142222,-0.076648474,-0.22904812,0.13881464,-0.61553967,-0.021508222,-0.6050111,0.1883241,-0.08719373,0.0326911,0.04721966,0.3416222,-0.22213647,0.11399168,-0.20288648,0.088068806,0.10640162,-0.09683934,0.16360062,-0.008130441,0.10376771,0.14681742,0.114791065,0.22351982,0.38351166,0.20146985,0.0012625279,0.0821621,0.09454181,-0.13711159,0.03368132,-0.23708582,-0.16654888,0.3845105,-0.025444213,-0.07529287,0.08659849,0.21118164,0.11706367,0.14883298,-0.22893259,1.0819343,0.0051003788,0.26468298,0.09469025,-0.09482232,-0.19424114,-0.2891308,0.19816327,0.18897924,0.11661355,-0.10067749,0.18942623,0.3034696,0.29678786,-0.33122092,0.27287495,0.05696012,0.12449238,0.27535638,-0.23813619,-0.17717741,-0.07057491,-0.016220065,0.21316174,0.019550487,-0.1789602,-0.21909592,0.1689669,-0.22659732,-0.26373854,0.23707633,0.042339087,-0.13565724,0.2503504,-0.24047838,0.15995835,0.20860985,0.27047658,-0.20854917,-0.09657209,0.35494578,-0.38589746,-0.10287985,0.061048467,0.06399793,-0.047281727,0.034506034,-0.32221842,-0.43823946,0.052263785,-0.12739125,-0.19900382,-0.27828383,0.3771173,0.12253818,-0.042700365,-0.30827296,-0.21735382,0.013615938,0.20565006,-0.0969327,-0.24227466,0.00010896474,-0.30911556,-0.07044904,-0.12594087,-0.16453914,-0.14745086,-0.077047765,0.095116474,0.26658675,0.2167816,-0.2721211,-0.24689507,-0.2648604,0.012988917,-0.051546894,-0.23007531,-0.06732913,-0.16746204,0.10879087,-0.25349453,-0.09087467,0.27042902,-0.3115183,-0.04392937,-0.122418486,0.14163522,-0.16069137,-0.4004239,0.15499875,0.16425842,0.018827071,-0.18061167,0.24000758,0.12416932,-0.032200933,0.25414038,0.09803087,0.4122974,0.018176463,-0.38099486,-0.06380679,0.276072,0.1058095,-0.21443547,0.065611914,0.2677847,0.36552677,0.30671138
communicative,0.072416395,-0.48220864,-0.11041947,0.17109069,0.45862877,-0.29649198,-0.058411196,0.21801108,0.46247482,0.3270947,-0.1306237,0.15977585,0.089244485,-0.0442395,-0.31871465,0.18092749,0.11819116,-0.2971097,0.048789605,0.4110301,0.039647702,-0.0022736154,0.1589489,0.057096906,-0.209181,0.106981516,0.006399557,0.031306487,0.014940368,-0.2768528,-0.20543672,0.0891055,-0.25150305,-0.23115309,0.1609584,-0.4154365,0.08014782,-0.044956706,-0.022731664,0.33636817,0.15184258,-0.015293073,0.0017670016,-0.07089395,-0.2228075,-0.26934147,0.1656691,-0.2130958,0.14267063,-0.043062035,-0.018450417,-0.5123228,0.04601901,0.25159025,0.14129233,0.19625151,-0.0015745852,-0.19584444,0.0012006201,-0.01970802,0.3313549,0.088531226,-0.11578885,0.3915785,-0.11860884,-0.04073184,0.021913636,0.21671817,-0.05787716,0.046979293,-0.7256582,-0.13122141,0.27728075,-0.09995721,0.2518979,0.07813925,0.029652722,-0.19792692,0.22595727,0.30222973,0.1305741,-0.116517544,0.042922903,0.21183941,-0.4579293,-0.16973159,-0.099055246,-0.024643112,-0.18887043,0.111524016,-0.2832087,-0.34530056,-0.1688225,-0.021904804,0.007756684,-0.16631198,-0.43142086,0.37336704,-0.2036377,0.3172156,0.073975004,0.11905023,0.14725593,0.10759489,-0.08941145,0.2419176,-0.12511463,0.15103176,-0.3769041,0.31216103,0.13174473,0.013771731,0.026613586,0.15635753,0.08006678,-0.2902436,0.12229653,-0.19747001,0.021404598,0.022412466,-0.11486745,-0.371394,0.3778965,0.08791097,0.08356467,0.11487199,-0.12470442,0.18602678,-0.12616381,0.07482275,0.27424383,-0.28813925,-0.18446864,0.13792942,0.016026836,0.3717819,0.09389961,0.27810547,-0.02551626,-0.2231613,-0.033529654,-0.3341502,0.0068740025,-0.03177712,0.22368065,0.20236035,-0.0127003975,0.39058468,0.2948355,0.23460995,0.2445488,-0.08557077,0.04536681,0.017488081,-0.020606402,-0.33992326,0.1086871,-0.15881076,0.03461372,0.020455893,-0.14669013,0.24772592,0.09881939,-0.06732953,0.19668084,0.2999937,-0.28781575,-0.33472192,0.20804825,-0.12172056,0.08820404,0.05601058,-0.14549704,0.09354759,0.18135616,0.0008076094,0.0008485168,0.29823363,0.12964813,0.44619387,-0.2900081,-0.21066238,0.27391276,0.3570425,0.1770224,-0.24815096,0.18248685,-0.048519842,-0.5841443,-0.13447773,0.062929645,0.0018770099,0.23046066,-0.03686201,-0.1451863,0.09721605,0.09618184,-0.22803618,-0.055091158,0.2958919,-0.1634707,0.035189945,-0.0022001034,-0.6357664,-0.2451342,-0.16134995,-0.3439167,-0.063142136,-0.08137063,0.096047096,0.20507163,0.3827333,-0.0873832,0.08532377,-0.08221787,0.2326158,-0.0658841,0.008620271,0.38537097,0.21157265,0.46603358,0.27834597,0.15649469,0.11475216,-0.44304878,-0.4210424,-0.053566623,0.34547076,-0.0040042233,-0.074062206,0.24935561,-0.036563434,-0.19430031,0.059009276,0.028617809,0.047668133,-0.40387,0.0009779017,-0.10997726,0.05314283,0.28050703,-0.1879746,-0.1457659,-0.038478144,-0.23611513,0.20332903,-0.14565666,0.067842446,-0.27858207,0.34556422,-0.083455324,0.0406242,0.25688556,0.026393984,0.37961486,0.10613232,-0.05256174,-0.071575865,-0.28391466,0.02720133,-0.14220473,-0.027502373,0.0075642914,0.06906021,-0.1608663,-0.10028362,-0.3781074,0.21133602,0.24658161,0.06955341,-0.0705419,-0.13518277,-0.11331832,-0.14195123,0.5439138,0.24431871,-0.3049848,-0.3216391,0.33206317,0.2670973,0.25813222,-0.036516994,0.17553268,0.12247362,-0.08722015,-0.014373548,-0.066460595,0.025697531,-0.20664608,-0.18180682,0.0021700058,0.12991953,-0.07574673,-0.056113657,0.16877283,0.3333798,0.43648002,-0.29458636,0.18750615,0.07817446,0.2780218,0.07229621,0.19567776,-0.051975004,0.1351482,-0.07063083,-0.063876145,0.07047854,0.27709478,0.0037583243,0.23749794,-0.08714601,-0.061522923,-0.04700031,-0.19374992,-0.11460193,0.072581165,-0.10301098,-0.11345417,-0.37919047,0.17082866,0.13461162,-0.1634342,0.14306514,0.040559996,-0.6890097,0.045795716,0.36867034,0.2339322,0.21242246,0.096950375,-0.116209015,-0.1280432,-0.039718296,0.13110456,-0.3104103,-0.3335375,0.43141472,0.3639445,0.13087323,-0.012168083,-0.29788852,0.07533889,-0.09057255,0.20918702,0.17313597,-0.22541827,-0.10638903,0.19333003,0.32189298,0.26010314,0.038768895,-0.10121905,0.08895221,0.03271258,-0.12644303,-0.14784892,-0.07074024,-0.21823345,-0.04674266,-0.10451536,-0.09113389,-0.31114796,0.1340732,-0.34903625,-0.2989755,0.08109991,0.20983253,0.290865,-0.22069532,0.3150252,0.0930158,0.12127386,-0.012961447,-0.25193104,0.13003734,-0.20433821,-0.050854817,-0.06869186,0.29477903,0.015676327,0.059876297,-0.060445223,-0.07134138,0.19569063,-0.027135624,0.2557299,-0.13383225,-0.19043472,0.33066285,0.12610273,-0.034935813,0.3299176,0.37653875,-0.27698636,-0.064146854,0.054464847,0.082260735,-0.010454917,0.7582354,-0.1379641,-0.007626608,0.011146843,-0.5854384,0.030568857,-0.41555914,-0.47434658,0.32214043,0.16471958,0.13537528,-0.0090399515,0.0947109,0.30580926,-0.3068696,0.0637307,0.09569116,-0.1495469,-0.006703848,-0.18745857,0.10575168,-0.26201788,0.51066875,-0.053910177,0.07313173,-0.08010727,0.082036994,-0.2247861,-0.24840519,-0.18670657,-0.19891506,-0.011034137,0.046492405,-0.15088457,-0.28908795,0.14491528,0.18617284,0.04288488,0.010782614,-0.02742591,0.117048174,-0.21799281,0.096306525,-0.07698826,0.09535661,-0.5516418,0.044889342,0.10533783,-0.44785956,0.0077381264,0.26259866,0.23764792,0.4519648,-0.222308,-0.24672502,-0.030615294,-0.28673795,0.08216157,0.1347689,0.006305564,-0.47581136,0.3151812,-0.04059799,0.18471564,0.26567635,0.04656446,0.0820099,-0.03791757,0.19933407,-0.25484964,0.34044734,0.40907907,0.26959667,-0.31262335,-0.031103484,0.035001762,-0.1917553,-0.110240795,0.29971844,-0.124578655,0.12072737,-0.18907441,0.09848385,0.22260335,-0.08349812,-0.27545795,0.10662182,-0.25315395,0.25322217,0.17543633,0.11114501,0.11378347,-0.074716486,-0.3165955,-0.05800834,0.0061401166,0.016852815,-0.27124503,0.2407833,-0.25308388,-0.045374013,-0.08088338,0.065150976,0.52972215,-0.08649071,-0.147322,-0.084228955,-0.02199036,0.026282465,0.14865427,-0.18736398,-0.44344714,0.10023195,0.23692825,0.068688504,0.12789798,0.19576491,0.5624918,-0.053115133,-0.3940608,0.5451179,-0.0038327836,-0.00951121,0.16848311,-0.09478687,-0.21198446,0.07300916,0.17430334,-0.2892438,-0.113473386,0.16562173,0.060767353,-0.26469526,-0.3868024,0.38046554,-0.06814541,0.022928027,-0.20639762,0.34364378,-0.00595323,0.6653559,0.43029976,-0.15402633,-0.1084825,0.35963696,0.1190497,0.23194082,-0.09173851,1.1848211,0.40191343,0.31862688,0.20213561,-0.028755005,0.42856872,-0.015677094,0.24486405,0.19818002,-0.06421912,0.011290457,-0.23109497,-0.42727262,-0.14643192,0.027533531,-0.24963532,0.19153328,-0.31997424,0.26754603,-0.09527508,0.1311501,0.10350529,-0.093788594,0.2277461,-0.3391776,-0.07628419,0.064547956,0.032749023,-0.30805922,0.1462623,0.2584564,-0.116747245,-0.1855094,-0.13148244,0.34559208,0.114789054,-0.01617615,0.5118888,0.214773,0.110464945,-0.32591304,-0.26827645,-0.16294068,-0.17222776,0.010216303,0.14797758,-0.053897765,0.09157288,0.19101629,0.029862681,0.17516588,-0.109605886,0.18182778,-0.13694485,-0.04925573,0.15271166,0.3441622,-0.12223894,0.09489493,0.16350743,0.021457464,-0.112790264,-0.0043686843,0.33298892,0.045281313,-0.16034575,0.029773017,0.35057557,0.32778883,0.42677516,-0.4238066,0.07288057,-0.054638475,0.32813385,-0.50350857,0.0037289518,0.03125982,-0.25268593,-0.13639373,-0.09094875,0.18665484,-0.32532105,-0.12218368,-0.058736317,-29.584835,-0.14439362,0.19587846,0.10813588,-0.07701468,-0.13401595,-0.12450947,0.08299867,-0.021434553,-0.14139068,0.20983703,-0.12227531,0.16729766,-0.06930463,-0.07937609,0.2977321,0.172603,-0.2775806,0.31470647,0.19753528,-0.050937798,-0.091668405,0.086825386,-0.08548716,-0.09825985,0.1766359,0.29987568,-0.37466735,0.2213005,0.074902885,-0.051554352,-0.14059313,-0.25305757,0.10611195,0.44042298,0.050591458,0.123366155,0.14260858,-0.13870567,-0.05214481,-0.023083422,-0.07317822,-3.3421507,0.011646014,0.08525101,-0.05233383,-0.0010314286,-0.12298646,-0.26277038,0.018967789,0.034257993,-0.007792254,0.17246118,0.35272723,-0.35467884,-0.16864692,0.08852982,-0.25118744,-0.36411515,-0.02227624,-0.059102613,0.3460488,0.14059505,-0.12598297,-0.17366858,-0.41989112,0.16646276,0.11573985,-0.24769682,-0.33583862,0.24225843,0.39998075,0.1346221,0.13347828,-0.53115994,0.46132427,-0.098270185,0.13775001,-0.047399476,0.14229201,0.37626702,0.4868989,-0.081973806,-0.12773198,-0.18566339,-0.17544256,0.42696345,0.09539656,-0.20939013,0.2249712,0.2958959,-0.8710558,0.18348004,-0.4555873,0.36767706,0.078638576,0.032320682,-0.07323293,-0.27342293,-0.37656283,-0.14613695,0.14035943,-0.23964773,-0.1408533,0.03194604,-0.22818375,-0.17565197,-0.35697454,-0.238843,-0.21818426,-0.094272815,0.083766975,0.11405004,-0.10292979,-0.0048481817,-0.10021858,0.08392341,0.081106976,0.062736,0.20605233,-0.14888726,0.2651857,0.17854057,-0.041470036,-0.18208164,0.05303709,-0.15387446,-0.123249605,0.32335722,0.3961287,-0.20299567,-0.13622797,0.31596425,-0.19077432,-0.17852451,-0.13921028,-0.120457456,-0.2070459,-0.13434038,-0.5452062,-0.22413473,-0.29557323,0.27363512,-0.4798199,0.05655836,-0.37822402,-0.2559216,0.34023383,-0.10282337,0.121907845,-0.3449053,-0.07680892,-0.0047853775,-0.036471978,0.08311608,-0.24364159,0.04342398,0.101096466,0.10972598,-0.3051058,-0.10902956,0.011094898,0.09440641,-0.17177384,-0.06159372,0.23214468,-0.067674026,0.067113265,0.027006,0.18517664,-0.18233551,0.060928486,0.031130008,-0.16166322,-0.12548038,-0.33289692,0.2512443,0.341899,-0.09159045,-0.3496611,-0.35754436,-0.14496659,0.23509365,0.1652737,0.30115306,-0.055773254,0.26744524,-0.06874703,-0.18004227,0.06654915,-0.19867893,0.04981651,-0.007176254,0.19156581,-0.2223376,-0.18896341,-0.13031545,0.17884071,-0.22645748,-0.67485255,-0.13383162,0.17075148,-0.2714721,-0.034368098,0.32536563,0.13767032,0.35497004,-0.10463419,-0.05149495,-0.0058681034,-0.042102873,0.5807841,-0.3426504,-0.071711175,-0.26431414,-0.20659046,-0.13711993,0.0008276738,0.18595622,-0.059736867,-0.071022734,0.045289535,-0.19688651,-0.236724,-0.02844817,0.3789429,-0.1302751,0.19337766,0.0476179,-0.15272707,-0.009560555,0.13213569,-0.16719216,0.1972356,0.08594412,-0.248439,-0.054116465,-0.48657784,-0.20182583,0.06048623,-0.07023823,-0.18836339,0.37404028,-0.21512385,0.06774002,0.17453252,-0.4790373,-0.059471413,0.17291445,0.23427808,-0.2225114,0.18406221,-0.047591876,-0.13592432,-0.098282225,0.03580895,-0.18634729,0.037808444,0.1588849,0.28964326,-0.020877033,0.056154594,0.04019723,0.013885839,-0.015591093,-0.0013791732,-0.21908717,0.06296567,-0.32454062,0.18264666,-0.10716369,-0.1776586,0.1843929,-0.11420113,-0.51554734,-0.20330009,0.2035839,-0.02305796,-0.3919259,0.5588889,0.23761913,-0.032148615,-0.08243613,1.3155204,-0.29047817,0.13605991,0.07878249,-0.030900888,-0.3008157,-0.48367125,-0.23296201,0.2848571,0.29265165,-0.10243763,0.10872165,0.063351214,0.101001754,-0.17649949,0.22836861,0.028610542,0.039877787,0.18719673,-0.3301742,-0.12185106,0.049131162,-0.17523773,0.12838353,0.103590325,-0.1284019,-0.39714167,-0.1129794,-0.31742918,-0.43269828,0.2344846,0.16446047,-0.086791664,0.01612672,-0.18488985,-0.005260363,0.2532438,0.19579524,-0.22943161,0.020105066,0.016185412,-0.23873168,-0.15547097,-0.09200994,-0.080478534,0.08093209,-0.0027184905,-0.16992176,-0.44117576,0.25520122,-0.2534444,-0.33270714,0.014133811,0.1760433,-0.23213875,-0.2549406,-0.04514507,-0.14409903,-0.111110255,0.1386028,0.02765694,-0.008165311,0.20028374,-0.09005376,-0.04126507,-0.05484683,-0.1842386,-0.015666967,-0.17135301,0.22899869,-0.1908469,0.036962867,-0.13760304,-0.37341127,-0.3305913,0.06865121,0.058802202,-0.3282173,-0.0022142977,0.014257966,0.38334188,-0.2587749,-0.4610916,0.3620572,-0.24338946,-0.31356955,-0.23809908,0.17120484,-0.03806052,0.13637602,-0.048765153,0.12794915,0.26154688,0.22208296,0.46701917,-0.23033923,0.014540747,0.24700356,0.09646992,0.25052503,0.019792696,-0.19551292,0.054011844,-0.088243276,-0.041366674,-0.048696816,-0.102775246,0.36630255,0.2625725,0.50856435
discourteous,-0.16732067,-0.12052378,-0.6129579,0.11586215,0.114006035,-0.72876877,0.21315421,0.08306947,-0.029403865,0.24804056,-0.31473473,0.33724153,-0.020836176,-0.01857584,0.03881466,-0.09738779,-0.07552839,-0.1565039,0.0090652965,0.27193454,0.2380098,0.49334764,-0.17491455,-0.11281576,-0.5583767,0.013264385,-0.1363479,0.13617624,0.40053713,-0.07692817,-0.030285155,0.15100242,-0.14852308,-0.29080054,0.0007239704,-0.3707657,-0.23223238,-0.05821058,-0.24549937,0.5025465,0.24178766,0.042246412,-0.3036129,-0.17125918,0.11572691,0.015926592,0.17490365,-0.09575226,-0.04623236,-0.43738994,-0.0013642646,-0.90439194,0.32161224,0.20649703,-0.09032613,-0.22207437,-0.35758415,-0.07468681,-0.34689355,-0.3752563,0.24261908,-0.28624377,0.21631245,0.16061965,-0.2528989,0.2010351,0.05580027,0.3680075,-0.097805105,-0.30516464,-0.82985514,-0.0928246,0.34438384,-0.33562088,-0.11249822,0.21611421,0.06990536,0.064665854,0.21717303,0.044471215,0.16530119,0.1834809,0.121774696,-0.21988505,-0.44036183,-0.34779835,-0.014726336,-0.22816585,0.01759509,0.42505136,-0.031401712,-0.056047395,-0.17181493,-0.015514378,0.48542932,0.26446268,-0.49185884,0.3611933,0.22613461,-0.1688294,0.30437538,0.18239231,0.13621783,-0.17048998,-0.1038264,-0.009181303,-0.055423845,0.4344056,-0.34633508,-0.06866763,0.21650271,-0.20627387,0.23066498,0.09178287,0.19734687,-0.23379095,-0.2579254,-0.14459074,0.18359546,-0.064247586,-0.08153296,0.041953553,0.4460173,0.06394837,0.12236381,0.17487608,0.02110304,-0.058252748,-0.285677,0.07620574,0.18479903,-0.16716783,-0.08329531,0.38851544,0.20584683,0.3004528,-0.19795628,0.039568212,0.23317416,-0.22959764,0.23234133,-0.36579537,-0.054591764,-0.057290662,0.37427807,0.13237561,-0.15398037,0.4494294,-0.022286192,-0.19267951,0.4695475,0.048717808,0.32382143,0.056513593,-0.11613115,0.13907279,-0.33890894,-0.28326866,-0.22279443,-0.09585831,-0.15518714,0.35593975,0.22218907,-0.29675153,0.046137586,-0.18821602,-0.36376712,0.03359985,0.013787071,0.30003288,-0.015275818,-0.23526698,0.15998022,0.34712553,0.029546201,0.0055258325,0.06018396,0.1553315,0.12736729,0.22685514,-0.18090598,0.032799557,0.11156261,-0.09999577,-0.19289173,-0.16684122,-0.31324747,0.12989591,-0.53340524,-0.073539965,0.37649536,0.5879083,-0.35837695,-0.12002329,-0.11007267,0.23052005,-0.20954053,0.08803334,0.2525141,0.20502059,0.22894315,-0.019987589,-0.17661278,-0.28077763,0.09410117,-0.21423928,-0.3108613,-0.020655094,-0.31527922,0.12914054,-0.08388713,0.16596729,-0.13161258,0.14813867,-0.15934695,0.22077751,-0.51831985,0.034489542,0.3839467,0.20392339,0.54147357,0.34958112,-0.27444676,-0.2535247,-0.48619667,-0.28025332,0.20085073,-0.15111127,0.09599484,-0.28616157,0.26521274,0.097782195,-0.044175323,-0.022191087,-0.05427746,-0.38482547,-0.064627916,-0.1432432,0.08981662,-0.042096656,-0.10281915,0.12500398,-0.24281281,-0.17321779,-0.14058924,0.001563965,-0.42323253,-0.53261083,0.07570995,-0.067826666,-0.00034156613,0.02709421,0.39998618,-0.22091098,0.008619713,-0.11682274,0.32322082,-0.4547257,-0.32996535,0.09765825,-0.29908246,-0.27726954,0.058522124,0.35130355,-0.06412867,-0.13967009,-0.25265896,0.24687062,0.070177995,0.26062065,0.14530195,-0.08603353,-0.33603668,-0.46094668,-0.11389772,0.38064304,-0.3029965,-0.30645755,0.123514734,0.071558796,1.0609412,-0.0139918765,0.17450833,-0.10271462,-0.15799539,0.40724292,-0.26697478,-0.21116884,-0.4233648,0.09253969,-0.14690329,0.3475021,0.016004233,-0.13373087,0.08666576,-0.008556704,0.4074789,-0.053037006,-0.12157356,-0.21231483,0.023230826,0.077447206,0.50714,-0.13370056,0.026413528,-0.42100644,0.030311039,0.44538507,-0.016539678,-0.15418771,0.039920274,0.06843019,0.22471857,0.068789184,-0.267647,-0.23736529,0.11642181,0.22069402,0.16321777,0.07387527,0.21831602,0.031212578,-0.035590064,0.00076821324,-0.020613622,-0.23867507,-0.02386228,0.3918724,0.16200237,-0.19802134,-0.38784707,-0.22181994,0.18315482,0.10162681,-0.02571963,-0.12593059,-0.12839521,0.05668695,-0.21002047,0.20169084,0.11044378,-0.30316588,-0.35729194,-0.0066974126,-0.289146,0.29239604,-0.008564447,-0.17573702,0.09062502,0.3139386,0.10941711,0.0830613,-0.35667244,-0.31249484,0.3540918,0.19396871,0.33262718,0.13097213,-0.17023356,0.22135402,0.12552296,-0.21237095,0.29847288,-0.07666923,0.16865927,-0.36511347,0.05176887,0.24799752,-0.100348376,0.2596572,0.21437033,0.23513417,-0.18332158,0.12732093,-0.3073623,-0.06668925,0.046692226,0.037975326,0.098754175,0.49037635,-0.07944411,-0.085533805,-0.09603002,-0.25572443,-0.23179825,0.079458624,0.15929502,0.18596447,-0.08361477,-0.27137965,-0.080000766,0.17515208,-0.020230172,0.52425057,-0.0012103176,0.059201106,0.14176737,0.037233997,0.16359381,0.968476,0.17550717,-0.04915178,0.12016404,-0.22696765,-0.040521108,-0.22389664,-0.107700355,0.35347697,-0.123093314,0.23488659,0.5030608,-0.108759075,-0.4278812,-0.5468813,-0.04189053,-0.25700656,-0.22329582,0.025416108,-0.10499802,0.08646086,0.13234623,0.36333668,0.15279861,-0.25986972,-0.5079721,0.4936724,-0.016090015,-0.12305095,0.06547243,-0.21493363,-0.26775366,-0.09023178,-0.2816138,-0.37587234,0.01924716,0.42462566,0.09321643,-0.07796236,0.012993765,-0.84038204,-0.08942255,-0.025830014,0.035216518,0.1758229,-0.16511069,0.0050969333,-0.5360181,0.032593865,-0.1504833,0.28230968,0.29073194,0.56576467,-0.3049857,-0.006662426,0.10438328,-0.29019728,0.027703742,0.21056907,-0.22078705,-0.1089045,0.16532291,0.11067381,-0.49704883,0.14947541,-0.025123293,0.092152305,-0.073429435,0.22349726,-0.17963059,0.3295011,0.6896499,0.1868847,0.03902177,-0.024719166,0.09210818,-0.045288388,0.09035159,0.32982656,-0.049886882,-0.06711221,0.01964564,0.34389067,0.18528466,0.26963815,-0.087868124,-0.21989565,0.02679967,-0.03669728,0.12486574,-0.060779024,0.30674863,0.18092827,0.13604018,-0.07979509,-0.0010616159,0.24296045,-0.19062607,0.41589102,-0.13588387,0.14005421,-0.035707925,-0.056042776,0.3353803,-0.20580293,0.22424048,-0.39423004,0.09402695,-0.18203832,0.27418312,-0.2646002,-0.0737248,-0.07253311,0.07154877,0.16263218,0.17622185,0.1090799,0.016943015,0.10555305,0.0031857092,0.3270326,-0.05119012,-0.2327181,-0.3135124,-0.23932922,-0.09258612,0.42213008,0.3537568,-0.42042014,-0.39598703,0.0298502,0.031746116,0.017827304,-0.60765,0.18400936,0.32447258,-0.37864447,0.02906169,0.29787523,-0.28814623,1.3012519,-0.14146021,-0.32209432,0.17905663,-0.12963423,0.0492702,-0.020773517,-0.029313497,1.7684417,0.30824217,0.049214978,0.06708299,-0.4298204,-0.02159354,0.35335016,0.7317998,0.13196793,0.1600884,0.118620105,0.14004543,-0.148977,-0.29602566,-0.13260423,-0.18024373,0.2630168,-0.037408907,0.18846422,0.20634753,0.05108291,0.30841747,-0.056407902,0.3396624,-0.006276989,0.09712526,0.15443867,-0.08514327,0.14897838,0.3651516,0.30823347,-0.09348947,-0.017834498,0.07245437,0.18008761,0.02925484,0.16755812,0.5571622,0.1086304,-0.34620786,0.14366975,-0.20786946,0.051668268,-0.2364133,-0.105113156,0.11624098,-0.0069530807,0.2252332,0.065117314,0.0069680535,0.46857515,-0.34244153,0.46132627,-0.022971442,-0.29690355,-0.010983947,-0.16062824,-0.01418982,-0.39671317,0.1656618,-0.0393739,0.12611794,-0.22147691,0.080522396,0.105655104,-0.104540445,0.11794797,0.33051416,0.27740127,0.94896346,0.09712037,-0.018922316,0.070753284,0.23980404,-0.17772794,0.17178364,-0.520845,0.12434239,0.00066557777,-0.20050323,0.2583606,0.29788968,-0.058561165,0.18330543,-28.248354,0.21162023,-0.0065184385,0.3284048,0.042059675,-0.49102977,-0.36378726,0.025571128,0.06570136,0.16944493,0.3003851,0.066408284,-0.003054368,0.04471326,0.15723978,0.08262687,0.11865569,0.2880471,0.019321665,-0.21911043,-0.14305556,0.042526443,-0.0029757854,0.017190384,-0.43046358,-0.053608913,-0.12970959,0.083895266,-0.09059396,0.2644943,-0.07926204,0.018526824,-0.51725316,-0.480551,0.13639508,-0.46870348,0.2833522,0.4352145,0.17076196,0.1359919,-0.05133679,0.28766844,-4.618171,0.50666517,-0.35366428,-0.11763943,-0.073608816,-0.3216778,-0.17751962,-0.0020827428,-0.026222005,-0.029440513,0.25916094,0.27031222,-0.14648582,-0.050426487,-0.53317946,-0.02000329,-0.19700067,-0.15616903,-0.10813867,0.60766786,-0.31341642,-0.22152154,0.10300577,-0.14796603,-0.03407975,0.08477185,0.26368874,0.052404672,0.006069844,0.07030196,0.22747754,-0.2871463,-0.3231622,0.05953299,0.13644573,-0.19245356,-0.051460225,-0.018112218,0.039568648,0.52461237,-0.5110256,0.0046762037,-0.24460317,0.286537,0.28793776,0.029833838,-0.15820551,0.2766863,0.44030237,-0.44041678,0.2732,-0.091975,-0.18634997,0.3065175,-0.07278129,0.037782226,-0.045011546,-0.1277153,0.41088602,0.026960738,0.3059321,0.11108265,0.18369114,-0.011883174,0.12409853,-0.27374828,0.005982624,-0.3698491,0.014307615,0.31451818,0.2572101,-0.016119203,-0.07874892,-0.1365828,0.16084403,-0.13217501,-0.039583147,0.27669147,-0.3769494,0.022477634,0.0310956,-0.040682763,-0.054392,0.25512844,-0.12954074,-0.48530075,0.30060592,-0.12522297,-0.13112761,-0.2969955,0.3290532,-0.34592548,0.0018205494,-0.23271345,-0.068491474,-0.067825645,-0.3401724,-0.14531544,0.08638856,-0.01629078,0.70029277,-0.4262273,0.06994899,0.07422469,-0.4628303,0.08950532,-0.30672625,-0.3306798,-0.14142573,-0.53930235,0.1178704,0.003954914,-0.15911137,0.14903462,-0.28526482,0.22654937,-0.253754,-0.38224638,-0.25386715,-0.22931655,0.2104489,0.10918113,0.15680222,-0.22071855,0.39298022,-0.37337384,0.2093119,0.16229226,0.012501528,-0.14411668,-0.12787093,-0.073000945,0.05199169,-0.315721,0.14650472,0.24693108,0.17210303,-0.031535357,-0.26102355,-0.2864376,-0.43672657,-0.22715265,0.3485541,0.05154969,-0.04936384,0.11457482,-0.3207607,0.027420962,-0.31503817,-0.02051752,0.016665192,0.35054603,-0.15836269,-0.18280034,-0.57723224,-0.010386904,-0.5009505,-0.4184351,0.131958,-0.21120799,-0.23052418,-0.06634564,0.346004,0.19178255,-0.010775576,-0.17431398,-0.01719279,-0.04932532,-0.24801928,0.68162876,-0.2684887,-0.11830824,0.3308936,0.2764711,0.08871793,0.13525884,0.35153735,0.09266254,-0.10288619,-0.2295456,0.03554493,-0.10979446,-0.24686007,-0.18018796,-0.04704238,-0.1637767,0.022751918,-0.29458618,-0.041411504,-0.11977211,-0.13834393,-0.1997264,0.17410694,-0.1852724,0.100784786,-0.30044052,-0.72263664,0.009414755,-0.08428908,-0.37963495,0.21254681,0.23062603,0.03513052,0.20769662,-0.12663229,0.078856185,-0.4425167,-0.06646075,0.13316868,-0.025114542,0.08357972,0.19288047,-0.46208298,0.1465434,-0.13683774,0.25518084,-0.34052595,0.041420683,0.4592743,0.38692227,-0.04653013,0.13499121,0.47546843,0.2514408,0.38796577,0.20070475,-0.118574284,0.30538887,0.12819539,-0.05234292,0.075983696,-0.4071274,0.08801022,0.17507052,0.33072662,0.095530294,-0.35408124,0.17349191,-0.06823435,0.32668743,-0.322962,0.82726455,-0.20447622,-0.118545406,-0.12112602,0.0027008231,-0.18720424,-0.35710025,-0.4669566,-0.0019157156,-0.29942796,-0.12638211,0.24677145,0.33381936,-0.14901917,-0.42137253,0.045503467,-0.14424385,-0.005108005,0.40795287,-0.19040199,0.033215936,-0.104509115,-0.013294778,0.0670768,0.14737745,-0.056183863,-0.23179847,0.30979088,-0.4590548,-0.107530504,0.18152694,0.05791675,-0.019198334,0.13301478,-0.19817859,0.10008245,0.4408584,0.09186276,0.2696169,-0.057282705,-0.11318743,-0.17345059,-0.036941234,0.13630427,0.2487173,-0.0031813558,0.040203806,-0.30762097,-0.40494278,0.03745818,0.15560733,0.23130941,-0.40092573,0.41432962,-0.11348093,-0.23917936,-0.13932113,-0.035936207,-0.28829023,-0.13823263,-0.1095452,-0.30885258,0.20455582,-0.1539403,-0.06636027,-0.2918033,-0.26355,0.0046730204,-0.31920362,0.5691495,0.07671645,0.161811,0.23227948,-0.1912245,-0.556859,0.31456628,-0.08069774,-0.058555245,0.19963317,-0.04916056,0.3161151,-0.019139672,-0.0843516,0.2787888,-0.5824561,0.067786604,0.1447373,0.45636442,-0.032628905,-0.2815173,0.14920464,0.28211388,0.10706904,-0.16180848,0.21868478,0.25570273,-0.124943696,0.060393155,-0.0832682,0.49926135,-0.06746957,0.028533282,0.06478783,0.042488754,-0.12310926,-0.13487479,-0.043012977,0.11132886,0.0855749,0.06704653
cowardly,-0.19989738,0.17752178,-0.34495428,0.16711973,-0.24582168,-0.63691,-0.04960972,-0.09792535,-0.04277242,0.26866385,0.12441727,-0.19403687,-0.0036597878,-0.110646024,0.08796438,0.041564368,-0.01661459,-0.14011508,-0.3289277,0.2838245,0.12311225,0.104047194,-0.35330653,0.03889593,-0.12432883,0.021800954,-0.10582459,0.25291133,-0.05479167,-0.19236615,-0.1396234,0.37071532,-0.13705888,-0.40964523,-0.032600455,-0.50512016,-0.061786927,-0.00093111244,-0.22816625,0.3510412,0.049802404,0.23711851,-0.14861569,-0.07475065,-0.066767916,-0.042958956,0.034817256,-0.053454034,0.07505444,0.054121077,0.4041358,-0.50324214,0.0025365204,0.112533644,-0.015351528,-0.13427949,-0.27805468,-0.19168481,0.019067433,-0.3315356,0.18415144,0.037315197,-0.042256556,0.3304312,0.05704865,0.03374446,-0.083774656,0.11058531,-0.09623947,0.012164518,-0.64439803,0.0152092455,0.30268478,-0.24849252,-0.039859675,0.30054876,-0.031823028,-0.13692646,0.30934164,-0.11572037,0.3001309,-0.09718438,0.00032451452,-0.02445085,-0.36823884,-0.4443132,-0.27596322,-0.24045792,-0.56277233,0.15307386,-0.091719106,0.12803176,-0.25943714,0.014655864,-0.0393165,-0.17526321,-0.43282595,0.10099604,0.20380898,0.21028678,-0.0048778714,0.24527857,0.18822852,0.040458035,-0.046580106,0.030031031,-0.119353294,0.2895108,-0.10998078,0.09915982,0.31955108,0.20548823,0.13351786,-0.059910823,0.030626614,0.08783028,-0.29061106,0.07738225,-0.29093912,-0.35963553,0.14265159,0.06721897,0.35290092,0.011067087,-0.06405953,0.1724011,-0.050067134,-0.08572886,-0.33699703,0.18179601,-0.059706986,0.11406092,0.25660223,0.23237832,0.20566957,0.16383593,0.04397903,-0.27220815,-0.25473237,-0.15482663,-0.03931445,-0.4485268,0.035278726,-0.06338225,0.041248538,0.16160794,-0.11492373,0.09029777,-0.19001865,0.14633727,0.36611065,-0.013439411,0.16536969,0.15145257,-0.0058367015,-0.06772175,-0.17620203,0.07168056,-0.20780566,-0.14337727,0.08143932,0.5059861,0.061360855,0.024409909,0.18237871,0.16232252,-0.13578522,0.046623386,0.20164952,0.27833274,-0.24805191,-0.19374369,0.09855609,0.15294111,0.1503506,-0.14029911,-0.07283358,0.47018537,-0.35674274,0.26981872,-0.05090121,-0.06965837,0.27568594,0.06863694,0.28385848,-0.094674684,-0.1754066,-0.00956473,-0.5873079,0.44794697,0.1634973,0.6363641,-0.1968424,-0.45974222,-0.21228404,0.26947647,-0.05270108,-0.17544065,-0.036722112,0.17110512,-0.06104038,0.0054826476,-0.013555604,-0.50742936,-0.113066256,-0.25358087,-0.25373587,0.067235634,0.22744739,0.47566366,0.26437518,0.15082595,0.1108375,0.12484209,-0.34791797,-0.0643638,-0.1543895,-0.11674829,0.18535435,0.37970924,0.31663334,0.040472664,-0.4425692,-0.461558,-0.20340915,0.06296632,-0.0053937756,0.06536142,-0.056644887,-0.43201,0.41675225,0.051546264,0.043604102,-0.15529226,0.12922792,-0.51830125,-0.28404516,-0.21729055,0.08644834,-0.03155349,-0.13530833,0.06929305,-0.15992782,-0.038649756,-0.24697098,0.34391338,-0.1704605,-0.21042988,0.0117012225,0.18845566,-0.17736715,0.14904721,0.38065523,-0.10529164,-0.08972578,-0.11577837,-0.06782507,-0.4232174,-0.19007674,-0.049781688,-0.2801141,-0.4470849,0.179172,0.3836077,-0.03338935,-0.012307756,-0.082802154,0.19020459,-0.0033029006,0.03226819,-0.22381055,-0.20659971,-0.22573316,0.14706641,0.023597116,0.066594385,-0.26940453,-0.214444,0.1916724,0.25728863,0.80530965,-0.11860758,0.31757802,0.16267404,-0.1457278,0.252891,-0.50718564,0.2522525,-0.18195345,0.020320117,0.0042473027,0.13899657,-0.011585696,0.3123882,-0.3363498,-0.1579803,0.6171308,-0.12069614,-0.13681978,-0.36104104,0.20084246,-0.20195946,0.289392,-0.13172534,-0.4043874,0.1605667,-0.080871925,0.6393923,0.16988088,-0.070752755,-0.14169213,-0.073617265,0.11196258,-0.14286105,-0.13484734,0.05872597,-0.21267052,0.16736826,0.13920234,-0.11664709,0.284416,-0.08314089,-0.117400266,0.06866957,0.17995463,-0.240431,0.050213438,0.60154355,0.051379126,0.009673955,-0.088492356,-0.015307194,-0.078678474,0.21303551,-0.34354955,0.16119833,-0.21316862,0.23673065,-0.3399657,-0.057237357,0.3726243,-0.20184827,-0.23552418,0.17110708,-0.29611593,0.23867111,0.07814556,-0.5098193,-0.02875034,0.15619728,0.30964828,0.21347144,0.12833034,-0.16018465,0.28578204,-0.043215454,0.037955735,-0.356281,0.2861713,-0.2262381,-0.019334948,-0.08281615,-0.15041551,-0.25839746,-0.26496324,-0.21785875,-0.02506293,0.091574565,0.2115949,0.20085475,0.17786133,0.55980575,0.3333549,0.1884148,-0.3369183,-0.25069386,0.29258415,0.024828635,0.08110432,0.52264977,-0.09060399,0.06680182,-0.034431107,-0.15795438,0.06320732,0.023303125,-0.016519118,0.054452907,-0.028608268,-0.11107852,-0.05064578,0.1332055,0.12774606,0.601751,0.0086728055,0.06763302,0.1447107,-0.04438112,0.23401256,1.0581081,0.11973268,-0.27870736,-0.05071065,-0.24051969,-0.05426783,-0.4380959,0.29195222,0.370167,-0.04804404,0.19200687,0.28262085,-0.23117402,-0.11371931,-0.32467258,0.49832124,-0.23742013,-0.3272595,-0.14144978,0.018425282,-0.06272151,-0.17368373,0.37715757,0.3264705,-0.3430049,-0.371354,0.49461204,-0.2058398,0.2685289,0.043287948,-0.048082482,-0.06612156,-0.13218385,-0.04232473,-0.20945986,0.10433459,0.21794876,0.037576992,0.1744197,-0.16109103,0.03289262,-0.17381698,-0.06907452,0.28525835,0.3252987,-0.31633517,0.013154538,-0.03410759,0.08393886,0.046306826,0.08236732,0.31823164,0.17671198,-0.26924333,-0.044140887,-0.2077126,0.1049145,0.12855405,-0.05869906,-0.23919411,-0.04867478,0.071521685,0.12131945,-0.11383333,0.008084756,-0.059478067,0.12057193,-0.2739233,0.23564851,-0.4355386,0.36419088,0.6314423,0.3110114,-0.6798281,-0.0899819,0.32739484,0.31214583,0.10464133,-0.23814468,0.24046469,-0.07293719,-0.18844551,0.32973772,0.3459896,0.05606277,0.010437472,-0.12457396,-0.035792053,-0.012167422,-0.0926618,-0.08485122,-0.067189805,0.09373154,0.033998184,-0.08754393,-0.2180576,-0.14509745,0.11389264,0.1588155,-0.22120146,-0.3741703,-0.015390569,-0.00918206,0.21225107,-0.070999764,0.17278266,-0.16965304,-0.20457578,-0.1664958,0.08026303,-0.22222522,-0.0737101,-0.25580585,-0.23634502,0.04865264,0.16078165,0.20232081,0.13144073,0.049137942,-0.3785749,0.30854815,0.10603298,0.09072827,-0.21820886,0.114881314,-0.018935885,0.31179506,0.37213165,0.070618525,-0.16850087,-0.01654887,0.12752593,-0.3011119,-0.3542617,0.3687783,-0.183209,-0.14495465,0.16656968,0.03277278,-0.21501091,1.1883781,-0.1765785,-0.05681438,-0.04848385,0.42077613,-0.16429456,0.123258576,-0.21317811,1.5899419,0.3220639,0.14181587,0.29775652,0.039914694,0.25313735,0.033434518,0.31934908,-0.07736105,0.5913588,-0.13617155,0.035919074,-0.19552258,0.0576061,-0.17052102,0.05708313,0.16698278,-0.15505104,0.15425515,-0.20327298,0.16913699,0.23660453,-0.06571973,0.11531688,-0.1091228,-0.0027906895,0.116700724,0.067689106,0.09509783,0.46739239,0.5323044,0.0117180105,0.4219083,0.14467825,-0.13926229,-0.25770885,-0.20965035,0.38743752,-0.0073650368,-0.052322246,-0.010772513,-0.0407935,0.1506321,-0.013266662,0.13733974,0.3028397,0.20796385,0.17818704,-0.08048796,-0.20347974,0.42921042,-0.15809515,0.30343056,-0.31747168,-0.08254701,-0.24706948,-0.13061786,0.06555197,0.11859834,0.12417865,-0.032612648,-0.02734558,0.10304397,0.0149850845,0.16839601,0.3362008,0.21610041,-0.055309497,0.20330891,0.4972151,-0.2511608,-0.091911234,0.2708951,0.0074575604,-0.26270464,0.11672957,-0.38003904,-0.07683448,-0.13693433,-0.10685067,0.29336393,-0.35257584,0.15063514,-0.042923957,-28.900858,0.08986205,-0.023685537,0.18145172,-0.17277208,-0.3111078,0.12154003,-0.058890156,0.28754762,0.09960385,0.20728043,0.09758954,0.0779684,-0.09238469,-0.12623604,0.15906107,0.34428853,0.06699667,0.032158192,-0.16943456,0.15811673,-0.012999313,-0.1964162,0.09902771,-0.33359835,0.020944558,-0.27415103,0.27652684,0.39175016,0.17201205,-0.0059017492,-0.3193913,-0.06600775,-0.5741409,0.14496858,-0.2527582,0.13179246,0.2023485,0.04177303,-0.24269052,-0.0664749,0.15145351,-3.9635549,0.20890579,-0.11314098,-0.053406365,0.0025055236,-0.25038376,-0.20114982,0.11621108,0.0059532123,0.15447083,0.4123757,0.34991667,-0.029814655,0.17114612,-0.08781655,-0.1451501,-0.20068403,0.10857886,-0.17859791,0.38370603,0.030682718,-0.15154225,-0.23698764,-0.4662613,0.13575736,-0.059765298,0.038479477,-0.17914955,0.29240334,0.06889435,0.23103721,-0.11178086,-0.35248843,-0.38592488,0.22589068,0.0015198633,0.093671165,0.1926395,-0.20748885,0.60476065,0.07106509,-0.011002634,-0.13363168,0.054903645,0.40621215,-0.13636371,0.04348325,0.17997172,0.2077585,-0.6037765,0.054597866,-0.5303391,-0.047807343,0.022146035,-0.33214098,0.012560198,-0.20580652,0.2662682,-0.16848235,0.22982593,0.106962726,0.022588704,-0.21994784,-0.003388992,-0.07520358,-0.18639949,0.18286756,-0.23518959,-0.031960767,-0.119822964,0.25296944,0.0077891736,-0.1265419,-0.4802689,-0.013355759,0.0017971986,-0.16538736,0.033827025,-0.19736932,0.23989458,0.17328146,0.09398426,-0.10333867,-0.17571685,-0.06096365,-0.5135069,0.42659706,0.0444588,-0.26252142,-0.40521446,0.34092215,-0.08702122,-0.02185003,-0.38525075,0.13133739,-0.0056861104,-0.2503094,-0.24547172,0.0020654998,-0.0712709,0.31304514,-0.054521002,0.06065002,-0.07720761,-0.41791677,0.27853954,-0.39505786,-0.09438509,-0.17401661,-0.34601665,0.15979253,0.10985939,0.067099206,0.047648914,0.23007111,0.13657585,-0.015680676,-0.43838543,-0.39470705,-0.04578458,0.041142493,-0.10502529,0.065664314,-0.12282965,0.7809723,-0.038853128,0.030024182,0.12984984,0.00830393,0.0068288385,-0.039749548,-0.031382278,0.15995395,-0.4883786,0.21665034,0.113133445,0.14658068,-0.32490903,-0.12909317,-0.35528982,-0.26536784,0.08951993,0.41215125,-0.053932637,-0.20073478,-0.11261539,-0.28042838,-0.055567466,-0.40138412,-0.015456785,0.07329831,0.38737857,-0.046766564,-0.34907055,-0.4288929,-0.002048588,-0.3697773,-0.058329128,-0.06396555,-0.2507033,-0.17836952,0.18517494,0.20352197,0.03988616,0.10263369,-0.29494998,-0.010620157,-0.045126945,-0.08447555,0.6708333,-0.35622707,-0.22140265,0.0953523,0.22037396,-0.26768595,0.10666665,0.10637005,0.11805791,-0.11055477,-0.15995982,0.06676977,-0.2412008,0.12380494,-0.034554046,0.08280633,-0.10721101,-0.25165004,-0.1403505,0.37398243,0.13816328,0.056375515,0.018491661,0.096668504,-0.0069125695,-0.025650734,-0.3094397,-0.32233486,0.11134384,-0.02083895,-0.4420844,0.4101716,0.023432976,-0.42632788,0.06868677,-0.30084604,0.049538445,-0.32085055,0.09959557,0.22290166,-0.09047001,-0.053370677,0.12209179,0.054229915,0.117775224,-0.37777287,0.43497196,-0.17590901,0.035174645,0.08554455,0.33792645,0.08632689,0.03708313,0.16216427,0.2029706,0.15483847,-0.009571184,-0.024121149,0.11123929,0.22729449,0.002837299,0.1736382,-0.44597822,0.029879352,0.2547244,0.22394319,-0.068272345,-0.18924701,0.06951885,-0.14255641,0.4356479,-0.2004853,0.8709079,-0.3688802,0.24312547,-0.02571947,0.009635787,-0.26665524,-0.61609495,-0.16219851,0.2919657,-0.018930921,-0.30142078,0.53775895,0.37293786,-0.17443915,-0.28140736,-0.014394825,0.09998492,-0.16842338,0.5879059,-0.032797847,0.10050999,-0.029065434,-0.21381001,0.18741219,0.058724992,-0.28046784,-0.30151874,0.36756626,-0.51126623,-0.109471545,0.17368096,0.18372664,0.087257676,0.28297427,0.06833263,0.0045903986,0.2979989,0.19959822,-0.10197662,-0.04196146,-0.09509452,-0.19614592,-0.032824222,0.32692006,0.06565653,-0.07944487,0.060664427,-0.31796452,-0.61467075,-0.18221994,0.17849104,-0.08647095,-0.03577686,0.077437386,0.06024323,-0.17724755,-0.32483995,-0.25185356,-0.3912335,0.14767365,-0.25987744,-0.0076050325,0.0008722842,0.10403924,-0.18158415,-0.4070511,0.03893499,-0.1969106,-0.14252825,0.07628224,0.21319374,0.0074815988,0.1960255,-0.06482906,-0.4630335,0.17708397,-0.10036393,0.011721707,0.35456765,-0.21252713,0.06626879,0.055338465,-0.022425968,0.23727778,-0.35673752,0.107419655,-0.01140566,0.055617105,0.011381155,-0.31459212,0.36020276,0.23648258,0.052786402,-0.25287607,-0.25410086,0.024962062,0.21684258,0.37731606,-0.37075096,-0.07958069,-0.023474317,0.10072647,-0.052677803,-0.06349351,0.07913025,-0.07714929,0.1651493,0.33654112,0.17081335,0.1616553
ungraceful,0.29238948,0.03937321,-0.3550516,0.039918203,0.20736293,-0.5146023,0.16958754,0.321224,0.14693007,0.44863266,-0.12170782,-0.08887558,0.3066948,-0.021313718,0.19678636,-0.31032127,0.3510571,-0.5312211,-0.35823318,0.21559775,0.018177142,-0.08003378,-0.13736786,0.023636853,-0.12326074,0.05074308,-0.388577,-0.2028865,0.0057471185,-0.34404886,0.09608015,0.34410793,-0.39354965,-0.21620306,-0.094795085,-0.33818492,0.0056848796,-0.28334254,-0.0593246,0.3750539,0.13736221,-0.32237574,0.052785795,-0.28927475,0.027867233,0.12769273,-0.06647312,-0.12229005,0.032989755,0.12289021,-0.056607515,-0.54729784,-0.021766717,0.07651678,-0.00073154864,-0.11174305,-0.19249858,-0.40979195,-0.14411178,-0.10016243,0.19662651,0.11663784,-0.030111533,0.060216963,0.19627514,0.08738099,-0.04544427,0.0057747574,0.2633368,0.03670024,-0.47995743,0.18600187,0.25756112,0.2638115,0.0015785694,-0.1660119,-0.043320097,-0.21717656,0.22396591,0.11159567,-0.16385272,0.44488278,-0.07315023,-0.28235796,-0.13098058,-0.027081931,0.05153547,-0.2287915,0.17324375,-0.14831306,0.14732976,-0.021630613,-0.3434294,-0.010973793,0.2021037,0.094747424,-0.10559919,0.06864839,-0.13451302,0.38313255,-0.03861176,0.09786878,0.20291166,0.023306143,0.023943575,-0.055496108,-0.058828603,0.12667325,-0.1947913,0.19173795,0.39019275,0.30137044,0.012565741,0.05325533,0.45316738,-0.5414022,0.102717236,-0.22369823,-0.23020764,-0.032006703,-0.11561106,-0.35669437,0.42234525,-0.4510274,-0.29543814,0.09885414,0.030179063,-0.07179043,-0.05659343,-0.24784997,0.20499113,0.08076713,-0.22489715,0.37401873,0.1306678,0.35857487,-0.15001222,0.339309,0.12337556,-0.23642,-0.016551945,-0.3466939,-0.18461195,0.2551064,0.47299552,0.07688001,-0.005623481,0.13964148,-0.11486322,-0.583323,0.2927812,0.2703127,0.40613145,-0.016522985,-0.20726378,-0.095563516,-0.05205854,-0.29349095,-0.19622593,-0.17869976,-0.10961626,0.32370704,0.4362998,-0.01594544,0.0071520866,-0.3250136,0.06655752,-0.29799348,0.055102177,-0.16369344,0.22046626,-0.24070457,-0.30332333,0.24249306,0.12969972,-0.1630828,-0.01720253,0.20118983,-0.02184965,0.3210632,0.22263756,-0.14383052,0.013446847,0.12092523,0.50642985,0.0803452,-0.009394552,-0.04668291,-0.5178264,-0.2230365,0.38375756,0.1965587,-0.12584633,0.047763623,-0.27187294,0.313756,-0.03204459,0.107396446,0.27234057,0.2139465,-0.26047173,-0.0069494448,-0.021588003,-0.3449581,0.51022565,0.19522786,-0.15682559,-0.1286011,0.4054504,-0.076264665,0.1447886,0.057575654,0.26253122,0.20800634,0.077535115,0.25771382,-0.1383688,-0.1367694,0.21848539,0.07096082,0.10480275,-0.032243703,-0.12156471,-0.023086399,-0.23761043,-0.21548316,0.030524563,0.03913572,0.3124914,0.1698506,0.12936534,-0.069831274,0.02086595,0.14252956,-0.25649732,-0.2357913,-0.20749323,0.051796384,-0.38822478,-0.06008158,-0.24078727,-0.070760794,-0.31063214,-0.16377422,-0.29730767,0.3466311,-0.62910783,-0.32509792,-0.41990584,-0.097649515,-0.25356108,0.042460598,0.020694334,0.19659425,0.08034632,-0.11900065,-0.23888603,-0.2914378,-0.62442136,0.38196373,-0.02043694,-0.10192454,0.10934629,0.044358116,-0.117380776,0.35995284,-0.54007435,0.5621803,0.05262174,0.1697227,-0.07731135,-0.37791884,-0.091901,-0.104758814,0.19510546,0.38961935,-0.25908977,-0.39074987,0.1642476,0.13993606,0.6248922,-0.19394095,0.19731382,-0.18607801,-0.16904142,0.11123631,-0.46603662,0.020137025,-0.038121164,-0.029817069,0.23093085,0.039973892,-0.072820574,-0.16677542,0.057503868,0.13211752,0.11644683,-0.28058904,0.061967082,-0.17254071,0.3969019,-0.02974238,0.13706651,-0.012271759,-0.2599967,0.1621059,0.25713181,0.23960471,0.17870434,0.017701348,0.047550224,-0.08869596,0.5711124,0.15643294,-0.28412014,0.27281952,0.11645839,0.16015573,-0.23211074,0.13601702,0.4639802,-0.43821377,0.06970977,0.07562806,0.28441915,-0.62553203,-0.09270545,-0.04015898,0.15439756,0.07122354,0.068224065,-0.2998879,0.08508797,0.104456685,-0.12360839,-0.04505043,-0.019508803,0.18079515,-0.23828301,0.21248694,0.06458311,0.12087655,-0.19651559,0.31966037,0.10395904,0.33742303,0.17970686,-0.19702117,0.24864551,0.293341,0.23275098,0.016621953,-0.1728228,-0.35828382,0.1217605,-0.15474442,0.09936724,-0.38447586,0.15952107,0.48258156,-0.27209735,-0.1506038,-0.09614447,0.19641761,-0.17864189,-0.14217067,-0.11576557,-0.41752997,0.17807923,0.05746116,0.1131556,0.285196,0.28371003,0.10135653,0.2020021,0.21712598,0.2443269,-0.10967152,-0.044799924,0.066732615,0.10955839,0.0070624663,0.1333178,-0.028547704,0.027001258,0.2506183,0.18515524,0.09055613,0.19338265,0.26464579,-0.06781578,-0.18854529,-0.15242961,0.48533767,-0.18883488,0.16062169,-0.1011276,-0.28775135,-0.27304575,1.0640366,0.10637689,-0.04391955,-0.08080848,-0.72809577,-0.38157392,-0.29962382,-0.11410694,0.5662878,-0.13672987,-0.22072557,0.23591197,0.07643558,0.06464271,-0.24436776,0.11084293,-0.29062617,-0.2916,-0.2371254,0.09638643,0.12963653,-0.06962429,0.26583356,-0.040946472,-0.26419684,0.012805614,-0.07018812,-0.32395703,-0.31245342,0.061928473,0.0020905838,0.26474255,0.576646,0.0022701272,-0.11013303,0.33044624,0.32289478,-0.03502121,-0.26096016,0.14411397,-0.36799258,0.013069456,-0.1423023,-0.06278547,0.14541984,-0.17102583,0.003914587,-0.08708976,0.03627213,0.010357877,0.1416457,0.08409149,0.03525441,0.006111237,0.09588264,-0.039968446,-0.04961714,-0.06710483,0.5382141,0.12814741,-0.035681814,-0.0790708,-0.18950482,-0.28258038,-0.0065937056,-0.5165055,0.13613221,0.24385373,0.07052545,-0.108558916,0.14387068,0.35849255,-0.062420227,-0.6189171,-0.23170237,0.08648896,0.21172173,0.22582054,0.065302275,-0.015031612,-0.3295336,-0.08290781,0.13980737,-0.039209694,0.13759992,0.02649366,0.18690977,-0.09288679,-0.43808556,-0.025345912,0.14566806,0.0117947515,0.17373772,-0.23588407,0.014885673,-0.078126885,0.079751104,-0.099136494,0.15077052,-0.020355696,-0.05627774,-0.20380768,0.47660118,0.4503634,-0.14537153,0.18298729,-0.004424426,-0.10061212,3.3188982e-05,0.40338826,-0.29970473,-0.20647411,0.19433454,-0.14442348,-0.08544104,0.17768857,0.16889086,0.65839183,0.021398898,-0.1769099,0.31001773,0.134354,-0.27305934,0.007898617,-0.043676846,0.30398953,-0.27146888,0.14145437,0.2041347,-0.1582061,0.21404281,0.37974375,0.2202955,0.090726666,-0.15792431,-0.16053364,-0.040654562,-0.029084092,0.4629306,-0.3523538,0.9658979,-0.10273056,-0.19978562,0.11913196,-0.2727006,-0.29100072,-0.005852882,-0.41223866,1.4930512,0.21444702,-0.15924099,0.14520806,-0.18398997,0.5524515,0.24615112,0.3126634,-0.10249746,0.4220849,0.24922366,0.04892651,-0.022753775,0.16275254,0.3087721,-0.27975324,0.3378523,-0.009730761,-0.10582761,-0.036604576,-0.036058407,0.014192308,-0.2850877,-0.2802701,-0.013723779,0.16069418,-0.052814234,-0.25835302,-0.029304374,0.14720424,0.1821785,-0.055209715,-0.026782269,-0.22022533,0.17822416,0.0931754,-0.073837444,0.33310893,-0.19546042,0.20944059,-0.17243424,-0.04504236,-0.051424075,0.28360108,-0.26311782,0.21715708,-0.17922834,0.054479085,-0.055473387,-0.22134618,-0.23627424,-0.049394347,0.21566233,-0.05416047,-0.16784628,-0.0005755156,-0.26448694,-0.025777508,-0.12377553,0.07312618,-0.091511294,-0.10182647,0.016403884,0.12886056,-0.19310638,-0.14389573,0.008392537,0.15739739,0.026808534,0.5732728,-0.30187774,-0.056493927,-0.18114702,0.25580624,-0.36714438,0.12993653,-0.02339071,0.13424642,-0.2287651,-0.021584991,0.2961029,-0.22642617,0.3298742,-0.21813142,-28.638367,-0.20362063,0.24953945,0.32323885,-0.16527031,-0.076190256,-0.122767076,0.07155633,0.16485193,0.062656775,0.1533492,-0.31344706,-0.025426969,0.06875723,0.23464127,0.064276665,-0.036581703,0.06557412,0.08457563,-0.22589712,0.0066987663,0.10963007,0.1291028,-0.09618004,-0.21721096,-0.2940503,-0.1593276,0.03654666,0.066918254,0.0135944905,-0.03498461,-0.041341525,-0.48859817,-0.23365434,0.44059,-0.56780845,0.16291,-0.04162066,-0.0077688904,0.100100115,0.21621993,-0.06223891,-3.4035861,0.52267873,-0.24625778,0.42379802,-0.03745815,0.12742916,0.04264117,0.120386705,-0.012043009,0.20884518,-0.09506001,0.3190609,-0.2158155,0.27657002,-0.108080946,0.2733313,-0.2397182,0.05787494,0.118034504,0.31465405,0.19640145,-0.12492044,0.07884534,-0.07580566,-0.07166194,0.15437385,0.19755062,-0.14737871,0.4245432,0.043355472,-0.16373722,0.040162135,-0.33036008,0.17837748,0.13681227,-0.10506513,0.31120613,0.31629145,0.0052247136,0.18168847,-0.073541656,0.023805585,-0.14967853,0.00837311,0.23307443,0.017358387,-0.3244614,0.0076786773,0.015437717,-0.0504118,-0.0030480945,-0.25542802,0.030605623,-0.16101058,-0.058502663,0.045582525,0.16049573,0.14719965,0.17744246,0.2685065,-0.102822505,-0.0040694852,0.080745235,0.05826804,0.14061418,-0.32956374,0.28232494,-0.532257,0.21146166,-0.05440107,-0.088911586,-0.29167363,0.19575733,-0.20018998,0.11644665,-0.27927625,-0.14770356,0.18031609,-0.20744927,0.36178437,0.11173849,-0.016738858,-0.24111955,-0.025162932,-0.13190177,-0.18300071,0.07287415,-0.08979807,-0.46042505,-0.13137741,-0.038701963,-0.17722492,-0.00063881127,-0.021638652,0.097583756,0.027045852,-0.42290378,-0.29917485,0.055304103,-0.049155764,0.17547052,-0.24467795,-0.021317944,-0.319999,-0.26509535,0.28827208,-0.27373663,-0.024540465,-0.10361983,-0.2573621,0.07070546,-0.01125533,-0.044610675,-0.084669255,0.16434595,-0.0785433,-0.15729421,-0.14465356,0.24152462,0.33863586,0.12118627,-0.07074812,0.18117784,0.06264516,0.13467304,-0.36209196,0.15628158,0.107581235,0.18632859,0.5015375,0.27191135,-0.11893742,0.13232458,-0.20665427,0.21280643,0.14761654,0.044156857,-0.13522194,-0.26698926,-0.27953205,-0.13991445,0.0736507,0.07620903,0.0065139444,0.06627148,0.070416376,-0.08242229,0.012980433,-0.2169406,-0.09385109,0.20666616,0.24504802,-0.20568982,-0.43039694,0.15362175,0.06964698,-0.18851587,-0.09274751,0.19127241,-0.15612145,-0.11975153,-0.2645998,0.13727233,-0.02216023,0.118715905,-0.016080903,0.1514894,0.02936464,-0.13294089,0.9012613,-0.17898366,0.01851043,-0.2844731,0.043363295,-0.15296611,-0.2569039,0.07280404,0.06743559,0.008872226,0.16982901,-0.13819936,-0.113131866,-0.10188615,-0.01255312,-0.30557656,-0.26502395,-0.28439713,0.14428638,0.09445401,0.17783877,-0.014154439,0.21664175,0.32911992,-0.4138744,0.05684235,-0.3257628,-0.3638761,-0.41599432,0.012401829,0.124459125,-0.120147884,-0.1683293,-0.02297551,0.18758912,-0.46569118,0.08673035,-0.42835504,0.11903541,-0.0524747,-0.035586346,0.016860634,0.26545045,-0.26119602,0.53639233,-0.24435452,0.16434744,-0.16290763,-0.26832098,-0.04276894,0.109548986,-0.029842446,0.32348752,0.21040766,0.06828775,-0.17581712,0.76672035,0.15674722,0.15639,0.09685099,-0.019329026,0.10263183,0.050770115,-0.2392505,-0.058642328,0.31519383,0.08359387,-0.21042308,0.40250698,-0.12768891,0.1592087,-0.1405336,0.9993396,0.21363346,-0.22712418,-0.15780109,-0.3816876,-0.13258089,-0.07809162,0.06794278,-0.0439786,-0.08769884,0.060143135,-0.1893298,-0.033443503,0.31713635,-0.32635027,-0.06435305,0.18109827,0.22045588,0.2853709,-0.24655053,-0.02906562,-0.06377974,0.017587924,0.31799465,-0.0728969,-0.06425916,0.03586092,0.39006826,-0.27096027,-0.012488398,-0.14360495,-0.03848133,0.013442236,-0.18118587,0.009117365,-0.3246518,0.18992123,-0.096312694,0.011460262,-0.18134248,-0.15729567,-0.058784015,0.21738096,-0.08444689,-0.17382029,-0.16923422,0.20260222,-0.35185066,-0.09235229,-0.29487082,0.047108147,-0.305785,-0.028190468,0.40031925,-0.16585419,-0.09385676,-0.49059993,-0.114445664,-0.26161295,0.33376807,-0.088961616,-0.46953654,-0.11048627,0.1673538,0.121213175,-0.15147515,-0.29967028,-0.07142997,-0.16857989,-0.059758924,0.37246162,-0.048839357,0.13261703,-0.039307885,-0.40046984,0.103899464,0.2250503,-0.3190332,-0.09203635,0.0552153,-0.7557719,-0.08475055,-0.088916205,0.025383662,-0.38332465,0.007399759,-0.08306788,-0.10246597,-0.034979735,0.11328578,0.11903094,0.272552,-0.015449308,-0.09436397,0.341324,-0.09404905,-0.43884674,0.4303568,0.088687815,0.30672565,-0.26192006,0.0752102,-0.022394132,-0.1210113,-0.12882574,-0.16564293,-0.13487798,0.15286125,0.1800348,0.27528924
