unlucky,12.570297408265443,-3.3490190505688795,13.802266876926508,10.513030571548182,-1.2973349838015236,-1.6718506717401747,-4.729066950112887,9.25380806711093,-2.8366947846334614,3.3174602011633323,3.1537532538201667,4.33927325235231,-0.4651102213040926,-2.82340730611985,-1.7816963283307137,-1.6612264184088634,-1.2496315987393294,2.74870813001482,0.033552894671026755,-2.051487019735313,2.6882971654799035,-3.5616480506671295,5.786946489477352,-1.9511600643775355,-1.7346966661526872,0.07062284508106817,4.3006414743938,-1.7222580353485495,-0.3055724859314508,6.114042106561973,-2.499267386520726,0.9685079850216286,4.4023111822187575,3.7086698141941947,-4.43988463698966,1.414071466918868,0.442968330074736,2.0545461970265344,4.162393917883037,-3.6836096279477992,-1.7763036313079632,-0.913230662101427,0.6306550082192935,1.3351447872527384,3.199946570289701,-5.157327186130339,4.018930336341533,-1.4932143907010875,0.15783912554647886,0.16025045851147712,2.918883584047066,-0.631996139345202,1.5981434147001696,1.2578282486852301,-1.9477350790264765,-0.4019160584143547,-3.1981937118914225,1.3054166829941716,-0.12944627910855216,0.9308681785735818,0.17694595525848203,1.4941904390726033,0.35364195271749815,-3.2137461680538904,-2.070181032100203,0.3752202745694157,1.9556311671951958,0.873358819363927,0.04651408687264409,1.273082245348897,1.0130463360133675,-0.7842639906297422,0.40599845223383874,-0.9425719671228414,0.21144742888610757,-0.06394621800745522,0.5303835147937532,-1.0941004632734141,-1.0985577802637996,-0.09984416071296051,-0.1696995329341117,-0.3427207107538344,-2.3608334092691825,0.052815151138849464,-2.622236948767295,-0.15392957648249325,0.46351529890458,-4.76957754355598,-1.077379184269198,-0.7671943410640208,-0.23090073704595623,-2.3282993261772047,0.09856534448635607,-0.46843367323145474,-1.065239225389188,2.2994796287056194,1.649747187478582,-1.4718813710925662,-0.7318644223293093,-1.51761304603349,-0.42469208067296327,1.4878845498260875,-1.1124239739726791,0.5529217511183789,1.692448108409288
dull,8.029847269994406,7.7337687696137625,1.0686154778419297,6.448329954476438,-6.789513536993554,3.1661095049939902,-2.0764706701498032,1.1297870592159356,-2.6087331380243928,4.971060535738594,-1.98456074896402,-2.614716867812947,8.96229859003899,-3.5535193551870496,3.4039619998227484,-3.0687791419079122,1.1353588394787448,-5.789010392097901,-3.154507773115625,-1.068034732975259,-5.61291871797499,1.4861596463401237,4.749144228690774,4.096572492968634,2.4509105167952976,-3.068926881427754,4.909093193009967,7.280502305943298,0.8644910359448277,-1.1239883111404236,2.7882001641606418,-1.577724241393815,-0.6938141859255811,2.703124072032028,1.9673375715653914,1.5251371229285986,-2.911794789807469,2.0145504285048133,3.3921926172180132,-0.3786571747180162,3.237315158807899,2.335607512336724,7.024479890847913,5.277304298227986,-1.7270038262418497,2.6284373347678227,0.6037378632688573,-1.2383958846188488,7.029686788763173,1.8128009719677758,-0.8046972688802,6.119900171181877,0.6680890954526209,4.533754892946992,-1.8601395739464883,-0.2731101517584124,-0.2503048616106512,-0.05863516804305858,-0.49282416266962853,2.3085516615034876,2.2902031953239605,1.8072935560906151,3.4554663527500766,-4.829674237306083,-0.049580181598088004,1.4448043557175494,-3.3476835380235626,6.429582296098848,-0.08755070493481806,0.12061166088289291,1.3943678848131222,4.061666683274339,2.511384504914095,-2.0973980218902626,-4.001579859508967,-1.6030527972746282,0.04018170664561233,0.4089724587216105,1.9796880583783603,-1.4634632422846938,-3.7298576900266665,-4.983285821773558,-2.707032317770728,3.83945570828967,-2.513368457394376,1.8690688731800005,2.9572751288045933,-1.8757177337149016,-0.8895199952552549,-2.2333809641772477,1.1299853019806314,0.6567808439881543,-2.004274179461951,0.15189029369072937,3.752923617989327,0.5861542179357094,0.8027188523912668,-1.296121601013721,-3.4722611638633167,0.7624188618813146,-0.3285650080045348,0.2281130359917953,-2.6545357847331914,-0.4915525495261638,-0.6479587528715639
arrogant,21.282742431650117,-5.99145502271459,-9.537297945603113,3.905807786257847,2.5589754299132506,-3.0086293405849593,-4.1988607872501555,-0.4807867709708914,0.3165716031038157,-4.326348665984499,3.401154827581955,-5.337430326968984,-0.679306832259593,-2.395419785458233,-1.882267977495453,2.7068787588284198,1.1965220549734097,-2.1656068518097857,3.2840741805797644,-0.6487118407914613,-3.176677621599784,-7.015070357714795,-5.418441145258036,0.9412336730000452,-4.978229141149493,5.171158727422897,1.1154638715011256,6.330148173982289,0.5895004273867691,4.7698852097906705,0.4370955161259484,2.4917062405937904,-2.181753767085299,0.9185795656080477,5.524380463847741,-2.864000369199681,0.4292360684245753,4.1346571294658085,-1.0356272030022895,7.986732784886328,-0.2655675470775613,3.352992123100508,-1.9012268690684935,0.6282828205690109,-5.238738657543304,-0.4083727889202239,-4.586524417863206,-2.2268183899416867,0.7775684042275169,2.936139766094016,6.3246253090809486,2.420272536036612,0.1125971068605891,0.8504045139171054,-0.09100257969187456,0.3219984892324874,-1.5411205874048262,-1.9264036475594142,2.665605363898313,4.153533971922207,-0.7431678088721436,-0.40416154987122155,2.0436175637274765,-1.5171693333658822,-0.1795007234530706,-0.04783466283795302,0.7760474868788303,-4.329523033461887,-0.4620978713640148,0.26602205937325946,0.028077267643693952,-2.1184839892758776,-2.4020749461438284,6.717322438003348,-0.5844635086822348,-0.5086865343840694,-0.8229446320909455,0.7847180122253669,-1.6682413816999482,1.864370978053526,-1.93085800855674,1.4113364212489363,0.5763164421868188,-2.307420316660735,1.231247862014116,-2.1671762432511836,1.1470873477752241,-0.16897838045242602,3.6847028621338174,-2.829596726390836,-2.8392330614036103,-1.4961977981046128,-4.351219589186772,-3.5246096028233,-2.2139799975406653,3.023208000391317,-0.7379832295315507,-1.5705750293579899,1.7987772581789823,-1.4460324732549745,0.7002980316958952,4.086366902423484,3.055902524173588,-0.03740149285569212,-1.5397191897122329
careful,9.36713322500548,3.35260327482414,0.08708278905072017,9.378581424590484,10.069573223609241,3.8900817622763015,2.5861769017895586,-6.965180367718405,7.112363031850467,3.335462100256238,-0.8048606426174312,2.3458881981359605,4.66131296163153,-6.249550910295535,3.5448881755606956,3.934787178316016,-5.421610731414127,-1.9155440954266134,-1.5722557630637806,3.6638074656708013,-2.1136989789344827,5.268627596051201,-1.9552708927729752,-3.335949795415949,3.251691095170201,2.990954398342514,0.24902346964768687,-1.3120799437627868,0.4666998634757983,-0.05701093340081214,-2.73515295443922,-2.0167532321010477,2.6115239982394516,0.8177722809209802,-5.898723796602111,3.4499619393273906,-3.0447673950533654,-0.48156842142925554,-1.9062605810837967,-3.6321789742972506,1.1188961137006626,-1.380137709899527,-2.894724627497215,1.775913297706934,-1.5658196463165013,0.47117336030264667,-0.5947300010466304,2.296912532924408,-1.8767143108101683,0.11708525543625098,-3.2853954089234927,2.1395621950849395,-1.2763501182664863,-1.7409543267995655,0.3521448023531608,-1.8354240835411462,0.5783791057156993,-0.9075371104055349,0.2510228811439234,-0.39845902972948877,1.4655188256378242,0.48154276928201295,-2.6247079604769463,3.4465227317063083,-2.7989325119367074,1.6228467791133925,-2.823665005142572,0.7935039392909831,0.04218819811345053,1.546760243591379,0.5240872963661183,1.5129326964001903,0.49988744591193957,0.6385961990850173,-2.191251770315833,-0.4913027585999643,-2.2356464504105427,0.6684347472623412,-0.9280901707358533,1.4198420122562954,-1.3283983377062176,-1.7524383306143003,0.7990769299676223,1.7566175566439586,-2.3615867683799245,-2.2041041854644745,0.03913371854096685,-1.4598941976822368,0.009926548720893283,-1.0305600851509005,-0.3078333050549241,2.041364963410369,1.007746835329473,-0.06195422643369328,0.9635004034464704,-1.6424294155376902,0.17640257858430317,0.08088907846358344,-1.1889925898160982,-0.7058536109691781,2.7949868387777053,1.5981543103382427,0.2329962141314586,-0.1378448557193456,-2.0629034644419977
communicative,12.469863201900289,4.030846020729377,-6.325979140837243,-5.009250682140609,1.523234210016717,-1.7057762952727429,10.432306496694997,-8.098203741029318,16.15293959226127,8.538256490159634,0.3329192402746525,5.507527243605719,-6.497943265013215,11.745114083630982,7.916912276361941,-1.3226850241282475,0.2849140530525274,9.550718536763087,-1.7001085036420565,5.347229751058533,-0.2314278230882629,8.014603094482526,1.6579520006502175,3.7092154077112305,5.088052405873292,4.908231139006827,-0.8843923497296359,0.9675777555037355,-6.8049683252042374,1.5372782859097227,-6.379162649078035,0.6309818148574621,7.12435251946941,-1.6023831430046107,2.902945950825995,1.04700979786557,-2.1013892134219736,-0.8591141773139515,1.5041447624478663,2.686696788150875,-0.7276831257152255,-6.39886428446773,2.9645045180034595,1.6428707037979264,2.458914744799099,-3.503310210488512,1.9779031732069643,-2.705061461276443,5.904594422049917,-3.3689001612908465,-2.739698720512176,-0.2779155142798694,-3.2332472029284185,-2.1563879529142977,1.5212350740447997,-2.092946570461066,-3.140176817575858,-0.9871102987916702,4.171946976111701,1.1497427340217432,-0.2975904595767613,-1.534552798722815,-1.2979881522864616,0.2527560843895054,-1.7000745259471959,0.5232151554505292,2.8065348176231266,1.7261063083652222,-1.0886870520519292,-2.1449340090269593,-0.1923030542547956,0.798506240497971,1.157028485830996,-1.1693837143013242,-2.2884789990322965,-0.6602583924827895,0.5325738820146516,-0.8435379063192695,-3.359336366184923,-0.4412118351672887,1.6593393097885405,-1.2396100815576616,1.7728678717913298,2.671191831279478,0.1711912384926047,-0.4431437101499651,-0.07019590631809287,0.3689234496878707,1.6748927130874134,-0.8673359035444042,0.1481132445495407,4.106454137186939,-2.785601578238405,1.9078664358344488,-0.16198584988791562,3.110357064709068,-0.21019864006513875,0.6571444131748051,0.6458802060025658,-0.00953921160967112,-0.12115014136954359,-2.6782116563682674,0.30446159357606994,-0.5098222880104097,1.4791698159886764
discourteous,22.604703601673954,-8.744009157332952,-17.018623286139203,2.875876308121021,15.086563798600816,4.722857631665927,4.1648757506326985,-0.45569654475006116,-3.0398714860154232,10.099769924317954,-4.383175775198964,-1.3166873528628438,6.134123500778357,-7.493362431202761,-0.03724147344529579,-0.8688606668030786,0.5731986496699447,-4.83864256656875,5.768214547784985,-8.616448069854446,4.751114039629977,0.21319190009797684,-2.773933609299435,-0.9533982859449711,3.4257566146875256,-2.3479136475454614,-0.8874036896031796,-1.8248127427662229,0.4931819680331727,-2.2090775268459892,5.692338365890908,0.4936752552947319,-2.624775486308239,5.07231219097316,0.7678034401811411,-4.931982120828624,4.449553393112347,-3.5772839945200086,3.030101335079066,1.6070981431474634,2.6876530319796723,-0.4656628953825354,-0.9257228747445694,0.12673330731410168,-0.9641728925632442,0.44635611219514626,1.1621592715910705,2.631471144923282,5.482043096050918,-1.5532417677785828,-1.6182019407005908,0.026542413776313167,-0.6102288586814227,-3.5947181631529874,-1.4952278459501116,-2.5715365450392262,1.0204546760442545,1.8568931326326763,-2.24685406679769,0.3915661854420331,1.1529821965435643,1.107633768194757,2.1508651207070226,-2.7676169833095137,-1.709568929726435,1.270686168668703,7.0091460930462866,-1.4443833424892083,0.3420950089145161,-0.6081556422834652,2.4533519822434413,-1.8238222165642008,-0.2714679760694658,-1.7125932233382926,-1.9019614946844887,-0.09157029406871593,0.48647129232104347,2.188852222505133,2.4438182818583387,-1.9442217569988658,-0.17507589830163112,-0.4646653790317857,-0.40934023987255,-0.06791166051324513,0.4715918461584616,0.49113935788829255,-0.6129114265550046,-1.4689077523013776,-0.13270933534253096,-0.13297959820869729,-1.0301587448128178,-2.7316820996679323,-0.8406951335528607,2.8635505643307377,-0.679854097967618,-2.1826968381099534,-2.560358976419684,0.3230842630685789,2.121810598610723,0.6500857058329665,0.6464308725023371,-0.5017982034888616,-1.506166844052587,-0.18829659229510062,1.0824071013374361
cowardly,16.628087551818766,-2.499933206342585,-13.259574258220717,7.2590273924845725,1.727389832062023,7.121365122242682,-1.1866216895633104,-0.4225477539267368,7.238728170793495,2.654009064149128,7.389392165492418,-1.510982180891295,8.558278256033459,-1.49433801307157,1.9289054883864514,1.1490038392410058,8.950022880854553,-3.463957140447358,0.040924708545778045,-0.03850511437038851,2.3782100275650575,-5.848119257143241,-6.5282908635261325,0.006680615267612399,5.893370836366032,3.9671036678358433,7.879794001464915,3.725050107687318,8.082041430592716,6.93877653764963,-0.19136608527685972,0.25282391282062416,-1.1760568077331794,-5.045216622719519,4.73171368585174,1.4695878151546748,3.0710606954673434,1.4481168998485887,-3.3528003869942222,4.288488936617788,-3.3361405438786047,1.8639058478629629,-5.304529191388789,3.568102777098651,5.050599647379176,-6.56864341670725,-6.845771269486142,3.257603170736497,1.778885087544806,-0.04559609652904781,3.802506031425226,2.7624340446712745,0.9203588852348625,-3.631628921387233,0.6176777372452399,-4.0289720731746375,2.0116098387135457,-3.1653678505825913,0.4491056137641426,-5.275895792406245,3.8617298339581407,3.2429405302519414,-3.3612774952760383,-2.721607916049186,-1.2942595688247893,-0.7357352365649592,-6.863370508631288,2.8548961585889074,-3.96790909261506,-1.2774476690785193,-2.2299082697496404,-2.830061112149054,1.570532838286486,-3.8703013833622966,1.0628125954640526,-1.976174519436363,0.9792041614916048,-1.1891675316203492,-4.213669236082743,3.7989136700341364,-1.7698091055658376,-2.9277584535419243,-0.15169354538540591,0.9108924033653283,-0.7604743789463116,-0.7039295141813503,-3.77567463255355,1.7219048672563841,-1.885041182537409,0.2123313316646941,-2.4389753648121895,-4.581274191744845,-1.0011771101607079,-1.629489238802714,-1.7503505209898995,-0.6746129523870072,-0.7617433096305269,0.7048386694676652,2.344682267193655,2.0354059372367113,-0.48933465161478146,-0.20877021023552556,-1.4613294019362562,-1.1712310342307366,1.2582918478197345
ungraceful,13.31106372133219,3.065331558527703,-4.469967054488432,-7.230905642351478,0.42157700584026153,4.571313057937041,-14.337621391523953,-3.1297272106287126,8.277484850021091,9.139985351793376,-3.6493881704522675,18.114603418070875,-0.9442314318685121,-1.5660455067131174,-6.684663685160527,2.7499412402326633,2.9202270559069037,-6.583680589128668,1.208886538586014,9.36022413569449,9.243324090969807,-0.6903054760807843,-2.5665794638017205,0.8537540273953925,-2.66483928409244,3.1530958569707135,0.7199475843544938,-2.8000196186532946,-11.108416106798185,7.362070731554222,2.394240151581385,6.814894447918972,0.9519151739300719,0.7922953314912774,3.2723869234193455,2.6487587900902527,-3.7961628840437416,3.869149921307928,-3.93727905861056,1.583769137940624,5.285942872771347,-0.49558963270595785,0.9242957122358488,-7.681568726487944,-0.9798514040604889,-0.7768301152625395,-0.29747588141912074,0.4864433495506023,-6.908937831595557,-4.650982184432268,-5.435574469737656,2.365165153368903,6.6573615001708335,3.7437618140081037,-1.7699235811967768,-5.580593658721957,-1.3632704147219774,7.601601777452912,1.4694624281327662,-0.8996239516131058,-0.8124056696886309,1.6550035888248218,4.06559452585542,-2.3456743902244805,-4.020632328539379,7.659533990497898,1.1447821379337557,3.9955904862420097,3.1533034250127603,-4.459888590319354,-1.6837390603604954,0.9323165855368897,-0.7099814602371335,3.1240746673228474,2.903400872378978,-2.7526147754298615,-0.1761744624154694,4.605211386900529,-0.6894354422879404,2.5118596334188275,-0.13162116713370794,-0.4296644721000094,0.5488126315836951,-1.0773598507473163,-0.008615421943187573,0.08026041277328802,0.761793701674278,1.4286774612888449,-0.5946681201110927,4.345207702388562,0.9469373076696814,-0.3843177087863761,1.2081470035033952,-1.317342853450354,1.0593211122149426,-0.7097978620835025,-3.6751411990648126,1.7030092162244586,-2.096121307683595,1.2772729880585272,0.09651221565968124,0.37877929993567006,0.3257478463093498,1.8596934897124495,0.5693889980137701
inattentive,23.582549874429123,-11.56175466568413,-10.701606462656459,-5.366250246434312,1.7786707132712016,-5.373539471105379,-7.0908967059161006,-16.09890169753247,-12.629833286374874,-9.314743870056645,-9.451138624790618,-1.644659300121699,2.1415374661214686,-4.3062108416550435,-1.2221038804755533,-5.29451230013872,-5.313416680304434,8.043578500876157,-2.148879239476594,-1.8947477520981848,7.188347275255913,-8.46695112035425,-4.472742286169652,-7.214037588322473,7.160028762108584,-0.7310810515303914,0.6349781505176717,4.032851241746981,1.083468037222685,-1.7481098753556013,-1.5831042580238737,-2.1746303689586863,5.82194630455252,1.3333752793929943,1.0061928203048671,-2.384737553504846,0.0732379241205883,0.5406915024355103,-4.380723953689706,-5.032652881019024,-0.4108009564108067,-5.6886888163642855,-2.273191249564519,6.041451377770572,-2.2647032984219084,-0.7304661897023464,-0.7490972342328726,-4.408305678259935,0.07914992255721501,2.295613464168463,-4.8820143501852,-2.5299134112190993,-0.0632590712866707,2.0724932011394737,-0.8681455250689359,-0.2893378745185035,0.7444737226908765,-1.5280195183126424,1.87068206994236,-0.7274345108410291,-0.25119272802934517,0.18242090024481156,0.8241993034282046,0.11283933650543417,-1.115731040974533,-0.7760023635652956,-0.11740719154187161,0.24945237691620137,0.444300226268215,-2.0408942910788044,-1.5645243403196942,-1.8478370887849747,0.7502306505243298,-0.06393234222735854,1.1200542594946015,0.4248499484413443,0.7214117299952861,-0.07380870450473391,1.8233071179328115,-0.9149153222963223,-0.5362297868216457,-0.2112177451741414,0.0887025956497391,-1.132501346753084,0.3560213464188849,0.3521672540309742,1.2032986314728253,0.40393974916292563,0.751643981524186,-0.2752916209658887,-0.47528345887797285,0.36734462445851707,-0.36289638403943547,-1.4340595050545777,-1.7277206159975411,0.101744385601232,0.4811905882688455,0.774583097993179,0.4074994226433407,-0.7083028214918987,-0.8068599429615796,-0.3170448878007279,-1.0625342893795733,0.11287909631516323,0.6763991948482929
insensible,10.098092995346825,3.941845676396588,-2.3680005175973804,-2.6163839064407677,-9.03249259564423,0.2163672872254147,-8.004574255816925,-4.568979737185467,7.589011799094979,-3.4268421331946506,0.27437311989971525,1.5515593841673623,10.168455429121448,13.620739747760222,-0.24091771829699576,3.6195252081473774,2.0351476530468235,-2.58180260503799,-2.4774972607381693,2.1758255557977333,-0.7280425329552414,-1.8390741237402932,-4.189153619693743,-7.049263008248326,0.25119029801034004,-4.612935271257312,-3.9457924231758694,-1.497564044608544,6.118149354061805,-3.4253467350917384,-1.673998490027973,6.361823561723883,-0.7723122136315673,-3.2427652810543486,0.33649578208699765,-4.250882454031717,-4.59631108834553,-1.9510508231476222,6.483863633808971,-3.0918209078843644,-1.7237497792283831,-0.21917101320747276,2.0993294460595426,-1.8628278849594377,3.264899402413955,0.19206801146169397,4.010242142389255,0.4672710045051488,-0.7044238285864737,3.174762840838421,1.995519288532995,1.3407962486844451,4.198606991616181,1.9836016588195375,-2.521449189241218,0.8927941719920325,-3.0317082103040334,1.0450269519262043,1.8204512410746192,-0.5580670657978312,2.9299817196790876,0.33645192650014144,-2.0309205814051197,-1.3279253719866817,-2.8886604100821884,-2.5267294000914062,3.0011634702896504,0.8301690308450935,-0.07105054479699585,-0.2754409995801203,0.7446220438430214,-1.9248657374956746,-2.0256916625543604,0.1455616333457795,0.2731812357394798,-0.8504013621342921,-4.0143700048627835,-0.3880093105955328,0.15350796591910365,0.26958865565760826,0.7293970659728122,1.0368510318531265,-1.7553746001754758,-0.789396378276173,0.3577253178705007,-0.7607682245996976,-0.3278033571723488,1.170562754189767,1.4753510409050992,-1.6520641075942804,-0.7603363688110844,0.09515276750966094,0.6385895058757697,1.1575166514243915,0.47642439607349557,-1.5078806583427802,-0.008332424401312774,0.8938799928054135,0.5436079273368393,0.6460028721134073,1.0590847299611377,-0.5063860905891662,-0.5858790725665105,0.9610573724987311,-0.590351812199361
sane,7.105535617761364,5.753276207209968,0.4477359058238934,10.022449328397153,-10.515292790549298,0.5196165283094719,3.611289401332866,1.847841188772,0.07933497954795585,-1.4919303287994263,-4.227268222685549,-0.8353938241063177,7.296678132384803,7.952479141146412,-1.4285372099304103,-2.888238677532666,-1.4550849792247869,-1.3843386453935715,2.597210709022079,2.5199016713570366,0.9726214035056977,3.485899614116391,0.7556140441681827,-1.2191082781336309,3.1303649393061814,-2.2972394138459182,-0.691788723117502,2.7080314989033907,1.377553606336342,-6.445753704297659,1.4245059326210077,2.2388356073994964,-0.7160801057838905,-2.0017256992563928,-1.1380104603447954,-1.4354135620620752,-1.0970333291314946,1.5534785487503469,1.4522570569840887,-1.6260143115080692,-0.027140864908112468,-2.4905304089755997,-1.7485661123263798,-1.1786832717253695,-3.2508308680899543,-3.267588831492361,1.733684693401185,0.392910580323259,1.1746488827410833,-6.025927922721017,2.508399529820956,4.505946921472916,1.2425815455633444,-4.080120574127416,-0.9976450629387709,-3.4226865569905383,2.365181718530126,0.7854134337691863,0.9382140612753921,-0.5373861531044438,-1.1623732386226273,-0.9291568978175276,0.8785551997885799,-0.9933725467633026,0.7144978528350973,0.6693611038474012,-2.9952199073557004,-1.7830439929987836,1.4838516668410202,-3.3864032653286937,-2.8525668016892545,-1.0119655002344174,3.527309236929221,0.08594519295433888,0.6410769231242681,1.1524204297335823,-0.020058467287452267,2.024457083286943,-2.54264300523044,-0.08451924875470211,-0.6503744374386006,0.6955079574967572,2.827010806777072,-1.0661638962124402,1.647876387530723,2.4572706551434798,-0.3562194103319014,-0.13009906631430196,2.0348587941237786,-0.17687622468556252,0.8191864678800527,-0.5354077263287089,-1.5225052499546152,2.257783154627165,-0.6291898079275002,1.4973955279039146,-0.01712892866188276,0.03552246956079732,-0.8844203999588195,0.1945668627704782,1.12344191887427,-0.33805051632014527,-0.8191524326277234,-1.2134945536578985,0.36843134841316855
remarkable,11.645212072526983,3.803178248016788,11.037623079144662,-0.8341981276195591,-1.196803586385235,4.745537674496381,3.2494380381029284,-4.539010399366858,6.361602489777942,-3.7614228776557956,-2.304833307747811,-3.603880527416039,-8.329349233810394,2.7224201904614667,4.472716326812214,2.7824619216618713,10.97405112648424,-1.669827367782661,1.2944754328530674,-7.070258553981142,5.345310267326009,11.382676551369206,-0.618076425478491,-4.0762332406041395,4.52443096722529,0.019906498713563876,2.386090467983972,2.1390301305720594,-5.162099179682006,-3.3381731819391454,0.652846920360028,-1.2432677477453966,-2.829824783003458,6.3494504203510544,2.112313329394415,-1.1693744685553067,-1.3415195469532175,-0.34231883880040315,-1.838160011688508,0.9099727545647167,2.554443017458947,6.871247937860621,-4.49997400569503,-0.003009924938934774,-1.04363153519469,0.964148894351597,1.7026744608085957,-6.31516644228025,-0.6700213469403272,3.8319661582006925,3.7496051021236454,0.7960003274001841,0.5732801003892751,0.8673577972513721,2.0236814407508574,-2.396046360675589,2.5310146682355614,5.074402675510022,-0.1489740682914346,-0.720008586862903,-1.9864474561418404,1.0051061493152722,-3.550872083369483,2.5670869063064696,-0.18301674948918595,1.0933056323435235,0.8546791205567303,2.3878710980012436,0.4023079986817925,-0.9709754854415938,-0.4346571041743363,0.13229510276449724,-1.059269104083386,-2.5851576380143726,0.15413528875037993,-0.9951699495741645,-1.3124780964674294,1.0607762360789148,0.4056795980008353,-1.2362027998568084,1.0839530470614365,-1.3634942188425763,-1.3090320077822901,-1.1972181215284494,-0.6839902703167592,-0.686587760789416,-2.219763821896991,-0.027928988533193595,0.21411953518974217,-2.099851454315723,0.34829486736673926,0.5391428385909712,2.0712892678670416,-0.9325414904934484,-2.609572301329801,1.7932027416775411,1.1450829667294438,-1.140089540731518,-0.7014360890245822,-0.023388486986655507,0.778411101684287,-0.4370018225100481,-0.4555154011848062,2.1723571571858913,-0.961098337396381
effective,-0.7411646429224996,24.095651934625597,-1.6064447258665235,-7.344780811338166,7.729278294403555,-0.17212442574346395,0.8140948962603437,-2.006188461820739,2.1850895511064357,-3.873557851016412,-0.7048251568915782,-2.807676141538803,1.0298377148231295,1.026455880448293,0.0632353798079939,-0.3240204164988761,-0.40734051989051373,0.22735157936258035,-3.1212767348016817,-3.2760007970430034,1.10894603108351,-2.1222352357119276,1.9469455526653572,3.8123489274794817,-3.3850420219014086,-1.354983052925372,3.9545780886733657,-0.45113110670193884,-1.6507707106938458,5.8924287362416015e-05,-2.0624958291836077,-0.1834739553995402,-0.05213108697528946,1.8923635384921496,-1.3239289158905272,-3.013624955665092,-0.4521364855194196,1.873615945226247,2.5312857758416496,4.431204660678331,0.03528802783567453,0.22815565752590494,-1.308711701568577,-0.15555762777779622,-0.9340695760009955,2.6299726314423117,4.016946369946642,-0.09692260065593589,1.314794640991333,-0.6219855788898352,4.810057695923975,-2.044677287882867,-2.2726558023947216,1.7413848990488465,0.9743273897217345,0.1808997225502351,1.4252819930226828,-0.8292741960844293,0.929504730445301,-3.0757157595957505,-0.7359079831952425,-1.7327063995755687,-0.33096768883329153,0.609479590217494,-1.2764500412721278,-0.1186164616646453,-1.7863179869964116,-3.1030306866056363,-2.467956733302556,-0.7489816145780036,2.3569841356295127,-0.017242097430942124,0.9544096690865711,-0.012848884483140834,1.3231492308448958,-1.3463692021102343,-0.7823176819413139,1.4198170736521867,-0.7860883549244815,-0.017045639053385714,-0.9467354409426151,-0.15924255004581894,-0.4869426713194586,1.847161749841495,0.8224545368698097,0.878594148091806,0.21737895830181905,-0.176058779931707,0.9296785236110019,3.279807976110599,0.201673307203503,1.1884159775170038,1.1476867812626315,-0.3471473888291629,-0.3021053954401651,-1.0371110831196202,-1.4782272790806712,1.6566225907883765,-1.403862007549004,-0.7091054908530537,1.3308594375174585,2.3486335765598607,-0.4796415983499151,-1.0610367444845115,0.3029363722064279
dirty,-3.021109422761222,20.483167095088003,-0.6783563905405557,-0.709832547081758,4.048952197087487,-0.9516430184969897,0.33963393729493513,1.7024916990032914,-1.857384246169881,0.1365601651957302,-0.03738336558488992,-0.8934648352421021,0.7069642068989042,0.014099851364378267,-1.9382584624938695,-1.1868737074131894,3.1669779988873685,-0.8892318128059018,2.1723749641424996,1.6000764781795866,-2.4387164345977697,-3.376738577742942,-0.06302673185731361,0.5306923204140779,-0.7493303975151879,4.985907971470025,-1.646122396391611,-1.6457458124425706,-2.165784379439486,-0.2861930315609704,-2.1615936577047647,-1.250134505968819,1.1503912035779178,0.8981595709442002,-1.152207977752659,-0.20716836600314426,-1.4747221321608954,-1.305737936959294,3.8704545106433006,0.3503513650569679,1.495290120692767,-0.9657817813401682,0.03153571126533481,0.9885289810447405,1.9218627697735202,1.5328017311692856,-1.065884612893074,-0.22475760066032768,1.2587127366907838,1.6492748566789954,-0.27037531101788437,0.0423226322488722,0.3746757652735227,1.1371447937330146,0.03695800535603398,1.44190571970505,-0.44715284059297306,1.7556484543549917,-1.031972450479807,1.4523965484347863,-2.601091125492047,0.37760027586935835,-0.4118541456617365,-0.14271513116115891,0.18569299204607712,-0.11904117883956598,-0.042805525579607394,-0.03658441870579163,1.8337766753922842,1.1479137706902425,-2.6463265135144263,1.604524664298454,0.9748241948795892,-0.3400030942467945,-1.2584666168521665,-0.7807063740765089,0.0937887068571265,0.026831903314134573,1.375648918458424,-0.425469373347787,-1.3351841149021313,0.7410838560827635,-0.35080979352452063,0.357269205466304,-0.9828308833347679,-0.947146964788326,-1.5062963521023665,-0.6504053022190278,1.0292117967781498,1.8876401873399922,-1.0486619996553193,0.4410382496735113,0.33899906887609077,0.8046914475196402,-0.3608412145808746,-1.2090179355279176,0.1589207316861745,1.5700250668158386,0.7782844285593125,1.1123771000995195,0.7913817864025667,2.126204302250347,-0.05689587321216473,0.6729620180013095,-0.837155168034432
smart,-0.7666013060310993,25.610763921060318,-3.844230356309844,-4.044590681248906,3.678536337318033,-0.9669163475313941,-3.5419982748878005,3.6058748102202927,-3.455304537837187,-1.7696013103380626,-0.5256918230659159,-2.959587854954767,0.6558693183326202,0.17737825410684216,0.7750643890977246,2.364594689725175,1.4252364657186092,-0.5244854010152862,-1.8130222590284473,0.228213197288042,-0.9054567653793302,-0.2890513177004149,-0.475361922645351,0.9465510299761667,-3.9801597972241205,3.3445442341194216,-0.3594140757570149,2.9997874478504327,-2.579932449194061,-3.4369741268852936,-0.45344906918759315,-0.16315260011631455,-0.3076907775734129,-0.7309549414693396,0.6476112628649305,-0.15557116624174414,-2.4633785348348813,0.9228066106274836,-1.9581337228259783,-0.8562532647307309,0.343673884038864,-0.13249667171874208,-2.9190396443270927,0.7706390151570814,-1.1527199920571427,-0.5786559523899791,2.182560349443731,2.493619144882645,0.8997719965516672,1.9462170223532498,2.9580936862401392,-1.9799901448652895,-0.5417385467662372,0.9437866798762212,2.9284580121833272,-0.5835351574687472,-1.9620988655914133,-0.8987763182022973,0.8892886888394194,-1.785589825231309,-2.043059202115135,3.2810184560934914,1.0434496479493165,-0.11139748966069996,0.7331233484238311,0.3040719454894656,1.674309626049813,-0.6941995441465629,0.5031518108528258,0.9281582148551492,0.035165099188664624,0.03162383695253599,-0.614058287093173,-0.5851997222875304,0.7540608003460622,0.3717730310849249,0.4117380995609752,1.180078606008559,0.8965413397526796,2.5034194422812397,-1.3576752168451107,-0.9378460286702123,1.9972701851556298,-0.6084213378849679,-0.1958149998304524,0.7346320938594589,-1.3133308572414901,-2.647568425688081,0.4907316481158392,0.2653345857122256,-1.8658645444523354,-0.04299023436968796,-0.1749485083844978,1.6206706864173943,0.804365297229865,0.8521750298440736,1.661920173846687,0.7309554233976736,-0.37540735385538454,1.2945137317454845,-0.6884022575948539,-0.9361573991304304,0.267307720344007,0.36336255571427195,-0.517924061348199
unjust,6.501879519229984,-0.5287303471151668,14.962126647565885,2.480817455438134,2.0838452674765255,0.7684374708901108,-10.623177989914923,-0.6318943975704748,-1.1956502417959518,5.631759598590248,9.07272732008327,-3.3570135178547744,4.266505952640573,2.7882847301724003,2.5980172043834617,2.3681935285293703,-5.20186154598001,1.3661389814607279,4.503824599515914,1.9902467524763414,-3.773180172165722,0.0031304828272245254,0.13308082475625632,2.8598882544495856,0.3266909527035904,-5.540292376360005,0.44483411267445233,-3.584403724132232,0.005620354371828781,4.543204480817604,-3.5527151217228012,0.4255137072191338,0.2495063523408033,0.6737732961373369,2.429812446640798,-2.1228595159119674,6.976843790594587,-1.8887433967336344,-0.479859443912314,0.42033026926209693,3.2371425113361654,-0.5825337466104937,-3.480139789406676,4.294984684628089,0.4942026546289511,0.8325926968056255,2.863113567439463,-0.23767881303158578,-0.554390395054925,0.9192387557736271,0.6098730537683472,1.939871578585248,-1.1007301086414594,1.0340448456122684,2.239302786198118,-0.04459026404894056,-0.53473885207867,-1.4568792425442993,0.04625063185094356,-2.3756287674530143,-0.013424156362573913,0.8400565225379814,0.8229761754462246,1.2717978597637247,2.9786250930826044,2.6120479393793654,1.0515395166120853,1.5237956555814123,1.0785520289064923,0.2094412012664887,-0.1464112415899722,0.5726373359253252,-0.0958864912788796,1.6644715858322008,-0.12636458568088663,-0.8033476544855437,1.1540888295616916,-0.1617967735856833,1.740301677126365,0.9389179364903326,1.7747620926949328,1.7354492505345194,0.10830593655811947,-2.9719438200959147,1.1458520339405325,1.507254920219617,1.009984271725677,0.9815040844694152,-0.4353455277838583,-0.17157699688507783,-0.03887624850336016,2.4920255740394626,-0.16614490658707864,0.23621779138269164,1.036972173288218,-0.46324060134912487,0.759293716043465,1.2973413889083028,-0.32517349131615686,-2.887214064558158,-0.3487030010633251,1.03667134826415,-0.8134586586403113,1.394946901875842,-0.8410118915793998
sad,6.278994146259458,5.731140283865265,3.0451373854055426,13.45782659162158,-7.141948726665352,-0.2677351889460372,-0.2468126629694932,5.762315750890999,-4.2709937866142695,-1.4995439353634208,0.1917302413770186,-0.7955969044421591,2.4143592740564404,1.1336584896052364,-1.5726956905567473,-3.671708563799391,-1.2342789602718915,-0.4616636724554306,0.3944176262012107,-0.8590574582966131,-0.45055584418856337,-0.15015954640559992,-1.365411499163904,-2.8881932974087836,1.9408455476200914,-2.391000075436918,-1.2632420761097929,-0.3404704968800122,-0.7698609030622002,-4.523219739026851,-0.0709553706352064,-1.1424839684528587,-1.241366887718022,-1.9125260221689053,-3.678838263460284,3.2755854804976883,-0.8158766405790481,4.157066650403542,0.6091929731954904,1.5020544393570237,0.44236025270059887,-2.551033249952218,-2.427640350941117,1.022494782848296,-3.2294988634010897,0.7991754612022552,0.6201243872209975,0.04357076075645705,4.337839341691594,-2.896944506288027,2.6175413493482513,4.474716569185707,-2.6886384786068054,-2.631101191961627,-0.6972480027802089,0.1394281458138185,1.9025195627862481,-2.363489529953194,0.39137802595387755,-2.193990064040639,-2.237814921702836,-0.35204035805183603,0.9737901745515535,-2.334407018601138,0.03180320828432187,2.444720547644382,-0.6046149969166059,0.6429425898710787,3.2638088776642076,-2.9271522664460035,0.08103050729119476,-0.7107063496866702,3.347513038750683,-0.5925556142159861,-0.8854715282470387,2.079620137322609,1.6931561489142142,0.529407969176726,-2.5168403549329983,-2.673569933486368,-1.6060567512591568,2.795073773076319,1.799655858102265,-2.0625298322587136,0.13050922529109898,0.30382674095396095,1.0968631808903562,0.5565240369836787,-1.4328962191993582,1.1590861827532077,-0.3751274649721279,-0.37621547094896235,2.2063697643746796,1.3316578022497088,0.03454191037037578,1.2075445314735054,0.6643194712704318,0.4314098155234223,0.05101077282048662,1.1933539580697825,-0.4597632936710862,0.7238501365585925,1.4336421481995665,-1.0818140997477317,-0.9921174835379233
useless,8.88084335062975,5.666148436645305,10.74184120781586,1.348402366909921,-5.430779576942342,4.830575886800678,-5.591698243168335,3.4772222621684206,6.29435868140606,7.561750393429811,-1.6179196554059703,-4.8108940003484095,6.772354526375859,-5.449486374187372,-2.6022439473399697,-2.4104758698567434,-1.1019446855735902,-3.2829877674463392,-8.271522208891552,-2.627990365068614,-0.6623417506555038,-2.2031585586792812,-2.318459809224393,1.4659337765618132,-0.679747635385935,-4.743767469721459,-4.037181332452782,3.848933269688799,2.1122859685655557,-5.382746982421023,-0.204666017132705,-5.932340478721118,-2.163103205153564,2.015162302622435,-0.3764304981574677,2.5194885344440037,-0.23616003822814938,4.55389194630729,2.510904834727058,3.2443520228824845,-1.4433249609300853,0.07182590539061473,-0.602332442528415,3.336890763656121,-0.285995427672445,1.2712700923313693,0.6935746822043698,0.4416869408061644,2.4728264502450643,2.8128176782071517,-6.083511840357104,-2.3741745292590997,-2.0243826400570657,-0.620337617648927,-1.3494786918708432,4.165399972399131,-3.743342489737729,-3.1043069871059195,-0.17968637644298305,-2.2832518503245853,-0.7371751050765453,0.2460580288157095,5.406171116758258,-0.34592667274868755,-0.5382413096478352,0.5854337718385878,-0.10568821616305811,2.1211939942886193,-3.4055681228201458,-3.030587440887145,-2.6151444308371485,0.4728999622010553,-3.001731169081844,1.8816568443293225,2.575948318460573,0.02246744215926426,0.69389698899139,1.9001977062316748,0.6087416449466662,-1.971908968050094,2.324885642975644,1.9219420691229052,0.25123454127784395,1.3552536574305731,-0.9605694549171316,-2.917226137726342,-2.911881885292852,-1.1767213772638963,-0.9672029678748116,-3.1654022940904833,0.91536608432687,0.40378528106091527,-0.655265411076264,-1.3541771075431492,-2.0488998656150343,-1.764328704494225,1.732310466167919,0.41567807185122363,-3.3135457321469155,2.619471357558538,3.0500483981525455,-1.1421685512131436,-1.3061425767784163,-0.13073663480991254,1.6864362221240352
useful,5.146095388418455,6.699399960413149,5.0361005222547055,1.5805343501827893,5.042183343707147,12.123654878453527,3.4941842924374864,-2.718047548290651,6.6928015415206,2.2781848372282325,-8.00971130324637,-3.537025565414257,4.972637166214206,-6.309590715832413,-5.189135295134346,1.2899537635069545,-4.495701303887634,2.9004748716211504,-8.984225204632839,3.838226931799023,-2.5264719415063883,4.877596129189096,-0.9673517657248404,-1.6234444412970468,4.332195375631172,0.8998544722243137,-1.0906799053233514,0.2039853674131156,-0.24045911824022445,0.30232289409911395,0.44902968630609674,-2.931574070692949,0.9624297736710686,-1.9620345785906557,1.3672984734930707,2.9098778183577925,-5.251924965032339,1.3758525343592456,-0.46247039478536245,2.186552038604862,-0.2257083450201985,-0.8653401374106616,0.41672000580992935,1.0479238821389787,2.813032198309568,7.589286211460703,2.505915069895158,1.0565378375138343,0.5239046014070143,0.32868259227787927,0.3963069025069253,1.2873605184292847,-4.183756441506327,0.4009093017781132,4.211705589478349,-3.1402156097166176,-0.28531042465824824,1.3544120309656944,4.030694707881733,2.3871038806400775,2.270779231608167,-2.071828426030045,2.5199366122150817,-0.19909126160765078,-1.2525461600677947,0.07552903099677764,-1.7113271592664971,-0.9004212588653618,-0.2624134294769323,2.4085114496147,0.45355252289034814,0.41880951384980214,-3.166636512202496,-0.17464237630978832,1.3782197742689617,-1.6471759113982276,-0.5923272311421565,1.6090903636332803,0.28876897764967124,0.40553167758763436,4.927131725679126,3.8265934066409875,3.0533702991017986,1.0572048869611383,0.7675988156217871,0.552382625912742,0.2938308821012132,0.9455851997205398,-2.477562643145293,-0.7380292329252679,-2.281263311035962,-0.7780588332272637,2.0861778300804708,-1.5544418950768277,-1.6921012157145918,1.0230638059075503,-1.9040506031342406,0.26797701824962555,0.1498552219657571,-3.7703494604559404,0.38282068337922304,-1.822490681078624,-1.760116416827598,-2.61628178901692,2.0971848047452544
mature,8.499117464179303,3.123283638984617,1.4724613959414556,8.830013884336676,-7.4056247223337905,-4.53424154187699,3.069768266443769,-2.4919815929794042,0.8501972861057602,-6.457054382002616,-4.788874743235476,0.6055370720122351,4.55680309864013,0.29218419028802434,-0.8890312235906703,5.152536663365265,0.34123164855343696,1.8263745033977925,5.396916240349317,-0.4430450930453652,6.696842414431007,10.688460634588541,-0.650997205351616,1.9623145229600025,-4.384540771887219,-4.599060011003889,-1.710262547415444,-2.188132764486053,-3.1241021241950406,0.3511760988512828,-0.10050449359172317,-2.9473297420449134,0.646387567632061,-2.9975735711272873,-3.110535897561608,3.79044756150564,0.7129097417357819,-1.5936468667052262,2.811357511741367,3.081504606531104,-1.6995842208199954,-1.6426886048623026,-2.944180805111216,4.524741151350373,-2.5450064794968377,4.047418385973489,-4.309813248150898,1.7401005504251843,1.2188260743257315,-2.0202165899690425,-2.9392775972928096,-3.9451306420159167,0.35951085358862217,-2.4067826135721515,-4.398547424777448,-1.003884461762907,0.6890771989317896,1.9393520499340164,-4.379316398946117,-0.32118071615072175,4.17009914592298,-2.077282063618074,2.5387938118167312,0.25831105001557464,0.28178970790935587,-1.6685419190960014,-0.5127117268679865,-1.5902929037120177,-1.1740276855355272,-0.7054782899112012,1.4156598498984563,0.1435763147065785,1.383380204725862,0.4169208396928453,0.585881490963458,-1.45681605732614,0.7226285713152638,-2.0117493765193424,1.8229694522606048,1.0272650650483468,-0.046690786388023216,-0.7447161966861208,1.431017660167593,2.270921882652617,0.8971078489995024,-1.2016723649334715,1.53274633647132,0.19079376943835802,-0.42526373514219246,0.4584430178758912,0.7544355089119306,-3.319344222782754,0.8180300688909027,-1.056718962378003,-2.2235246353405667,1.670263216124078,-0.3478429850540408,0.5910517935417499,1.2036892339486402,-1.3420422493942543,-0.22561399343969568,0.5820309732817833,1.2585107499617896,0.8922713360157993,-1.063695080215828
healthy,-2.082577080059791,25.072980764156302,-2.343764789468646,-4.4859371240521835,3.4411180954466944,-2.68802575929688,1.2438569662343895,0.5473698720663474,-0.11640718318445917,-1.1015981703591369,-0.5319766815908952,0.6645034433307802,-0.1718954184069384,-2.0853876315817153,-3.8849683180070245,-0.299818840856474,0.8482461495403327,-1.869190276408113,-2.0710270786520217,0.7319656554647056,1.25590546931184,-0.7390629733594216,-1.9918956266183354,0.6381244431304116,-0.5662926956379524,0.9916396188467714,-1.3460325202196182,1.3772554966209651,-2.3830023149105855,1.0785962466093206,-1.9193545633832074,3.1940752695596233,-1.0064717238631344,-2.7570400101294528,-2.2311625590953503,-0.49705118459276754,-2.0298265861960845,-2.1293651754359804,1.2321836275878908,-1.1783782953639408,-0.9706037165446295,0.37013032561731374,-0.323687143104618,1.392696790638301,2.1686804161116746,-1.48497543730679,1.1690643428250367,2.664176908312262,0.661763327572926,0.3479101386303353,-1.1273504307495446,-2.171208501056465,-0.11748911591603765,-1.4675972601147116,1.862487663128607,-1.2941644907145298,0.05832229139691788,1.1889662500940086,-0.30494267064659086,0.9035562850672973,1.19258093795031,0.17181754621310685,-0.7939666700304512,0.7887327385744227,0.05699458883425965,0.3039626005423185,2.2624147004377044,-0.8456514214303763,-0.000761581611582153,0.5050931704293716,-0.7688108170192347,-3.2554490013197377,0.7616552708585269,0.41834733556987835,-0.5806646308474128,1.6466002481557525,1.3578165575051357,-0.9107235404605302,0.13906116630839419,0.27521293778560696,-2.988921345040848,1.1222333467716676,-2.101285209866989,-1.904069940519433,0.4626166854365421,-0.40416350824258956,0.057014290290596334,1.0549080804550874,0.39104154667999236,1.948493637309243,0.7490150301261621,-0.11035386068756396,0.5621412427871065,-0.9101617871059183,-1.2815628488616653,-0.46514473898918896,2.0818523507082847,0.7899439020346425,-0.8006038426501718,0.6475359793805912,-1.1685320727563047,-0.0071734025512326886,0.30206426972406586,-0.9975733556504807,0.7828053165777478
convincing,16.838353441145347,-2.395056838656531,5.206382308584624,-5.262813291197434,3.2174364994243243,19.4583105337704,1.0857957623914751,-7.441579737608817,-10.495353278682739,-5.485309677000445,5.26518925510892,18.435689832993877,-0.2619081991345507,14.415071846103151,5.842141620740987,3.0540057765608117,0.1598117332535784,2.4126297638588747,-2.132638045631488,-9.995542814223437,-3.325773710193929,3.547438283188888,-0.21852966075018296,3.75333193378332,-3.097935462720058,5.099127790431772,2.2506276864638037,0.9614081344825582,1.5154183179522658,-0.7573851433266424,4.494305225387299,-1.4681145540528855,0.06922404213975515,-3.202691647286605,-0.007998255735983261,4.534461449300015,1.4321658275686804,2.720457553113059,5.113246203000523,-0.7899615503488595,0.28620012347654106,-0.1601246379751536,0.08343498700906929,1.8543562518375136,-3.803815526209085,-0.3830112937596405,-0.8882082578298997,2.192396439294512,-2.3026769605562882,3.513290935921707,0.18946692237888052,-3.8628784739720348,-2.12346526924722,-2.4368301845938722,1.6879543663003158,-1.5260796956692184,0.1772837087072065,0.7950525542630942,1.537979395542198,4.0788128621408575,-0.6901338528972272,0.007157700275500534,1.6201047707219431,-0.5499270993335882,1.02712306394652,-1.7213124302248457,-0.33747282397901274,1.0572897414707707,0.9682786915756987,0.19898923032231233,-0.4470818158487669,-0.14300185159616122,-1.2345016080291715,1.1556682971638554,-1.0286440996981723,2.56426418962735,-0.9561894536377915,1.3567747793275806,0.06286755686774471,2.0077405129683084,0.3475295981001423,-1.0502235976136909,-0.2588115256700155,-2.628064958661018,-2.1416779611329146,-1.2889877393604179,1.4943818582534092,-0.6760447845633801,0.8523025391488661,0.558734063540512,0.48491845333736056,-3.4704924543527524,1.5515967280296346,0.1869605548127863,-0.16295595626645362,0.1264918401925559,0.20005717789111588,-0.023538765693428776,0.5751014015079253,-1.086355872611247,-1.0264730493666536,-0.9331860475214782,0.2527772543802896,0.8237347368215008,-0.24493943694244974
short,-2.450471852584374,22.826358113443263,-0.4978624339052258,-3.6117765193319773,3.120453969277336,-3.092361544679056,-3.34774161839503,0.5992195117999817,-2.8326168370422553,-3.152938832382737,-1.0221155435926552,-0.40439171456777057,-0.10073292490855552,-0.5500446600525244,1.5206328068648944,0.30018691254470103,1.6095293759694662,0.9888267357156265,0.8807007207205287,1.0057039539361259,4.245874022557621,0.6867121732001413,3.3684243255571844,0.30983397815093994,1.864036383892126,-0.26454177028795683,-1.5822109228474912,-1.6935852000054763,2.9233554420408145,-2.47281328167408,3.7768343667349056,1.1708614748524626,1.3634554107666594,-1.2322528190440125,0.11144314507040515,0.1208455889363729,1.9807244839996088,0.213980397035636,-3.0991291216863823,-3.6741005338149777,-3.377508635327886,2.757395542540051,4.420837996940406,-3.090878942886537,0.09947420094286999,-4.316371694418058,-1.0729468719395794,0.7792699420148609,2.0913365661152117,2.1585549242791755,-1.293581621753488,3.099255370153806,-2.858655963764415,-0.4932196915705682,1.0895449242446558,1.2480133406327978,-0.48619683864608865,-1.2045207597711691,-0.6558070402604609,1.0623178681471745,0.033966175379035346,0.21199446798452629,1.063967097715561,-2.0443716230647504,-2.4259656502853293,-0.8236840396999731,0.3421583568669056,4.601963993248873,1.4726260951314467,0.4706996239882416,1.696314732346081,-0.5777655951282004,0.3765460284291898,0.633708076319955,-1.9793280834908185,-1.000009309402854,1.1991612983092872,0.16454598455969163,1.908574416506616,1.6468794255718733,-2.057569840104486,1.1830681462846366,2.6705836334625124,-1.8845406127387165,0.7059913923253556,1.338205431573107,-2.21109722987818,-1.7885713280558364,-0.2591040566293776,0.7252418152647443,-1.0976720441510635,0.7154805663465716,1.6823651340205783,1.1222995877852477,0.11549398624561018,0.8373898607963406,-0.9025526054027498,0.9916636310812252,-0.5218135295718825,-0.4577463391475148,-0.44437212354052424,-0.8465907706168722,-0.4388229969635746,-0.8136671131407701,-0.3888482719268376
unintelligent,16.26162180946094,-8.777062659388179,7.177751654287834,-2.4404513345005974,-0.5994091070314437,-11.816851671346772,-8.185992013771477,-3.9842139732773356,-0.8371189068600337,-3.023880156250278,-0.18136644623805914,-1.4931673942123986,0.18297982488866857,3.735924813397655,3.9348956492377005,6.000021097766744,-5.137763716204701,0.8145139165289705,-4.945952323782228,3.8651735080769427,1.148737997527008,-2.1720530109646408,-2.025371815254677,0.32120292254022736,-2.7409458881294086,0.16239863622913925,-2.1762578058475492,-2.0881630790231265,1.580461730493266,-0.11952092709923517,-3.633867354169676,-2.5491364210750516,-2.404020152327968,4.345527021849781,1.8328264546164181,-0.37525839369025593,2.0419151867201357,-0.5028311348684462,-1.9901968298454926,0.0030025177187222754,0.4089886471302911,-4.02727953261754,3.171480184414615,-0.20702116052187514,3.6588460355201016,0.1845375042117659,-0.6863078681359938,-0.07114406595113573,-3.0118323582403677,-1.9405562261238687,6.384380167070122,-1.4161869502497346,-0.004608750640970385,1.3022428163746813,-2.224187198808493,-4.631174408794908,-1.8971941776588914,-2.3886825052664724,-3.345126940960633,-0.027306113500457568,3.047524669593816,1.8445020852043508,-2.527411149464138,-1.5982650748317109,-1.5243217966569207,-4.959575331981224,2.6667211713859564,1.4599258470846623,2.416493853431898,1.4114204452577737,-0.06721304359791691,-0.08622721339740816,1.6015504913656775,1.0164838779685768,-2.176669946230583,-0.562918245439451,2.815927924868676,0.10620452295203428,-0.10024228155416222,-0.41215339182511956,-1.0135998082507565,-0.6773322281780879,2.3274053817227935,0.8149246369881348,-0.8958073936309026,-1.3826393885304415,-0.091131605057225,-1.0159694466267146,-1.5480260140276456,-0.1514875711644527,-1.438395722539056,0.40838437017540563,2.351366907427432,-1.7842563886135445,0.9945317878965114,-0.18524358035127267,-0.5918475329078252,-0.4449866198991541,-0.2522145054316406,-0.691716644899233,-0.19719308567647692,-1.5030127362559549,-0.0107939609014101,0.6973213481449949,1.6314493189290973
unkind,7.482839572519986,12.598151413846054,-0.663500212229235,-5.98375695318625,-13.023836533900345,2.328409258140412,-7.584152566392667,4.1422299301528795,1.7630512975280217,13.783785252462916,-1.251055525898127,5.816558474910872,-4.34652298275395,1.8509605671259517,4.663768852521278,-2.5713993363620036,3.579226571083274,6.23050964049848,-4.659431066633367,7.6649271439672315,-0.1833008787823884,-3.0116631117783133,-0.08220722131874132,-4.474393139818136,-0.11178081395622046,-1.7323426922338458,5.470283892108164,1.6708578547780963,-3.090393665800656,-6.04365234671281,-1.6315653936990417,-2.2408030681538786,-0.7898931940033598,-0.7882176375782011,1.0766231290433308,3.232214559156589,2.6636056153617576,3.4151943966737224,-6.751509761199699,5.880146216399436,2.3517249983675463,1.700794483656809,1.3101717575071778,-3.4818461784626256,-1.779921180756427,3.9721458195861423,9.504717457151106,8.6700161432189,1.7904640280482853,0.09468633581530604,-3.439867243921067,-0.7613798794442241,1.1431374383908341,4.28618483652291,-1.7146859265626542,-4.355970088106366,-3.159844382747366,-2.0743284490385876,-3.4554633681937412,9.48989845461848,0.13849534914036493,2.606900275212535,-4.473019867936045,-2.7493783803821046,0.6819300221353072,-2.8177616886894112,-0.8941889626368251,-2.2373210687432126,-2.6138543149010944,-3.067357480137913,1.1004687383083913,-3.0691602060756904,3.842182512870264,0.1347683276451659,3.5573603970093237,3.687874178500229,-5.686415293212557,-4.854262234703531,2.082237011941425,-1.3741749586618603,0.6543926191218534,-0.3946161734462591,-1.1374540412612908,0.3938510469214499,-2.453880119083524,2.4315293347732054,0.565976923773754,1.2440652046622527,-2.503041538761442,-1.1453891351607,-2.3305906808852463,-3.2621812941190997,-1.901053441695968,-2.884186840456875,-1.2107433158052656,0.5588941025420431,2.3319970443107327,2.5335452049276896,2.257140656878199,0.5958664812389213,-0.3311110958889252,1.294699777687785,-0.5662336857750613,1.7684330294912356,-4.378091831487906
impolite,15.526875838933092,2.2230288484526484,-10.766748613431032,-10.367371297586573,-12.71581468350171,2.0993973161043753,-6.510446808187759,4.148725144292725,2.1140014514167227,7.521510500216246,-1.8020870553713515,-4.80512256117016,-11.99564858680778,-2.375882500146264,-0.8320759087308369,-0.3099855174696255,-7.148496684946321,5.927181087946331,9.656630462342198,-3.058673973563154,-5.010572419308216,0.4070118051380106,2.3750372892783425,-2.5030502495277673,-4.86655263303463,7.441083902884178,6.451553180340259,-5.909237659363076,-1.3531104562325045,2.8901387852103535,3.4146588656745736,-0.4180979066407147,-7.920220887001101,1.4684705223209789,0.35396132499100547,-6.446866516730085,-3.2339221443900072,1.5998262007250281,8.715374562361482,-3.9541221184670863,-2.0260813075309008,-2.8674981995611213,-4.461964425190016,-0.015368263115243197,-0.25702795819792545,3.5526463942163766,-1.5992237695858915,-3.721359255685853,4.315247450143485,2.0208909356793736,-3.795604243607109,3.4803386195306305,3.330087620789541,0.13123016432928042,-0.7685813616013238,-0.7679385577338185,-1.146209848552509,-0.5216351440906195,2.982829087877178,1.5740236988726992,0.6901533937893595,-0.9801374362712787,-5.239594297795804,-3.4340093496147786,-1.1669343089098676,0.5852097106754323,-3.184981116801696,1.9811099488692567,-0.11854753485288984,0.1391094922570762,3.958963389543179,0.8288218207790743,-1.3214312264275063,4.3746817711242105,-0.4675457940819294,2.292206790522872,2.061597917816893,1.9632402772193145,2.532589352151719,-1.1496465307986965,-3.2416848568208785,-1.7459246736000558,1.6303595437266145,4.601867322395132,5.241948400650302,-0.6242359599379744,0.7163935111477749,2.2150100527095726,-3.1401274944093767,2.8456639539756288,-0.4836340675832193,-1.1870352587613608,-0.12923593723810797,0.3079634419662363,-2.877473619885541,-0.8402647950381463,2.126604344027702,2.6105903016233762,-1.1566413413391503,-1.2653811241197388,-0.6394701194347886,-2.973385198839146,-1.4126754046336643,0.41699682790140263,-1.1042745465910293
pessimist,14.99411437915416,-4.687044193723919,-6.325860403772636,2.303767771357135,-5.987370546460948,3.383963371708205,3.531633345832537,5.30326328444219,1.0842445930028706,-14.51680046152941,13.89621872465275,-3.323867902627858,-9.622772625954898,-6.031988767474718,0.6632977780505972,-10.36507274617593,-5.247638712043705,1.4425360019006341,-0.049582804236278054,-2.043721610894195,-1.4620705251136712,-0.700175055146535,-0.5207177467471098,-0.8241716645659063,0.06421546965361227,-3.1188263071954765,-2.6039113791023802,-4.485601501384063,-1.2165429277402098,-1.3664548600857174,5.103428496012698,-3.695443649448939,-3.2649600938446066,-0.16500107275886622,3.4510283587301127,1.802180363047677,-4.966155949090686,-0.31411043419314605,1.761004804193421,-0.4460397069675783,1.5631289382916278,-2.2616890016500237,2.5325684488972002,0.46417393726757694,0.255569878585308,-2.2954259031022723,0.999072731580353,1.002348762898517,1.357600590469541,-0.4875667110885287,-0.12058278854830964,1.025556014917963,0.16085225946259635,-1.7598495440321338,-0.279140500482093,-1.9614083568383291,-1.8284552874232636,0.7319405407381364,0.5330825362357557,-3.7783594963127216,0.14023008897620873,1.6963370924009387,-1.2962236889329628,3.90740054994674,-3.3595017941338585,-0.6901158190711374,2.877751597677978,-0.7928970337251791,-0.2524382001795384,-2.672356976969688,-1.8936026816097635,1.1131556313297448,-0.8965824198250553,0.13464540945390072,0.2808513925483905,-0.4220302540326991,-1.3045914894820965,-0.7535863843752476,-0.2356493220541837,0.09239897227548015,1.850461276841216,-0.5952992066363315,0.7805526941702249,3.1234458390487077,0.7941968668403655,-0.6953036529174809,1.2913709550475199,-0.5075413938337404,-2.1577071045444858,-1.013683226777403,2.280389650246321,-0.08635783067334256,0.044378191586227175,-0.43089674689426366,1.6644574604556492,1.5259070802103303,-2.690385224737248,-1.5311358075412593,2.30499119215244,1.1900264697122627,0.8821541788674988,1.055710310333376,-1.5030098996124728,0.09683838947088307,-1.4448624122681255
unpredictable,16.55420620660764,-10.139244401156683,12.124745418228784,-4.1407674421293015,4.99948171550887,4.697730896395698,-2.976569198410092,5.892425956967279,2.5345156442567904,-12.995524057702813,2.6830738151092546,1.7063915404366337,2.8580141180987466,-4.329173824882689,0.9898926238941278,-4.42676571784708,1.9363147102030112,5.149319886881188,6.147086558906871,1.6006179360280328,0.8221282032534948,-3.4583378850305606,4.311374450618376,-1.1795144744319703,-3.970908670960478,2.2181279852873264,-1.167615093135444,-1.6617647640090336,1.865510859697846,1.2346147545421262,-3.046523514059047,-4.087783596247041,-3.655753462918977,1.3930431626770619,0.8008245681753221,-3.4577071837001814,-2.959490965214652,-0.1402299699971614,-0.07591709979395483,-3.5713292807748327,1.0144340556483984,-0.20194049012219753,2.1416284416380384,-2.9003675911207263,-2.285266104315504,-0.36852958374162237,1.6916022791975966,4.38280765382422,1.3348371505664807,-4.072730141003166,1.9252981434118577,0.8990941506222678,0.3663758915152425,-0.9882468783448588,0.7199514588298861,2.8553171973164972,0.13060935569918172,1.2802952448533693,1.160572557675509,-1.2928474026204084,0.9704466114361668,5.398610606308304,1.9955601126338816,-0.021510208847426604,2.166198203697151,0.598845694547798,1.3953277600924208,2.8403069730396315,-0.22471752994790511,-2.636964307453103,-4.073856556902315,-0.4103698209827012,-0.3071719024477466,-3.2432446480485875,-0.07010496160532823,1.4700450704758432,-1.0233756379900494,-2.3420427134946706,0.7697672632612959,0.5539619022390634,-1.3079083512395804,-2.1125191995982022,1.4071615900053287,1.7996210188756645,1.4251462116045237,-2.4795948361904467,1.4491781548981117,-0.12280576001506174,-0.3813771244342164,2.0653855476406484,-1.6743810210881234,0.09972989345952357,-0.9176276611577561,-0.1391410294568869,1.012579637114004,1.6405261697573317,-2.2638343621399635,-0.1810284811581345,0.7562613761857689,-1.1181244896362863,1.8328708869974728,0.1264867313032817,-0.3217556024531394,-0.9393535413969041,-0.22450644320031307
brave,10.16650597210818,1.378912580123992,1.1055742673991091,16.067696918742836,-2.5181650619351568,1.3217199208904118,3.7410886655881646,-1.7923469440426198,-3.13723697209039,-0.9368361371158901,2.242876895644029,-2.768257623996203,-0.6174602837221616,3.846949190066466,-1.4757834888244061,6.0598296257092,1.6625965210883842,-3.829361420716944,3.005959540513437,-0.668927477823916,3.2536475783147343,-1.5722578377715437,0.4593917447598283,-0.5297088906457039,-2.38492868175388,-0.9909522771467417,0.11774432783653202,8.649509157267994,0.7638137687252059,1.7669918857376108,0.031339581505213064,2.218342495286378,-2.0165990252442163,1.8735419385472918,-1.3979112739916963,0.7057190117980043,-0.8428480711827737,3.557647536689707,1.0437005940437178,-3.640761558894845,1.5265313919450576,0.9931625428285602,-2.9720059204250746,-2.5440514205623592,1.1948088755003052,2.2617722314051396,-3.3313515884526126,1.1276439634804434,0.9390005798675607,-2.668745008016043,-1.5120314002102575,1.4469748937859386,0.8209912385281106,-0.021624096398689237,-1.0473608976509665,2.6575513259373573,-0.5630900121715064,-3.315380756002645,-0.2240746118949974,-0.9166367921827221,-2.5602206742281286,-1.3220820744118342,-0.06907672447372948,3.1867052343251183,1.7161844622717042,3.2038328921433514,0.1460991549984654,-3.450192314001251,1.7862545494558255,-2.6235599442232806,-0.7624127403316031,-2.6813614664171106,0.015600585870180416,1.0986341016020218,2.28437130783816,-1.6307932932328661,0.7695900791688387,-1.4239640586881952,-0.39396288243539734,-0.6463442336176168,0.6754557613254336,-0.21595667507790137,-0.7637465639027403,1.2538798978573724,0.8185036030668896,0.9931923679641028,0.5204622029883869,0.4480682556285962,-3.424458399175512,-1.7859139679007223,-1.9669202253557445,1.6884951568788455,3.6249539560676993,-0.444871656392943,-1.3758915789488202,1.1406843732353962,0.13194719405311525,2.044586481635903,-0.8912023943625452,-1.2297386228379448,-1.0421920858664804,-1.421334571976364,-1.2478123053163601,0.4757376254977422,-1.1250181204630558
entertaining,15.349745497196567,-2.2911173323875644,-4.317713165590702,-6.799343946619,-6.035258440289809,5.267839699466928,-2.5113149462468205,-1.1085989273943284,0.08037088301651994,-6.0689612426396415,-12.95723729746911,7.290995925702748,-4.323509635224886,7.74506202459946,3.801753578255411,-3.882713698118942,-2.0902053661877886,-11.135711106320526,-2.948656071667296,-4.6665641858719535,0.030379630149479173,4.234951985276586,1.847405540516657,-2.0071194852955037,-0.6527539298901255,6.567258533034099,-0.21174676879628493,2.324158221615493,-7.99652062897918,4.44909548393793,1.589030902472463,1.740822300698377,2.649367147699649,3.8367699486661975,1.28460242285545,9.516170857333167,9.400239213853062,-5.397835635975017,1.4249435526662964,3.03774870463843,1.8388583315171771,-0.642347400523262,-2.472946001343223,-1.880244371072503,7.759405590557799,1.088958553166764,0.2610906097850134,4.476011586198785,2.6395984975963707,-3.060238370458724,-0.08966798634427547,0.6978835490532812,1.7825554257342069,1.318309032833771,3.4028986619140915,5.404571124391149,-3.4867970390806478,2.1051337555936382,-1.6983937146561303,-6.399655124397855,-2.2994992108829173,-0.9660527625589231,4.301134485699641,-0.13927560408478035,0.8488977330417109,-1.7323905619569981,-0.03793400671246117,-0.07776210609784191,-4.446393847079151,-3.3404317791335005,4.24544503467972,2.003223723665043,-2.21665935843463,0.43526024567305815,0.8112776558542897,1.0921766049113248,0.5900383460091586,-3.8917931379987105,-0.007169874677814959,-0.7671280599831886,-2.843722841770305,3.126394854274177,0.9391077825361193,-2.517333186400156,3.2775647926787275,-3.7981461257779507,0.9407803988160179,2.093362011322591,1.6258225358219873,-2.2106200004212346,-1.3315771222817616,0.37920714390517146,-0.03574616168520375,0.20503892758808986,0.8666959228399427,-1.5326746406025757,1.7619346516911911,-1.5587575884758447,1.0233464773934524,1.216761980939534,-2.2623234216098482,0.5297538976447647,-3.327382577481606,-2.0603870359517003,-0.754610756634143
strange,9.731586058399062,2.7434355645877795,2.416348933989697,7.469429566494359,-4.910891042349991,-0.18143396054405483,1.6053210391241715,2.50893477054422,-4.908716605164923,-3.3820483848414735,-2.0752124599388746,-0.9807609578603477,3.9526464891323077,9.444059630711727,0.5221232954723983,-3.65592719836147,4.629452885863363,-2.0695502917671336,1.0267173248696866,-5.429074402552869,-4.956255684016894,4.328174216361628,-0.6252543922777227,-2.67613784515887,-0.9039088039330827,-2.908560100649521,-1.5500317831901766,-1.210803902677951,-4.173260836169637,-0.05003991543701085,-0.49067798468059437,0.5839805241562886,3.8079243314404665,1.9345348584102942,0.021816255881993082,0.2626634526075613,-1.6451779773619115,-1.8453768485374655,-5.615821839649195,3.398063082738948,-0.5596615574553353,3.540851723324486,5.217415081807583,-5.898481526902195,-2.7387274572202105,-0.6988400116396521,-6.930807663842726,-3.5908172894020427,-0.5220037496685378,-0.4799737505576206,-2.796149151367551,4.362195932657437,0.7728398599384578,1.9674266275214685,0.7393175368886531,-2.8521228773415905,1.9257894563120708,0.49397549857071665,0.4289920160969455,-1.2208076168091784,0.2571882965918555,2.7298571245888565,-1.6217837007941622,-2.1950976607770247,-0.3380924375727705,0.19530688123935155,-1.9358549312696052,-1.868769933192068,-4.314502122036948,0.4181117556468481,-0.057905570449865544,2.57595338993439,-0.6773804214096151,0.03589168064931514,4.561781289859491,2.0027527518483206,3.791735453819009,-0.6656583239311621,3.3283994948119777,0.40872862447789576,1.969631686212074,-1.978303301547115,0.007276416110756643,-1.9891335562706518,1.383824860905171,2.7508053293432844,1.3219353524998323,-2.4878452688220656,-0.656266734769412,0.07419852697374629,-2.588384110280064,1.1774359352116217,0.2755811117378677,2.6039724185156023,-1.2922368624673735,1.4935638293470264,2.792004040527599,0.8595448846128356,2.6701594213996183,0.8359631391025963,0.3187862909364845,0.5594775656834203,-0.9790374283035668,-0.612375132173467,-0.7211126324728199
friendly,-0.2572386130560845,27.03369850598469,-2.7152870425164592,-5.175778816808895,8.529519967723573,0.34105683145459,-0.4427137200951853,4.467120152179723,-0.6342614905807096,1.9469819092202294,-0.5866370113842636,-4.567918111043279,-0.8720344055297425,-0.6934415548149563,-1.7332121182213436,-2.9382217953291354,2.309026029485842,1.4763970727733207,-3.4512253372633537,-3.6590240229967432,1.5410655943270266,-2.040730401983392,-2.259190310178144,-0.33492734508992716,-4.605454926127228,-1.499768957502236,0.2339503461678537,2.6144916755484915,-1.0822995969631495,2.7768488651244234,-3.0921153835131476,-2.1298305093560765,-0.3817429589502148,-3.6161855215992778,-2.4130900856321653,0.1546728744779041,0.47809038245383073,-0.5238405563503713,-0.5487047736195632,-2.8060408623840702,-0.5198210004878766,3.5282593785379377,-1.9682497954767864,1.3622034647403847,0.35562075858785624,0.2900561682623709,3.6101909165336687,1.2486643130717132,-2.9869132919590764,-0.3329486399388759,2.38933756043011,-0.36608905460101887,-0.9089010719784117,0.06956575649642109,2.409578419106565,0.8364845658411617,2.699025868382238,0.5756491088316786,0.5109120999188745,1.0794612691855965,2.380412396070106,0.9345550021917695,-0.7297120449173993,2.2342321422705003,-0.8812179015820173,-3.671289599257748,1.7712760328462602,-2.399465243035315,-2.313397227475097,-2.283916742561495,-1.80376186799698,-0.5580459556046106,0.9770032296686799,-0.056063136230603036,-0.5382724741728734,0.5257782016636774,-0.19500204108173308,2.986586310735702,-1.2753474820145407,-1.4751887780511053,-0.6095290885808669,1.2068868264181072,0.010963782541380461,2.0525349887562085,-0.48766785474492924,-0.655577962674662,-0.9518085735718539,0.08538705159957428,-0.34770734458966424,1.5781819617266157,2.198483326754178,-1.5782994404483133,2.506221386455513,0.9248205157187526,0.3566740243820402,0.5207985005021271,2.921229047541531,1.8749592776305941,0.9956412140104832,-0.3635516576439566,-0.6700513211636782,0.24499809069401202,-0.438257866176034,0.3343103610583374,0.04902842460916368
polite,8.496053152535712,11.445656063311608,-6.065160566740581,-4.524867549441925,-10.154022772463295,3.5555399536706767,-0.061299806362269685,4.182039737235911,2.711066448307468,12.849546447078396,0.022874791916468937,-3.4095677130749267,-11.866098557144348,7.598922041399594,0.8100377619914968,-3.8299742680884314,-11.576585923490013,6.126834735171635,5.064859607256816,-5.054795340968128,-3.4172089159976204,5.400616350529256,2.4992433968766656,-5.656858724507138,-8.84580075563516,8.509758862881558,4.927130214025684,6.777126812896523,0.7459668664692344,-2.290889171975816,2.4562815082520406,-5.94423499590268,-6.3603352192485785,-2.473114049727732,3.5105823200611117,-6.949454622308086,3.4424103490558227,-6.513611631087273,0.11366741592970596,-6.544465990853153,-1.0948730177536448,-4.500737376319095,1.5121925705784283,-1.5074039348650754,1.7022001935253304,1.1447682608581486,-0.47465818018347533,-1.4131884782182609,2.477699190355286,1.102443604580777,-4.401019661644142,-1.5893893281032412,3.3234362345997615,-1.5186392121306957,0.4011573618204571,-0.2193207743620562,5.914255739299631,1.5887829946912648,-4.497966492591774,-0.7998130069853271,2.063902763044395,3.1964520142977553,-0.6827661459730363,-3.937981936128121,2.0024668515262825,3.0931703737386944,-6.411138253431098,-1.121829105772513,1.2012290600261024,0.51150834921728,-0.8699694697528007,-5.030566962888221,2.300031562396087,-2.4267156640326792,2.8472877075861938,-5.306163560764678,-0.7227990983994297,3.7370115550196052,-4.0059658409266525,-2.211242979934558,1.0797734481665455,5.58158530644257,0.41484776293556513,-3.5138250826704946,-0.7488273386179204,-1.8413705693642437,0.24126020842735105,-4.69491679684903,0.4340911698055747,-0.4655830801831969,1.7078514383474035,1.310500008428211,0.12007771115172211,-2.427071258692297,1.5865072496061732,0.6695322841126327,-2.455842904717769,-2.518013520948404,2.1906476932104253,0.276230728895552,-0.015452317233609585,3.801043365997048,-0.425530104083713,1.2959495811723492,0.9280813416872488
clumsy,10.116482602213123,-0.22842022803690687,1.915225868911107,9.198896535036333,-1.2166135739014452,-4.985388690888731,4.0679714827006626,-1.2052941444985186,1.2377699108401041,1.4536214352907653,0.5445040403218883,-1.1037110676347068,-0.7063363508988749,-3.4369415439698483,0.5670628956987689,4.469731968691997,5.213377623736557,1.4019741204181444,1.4117014451393717,-1.3311476487072913,-6.164727083825772,0.6801246981887815,2.1546867954112185,-0.5604153693650485,-4.573336676760192,1.1085957332444665,2.903572275763977,-3.605006317949792,-2.105800530421711,-4.379095586355475,-2.8727988850487423,-0.8515736326048466,-1.2914898512488806,2.57343610737132,-3.3153794988210623,-1.3777514199980458,-2.3575852454105757,0.24521527777077987,-3.323630979259422,-0.8230384044555205,1.8043929836470851,-2.4986412677900196,-1.1367092554715994,-0.7884889884539041,1.3231227122841962,-4.426783570343567,-2.5262660006262356,1.9504426034203102,0.38675262283154715,3.874002809411521,-2.0051909341502885,-0.4603915301225413,0.38578422369994075,-0.14540782252502946,3.6643818852461525,1.7425366311656418,-2.5219302102200576,1.6305065219357933,1.1081247687460891,-1.4748165071938864,2.7031523267298074,-5.12667662291959,0.11281121911363448,2.1470402333074388,-3.1305723399090017,-1.888254548393488,1.38972995260489,-2.6298078288496636,-1.9154828438610507,2.5327991699943397,1.2768696075925423,1.1533706001209618,-2.9861775076545483,1.500433347783361,-0.4524706034343472,0.05363354937817055,0.49405310988634865,-1.0086092037956385,-0.5001799682666782,-1.5116734696472593,0.002387270671017644,1.561114923786324,0.33907819377203136,-0.09346742868886986,-0.5702819631525258,-0.047918415665506225,0.39575772958097044,-1.9064592170610257,0.6605568047608229,1.3042160006736563,1.527726758213337,0.1952322345527129,-0.4198328669973454,0.20222930780906717,0.14740322722091248,0.9634926711678776,-1.9566559530540601,2.794522659808752,1.2409083125618006,-0.8994215815791119,-3.449577747714074,-1.0316269389468027,-2.1146052169210097,1.1876706745797825,1.60904783326766
inefficient,11.061759504916155,4.518298629309328,-2.1418047333883257,-7.1519593620782,-4.749325274768624,-5.433039905016052,-5.255630238737499,-6.423388250525496,15.346580334523054,1.8214330785065498,-2.5338945042727667,-3.0183340578077136,10.649674292481146,0.5409508610530159,-8.16791305768274,-3.0520842731287146,-10.760900541885205,-3.548021760984764,2.5445533758679946,-0.38946376767953816,-7.899602041862001,-5.5840114189662335,-6.645553320067627,17.895918740918578,8.128332917402687,3.865222173004089,9.3430039912422,0.4174271887180338,6.89490608350924,-6.57062415790054,-0.4323196500711309,1.1435349040429983,3.899327624643849,0.0287560213926629,-0.58034485700757,5.228765114059475,0.802021020254077,0.6492232903122405,-0.6970093975920185,0.13586867436987876,-2.094142640012766,2.225441069162616,2.4781927110639947,-5.989557448164843,1.4598442040761563,-2.4926335700961304,3.546643513112025,-1.8983051036134426,-0.16159134099616365,-2.2377754281945585,-0.011502090742020394,1.356152026351178,1.4038185606864992,-2.050532136729976,0.5088241983919914,-0.35046623444563774,0.7178921099838211,4.379745350494061,-3.1127771954144854,1.545097634946784,2.2839548237739598,-2.0479160606723377,1.3522640869276141,5.756378126178516,2.0067661322208377,-0.8299629369548734,-1.0967892957234784,-0.44312420094262556,-1.620275765475105,-0.7344022767381428,-3.2807204519686444,-0.6667100483140131,1.2021698615360321,-2.106115498681282,-1.3102192544094562,0.5715994628714633,1.8278864937347428,-1.2554891673416506,0.3254716236763339,-0.056701419391006015,-0.04119906652726969,-1.383146925168241,0.7123607509887434,-1.7867704627853052,2.229160573719031,-2.287649768284276,1.82772283725552,-2.6949934401504714,-2.642008310533868,0.566460198728167,3.123551525585948,-0.6821485548626683,1.4037168850337305,-1.8659822560097938,-2.956984219213965,1.4385121612086869,-0.2759371888496007,-1.2007331797237024,2.430353240604662,-1.857222407965786,1.2111044401490714,-3.2039428310059925,0.4135538303011114,0.48771193543346464,-1.058487516961604
unattractive,13.872090945532998,-10.581907511275006,14.161186510201967,0.1838078904598996,3.373955408606812,-8.892481880321675,-2.9343946102604206,-3.844133504297894,-4.808251458389595,-3.5871918386552153,-8.515284894675203,-1.3807777157372063,-6.286076560220002,-0.33274142990248395,-3.1747415100380145,-1.4149318456425568,0.09624432463735605,-1.7700719884147096,-0.8348074720626415,-5.2433542575150565,3.816680153090889,-1.1514044721882015,-1.9176011914224527,-0.8610064203990201,-5.053690976153877,0.7213006072553557,-0.5246664702128232,-5.85961755903687,0.7111779192322882,3.5976104420690342,0.9218231847151463,4.475787539687871,-0.57353921017987,0.8161173429372554,0.2714065667755183,-1.0007919927912763,-0.982538511739285,3.2069052744481317,-2.5937276289870113,1.9004155025144713,-0.11060020878874306,-1.5889328679739898,2.607257949342159,-0.838546769814126,1.0237450660013885,0.1361174589746476,2.9212281026004367,4.67779452142464,3.172936168374042,1.4678021122441347,0.6840249598204544,1.5955026081810744,-0.04830913106363857,-2.7911344489792325,-1.1745313379731561,-1.274676367386265,4.510355835567768,-5.364232735158039,-2.5986609223113737,-0.8715047858623907,2.0712555041424223,1.1862203378864618,-0.27649569148291053,3.2454498585780334,-0.28983988592514054,0.4621985019347154,-0.6249350788667624,1.073037431993626,0.4050250408952543,2.383093702398677,-0.6506760705586518,1.7680116946895434,0.657530473473606,-1.4869831684661106,0.1316005134984421,1.2123684878659018,1.3174701226359613,0.04367062813391386,-0.20168220790967475,0.18459597265017255,0.2127118468507963,0.6750521070569039,-0.30082633249100227,1.1125226447785332,-0.7383747077554941,0.33217274901906,-0.4413653750118979,-1.9429954945653343,0.9312704729329037,0.011941468643724513,-0.398921786951227,-1.689123413833741,-0.9067505334619099,-0.6635555814467337,-0.11929582115532468,0.6630315276223149,-0.967364575090141,0.4267561251730681,-0.5728149216930938,-0.6341030973095005,1.132596855476486,0.27957904009179024,0.012170468628003514,1.2665834466377315,1.1747032012091105
interesting,-1.5730686496602768,21.71467811868775,0.8308502394110246,-4.544544370777637,5.474531884839235,1.0819977376017347,-1.5352168817914615,2.191917784453752,-1.6919681434487615,-2.4919933174727915,-3.08700590557904,-3.575942302260948,1.0808904335519947,2.073164765968001,0.07117552262462264,0.19526384242029177,1.6004846722042656,-2.232155026130559,-4.389046615889495,-3.00171524594457,0.20102280175123957,-1.8749607555249908,-1.4110909996795742,-3.3422644972535607,-1.8846492644031578,0.7066528711422676,-3.4984022783323216,3.1980147059753317,-0.014700051081781532,1.8442914390626215,-0.6244590338703829,-0.15782990413522255,1.6112980849375222,2.765848638050491,-0.3783173483002829,-1.7865648268314807,-1.4630999037720365,-0.613183961994407,-0.1168851442126286,2.5869781279766393,-0.8498473044661858,3.054132417565137,0.028212503042830055,0.3488929840716166,0.6658419599297232,-0.8475103103384474,2.5425886425321966,0.3232114802913013,-1.9288247244376866,-2.129622769648793,-0.7690288149111522,1.180194368734629,0.47412528329775244,1.0620725013591763,3.685034602435867,-0.12914854099588985,2.1954325247546627,2.0818784019778613,0.7377758127716085,0.3916329680456253,-1.0212589917271204,-0.18721429963684788,-0.8588693633946971,-1.223446264656239,-0.2996486391876142,-0.23646358370548515,-2.0766154664905168,0.20350244034515966,0.005811313413189603,1.2604040921197486,0.8486018860630337,-0.13873938748132844,0.5845085239988261,0.8803158086406593,-2.5383696224566585,-0.3044068960672734,-0.7946756297616835,-0.6239114081696754,1.3984921643882453,-1.0106880788626242,0.8199947779172524,1.3537066757380085,0.9106762398287838,1.797723182716721,2.031931791451941,1.9625199689286472,-3.61689984399547,-1.466417709050303,-2.068188868057619,1.1162247829943888,-0.8379303861570253,2.149210159516201,1.7471878426334297,-2.5388768703932416,-0.9934852457377311,0.0007622775511302058,0.1266231827641073,0.17177109156497594,1.7919910241965047,-1.0109757066403768,-1.7239168814103005,0.15597783057941367,0.6577456871425911,-0.16407703216257832,1.5823407777708214
slow,-3.3859498743140057,19.36458766459398,-4.515289591286432,-1.6764412570613707,2.5323839167867033,-2.041415992095004,-2.223982517232806,-0.9790864369621027,-0.7113197145534529,-2.1465957741134525,0.24539065652676784,1.1671084913397902,2.8042651822076072,-2.900311576003389,4.7190726763214546,1.8444889202520804,3.6262082257780395,3.960454216857005,0.8027799764818817,-0.9330350563303048,-0.792614815489501,1.1470615617907733,2.8257263287920376,1.880763112554024,0.6207446816648908,0.06349675101461823,2.843206841507522,-6.096360806344835,1.597268833557671,-4.3502361591100955,0.88471316765809,-3.164530148990333,3.0065534242561474,-0.26804417290927784,1.6752590687592863,-3.367094352052508,-0.7663039109585073,-0.41052334918623695,-3.356130451379042,2.91151119949316,0.6716560787413387,-1.4127979439837064,-1.200314904178548,-4.06082722176105,2.903032814096765,2.63262956056325,-0.8721711514694953,-1.401964766526913,0.9218306069884947,-2.2662996486414597,-2.6374387990806385,-1.3567908457777405,4.002008184089323,2.532295588407627,1.750049268039003,-1.3685664933661963,3.057739086644437,-1.5880782819782309,0.3563880212529749,-2.408944685846664,-3.8222006248488687,0.9871573043964524,0.2701062838666492,-1.4497510454480393,-0.8831982173522648,-3.3134306714720783,-2.6768712883736514,-1.8751792385781438,1.9274795197452927,-1.410832054955022,-2.485273251237678,1.777275236760206,-1.0981789884156008,1.4498750811659897,-3.4008458535089345,0.23514657999067506,1.5119262249204464,-1.1731099529743245,-0.632977771763768,-0.7762833109608349,1.0201224012454035,-1.812399346197086,-0.16236351096891677,0.5321772269114652,-2.783650058024169,-3.670905444564213,0.18774060387357144,-0.6382610817588495,1.5617512948946666,-1.7719874669961024,-0.8855233766268503,-3.583422344378729,-1.533892120905561,0.44654902442607364,-0.3371598644504666,-0.9568930388299177,-0.11582815719939872,-0.15598910082102618,-1.2063514502321424,-0.1833037621080203,-0.693943831765471,-1.0771347197376917,0.769866323134218,1.0111474437285453,0.04567759294615219
stingy,11.523455973054787,-2.673017901039604,-3.851462194029879,11.452646636186637,-0.713862411293635,9.012548068071357,-2.6146001103857457,7.673194458892755,-8.281167451927747,-1.9346443387818535,-7.668960724627958,9.203897632443075,2.3232262030659787,3.4880461447683224,1.1586157536125252,-6.680271819643392,1.9033668755327668,-0.14369407489826724,-5.799771152184662,7.823708124861945,-1.1691296859759126,1.661480522637208,3.9855624269968626,-1.1584465342937629,-6.155410520021925,3.003867893076199,3.254876880371924,-2.519339768586082,2.8220699626727996,1.85284581056447,-3.3833413993950803,-0.06929519353480425,-1.7845167578458698,-3.6431416553313,2.0801646937999587,-2.2518550201997587,0.8885626774722636,-5.380206244188718,-2.356974220450363,4.619670474401206,-6.805294118181748,-7.914491753846709,-3.6663163536524257,-3.3451701071115503,-3.2880907480806427,-6.571270047352271,3.8349777605103608,-1.6777733481794412,-1.2346955926220926,-5.708915250972616,5.140141477325616,1.7554008169638737,-4.313116858488023,7.974514777301369,-3.120626155434674,0.47905502645275305,2.7781535175570964,-0.9862010258925175,2.2960363980695226,-1.2753231838166188,-1.3756989771455386,-0.8298289562755574,-2.127457316990407,0.1399673150450461,1.6234747347805225,2.4133445992348697,-3.2464081956392956,-1.1719800242234386,-2.609429262013942,2.971081533150237,0.7337505940171265,-1.5618824879356907,-4.835747713934853,1.5084695676455784,-2.827681207295338,0.014654497857496859,4.5463787715085004,2.173604126761043,7.338837949663421,-0.5730015090277896,-0.40849550024989806,2.2124495132067192,-3.731677432590415,-1.382736102660633,-2.0262112426202146,1.4747306259519979,1.8676572833356735,-0.48336583560656693,-1.356755127925335,-1.5056861649959645,2.4320386506042637,-1.045556819861772,2.191917423691763,-0.04437772533717906,-0.6147939943892746,-1.476313259138697,-0.007556618043276594,-1.835510676733958,1.2838853589685897,0.5679333840823454,4.962927969624435,-3.763075078142852,0.4858581767160518,0.8884829119344013,3.3097356870204324
antisocial,10.769509087250771,1.5190148837779396,-6.422029474331979,-4.415319248540231,-2.5734330074169103,-16.09528050935985,2.6411677926604127,-1.2211865173475747,10.324441057248055,3.950457002427318,0.2912473680440682,1.223434225907331,6.069838682477514,11.817747582249176,-1.27578291762935,-9.874002151253352,-1.09581884847219,-0.17132604025536843,-3.7091936447664944,-5.567626141884605,-0.8515098381958655,0.5571931341927505,1.5606444288359334,-0.6385822604639179,2.284251430946406,0.45920632349303075,-0.7727930399162631,-3.4933900166202356,0.8444322175775577,7.035796162367217,2.8128599557625535,1.2605761411900467,1.1716466470452271,-3.5584984398160504,3.1518976964096495,2.565135477604929,-2.1424199104329986,3.0328641881018603,-4.336560821002041,-1.4498785123921258,4.510883149121689,-0.8074433229361583,-5.640114324871364,0.19599860097465424,-5.6806990497443595,2.5183258380297637,-5.35064470151556,1.735598830617521,1.493874167152877,1.6292562910612751,2.087966097214037,-2.2416122888731325,1.0460743665586139,0.842772014833976,-0.9391032261808451,4.07532031083101,1.9850327369071146,3.985697833383155,-2.5629460132521817,0.8207296854994132,-5.934831329914296,0.9242509280774284,-2.5368846704576766,2.35111379347006,-1.3499746868692148,-2.1686803364248672,0.9607239462807865,-0.030826307718153832,-0.18466409505886794,0.1462657459600288,0.938087652402387,-1.2718535005659408,1.0172412172233676,-2.2810533239605966,-1.924571374816633,3.6326507215155033,0.17432474231630055,0.10985827535613811,-0.12789103148270303,-0.26610412021372176,0.2645431742072792,-0.6491926152053855,-0.7432000883172417,0.1946258905172514,-2.2884233721099596,-0.3381022584826078,-0.1084649407416399,0.19189727361782155,-3.024475142759774,-1.38401189651366,-0.8262525572992528,0.5782377229199167,-1.4904826564103615,-1.0514616670071466,0.626606404286256,-1.2460522789447988,-1.2882706893209885,-4.221222544933176,-0.2890658761030582,-0.8448660149526913,0.8632459313152557,0.17383754032409973,-1.8206310177323832,1.2988057563458097,-0.9077791576768285
disobedient,22.331466582707616,-8.986277625940088,-5.47209067392827,-2.107393598213795,2.2509869744365245,-11.040722278971044,2.061472702205604,-10.735605157962507,-0.9780466494712711,1.9117823286769804,0.12148020434702372,-0.2227921571419418,2.409620879347994,-2.8387945453838572,1.994422323823349,0.8442751444945029,13.722938497323337,2.5703669002672864,0.4612112974266621,-1.0390496365712905,-2.7560378359034465,-7.21989901454506,-0.6513937833635682,-4.7655505738664,6.147170785263526,4.7274700299924115,1.641423190768926,-2.305922788230235,-1.305918034626952,4.637107391346542,5.09849240350669,-6.484903797665922,-2.7025203624583907,2.2937394799623263,0.15804882240640217,-0.4949640497909872,-2.3935397679346107,0.026834463239903614,0.09430132076084669,3.8657275598102943,-5.144460268153,0.4259954686230956,1.8184895988205358,-4.372375747210133,1.0609745479581276,0.8191351034513633,1.4744158258181492,3.922598597995441,-2.282680630553929,1.5802505494269063,3.2031360295757163,0.3376057977074819,1.9065880460548081,-2.212207188894863,-2.8058889757836996,2.1785696078065553,0.6156602843469487,0.631178129560179,0.5941614687294655,0.12944227164274638,-1.2267291000875673,0.0596575514148463,1.6017148043287412,1.1445570814406711,1.212734194686234,-0.712006275073642,3.632114119530032,-0.9704245584221516,0.42275362325831056,-1.602029478293014,3.6199980129209632,-2.0104083843895935,-0.4577756478956294,2.946460698137742,-0.4555103310913686,-0.8734669563067861,-1.3320557162421112,3.0105400278991734,1.6955482288859147,-1.3631448536974988,0.5665618513957951,-1.704209191546663,-1.0391187112912985,-0.10009631113109047,2.58381367701553,2.2410142214968265,1.050512423716093,-2.727945251124061,0.30388269429494263,-1.1630331140701473,0.37273154608596915,1.595549758038945,-2.406541786846508,-0.9263065426874151,-0.028456880688379767,1.0030045855896326,-0.8219934657416782,-0.4354762622097976,-1.7685812031441577,-1.914004547878078,0.29238120675139223,-1.2639333873571155,0.17921925795202154,-1.389550485936422,-0.09999421580748047
uncommunicative,16.42502619686444,-9.590961803407327,10.846124741230051,-2.0688253518633233,12.075632359391456,-7.801799150998273,3.311137994104789,-3.833842829185909,7.123741492541629,5.673278568883589,1.8053848047054426,3.521398709067121,-3.476455302783249,3.812406138074219,8.148071310666605,0.16263989143697274,1.5208023221667801,7.923086285590664,1.30910273561657,2.646251849241021,-3.2151348636444945,1.01083912851045,3.0429747303861365,6.251108126576331,3.417511858075961,0.1491977653800408,-5.98415927565268,5.402611730710603,-3.120781082522124,0.1650336511578797,-2.5987199597646726,-0.9533739681832774,2.302976123498083,1.353057847972531,-0.2612009085714897,-1.1588762358220777,-0.4783503684246821,3.3694885538839032,-0.10056646000027493,-0.6738873466380856,-0.2616128139147942,-5.3682162397712485,4.2015162411982585,1.0802800395293564,0.40038703438630696,-3.672056077840493,-0.24772070914584357,-2.124844632243664,2.6954956150741882,-1.7941547841651255,2.737846563332892,1.8324919053335569,1.6970127273033584,-2.939055343786324,0.06840681510206807,1.8340355793990508,-1.3937562922611877,-3.1740095219622964,1.5972707929320946,1.261453577301929,0.7189857049394818,2.848226141027532,-3.605659356939529,-0.18438951515896984,-1.8522906323778245,0.2728535225003924,1.1198876849468251,-0.06411806202746988,-4.30075079026075,-1.2712987170069736,-0.7743698086790166,0.40475133129519325,-0.8770919692216581,1.4650812468703331,-0.38096636410471874,-1.2658129557556665,0.6388732122945933,-0.11077798087642002,0.12731653647973637,-1.901256457070833,0.9770244107527394,1.9858444393028116,0.3563231635845593,-1.558055881315543,-0.5813336184547816,-0.6924278883479279,-0.39165974790719027,-0.0033431696013587297,-0.4743629909567917,2.4355338433767977,-1.0015078118512721,-1.325091869064307,0.017815543491781455,0.7034496138707316,-1.3292050485298366,-1.221907706603364,0.2788880514102817,0.558466166025033,0.2882514263507002,1.0029472823595662,-1.5177581099157524,1.2080892862418056,0.27629614138532876,-0.1715694086452796,0.9945275094825928
charitable,12.86033472493189,5.397229249137229,2.6996122769479243,-1.9038654241894382,-2.632160954618021,4.510908396860433,10.699579954999903,-3.290467512421841,8.753664423304272,8.223405362235317,7.093126548206175,-7.929545916520905,-11.765369500263557,7.8133127870146355,-9.29272061998018,-2.435101014362636,-2.5151922885615727,-0.3574421288330481,3.3878332113044234,-7.530673857110483,7.052225824885096,6.558675073033725,4.499142446314659,-5.295856321709778,9.51540976649886,6.2429865559176605,0.7137873926197542,7.946476950603735,9.352194831122798,-3.2603404684015174,-6.467981516407437,-4.214193058421338,4.593266702530784,2.2617888114737017,-3.4263405703237133,-3.922384566871473,3.2867977094820318,-2.407133996608234,-3.232616887447468,2.331873406213829,-1.2672640360543788,-1.0368128021312206,3.2805853173443915,-4.65529362917631,-0.5642027035952254,-0.22133455517623463,-0.6906333900151453,5.672239394143056,-0.06882475351029332,-3.240001050542173,-2.286914989479753,-3.2428191939740163,-2.160847705793571,6.662497730623033,-0.3806141036841532,-0.13689463394690105,-2.0876177627307233,-2.778344244921636,3.6117430903626477,-2.663406073815901,1.3079051222568372,-0.6559170655677986,1.2299611223876832,1.0553670078110005,-1.0780323046389488,-0.5863456472537683,1.3423200806753417,-0.07301617841519861,4.817358506413022,3.5694009131879403,-0.6794957830213612,2.998952437354726,-5.026225192062912,0.08897114495596578,-0.39628885743824427,-0.3014299560849711,1.252205448997927,-0.9147916275231951,-1.3061885325091582,0.39825354587916184,-1.0658546911024196,-2.990333620764476,0.8069622650567138,-2.8719155228274373,0.09509925970623377,2.1926759616573848,2.1991366610364933,-0.8647823450429933,1.7209107572290465,-0.8371354421885109,0.8128349587744295,-0.9489127200169922,-1.635371655144434,-1.0161533969921333,-1.6020790022903988,-1.268509510068533,0.5768438902199795,-1.901311320118968,-2.020907735983685,-1.1440496595112937,0.3119120589395505,1.6855914741130258,1.1557404611928372,0.48176784420803853,-3.247369688226442
imprudent,19.68250312889009,-3.5391965579649725,-8.964941097162376,-10.13109115500187,-6.104313535558935,4.793425509241524,-11.347340333187475,-1.0310015566366508,-4.767834812184125,-1.0615637679438983,1.5605824210394998,-4.49026838846326,2.747006033995102,-10.146221487810635,9.642256567608575,7.482472947748832,-9.305830556465715,1.2143478203077602,0.20067996561663695,-3.1141827883212065,-2.5903457742141143,-0.3529809295529249,7.437758119561036,-2.286477006382059,4.2888656194589005,2.031043908930392,-6.131199198303284,0.4060497480850187,-0.9239776302353311,2.840489896164974,-6.887619649755356,-0.5802017974970496,-4.049809618047297,-3.7669824112353147,-4.916932529314193,3.4893457969934754,-1.5781969495809571,2.6469890812175034,-1.0558643533617993,3.081731428188601,-1.7102882256586576,4.166155776840015,-0.049759114480170404,-3.0741586167490227,-4.781640682823667,-1.3719346953296618,-0.39648430252941114,1.4624272293515426,4.637660159561568,1.922922252752779,0.8986221622253306,-1.0930132318303918,1.7348927610906923,1.570893867026325,-2.1995354589435965,0.5506698767495791,0.260683357988185,1.0120435268643537,-0.009742698181622756,1.0235242206564834,2.952866125190872,2.006349604508184,-0.93955982058771,-1.2152178951936914,3.7178844540545066,-0.4170172274314654,0.2589694482039583,-1.9641965969984427,-0.33537369157430746,0.14484626925696426,-3.932920637930304,-0.34080835509219265,-1.2675560642241428,-0.7162906157092236,-2.8445486735145384,-0.32975579614506706,0.46665165684444904,-1.592973955202167,-1.5824020253283917,0.10415917606155535,0.34318734292254194,3.2137434955770723,-2.7475908123331236,-1.1435724987067433,1.3131065238981432,-1.5038556381595272,-0.9410092999024149,0.4891073502671684,0.5310143790129345,-0.24008796148499467,-1.069072825777301,1.6890534790097518,0.7046685235723054,2.0766977922694703,-0.5371485197723997,-2.3111094105648764,-0.7516957000601134,-0.7170236060260334,-2.231314693806279,-0.47623409458226346,-0.8877078059837004,1.550346099014581,1.2914714548052109,-2.427809784769581,1.3567031452191909
manageable,15.84128367077445,-4.706806058384299,2.1163444299940806,-1.395672795184019,4.352753569911489,5.676665572238782,-0.5441860841628556,3.876600139487504,9.605364558526157,-14.135010424507644,-4.589554650043765,2.613703537698458,11.962506072348516,-2.032146201690996,-7.287702306167005,-1.3312602716558835,1.3673121335715903,5.524802647792442,8.816139247956185,7.939369913982137,-0.652796364173884,5.988716696874008,-2.0748430148523256,-4.327940493565237,-4.323990242824787,2.4853688148533988,-0.24188551975788292,4.837627771119003,-5.449949310990615,3.491790537225716,3.2257550288987056,-0.109919347818499,1.5419078453720403,-1.916108146717869,2.640186838975962,1.2549506024428505,5.360055845475179,3.084838580069121,3.7294121693315243,-1.427186557270052,4.100550627622243,4.187296251546002,0.6952867175842279,-0.9031627531180735,0.6149043405380396,0.7029653991876901,-0.14694690447748537,0.5201595068807744,3.1336443551267017,-0.4397457008354461,0.3611990600045714,-4.189331387002484,-0.7931298727860434,2.055983517380617,1.4989121756869523,-3.711209075704972,0.3158483201607502,-1.6532484817110074,0.1089082573813947,0.5246288733444469,0.8878914564433157,-1.883633673679809,-2.243323012552866,1.437547741235582,-1.6681443849905204,-1.5220775458473077,-2.3022122503208866,-2.1720682900723034,-0.3745950683562492,1.9065079349082243,0.9429444044399817,0.8206814988662764,0.35544065343911363,-0.49805391668942234,-0.8607374797282265,1.472765371803828,-0.32618342431162517,1.4203273244742063,-1.3545305128493137,0.15574979410894962,1.047099792376001,2.538735877909592,-0.3191259872773983,-1.8060902784990998,1.9648401343679005,1.2845457562337552,1.765238041563273,-0.4851109523562939,-0.4480374001486624,-0.9174949780494647,2.183701970992709,1.3277247383096968,-0.6585356685035717,0.8241081335665623,-1.132617090310693,-0.6393260392347064,0.8196781641396388,-1.1364169068640009,-0.10945044044389908,1.3875998487236803,0.7937034493162634,0.321709684548885,0.5100301050809802,0.5069420510271823,0.058381075018903786
messy,6.215302943264649,6.339130623707026,-3.4842227842683426,8.598099584244654,2.834544955681664,6.226699603987136,-0.020478845500388566,3.4103412772242976,5.47285943283671,0.1172809277628025,-2.160156483449007,5.580360090846903,1.317334850927293,-3.329039875584524,-2.9619711029654403,-1.355460740726137,3.966403511253272,2.0271341202250364,-1.0417643745124412,7.072036769932593,-7.167256356639812,1.2206196773089868,-1.4856522609363572,-2.7450148988794276,0.8736861105493602,4.754422744827953,-0.7941925884456293,-6.160775778772458,1.1814628348114158,-0.035824036568487,-0.9747425329880604,0.9984217502261635,3.5170516115795256,-3.5828910128255598,-2.49727535846503,-2.920136772427928,-1.1470162425283363,-4.1574370295538445,0.04239831689045074,3.8838479553427128,0.6845380851295949,-3.276059491567183,-1.5776277682795659,2.355550248226519,-2.0889718059042903,0.044446428213418265,0.05885936873179043,-0.02138398352293982,-0.5242564946127304,3.6067114843783825,2.8003509732828795,-0.14926188722506858,1.174883144104054,0.9760527556195581,0.31472729226953033,0.6413682779854626,-0.0793653418946357,1.981788237635416,-1.9394598955736897,1.1168390599071136,-3.1602816271564254,-0.7500404612661159,-0.6523636998084487,-3.7287120030405756,1.0762302131139807,-0.29296116716669085,-0.9639908401802509,1.0815482396563614,1.2882378454911003,2.1624149589420516,-1.6703174680860668,1.6402526503738606,-2.380133933046149,-3.070362772562971,0.1661494712365281,0.38979805999048095,0.1234071388117948,-1.5827096039871913,-1.8857765174169039,-4.15567697983292,2.4549586430938484,0.016209838022346875,1.0955274356444658,1.3637265932981983,1.7340083810216327,6.250865237097606,-3.201771485439765,0.7129905435235095,1.8265767587379385,1.7993927799390628,-0.08644927902341791,1.4040040112850396,0.49402821094662597,0.023251853399980482,-0.5779890143538732,0.8173942429612393,0.9768410523823995,-0.8767957714907633,-2.7360149039396253,-1.7260628429680025,-0.9088794169066551,0.3890798083307439,-4.657238793784866,0.5525203179364943,-0.9073949822314077
dishonest,20.08616466509184,-7.709590515119033,0.04863237645186392,2.693637168640342,-3.3065994833738532,-4.455618492823649,1.6837579071282387,-3.9312117666888677,-7.841475389653881,1.2027435540303668,4.389274513093557,-6.468833381470666,-1.9109733016471235,0.4797837603395838,1.6283986445286576,-5.189583645597348,8.338576740820697,-4.936011245575952,2.6185693048560332,6.6257662956525225,4.0496250656371355,-8.447716352990666,-3.322067906177491,5.219299286428008,6.07362647388593,8.192036607468506,-0.45504557801607853,2.785100348981592,-3.62286407149958,-2.037992939109938,1.5691526580233235,3.652958375624594,-3.4364353299220802,0.08785618952191147,2.7191713146085252,3.214497364103365,-0.07810001161815591,-6.3118409067721,1.9537062229566784,1.2551431093655876,0.13032410856338858,-3.6872315462178036,-0.6273816531482715,-0.2656849231431012,-0.3581957983953164,0.26527927471722346,3.6152217676271765,-4.828447096445114,2.7168610248832277,0.5964982383239233,-2.7875533175559406,-1.037145215923125,-2.0857582433344666,0.3954826026472581,2.819381525915981,-2.56286619536213,5.421107605488887,1.0477404006106485,-1.7817830563414594,-1.8145088956367337,-1.5299648545815325,-1.8314707097635088,-0.24611892220502496,0.27736080171886446,-2.6590482949966914,-3.0588547289180577,0.012712582858473606,-0.6494076749051423,-1.3499647032997586,0.5762863891862203,-0.6676342228123241,2.5397483245926904,1.3248566605767527,-2.8287811864154015,-1.8657561379747976,-2.359247041403904,-1.4798492944542772,-2.304084558534685,-0.11372785208678583,0.06093561951700528,0.2114750696230373,6.314348132116634,-0.4615907316853573,0.0232831351198033,1.8096757795282319,1.1747787104070855,2.732548789567113,-0.515808211939716,-0.6170262897827838,-0.26672254926463185,-2.8168588234807603,-1.0717670276898086,-0.2008783297135162,-0.4298056842114291,1.591582277861748,0.5513310119547612,1.4641164223524135,2.291438396376944,-3.359505026871135,-1.1176375034752097,1.794399422956268,-1.4392991052850017,1.4190011205411655,-0.49390813415386414,-1.0430354353595457
graceful,16.84969872656463,-2.476356415954478,-6.895753948311416,6.745056468860117,4.985696327893719,10.420941446794584,2.5026038830128217,-2.7360821090756815,1.6472095358257914,-2.019492514981552,-0.4116197267728831,3.154466732745646,-2.9788839927348323,-1.889958945213631,-2.166578025683286,4.458298246504473,-1.8833326745983299,-6.789153627260255,2.0446871399106965,-1.9496436294993584,-0.12457979063032898,2.212468713084142,-6.214031496849945,3.375248055883608,2.4670362055480823,-6.965713182267771,2.367528490837319,-3.779101077883542,-6.527500921743547,-1.5504674111396968,-6.459254762607596,-0.7904188726273724,1.0680417631307715,-4.1402564064641885,1.0494216333119932,-0.03586903642853145,-1.660265962999176,3.231946289231603,-3.2502637486865638,-2.531810107693109,4.084323771994677,-1.7565684973025664,1.875894123402896,-3.2082696328681046,-2.7815629518347444,2.9125498163435544,-1.371383771066825,0.9169927438982839,-3.9487492233927672,1.4002942700134482,-0.4884044982996594,-0.3175768478942211,-0.5771019404265796,0.9528053979370595,0.4836192666623378,0.17720654189353272,0.3118928699289073,-1.317797085992918,-0.3933465076059472,-2.474787005442708,-0.648000949045845,-2.202253753434414,-4.42445458905694,-5.806063255324223,1.555905535169325,-1.4462176949515464,-0.5171286788576491,-2.1223727381647883,1.7694732528657773,2.674072107601827,1.989227718022276,-0.23727219514590614,2.131049125272273,-1.2280018789454688,0.5159323698451022,0.34555079943040384,0.8408859432083432,-0.3239807903542145,1.8326256893176747,-0.26221372512949953,0.2365382837632886,-2.3305825991175713,2.711674767192824,-0.7114137787201286,2.1727652369690964,-2.352901086519027,-0.8981815314180048,-2.2305585448368555,-0.7235456801312312,-2.051633448597824,-0.2960892398118842,0.5573604321059132,-0.7080271494065202,4.210630397007352,0.8920366973201059,0.7704157968545796,0.7492441914646718,-2.858130483422564,2.62445403374317,-0.3076361634499717,-0.9043135206117963,0.5695636463478282,0.008238060368324415,0.2546405712862416,1.8801414632117854
attractive,8.812930845712668,-0.4902395698977586,6.169051637673239,3.9582441900837453,-2.3593825696790125,-4.021788974364475,4.356497065635656,-9.150626769580429,-2.117842647801674,-4.232688709921639,-9.947226136959088,-1.875273136687704,-9.693862993767473,1.3626891645452117,-1.3225869763641267,1.7142716419446926,0.4775892735358007,-3.837522672002873,-3.22085397605775,-3.2746447545219555,3.583924499085373,3.7628739960034174,-1.7771939483735006,-1.1836282192312666,-7.611360904026866,0.45470699827500843,-0.5004187043744914,-4.318832044809989,2.115991471081611,4.2308500920525205,0.33448732937086334,3.9300845257048724,1.4415647842260153,0.15012745506166436,0.5408911993645192,-0.9590738537390906,-2.7341589272471842,1.3726170593275677,-0.4528600134748702,0.3071058642667806,1.4465008783748683,1.5350974437083038,0.04150762707249783,-0.43431907277801596,1.557743300533347,-0.6465179158540211,1.8184933035112318,3.9613960442316984,3.659364429631625,2.8008731979433334,-0.2700457249650306,1.1042232532120424,0.9389419824238573,-4.3285414590849784,0.14379925258145312,-2.2745172258403867,4.570190640889238,-3.361278451629709,0.16533550266999822,-0.10039644310151172,1.7601761389101942,2.837677284224067,1.9485315685686395,4.217037680209641,2.037110352921607,1.663530363222097,-1.1017790892020567,1.3538344524158412,0.3884632492340438,0.7362097419138268,0.17340001007725367,2.000807624293033,-0.19186827101280265,-3.082646028437682,-0.42860878398335256,2.868130855271933,1.0364622632232452,-0.48033442972215923,-1.0825837209971247,-0.6677309595326839,2.3923528843037323,0.7133756417620641,-0.049813134207069364,1.4730106059499963,0.9055984732472409,0.791899954297949,0.08810575733359736,-0.3907666835673131,1.4065500835584617,0.8682146298024582,-0.8894924794520336,0.09710937813034322,-1.1219479793035059,0.4082028097921848,-0.9549612329585382,-0.3544294592629148,-0.3437154291299232,0.9804242748593097,-1.0608155649420197,-1.0454879294450479,0.7266073418955369,-0.46541122102936877,-0.0026817798797973487,0.5735521255506667,-0.1491407352120533
