unlucky,4.729319888008919,-6.0357128642269124,-9.76080868435988,-1.4060051945786052,3.430197575121683,5.634797107726831,-1.1912457221823738,-1.2520516101023105,-0.29738075181863743,-5.360536234576241,4.978207504044305,2.143651943622871,-2.104887739380135,0.7302694613359471,-8.145179379702869,2.6221689459451176,10.309630910757598,-5.343626858233163,-1.988573107144431,3.4507467410205352,0.2269200840643218,1.0354000795918923,2.0508283065759647,1.19207673045977,3.193305067183442,3.3645281151500384,5.8261058519518105,-2.9918184244867327,-5.752446601228308,2.1434457621966514,0.3035155400329694,-0.5310151115703554,-0.07112343591521003,-0.3996824195589608,2.5207551080726645,-6.679210120722615,-2.043946497032809,0.4681987618453589,-0.6057026707636949,-2.2275810859223673,-2.666594632144231,2.98207468862857,0.6780802129516348,0.0058170172756975115,-1.193690964343931,1.4317901395583925,0.6115589365868035,-1.6503771307721766,3.126715944226756,3.861626365834786,-2.3312660093032664,0.18420118832852403,-2.3900641804057052,-1.5923657686515882,-2.298606397468309,0.8173803576911121,2.936928448349441,-3.2426458634734607,0.86951339264535,3.905492286143917,0.09375470911764812,2.897201616131303,-2.671597990350972,0.9196634719323902,-1.686399768681497,0.675379536920549,-3.09224473890973,0.04839818459843168,-1.5749436185742405,-3.5158687662274684,-0.2624361650618272,1.3498797045630209,-2.6087194877566686,1.5181587575939393,-1.7165867062255,-0.7538412445472964,-1.2244569116683637,-0.6593254302675586,-3.2334344477128916,-0.4274424349594036,-1.4718399743517265,0.8006865223295265,1.495080163008792,-4.155534924983555,-0.8743270628580977,4.798455675383978,-1.5235398642784634,0.15532582378722928,-0.9248419135799442,-0.3046242625347297,-0.20566388016444292,0.19414709167606212,0.4000034987890188,-2.162309510167047,1.8456739272287337,1.1448393091230609,0.06963115847688817,-1.9296663656006945,-1.5771327162660258,-0.8547957054949276,-4.076201714174329,-0.20776092279221758,-2.5454527908962246,0.9461299054358226,-2.9134126468223425,-0.20104538199992097,-0.9612207951724685,0.5721704015481632,0.5620112145361836,-0.348669551448496,-0.2805558199907619,2.590410650484287,-0.8676163846671382,-0.07610984955970662,0.8248670205691249,0.44013553350688905,-0.703317552939767,-3.4572320774275163,-0.8531231184274843,-1.9044382755211693,2.5397446621499435,1.190788286517828,-1.7236152913258365,-0.726494009718001,2.4144498003041335,-0.11728508677612343,0.40786318418128736,0.6373571581474796,-0.9996484599901102,-0.07521603935692339,0.9436539400586131,0.9891609031205624,1.2738516929067252,-0.35436102981105827,-0.3792187636254447,-2.3883478928427,-2.486823689463974,1.102049264792387,0.12695840873006545,-0.8238813340915513,1.1765688854842713,-1.0225073189227338
dull,3.5813888434653904,-14.671426501984795,-14.42348797455261,-2.3404257221654086,-3.8769843081065987,4.4388074163489675,-6.148268208835811,4.740993567776201,0.8261888859648772,2.1007874917663925,2.969474254277545,2.2993250520726343,-2.2183089971129597,3.799992487175296,-0.5802742991525651,3.6111506587808555,5.527312099001531,-2.0794432234970994,2.8241494281909523,1.565478840409915,-2.4420609743571453,-3.2550087766023963,10.457397111826314,-0.14273110377181822,3.366405188791542,-3.201247335407249,-5.239171446397273,3.912527164359252,-3.2451588235764817,3.047178583379564,4.604215399514206,2.3667935548346026,1.932751992736745,2.221549513368457,1.0250470268503367,-2.255652682805283,-1.1328717955616576,-4.591183901639084,0.12823569651651276,2.4343460485042234,2.9420045560089787,-1.8006837988758069,1.7929566082779376,-0.09109605057705988,-2.320531676644819,1.0648969856083292,0.7850099630571259,-2.3962980746840823,0.6018642934323812,1.5280645500290608,-1.482519530577264,0.3361936422644013,4.847277715307161,-5.838603152188793,2.2639815536102663,0.1518677931023419,4.046453092033859,-2.0692640892628664,3.4050928396134195,-3.277795935079983,3.200925500261165,-0.3604638531608226,5.104719342782886,0.01885200300694076,2.606825552515037,-2.1058039788575127,4.1806643232390694,-1.986339038610875,0.3146904018233966,2.4942877446752614,3.1000206250016498,0.7742599379717925,2.9717547624653067,-2.445692294987588,-4.138918157175433,0.7011133320484132,3.4133860932470634,-2.285309427774491,1.5287353442917886,-1.142399116503249,1.4999205136330012,2.5322138301303916,-0.600446065370258,1.003615483623943,-0.4542642196720195,-2.859988259582613,0.7351211695509794,0.4146463150584762,0.004043010230187788,1.0082415942697016,1.6202199928825751,0.2703414007536634,2.278193935007873,-0.846281665040478,-0.4677328027316926,-0.7224676350595094,-1.2187015458088248,2.2396547722137394,-0.24264653745345524,0.15212449028179678,-0.9040167550595328,2.422087464609292,-1.0676035134774908,1.554846880355906,-0.20252120778046886,1.6382281833161676,0.05035210285309318,1.1279060253512514,2.6664062381647677,-0.13120156150180617,-1.3345305812128339,1.1059111133908337,2.0674688881885612,-0.3186392430445444,-1.5462455742260774,-0.18481659262567748,1.6900634713155127,-2.178284714709159,-2.6299982417987353,0.41508488884219796,-0.9434809326575025,-0.42409820354418415,1.3016145196405047,-1.9396155378536526,-1.7871021629076027,-0.5970926894714133,0.742422717362846,3.4305257409960186,-0.5616715970178657,-2.8867255994493535,1.0635652726192808,0.6853164330572207,-2.181897339450546,0.8692438464703631,-0.42606061339592155,-0.6158750874582363,0.012587907211455703,-1.4879581360742713,-1.3932354853066193,0.15933960870762826,-0.2817680430310291,-0.4606442198960251
arrogant,-14.290464623281725,-8.4911813205108,-2.050603784650872,-4.338680173284545,-0.7239066749970733,4.815222649270385,-0.46551280321956134,6.954580860676604,-8.124722360686473,5.808614962798525,-2.3967413225944307,2.3540560160019433,0.7843735492372715,-0.40570222817145835,-3.4764251515897695,-4.567640949820762,-2.915632801709382,-1.0275290339720429,1.5202998192780355,-5.080071319175954,3.674918432672675,2.910894546521833,-0.7991534271587691,1.409621156664558,4.094039997022249,3.9901580494857063,3.2034692039641683,-2.4381830150515182,0.9475237297892743,-4.920514926593517,1.7211750529516656,3.4628153616786266,-1.7406439860173841,-0.9445965442776191,0.9008124080594704,-2.6977178316518633,-2.490970554356084,2.463858977017162,-1.1786442325832494,1.8607387496162178,-0.21245241233658807,-0.7122711378230545,0.8176446360617443,-0.5425348932750449,-0.5594560387785987,0.3816364872155807,-0.10426330744176236,2.5593596822298856,-0.1912036098585908,-2.235685032161795,0.4548992975464251,1.6993240660088098,-2.50090117592612,2.815762141758558,-1.4524347959636572,0.8544958502147696,0.5093600209563508,2.611453526072781,-1.0538001529828018,-1.23177723463987,-1.1031378959247422,2.6791535616833233,0.7125666216714842,0.1338394009346709,3.5825862332161877,-2.305939003120649,-0.6002396373095686,1.8502997285775356,-1.011887770416845,-0.772848408021512,-0.8009392186934278,1.6384348390904078,-1.0444392721797722,-1.8398969049820604,1.8802832850307627,1.0432473054850926,-1.1759934856062466,-0.04532342742433314,2.0772733383317017,-0.632016005057434,0.5860267624812195,0.468995431498259,0.10939428837554167,1.7794983299484999,0.15966538864828275,0.12838375500040808,1.8721910503452177,-0.775179822779859,-2.942349779433825,0.23159063953431228,-0.008633683980469986,1.4398715801542203,-0.07646823466599836,0.4607512412798824,1.0388212090029945,0.027346884465853444,1.2072509513845193,-0.4370600186086475,-0.10859285032003639,2.195101857126537,0.9345974414678053,1.0557379946717291,-0.36976734388725824,-1.1078268446501698,-2.0095034754028878,-1.6765425974547643,-0.962175903019867,1.7462987018793659,-0.2021134824732268,-1.8708436750482897,-0.3128411442158219,-1.0873505940164596,1.1868351856409112,-0.01011484465117904,-0.7376742009258174,-0.5530937758238634,-2.0992088359165124,-0.8300522950608962,-0.39663636630628557,0.17347962846788725,-0.9466684561426433,-1.4710855518715262,-0.8384673869671307,-1.5254641554075705,0.19917681529074283,-0.8204047845959418,-0.8994537904785953,0.5234771738346446,-2.2186669306339577,0.8267992038704586,1.556862277511648,-0.10822820569148499,-1.2718211994151287,1.66580974423473,0.26136616598870127,0.2700345252797063,-0.1431912839896211,1.2844224025879916,0.02995778395657994,1.267918244998671,-0.43615694747668887,-0.823808650737908
careful,-14.249365595488507,-1.0845112012830955,16.7215935317757,0.33027220334772517,-6.184914888408546,2.378532552038824,1.5955611020898308,-7.585396378161269,14.051655857334795,0.7146581135567809,-4.477202325420726,2.05702013426075,-2.8494129589923327,2.265850096365854,-2.9495945862448094,-0.9325718860510421,2.7024822227594094,-1.9567699343159175,-3.4466170969415293,6.642478599406088,4.079677593853597,-0.7501137414726617,1.2938291928904129,-0.5187201358121256,-1.3601741307715205,-2.581385894391946,-2.180670140127959,1.170419263030208,2.230503186807267,-0.3001170763097243,0.05411908461072706,0.5788422593899517,-2.7882639600431594,1.4373035261274154,-1.95518572206509,4.412355580303349,-1.1301368622374912,-0.5765449409104535,-2.5171706625303356,0.09348167649719452,0.8027522673923632,5.86297135688342,1.5430898253418723,-6.328633932943496,6.040391221907903,-3.28480417418865,-1.4924381977864007,2.5207405305307313,-2.432116739962594,-2.4660151510884942,1.5513405856999012,-0.4138585428090542,-0.3272924972906535,3.096690447258124,-2.36781093498994,0.9830857305300785,-3.3483252814623974,-0.41849523806135885,-2.6367250085038108,0.7845935768678315,0.6995865099191662,-1.1237838063479921,0.01801451019117629,-0.028203812223390922,2.816374928741196,-3.195390589637232,1.3986513566652115,3.996177918251309,-1.9291228423807456,0.6074152444569668,-1.5577119343340486,-0.9800249423703339,-2.8403734545132924,2.557992533354224,1.7341988932229286,-1.9142252174352166,2.0005612764860783,1.8129082616230126,-2.423360707182115,-0.08547093977073654,2.415707427689071,-0.20282942035131876,-3.7272272574043233,3.893131361627889,-0.7071892731856619,-0.18524419076378773,-0.06453062516276488,-0.13530926768598997,-0.20557342872399653,-0.3472776931190715,-1.5895587368066693,-1.4989251200400704,0.0037992389106940596,-1.9697045860551419,-2.1644159885207164,-1.3217678802762451,-3.151762979737588,-1.4105956379145763,-0.19742849691462752,0.5513214434614547,-2.6096796179791837,0.07522976631999351,0.79931051724275,-1.4672354158075331,1.8536387262962053,1.304667084912597,2.9489289214296925,-0.28265793752674495,0.6719700740759449,3.98527478092889,0.6076040353233001,1.9839267825418756,0.5543662314638388,0.48364747631365995,-0.2911007853356263,-0.6640786743284534,-1.5908395239800162,-0.5565135879366718,0.5135002156626945,-1.9787361841572682,0.15894992404621835,1.5519667876545176,1.7137585625996443,1.2791206019768389,0.8228571053574681,-0.3495893107338315,-0.7960506440518377,4.064911306097116,-0.12362742123908974,-0.8436575604366057,-0.7303859056449097,0.8503270246150716,-2.202751618979132,0.19357635847363333,-0.4821741802094117,-1.1819690392443072,-0.4503807509468207,1.8834725827459022,1.3303183320433887,1.74792409604237,-1.9801022733691525,1.0502325788955207
communicative,16.917946173930694,-5.509664084373228,4.92697390281282,-2.8836852547847354,5.8778632962801955,-3.600178160383813,-0.41315042342631153,-1.7537922962036863,6.400736084467993,-1.212012968530672,1.649607221718678,-4.29818402297728,0.31367996452411295,0.2258875233647505,-3.0093802009799417,1.5620452022303577,-0.2784266922138248,-0.27985617511384075,-0.4601955740902227,-3.1078296368260863,-3.6491589497011394,-1.0588399534113884,0.9412235587641195,-1.3255503092230994,0.14530100662309264,0.7614056754808729,-1.042701077563383,1.1751317995646897,1.0516827230892558,3.232227586649087,-2.7160881637831333,-3.002520373054892,1.358280402723387,3.9025382424162713,-0.6334038494341905,2.446945938633909,-4.435374625025614,3.0878845543857807,-0.20132209776120993,0.28854184657552,-0.9004237343838017,-1.9991343546374098,-3.05564715783852,1.082622924841355,1.6523083640145526,-0.058470096122367844,-0.8142008013138446,-0.28006006436153646,-0.665502180330299,-0.944935484818709,-1.2190886589741003,-3.210844599168647,0.0866468307216918,3.7158203417669085,2.6133172108048464,2.262234365618768,1.436630148430723,0.14106078663214527,4.501939127452435,-4.388279003729326,1.7643119964445129,2.8940179956700542,-0.8110171744215953,-1.8673874453208277,1.5834883090707184,1.3996949872663669,-4.378111040083385,-0.05149380901279595,-2.7495076682329262,-2.627711313050238,-1.4258357566731152,0.11258396471697064,2.6680746903866988,-1.6934042295482488,-2.3223902125656126,-1.7645323862344142,1.1967137612312826,4.683162734199135,-3.6664557776394338,-0.29862452496630243,3.8128138953292177,1.2723192960856162,2.1389294391125238,-3.3941275611363753,0.34732707199955426,1.334072882348789,-0.530475091388264,0.9801837637055394,-1.6013681691572215,-2.511149215244785,0.008239272355976952,-1.5454478007627397,1.259387983517591,2.396336903569859,0.7857094581410005,0.6968793585361728,-1.7908884222059591,-1.9534609277088166,1.945961339918212,4.660008646858051,-1.2087997507454669,-1.533674115308125,2.146778311973656,0.15974775405449976,1.3806745117811974,-2.076712868188664,1.5943439748909762,0.3457566846240867,1.0696209288931056,3.018933573940513,-0.5756934800421963,0.6790026336983841,2.628209816995782,-1.470924878526926,1.4272271364767641,0.7819676013347493,0.9578615779414643,-0.27858902254312096,-1.839646576571573,0.596775549172978,-0.403370131210194,1.6626368398958467,-0.32814185027498827,-2.1778690811284,1.04871006801246,-0.5427869239667236,-1.433701181388226,1.9696488866774113,0.9801073637037858,1.9003504400811047,0.6846584928470001,-0.025859914383891073,-0.08665500010450108,-2.716205364955989,-1.6775057095276193,-1.0669989335858143,1.8517581521101087,0.9888585263041764,0.15982059164085094,0.7733799983794735,-2.5605083237822965,-0.3355597599296868
discourteous,17.172076837921338,-7.447159434445869,6.094775889084611,-2.1583448604268507,-0.2748406284156585,6.360907805839927,-1.1537267197906653,0.6624497599804485,-0.28646763770221007,0.4278960994376483,-1.2150212408637457,-4.429229688559182,-1.9302424852297106,-4.741443344076003,-5.3478783596599495,6.100313196444424,0.1777755120155494,7.114283688235843,3.8746673907527636,-1.813357069703668,5.768812295825537,6.154701659320453,-1.8217216999292667,0.4454718184306058,0.07567628608057371,-3.140113249111384,-1.5854217307408864,-1.6707415244309272,-0.03771071729630869,5.783620192442102,-0.46825069248574824,0.528074768955753,0.9695115380164332,-3.9427246727951104,-2.6000088473390806,-1.6838643601903016,4.505279866315568,-4.596882143843031,-3.0893823820680377,0.9733238760684827,-0.6341891109656852,-2.684900732344494,-1.4374845692189824,-2.0604714158604347,-0.5542745704037434,-2.472288980802253,-0.7059154770897663,-1.3168422926433085,-0.4426903805632813,-3.4768985838293176,-3.523527978922811,-1.926168561450264,-0.7213939098308474,1.039179900840155,2.9050920393925286,-0.47254706389417644,-3.0936960318847704,2.929910452643283,-3.6050181394557894,5.836731021814904,4.541362288839619,-1.2666447268893026,-0.25433417602314834,-5.168987376157873,-0.24910526025718896,0.36795383597445114,4.243995691835708,-1.194820418242146,-1.6024064635938553,3.7628118616984314,-4.664456578863394,-3.637011205438068,1.6365924466265385,-2.986272278237474,-2.1903987646169827,1.491669782525258,1.514257706472342,1.80583524235607,-1.4985719231754704,-1.8770012232996485,-1.9968146217062506,0.17852740032847195,-1.3500365101690581,-2.419685057594808,-0.3024017020536672,2.3841143660754174,0.7125694401225326,0.49868932019125384,0.813058600985117,-0.4135856090255145,2.125018412084125,-0.9509736920414524,0.1463776864742447,1.1463158428016307,1.7521307002256792,-0.2555491262575545,-2.8358207401443374,1.430998451395891,0.8559419612316208,-2.055466544421694,-1.741604355440961,-2.6785503601567053,1.0690779405106612,-1.8133704823025447,-2.782586786915645,2.813068331066814,0.2735698207805101,-1.3724649407013698,-2.797317833678187,1.1001685166825539,-2.7647165600681407,0.16022772631416954,0.5337213860621974,1.0554570323519772,-1.2623853512408334,0.30598997195322164,-1.838739639197788,-1.8721506055422463,-0.8701643702391888,3.656124629862105,-1.3361151854078248,2.2727598950200427,-2.480463154424256,-0.7119839916996625,-0.6209350150149723,-1.318044333430836,-0.28884013699444466,-0.7346636636017435,0.676186445511731,1.4845948158623727,0.9606568101793567,0.06088560250626407,-0.6818641829334664,1.15537070995614,-2.5988806795525137,0.8999128167942713,-1.2585857077566562,1.0920710951388624,0.6051372266393195,0.6001864499514347,-2.321455989292538,-1.7771155819634712
cowardly,3.5556628484386383,-0.7187468478625212,0.18302387443429122,-3.9849850100483244,-9.619152897260872,4.867048857040399,-1.095119237221737,8.96990101224237,-4.823896930251894,0.5559088819828987,-4.819156033061206,-0.9687659045454616,1.0228567065986565,0.9419812679542552,-2.832576989280379,7.330857863342254,4.714694066236942,1.2138034865577105,3.6114419610753195,2.297312138404443,5.1098200700735825,1.836641105065766,-1.6525775977014203,-0.9109884515062387,0.44053235256778084,-0.2871822682925754,-7.176310865986014,-1.851890074845602,4.988674362942932,-4.002380281500213,-0.40631724706304945,-5.0496528611377105,9.43616152358929,2.531287675065699,4.384828657513208,1.5310017662166435,-1.4133670004164338,8.076471745972597,3.1881943275156837,-5.955356325476949,-1.3420501028657985,-5.585420243219254,-1.8054247222209605,-1.5092172879849797,2.7475588926694616,-0.5056302456188411,-0.03848856193419161,1.528201209446985,4.649186578463162,3.217383180160898,2.7207840386376825,7.450327077183277,0.8012319117595982,3.2613330153643374,-3.915994959471804,-0.060234896580221624,-2.216177279383424,2.4321008992654085,-5.597459140016832,-0.4662313603327306,2.9362281380850495,2.396393584173928,-1.1092874662690329,0.5319923702988759,1.5116168949271538,-0.4011135711814766,2.0102051127755627,-3.0473438355659805,-0.7667698206134582,-3.209666236905773,-1.1910510540885353,0.7501402142217967,-3.941929719098091,1.1603461591695985,-1.2991526010809502,-1.0395638867495498,-2.369532480283594,1.9283910050749322,1.6086975251215239,-0.6340836283129486,1.1938049938215995,-2.1551351389234945,2.415163751120054,1.021152795986346,0.4276181162610776,1.8932617808834498,-3.319202652483986,0.6721251955096458,-0.5758025516692353,-2.150263858638256,2.107400179559232,0.4010329387378536,-0.39326451846809046,2.7123286439526124,0.09488656976775812,-0.14724688972325362,-0.7964962616184489,-0.7851330828227399,-2.212394511600825,-0.11790358232480527,-1.5291589273365245,-0.08545994489475503,-0.03319227559082099,0.641591342338168,2.128331612675774,-1.326206484994328,-0.41308785036717677,2.43100759580134,0.7077751479227063,-0.4969001901744047,-1.4171004241376028,-0.7132356393413576,1.3968188563856678,-0.06305065065405753,-2.418525934508238,-1.9415896574556892,0.4511538031473032,-0.9993521993775232,1.5068979084565821,-2.7940134696638768,0.474821145544922,0.55804325137528,0.39237875830984914,-2.1319185483112078,-2.304034106120613,1.7080241371967833,-1.7899036784851146,-3.795865051238103,0.5941629168612325,-1.5697659473936678,0.038664524792291835,0.8254272098815105,1.03371302067179,-0.8348362664423652,-0.7740857079197457,0.8908973137310342,-0.6646279153908738,0.30634004820013866,-1.1850681056730108,-0.5308694997164151,-0.3330306595113544,-0.8859288564588751
ungraceful,15.66016495852985,-8.55705139446099,9.636877749909052,-2.776471742075867,5.347635812863777,2.934140090979104,1.7861283116910411,3.9882479747787887,6.1695237745278915,-1.320637661196734,-1.3630839009944895,-6.014345643250644,-1.4390027554869589,-0.6439073944782351,-2.452824812822231,5.805169856403707,-4.374845301840203,-4.038396266227524,5.578146888391848,-5.0934367934863545,-5.313999751796848,2.6805211201617416,-2.8895856672348086,3.593290451784039,-1.2116496459427348,1.5774766190838787,-1.8759673699631485,2.2793994723740187,0.32307384264256644,-3.4168890155989504,-1.2355934677602316,0.28468236857517465,6.6469993495993895,3.189682744199197,-6.578544252409645,-5.761468491870673,3.172806202128084,-1.3782065872145597,-4.063485412751253,-3.9743444880741694,-0.5597482835946291,3.1995582157850793,3.267498370733722,2.6907625850639283,-4.091877572933515,-1.3323375978228014,3.63473364599806,-3.8912370459407564,0.8942052453044308,-3.3958511304400827,0.5344711127872523,-1.141154048567273,-1.100424360672163,-1.5316584302168843,1.819086444561232,0.9778034973533284,1.9108412409666757,-2.9471358452443908,-1.2842642177044867,4.075338956522108,0.12394034005964225,0.7004700374970301,4.1537408445054576,-2.2936218048012535,2.605957833085934,3.6213898183827116,1.2592398764639638,-1.1481181218168004,0.07751016284705059,-1.5329518147183392,1.253615851354271,-2.647011731106762,-1.5232351625755451,-0.08410951252246096,-1.4663374497401849,2.5028831375897562,-0.5753378320512514,-4.521813161480581,-6.702282073331221,-1.7632072636214642,0.9410526964281524,1.6562867489320214,-3.8415280359305193,-0.36571293930973026,-2.2491856594506814,1.504369311511875,-2.749122232085036,-1.3602786254105996,-3.1184662202247018,4.420943645948339,0.3209189896896431,-3.031098863730063,-2.5589368759251925,2.3348748251894365,-4.80746424686466,1.4762446367593995,-0.6837354758307649,-0.5135808791463349,6.5213435998741405,2.4930598521764953,0.30750397326416423,-0.4321591655819587,-0.9642562409773338,-1.522185112961301,-1.975009326186924,-1.170779612651733,-0.7074837134858195,2.3042622284735264,-1.713451231038468,-1.4248723423037195,0.1951929496411951,0.12782621551649642,-2.6706919171270393,-2.4366275875414423,-2.1233729886960253,-2.563849794867163,0.8324912213757543,1.6562584634951252,0.7738341920400297,-1.3228879714197856,-1.522299817169642,-1.7330718019969986,-0.4438904432858617,3.8007138023122726,-0.2936635968252979,-1.1677174644423065,-0.20598331430581507,-0.07287155848362546,0.5767969528602195,-0.32728264692194187,-0.8650701805508935,-0.07559080008165997,1.0679485623023532,0.5190704577501319,-2.942421255947108,-0.26282081498331306,1.42837987266377,0.653618001737051,1.1866282167976099,-1.3545386028873216,0.4260037872629027,-0.1595973312402786
inattentive,14.249771142605345,-5.954013487892548,7.545334984524734,-5.961888469254412,1.2194433411754722,0.05879502376421217,8.948021977196662,1.804099704465069,-2.4545541033265237,0.2985428370220856,-4.1207115087141375,4.170559685351951,1.3585554087524743,-2.7880583823456746,-2.8095648667249478,-1.9376803442696435,0.42215497948955416,1.100779305523028,-1.7097396940691025,0.41826623360951415,-5.9878271155845795,4.007570254564075,1.6051291438791413,0.9826747079986453,0.614687392671028,-6.490214067574077,-1.6494850314579848,-1.746278501722801,-5.901518179927959,2.376884520692182,-3.4012840927760957,-4.084943022321927,-3.9265951189144177,1.5735283567524254,4.621219885562965,-0.1525168447885391,6.84836431442359,4.372199549060076,4.289580568164303,0.8470931930729934,-2.331978853412702,-2.9761163570315694,1.9422627280718634,3.6528065692167733,0.6381265856735422,0.15672372916668037,0.9659446925412862,4.829605674532751,-0.8866709557122389,3.2288835807949834,-0.48121702240888387,-4.12306857902961,2.5863964502094676,-0.37035005556417716,2.5645978335210073,1.6923021933921771,-0.7589704019191162,3.621922071408747,-0.5555317785146205,0.028150462736080198,-2.44105418159304,-2.2406195968505185,-2.398329598061223,3.789043123787193,-1.4113371570076636,4.3718175977824805,1.5145198664447836,-1.2380911837679927,-1.197440286040844,-1.4573690051107002,0.06319706609159581,-2.0414543081505627,-1.5836523374375349,-3.258326779977022,-1.5482934823618346,-1.8597969088735251,-0.9565976638211312,0.19768274950473447,-1.3626708872081967,1.202301615659867,-0.06883201067141752,-0.6905330324738231,0.1838377939566255,5.149165532104031,0.38474884862969505,0.9019540516890875,0.9922905231695472,-0.7393194318833007,-0.11650242781276314,-0.5735960495910527,1.2717946736268981,-2.9980249433741997,-1.5642488693422292,-3.0840003972718635,0.3570263153588198,-0.5524286008140452,1.1745614816675434,0.5614884668318759,0.08430306323416599,-0.6203509963871343,-1.3546968410146418,0.08447891115621993,1.491594711109391,-1.3677660069310824,1.2636699375960903,-3.1201155778037863,-2.129359790707311,2.139393700809784,-0.28680336306171755,0.16307730992789202,0.8974741966969451,-1.3024714727980014,2.2764020279711796,0.12230374302847395,0.2330875255655887,-2.3849775339791415,0.3373835082949064,0.0003885386468791345,-0.6832243324459439,0.006229721587826631,-1.9388642877302389,0.22125892674281872,-0.3893317952429103,0.13161701393838804,0.17001996761911098,1.790306974645375,-0.9126604588555265,0.7206552968994575,-0.9618553255631942,-0.15899316140360173,-0.09715373829371601,-1.9760427275450334,0.1612346165091906,0.4151020086134349,-3.235852588610469,-3.0260162880702315,-2.886173682974409,-1.1154329268889411,-1.0343351438746313,0.7025892539116729,0.6966593579543354,1.1992605892312234
insensible,0.8257659472627361,-4.008368305942309,10.671516650904577,1.354924748971251,-0.15976859724227455,5.983065323452901,13.698764161758465,0.3462448413921418,2.2437117621639415,-0.6250156922807694,-7.855752093936687,-0.7668799358991158,0.5126488125881007,-4.637898979886188,-1.924362344462276,-8.256273255610406,-2.5920341377799594,-1.9004218069508438,-2.7341713900969333,2.0661640556060754,-5.825400911344791,-1.6534759714701175,1.8081975348796304,-1.7526618106988978,-2.258909895985091,-1.6498057091971785,-1.0306416157714544,-3.9002270666731436,-0.9141507833537672,-1.4561974034561185,2.7924323450674153,1.981160768746964,-3.193038541535962,-2.8572834997209053,-3.0565804929966767,-0.7842088134345191,4.786788510795418,1.4648574456430927,1.688592729718741,-2.5194512479310873,3.3322788048504206,-0.12244220060753519,1.4601460478963662,0.9801290519409247,0.4977818923744221,-1.089741781213221,0.3492497916495419,-2.755587952134634,0.2785626739723282,1.3553728128700577,1.3151995438706898,-3.406670990081009,1.159850887051981,-2.221803381269188,1.390901402941321,1.9294984397177537,-1.7611246852202254,-0.3589166310388253,-0.327978053820916,-2.1898543598094062,-1.8312571059947687,1.1731160638457498,-2.182268167488687,2.197348515876697,-1.8750557603327114,3.6508937614677284,-2.3447697836707766,-6.136154174609084,-1.908551110249091,-0.2627210574325378,-1.5884730214451734,-1.876558429140487,0.44473009388355134,2.939293096690342,-1.7421812290449974,-1.3740111692491832,-2.155918843736541,1.9330046572600834,0.5382801207497511,3.6797396098764112,-1.642153808541364,1.428481259056604,-3.4498193283131693,0.9095571845732703,0.8528589819357918,-3.053074795936202,-0.7042345047501228,4.1907579972090385,2.653350091006555,0.6171455364231392,-1.2185423887771167,1.66850433299648,4.038451593795001,0.8272474048020806,1.3921762087719842,-0.6736346179555913,-1.727789359969732,-1.3449674468815134,1.9866787869761557,-1.8351976903498832,-1.5575633758753509,0.5803435512059144,-2.0364559737439816,-2.262183515649314,1.5290966072138774,0.7540369141070488,-2.474481677173127,-0.5489277602979867,-0.7027283622373232,-0.5367291435647341,-3.7683073125801325,-0.3451046181514566,-0.7254770687585002,1.7497959694511478,1.914712210652797,-3.4609393182691965,-0.9294217850997614,1.3738976911294793,-0.4092580638163327,-2.580729660120494,0.3087454142627885,1.9588666225537303,-0.530106404837179,-0.04076173842018983,1.2324463910960033,-0.42091292876656833,-2.0163935838337537,0.19341706555420432,-3.4648808797242836,0.2622993302182933,1.1969373913668497,-0.3306372274975668,-0.023486511864874257,-1.675695345341688,1.415502908930588,2.4395950341580033,3.6905817642372636,0.6516198161121218,-1.4299860254025636,-0.9562022390119229,-0.10142355253625987,0.49546667626618185
sane,10.425665060638574,-4.994526967445902,8.556032475075902,-2.353571683096944,0.28103803976035535,-0.5905937994574663,9.871133387834046,3.927913307425084,11.934499330855838,-1.5475879690291172,-4.442863803302263,-3.513284796398036,1.9283139706001864,0.5818573875784608,-2.6678331296427693,3.4229701946032782,-3.9756218563764376,-2.0320675041720273,3.11438880380583,-7.955565344478236,-2.3619177460841785,-8.152646395420657,-4.1136159980289815,3.3681750059681104,0.44247395723159805,2.0922049149685122,-0.21043427951440688,-4.570094880734374,-1.3863017553730985,-0.45640442837391904,-2.5596058022434613,4.780552811471399,-1.0886344428470456,2.74433636941044,-0.13516188863068787,-1.9016087005391031,-0.6640049067468679,-2.5647322249919338,-0.24822474964314842,-4.5303902343211835,-4.545932724736594,1.5840294167590445,2.412915292279888,-1.2609104020622866,-0.6189067778152202,-4.469266088357154,0.32312814839431486,-0.019672020813215264,4.788303153612792,0.2905242069391386,3.0638101544093894,-1.0458367007270803,3.7384409894612696,-5.444031702954837,0.17392804555929423,3.542561202361363,-0.9118289625219074,-1.468832131131658,-2.581968573084992,-1.8592384143635161,-1.8476463885362784,-1.9430742832938106,-0.03936722410223355,-1.4247220266049192,3.7508018845770614,-1.4432985061922814,-0.7404253539436347,1.271272987002742,-4.39737892803135,3.000086512819652,2.0239636238933807,1.875865205446429,-3.204671122675231,0.2785768917463864,-0.2891060736685427,-0.63938124430905,0.1396541478009645,1.8827328608981577,0.9919167426865654,1.480041902059931,-3.3821204535733624,1.3634483935268344,1.2474915151011117,1.6726118612594127,1.44127346008628,-0.16104990920965573,2.0122398411963665,0.7374944781439581,-0.6918489845561274,-0.3907097102454298,-3.4324757944457147,-0.6611445211968106,3.1215641520598143,1.1161751581282366,-0.9920373805567902,1.210195002441617,-0.43497642830421673,-2.1124349496479855,-3.6167506369930393,-1.2926284765861948,0.39934285356722626,-1.7473134659562815,-0.9279088378065241,-0.21467616645900228,0.11708128837927086,-2.5383749214926152,1.080482983855328,1.0904766721218586,-0.7842608439505152,1.9056759452773473,0.4525388103980508,0.4561247383507043,-0.01429166149010161,-0.8085940666009673,-0.03569959563593802,0.8053629651414986,0.6773211974704832,-0.00844336137355182,-2.861855991981429,2.076876517090103,1.789679482435271,-0.6710958991512578,-0.6910566444143347,-2.0075232443591378,-2.59924738294836,-0.21250785283051027,1.1093625871551809,-3.5612406956173657,-0.021577745803043006,-0.03744285444090912,1.8539731817482596,-1.2558570992347966,-0.365770294158631,1.4122882456355466,-1.3233711788234526,1.8901302347221833,-0.8236167862577051,-1.362424702889904,-0.26241557097722273,1.9036052282661402,0.2518088267051608,0.05561444919513183
remarkable,3.8761916161779753,-7.330966205344396,-6.321560057477039,10.643922531561783,-1.5290854966307363,-5.6972187635602705,0.13338219800864748,4.7254985574222985,6.127311779510432,-1.131902359156937,1.425348465339035,-4.416598383038627,0.37022271353863007,-6.407413083118686,4.953911099224391,-8.683381731454046,-4.677019528060257,-0.5416070478045618,1.8502067191370404,3.184650070018427,4.394906669940597,3.9155286557729587,-3.309306072540129,-4.385626902698439,-1.0722742006013746,-2.8739870345116714,0.3083307404159936,0.16538729665795698,-4.7280036124927864,-1.3045706380373792,12.277031831938727,1.576439475670393,3.6166525642127434,-3.7907597865659484,-7.577182509033786,0.11807577063713533,0.2831453306323387,5.235619775586075,3.256718683335161,-0.6228414386615305,-7.459139320118079,0.02119408299947812,2.194031372872546,2.802832336582645,-2.8538347884308966,-3.9356152301169396,-3.0758335912725943,4.372269446631907,1.1224245485895339,-0.7440390840890563,-2.1031426268423483,-3.3467750501863223,1.4231658649917152,-3.1016236179392194,4.3684702801778945,9.632250676708885,0.3481788212375423,-5.250913721764694,-1.3563292591848093,2.129234263703099,3.8314238869343504,-3.3738422189274617,-0.2188287216191982,1.449216955969616,0.9758777736580018,-1.0729578826658712,-0.43497714482581007,-0.3515076274478547,-0.9371655217042751,2.6689176359969258,1.384563794694164,1.638671786814758,2.6897268153508946,1.9561619341695202,3.915119792743827,4.671130893457813,-2.265646690879821,0.26050722703543266,2.1531186574007797,0.2577050155347464,1.2408753679306266,-1.4951076386824007,1.7242789828421943,-0.739112894363955,-1.9020028356375116,2.451381593676251,-0.603192280548271,0.3253519053736379,-0.10732605903324959,-1.1351757767098927,-0.1394400632385742,-0.8760236303386294,-2.6179973426063015,-2.3077325994770908,-1.6995396016160573,-3.338772250301394,1.0497451482903433,-2.1871667473970193,-3.2737339491178923,2.81807294547148,-1.247835373025486,-0.08394944734375205,-1.0920332357541618,-0.16271957885258234,1.0890553683261066,0.3775573355030371,-0.7261847392344248,0.19011230248089644,2.587120025899495,-0.3217734861594093,0.4720101260560398,-2.9125232456344565,0.8826771155490724,1.3624935823766646,1.2127640993407793,1.6801286783339409,-3.7820832844970282,1.7663429729945708,1.6831089451002315,-1.124742490104036,0.698965928402309,0.664964446023851,0.26243979867176326,-0.5471709725068916,0.5349854843220129,-0.28534016123637207,1.412146413476402,-0.12697961082777584,0.09183642875196395,-0.7534806657750441,-0.8562518184315547,2.0632845018106645,0.33356273821456367,-1.9620806391828463,0.16134377844149705,-1.933481405994178,-0.030069866981213215,-0.15622591228830482,0.5256409236678518,0.8300999912923533,-0.4051876629775283,-1.9571050653560707
effective,-13.820955032789032,-3.841639007465752,13.263707668081286,2.5129874537978387,10.249318664029195,-1.8095638159336747,-2.8666932887947674,1.0884057004113556,3.5202978416323187,-1.5551234147306048,2.3306582044099073,-3.3331804473957916,-4.163869334978407,1.8795728854607128,-1.5547102265130315,-0.17026647548371648,3.2116147090971667,-1.298946735541801,-0.7273782678145404,2.286529794249082,-1.0573973767629394,-2.7804625249255954,-2.1722136419096576,-3.5181226755791943,1.245404821644434,0.19993845966192675,-4.673631152785816,1.3231813534186394,-0.5741145544059725,2.751405684166354,1.0136367985884596,-2.1776346569728533,2.3335547897783067,0.7543751193500412,0.22052670781286826,-0.5318794468240103,-3.8304314971186755,0.4781737219603663,0.977969863233509,2.2951634130287792,-1.727742987255013,0.5412828666265794,-0.16975590742216892,1.5665599738856861,1.9749940457021646,-0.20858837635986194,1.2695151448684352,-4.7438125227164685,-2.1977909528420128,0.3747880441354661,-1.2463119798656919,1.2453268891152518,1.1439521159863577,0.09122005906033644,0.6908965874988515,0.8094899183220177,2.200419000105293,-0.23657502656886334,0.5709116083304007,-0.580945904676919,0.8088179148956666,-0.8573968072264139,1.230304189511416,0.5486378029435912,-0.18291798200880466,-0.8727636367555626,1.8532145958764439,-0.9357137564785952,0.45455555382616475,-0.6505111336820171,-0.8599565931568597,-2.7699484971629564,-1.196363797832936,1.203784067940386,-0.4981907392376395,1.3501106380620151,-0.4150687454032279,-1.9597882167989749,0.3488961159593671,-0.6287784470232418,0.5631371573742943,-0.9090803502413218,-1.4280284708779418,1.725292887345358,0.8858858863208511,1.600392583729032,2.723889083683048,1.491800998287883,1.7348111840191869,-2.694406023337681,-1.1752716900992857,0.6827253418014579,0.9045415913785386,-0.0942186563851773,-1.26571810460557,0.07279815583376725,-0.015680655810142826,-0.9586149257347929,-0.8394031310807656,-2.3809558470378276,2.689891978369184,2.387493019606411,-0.842058141575695,-0.030290440855270148,0.8309921986796633,-1.496739093972274,-1.307448757988889,-1.526168413785235,-0.1472419029913175,2.028954345402682,0.10489752825590011,-0.8143011825332487,-1.7828160604411436,-0.4820329347415454,2.080385834117146,-0.1175853773819726,-0.23164872191088215,-0.15689661779631758,-0.8707351828155614,-0.36115191817178716,-1.394066415364069,-0.9912894551477845,0.041834534058444395,1.4806721604019282,2.1319965362056466,1.7454550595322142,-3.349424707605766e-05,0.8172460869732735,0.08760597028454079,1.188746980949602,-0.1247679730267116,-2.8677390897922765,-1.0904298777117618,-0.3612169016052765,-1.3728100684362246,0.41522264550861393,1.0582711764747004,0.09525226301231597,0.32400322030575823,1.0002205057516482,-0.7839906830738389,-0.898701969397971
dirty,-9.248368664119418,-12.968441396709098,-6.905306972116888,5.655918046903503,-0.32057663644941414,-4.952575119246765,5.095495100656176,-2.3905199539607067,-4.711464994789833,-1.4556770639333603,5.4009568262933145,2.135470620066471,7.156291078711747,2.94800823609073,-0.8602436668038144,2.855340960928809,-3.975216437479532,-1.0331020225802743,6.6056390319638405,-3.1391345390686034,-5.830937540110993,-1.290186637622562,-0.4248765394598233,-0.45433832887152537,-0.3264230736972925,3.010312738425141,-3.5618646456165375,-5.834298234397134,2.060766434931281,0.06713652790901405,1.836732135859723,2.109205005008165,-0.4541030510722984,-0.031279719717185975,3.1828980038388903,1.266298232446895,0.0754305113908854,-1.847804239612625,2.7792598872667664,0.15873181058191194,-3.562175297881031,-2.522732912974685,1.822362565612039,-0.9323119799665192,-3.2790981474053478,0.7957647569254712,0.8778049783169364,-1.1530216291495077,-1.9784122107661715,0.0061483175941808065,0.670712213004221,-1.8487529831349068,-2.914870127625973,0.7586235766667433,-3.617481049816443,-0.3782447046165595,1.0508492807466157,1.7938318241383986,1.0970854834677364,-1.789084160609913,2.0163740605920744,0.9563171562993978,-0.21414717075565884,1.5078140757503902,1.0774518487619493,0.16860623395142385,2.016488226571341,0.2653562708024233,-0.39793513251143636,1.0579006559045738,0.0667650976807428,-5.223076303788429,3.157058152615215,4.393204575918989,3.708100309159177,0.9368370496474244,-0.21282041212452077,3.5727760561968216,-0.4383429490503636,2.557420347152242,-0.8454446234240043,1.6430917198189459,-2.1244711425963922,-1.8812623772549306,-1.0426527634427747,-3.4997117220905243,-0.16399583175626736,-3.167014832041724,-2.5178717046720624,0.06872379096660192,0.16429478832160324,-2.8259943666216616,-1.2483802716451897,-1.2090757961429088,-0.9033052957382735,-0.07954258414095922,1.1967636348634014,-0.5016467450096149,0.3778554082818039,-0.736232613545359,-0.10647220297401602,0.6124125059062409,0.19415754771195717,0.9182219318447649,-1.6582044132299405,1.2633226820949914,1.518911330480908,0.24877031435592054,0.853442706876679,-1.3355969027012966,-2.4028347017657743,0.7237515415954954,0.6391026750174106,-1.802509580487814,-0.49608550301040466,0.7784798221430785,-0.07956094967285392,0.6858276831470154,-0.3659222405118849,-0.5581331745230029,0.5101573253977473,-0.2893643108735646,0.23034052653674436,0.27587918031420455,0.23218079897705404,2.299455675899612,-0.48395410072773376,-0.49136502957009187,0.1892479952841161,-0.38239799502895433,-3.0453324696466675,-1.6239504589497478,-1.0108824565480963,-1.0710116702883938,0.3381255189357282,1.1204425472819621,1.3938145664970383,0.08955061149944907,-1.7661333094543112,-0.23702891897607925,-2.456278559190011,0.7900785436430364
smart,-15.818546920394338,1.2874068388768511,12.78253212466219,0.2915296847241408,3.51704710014859,-2.6426049328183416,-2.063506021878505,1.494829426273361,-0.11771441922589836,-5.766917217723441,1.3551520991305301,1.8187799139940186,0.05527020211631898,2.775886388324218,-1.922483469983315,0.5386286859160979,0.36168858438525,-0.9873140377197683,-1.217443558250018,-1.7827435891675112,2.3513368027002697,2.7761133123053474,1.3313174027594046,-5.967170146866183,1.0319169437740583,2.125501173966211,0.6404290439521952,0.6610227695224234,-3.4913855884031353,0.8151701883550593,-1.5247382695951064,0.7974255101331831,-0.10724189676434853,0.04283964542932948,-2.669429241676697,-2.7693287057438662,-4.002615322083356,-1.3410211578267288,0.5990047153911957,2.6902822151505306,-0.4207918259495078,2.5942409138865177,-1.800724440454266,-0.5363986860054181,-0.025741514491674916,0.44543694738234074,0.6905555313286487,-1.5848778593412194,0.371260713028043,3.07959680391053,0.9436535646603322,0.7526705298444121,3.044072048211077,-2.0896720550119676,-0.6278745033178413,-0.4052615363906882,0.5441624042119635,1.147691465569793,3.198707310197319,1.1185325530663794,-2.0564010455729838,-1.7264840616236279,-0.25544681159084537,0.25553454087560407,0.13635272751799604,-0.6503998075745739,0.6566296834832344,0.05355291130398504,2.0315453852352583,-1.6201414898550264,0.9361886248770933,-0.7568305699708603,0.637931125303171,-2.19823311185803,-0.49359145541195215,-0.2027224204437418,0.5074114383941228,2.080939789859799,1.5610969211010117,-2.6543069109615076,-0.8243814085390604,-0.6564136487028731,-0.4315680002446696,-0.9803581285677921,1.1212481018841196,1.0032011027664514,-0.1422280725409087,-1.283570480194607,0.3420936329518903,-2.186599571561434,0.2911329800785772,0.31603448099149756,-1.6879730229543275,0.8707407380402264,0.11880518964895503,1.3496778287431441,1.150710951884559,-1.2235503034598092,-0.7779978569048905,-0.9352632628735553,0.8979087859653316,-0.6600175398941482,-0.35268598235784715,0.22904135398887535,1.383530043957955,0.2724185486949909,1.3454612634748095,1.1769860537584016,-0.17516539282855523,-1.3303831276870162,1.6579354056992959,-0.6136642936531004,0.04516240323897066,0.9018685437079444,0.6689887293023584,-1.1606639388022326,0.41307417746668124,-1.4865410044561087,0.31380113897339695,-0.4532061406866391,-0.6674693018896628,1.5475833198051285,2.2868829168310048,3.0120362849544313,0.1516612056908257,1.0678925431993764,0.4827902915810563,-1.3224842486477237,0.9028071928404731,0.943695134495698,0.43478880653071733,-0.7208274007470181,0.5206830875336494,-1.8099160072127922,-2.135104397542626,-0.30448136958602423,0.1757207591071638,-0.8848434692363822,-0.24273378031822168,0.5471639532745376,1.827260598422653,0.48382175881286704
unjust,-12.233244295619444,-7.886347913663089,2.3360955000110586,3.2118883372177605,3.3445896670761988,0.44313032774372396,-4.40642899374276,-3.777843418562696,-1.2590003308960285,-3.155934379775799,5.397647606479707,-10.999138470186773,-0.06561494016466503,-7.753959247563564,-1.1841067548591302,2.6549233352725654,1.2858650993642702,-1.5105533900181372,-3.0858712305767315,-4.46819435776506,0.13307130617630986,1.788113096555014,0.5836758773853649,-1.7300771509001047,-5.892947162924612,-0.9689904494004692,2.1918522702813372,-2.606051317545242,-0.05835130250242294,0.39651866063405355,1.0512526560601188,2.286880595066369,-4.060390835072807,3.4462392802298116,-1.1709604954794195,0.9157107666104338,1.2007899488952867,0.3222888616779446,3.936205075189212,-0.2191243386952093,-2.351948037523182,-1.2103412847806148,-0.9623696601475511,0.5394706838244784,0.9650488856207864,2.312190062035064,-0.14802609723863755,-2.058988936074408,1.7738555762935073,0.9847389303638777,-4.424318450153195,4.428915632432071,-2.619306503660237,0.8373107920791963,-3.275390975811002,-1.894921342833597,0.4298927360233517,0.6745749039474237,1.2368699756908172,0.6310888096224957,0.5226535240130167,-0.6688613478225319,1.1813546902414052,1.7074256461299968,0.993349999234719,-0.268302139374376,0.4936046108327177,-1.495137391293692,0.025811039479333622,0.6342595348101201,0.25699456706900936,4.991276752015105,1.4784742027072835,1.056234755051082,1.4622952660658755,3.4789421184564815,0.9151620215752012,-3.708558013554566,-0.8955144775618338,-0.8730930673481744,-2.9021512156291047,2.259928598483663,-2.83340641815495,1.751183373322974,0.3174879673503828,-1.6936891392045978,-1.9286788336235576,-0.4593025670770203,-2.824865803980555,-1.6795286632337916,-0.5948011848332645,0.014256224390707568,0.5240738574199498,0.923443980267283,-0.5383957909301087,-1.2906269280128804,-2.2002424722410314,0.8379028671953351,-1.5880849880160472,-0.06156003260184003,-0.6553820583440043,0.5137212674172246,0.22603862827246654,-0.35561533144514956,-0.14720018033729687,-1.1706615259900197,-2.0167749929615844,0.29997752238969705,-1.8395464147111888,0.492832590120776,0.8442817408850927,-0.288274111093147,0.3715989951416529,0.06161439502837901,1.94178649943642,-2.302450302423286,-0.8259925803561277,-2.601399804835045,-0.3203532355638789,3.4636172896332034,-0.4994800934764923,-1.5266788027177627,-1.1663533412930303,-0.2036679543055106,0.7226250364816403,0.5215966149965182,0.44445571003026074,-0.7999160927949198,-0.24636532190517432,-1.5602190268468494,-0.7044448736455722,1.2207341390917787,-0.9323763010862245,0.2291762294708178,0.49989193023308015,1.2359829852357547,2.3067474980852953,0.5648290212394576,-0.5183386299639395,1.410658142371715,1.3070942369008878,0.7453918291411512
sad,-9.78213372234497,-7.5019992802899305,-5.232296757295366,5.168426483212585,1.8914496592714662,0.04243751521109625,-3.481406783186609,1.2941627714369561,-2.8227936890841647,-6.025412719616596,4.746139617968952,-2.650308628465326,-1.8040390449957144,3.9964928893678793,-4.224453452052015,2.3414662267700574,0.20929731206869542,-5.350552932103673,0.6727718393893669,-1.3985691498661459,-0.04823667905272896,3.808681763146794,-1.6500456588438783,0.06890758516691525,-3.6205565823851176,-1.1270830355037489,1.634042993864589,1.6058267751789774,1.1585548920551263,3.4019873486301395,2.89820129104994,1.0567254729646849,-1.6255757125926849,0.8408118110830655,0.6237442235892439,-0.5487982911793774,-0.1236345131532625,-1.6634987305950237,0.9029774847419205,0.1968785280485558,-0.03557134613302761,-5.027490727434337,2.821027189383247,-1.90066070893941,-3.855983092194523,1.718918680819833,-7.091234948778528,2.354699854214307,0.22375732046918403,-1.6694903250097317,-3.212071089123103,-0.14239205286226145,2.7141233136749405,-3.8736211494873576,-2.0804981244848837,-3.3893477755997403,2.798046195536799,3.312148971720091,-0.17879061283644115,2.6150804973658923,-1.4415699406878952,-1.0264991280796427,-4.18192581652511,-1.687238860722886,-1.0665644459908135,1.48478478019566,-0.16509020520609002,1.979219678571011,1.0506183406211964,1.0902607423066373,-0.8852623382301883,0.9519282509388349,-1.2852735181017456,2.459723519682536,-1.3879455852760283,-3.278108476133217,2.1695960901898936,-2.01759768271919,-2.2769356042942115,0.3843793551609198,1.5084339168321785,0.15718813425919162,-0.7309617447998412,3.080861108284013,2.127022529561686,2.9776617319164385,1.7137272542454955,-1.1722774218519447,0.19520539843154006,1.5632422998636868,0.4425534792868622,2.4705917343851396,0.030962625124001632,-1.4531961620030875,-1.421175932910101,0.12662147458344072,-3.581173323796772,-2.599150232037889,-0.5276790320279648,1.6919994032280827,-0.7380827060226877,-0.5322689422932676,-1.6642633977952552,-0.05639513556307781,1.000770137190077,0.8021130278714209,-0.04019209319544902,-1.3762811016901113,0.2164027279233004,-0.6947465120980291,-4.062266224896878,-0.060568359824120024,0.7610659754698508,0.7840410277864287,-0.7226267260645427,-0.12956870561446776,0.7453627417164473,0.31676617866443413,-0.706438877457035,-3.052890621038438,-0.5009211877501383,-2.0249795729124886,0.8443145478925423,0.28048045949596473,0.8640330039660068,0.6052843399059655,0.021518193761256462,-1.7219725995812234,0.008047161939076132,0.726612893279435,-0.7157569964302197,2.874252241962856,-0.18138385402071824,0.9887376714718368,-0.17363206984812768,0.6036693637809645,-0.0757847931638467,-0.22064851614970285,-1.8509734389941723,1.4148960231014998,0.1944863030601777,-0.7682580914548872
useless,-9.344602746565062,-8.108973582666602,-8.169848323282439,0.45582717171244086,0.9945410180857953,0.2809185214009581,-3.2365611627340583,3.6240981640744057,5.106165505461144,4.639378114549945,2.1685486931479727,2.520339612064262,7.356430490762004,3.412913254166345,4.265257843991739,-3.481070327268748,-3.983420089863687,-0.36149177922212455,1.1526895379616062,-2.715929589063936,2.4688658140624766,-1.0454434813620992,-0.8245507554556646,-1.5842679709922733,-2.2653751726374955,-1.4449074938816133,-1.7855597183905974,1.6197717243968806,2.822479176119258,-0.8285830603319031,-2.964520894707768,-5.891185023832905,3.0400889440956544,-3.4141867210195422,-1.2070227289145266,0.646788830648097,3.1551587727959047,-1.146260598776446,-0.5196922951310045,1.0881205552991617,-4.4968415359310105,0.4428551771325533,-0.4371405164394567,-2.3122340899812777,2.7677986218154764,0.04553541416670236,-0.3722622167745563,-0.5085914969518711,-1.416731969295809,0.5677556315085363,0.2800545500825097,2.2290817061241266,-0.39709185288723287,-0.22901526865258212,-0.23972424867457484,-2.8395670272582465,3.9186327775164873,-2.858258591602176,4.240058271436333,0.7906446834085454,-2.2475534258695684,-0.22393224142200033,-4.490523321174804,0.039951309224868496,-0.1710514194691569,2.4521699706556492,-0.7450196622456059,0.7406962568178733,-2.204778556172728,-1.5353162375342597,1.0546583170032808,-0.8946052112109728,2.671753707228137,0.9794473633343311,0.12130388879688626,1.4919370005193993,2.35917917085494,-2.283522426976068,-0.3107266948358716,-1.1655970135873404,-0.1571191282307994,1.5474279095130565,1.663523918541482,0.23276037394772883,-0.1797860323521815,-0.800311116694378,-3.5655741155934004,1.9446577171904667,2.2217319635979904,0.39933668477031264,-0.23175956848149531,-0.48683267167419586,1.1016967365541408,1.0882163246010557,-0.6078320504948541,-0.9904362862589672,0.04909053014196351,0.5604683039636249,-1.1009488716606424,-0.9842950357220226,1.663691696539135,0.16609111775181137,-0.23217204558102297,-1.5869586524549575,1.4860216742058487,-1.5264838189754304,2.897569394296941,0.37890516233611615,0.6557743495208735,-1.2749418688635228,-1.3149802972991598,1.2470951064974873,-0.3424280998108654,1.4745012706654836,0.8685732912580466,0.20242051463729005,2.1687745829649034,1.5106608915071578,-1.0884842191169934,-0.8371047629948175,0.46872170125027474,0.10212570051941162,1.7877786009059424,-0.7798080260415943,-2.424878304779577,0.06681338346658737,0.12484391967996603,0.9655406698289476,-3.324510231477928,1.702865683931959,0.6064424138939485,-1.8463912379175178,0.3992349814970956,0.014933092117925527,0.8289468461418399,-0.6115268182091882,-1.168616506692493,0.6717335154860561,0.1247819147051997,1.6087747223700641,0.32231807162113874,-0.7456345398881117
useful,-11.51547835289639,-1.2191642304085366,4.010052500952529,11.353249236618222,11.174678171076291,3.1079174232452864,-3.566518514934747,-5.4777785161235695,4.911900327797604,-3.559874722370194,-2.875456345340258,1.0649022732783906,-8.352361015563547,2.7920973267388156,-4.1341804018500765,-3.5039346536169433,4.804635984420302,1.1928475997122558,3.5118149547015944,3.82348673124588,4.576418338952439,-3.656142026868007,-2.8180298881223576,0.9204117782076735,1.1465597138802999,-4.728624775210549,-2.8540309107673796,3.768899940649889,1.9862520062638491,2.9638504897223035,1.415540138068948,-0.9099665852348722,0.06797197241594213,-1.4271078668506683,3.827722419664619,2.959945214831821,0.18465557418714917,3.0954993014294994,4.0980158298860045,2.8948158464624036,-0.4203569777112404,1.0156512376732463,0.45540291518062137,-0.002253815476510156,-0.7194080582197185,-1.0222025182501224,0.014001024537713269,-0.2817303964365877,3.5561386540329076,-0.611989961701241,1.5019160010108086,-1.6978369215597735,-0.7786115403138107,0.5141308895640654,0.9937194458797091,0.9892110401345593,-2.2506520534059424,-2.351733050202979,-1.1233472680552057,-2.8732482207605736,-0.0581712575734446,-0.6439565091029736,-1.9329096449322134,-2.2337114565969505,-0.7652954568115661,0.9640711851325036,1.2343715057197475,1.9195147569208324,-0.9270256626575919,2.1868810746732024,0.3995747474365319,-3.211993638953056,2.981819480317132,-1.4330134447643446,-1.091519174356996,1.2532066927713303,-0.18981491793946062,2.0959604492292105,-1.535430326026839,-2.0863628562511685,-1.1733094147583476,1.5816824581818758,2.682369356212531,1.0682997506696554,4.098126932901963,-0.37369810698365896,1.447416937386841,-0.9050441128195217,-0.7294829681925334,1.9981316890216632,-2.285918451630529,1.6545148720000888,0.5702421699358338,-1.0050823433142275,-1.3013606608728632,-0.3782945308029499,-0.8324372840030857,0.5629163682762474,1.1682933798134842,-1.1359170362197437,0.2865458967012258,-0.1981132169926033,-1.779404863868427,0.9395679181988315,-1.6120775432156005,-2.1424448054538403,0.4802799429171683,4.27062579952482,-1.694338982092299,-1.5168689619256857,-0.38930846273348335,0.01968528290129324,-1.177335826631105,0.017619756703415677,-1.402446240733845,-0.8270179456715625,-0.1931537719185543,3.0116910284822183,-0.255949157415245,-0.5014607655670853,0.04187641443130655,1.1858573377278883,0.3967043521699058,-1.9514973942469247,-0.9611722683066422,0.7912544872710157,1.6959623550303906,0.7575779067981084,1.7793765944772448,-0.27205548067459373,-1.5501536308097352,-0.3311081879615908,-0.5794829399450475,-1.409603118703104,0.7554554852775572,0.4390074349443547,-0.19359533958472605,-2.336402612630903,-0.1323189089277009,-0.9625247280561833,-0.5374590967680472,-0.8733925894347752
mature,-13.62071911510118,-0.8580653975955554,8.794370256039057,-5.962685485802487,1.510033344396396,-2.4793113850923825,-1.1300148165933126,-3.631137212498216,-4.378803467147126,-1.0960348247916665,-2.8641252662681174,1.8975065028599245,5.934253941460823,1.617330542671232,0.6334153778080438,1.7941928887396137,-5.007523555109369,2.9035166821033527,-0.8274558107925216,3.4194989827028364,3.208059239602074,-1.2923397903782499,-3.864124176124862,-1.7488280834344887,6.851310756314997,-7.716312185860988,1.9353974737385657,-2.401541011200869,5.421804048423006,-0.27612579890500033,0.08833018167801429,0.3174832331319374,-1.1626229967060728,-0.6282672526791214,1.8137126895180555,-3.1470324320518794,-3.9246682413563185,3.240891910570482,-0.18089365598040308,-3.963242242003853,-1.7591079180774072,-1.2435132977209657,-3.3291615661872207,2.5061667392256317,-2.2840009236141086,4.199713628296068,-3.722810743435095,-0.22907195939007657,5.621497941636565,-2.114514400917469,3.86836061817293,1.9646904666572547,-0.3012784569589642,2.782887823159772,1.51959256220067,-0.7534331295005956,-2.391933452502507,-1.1279918617554876,2.5511101122532973,4.635995693357743,3.12556178603773,-0.4308947310213284,-2.2250924733051174,0.13597946437434438,-1.4349069489029835,-2.264055697142225,-5.07413728093027,3.4275977127985997,-2.135933909688183,1.5709490593459314,2.0831965704748736,1.2544484431759741,-4.120826277681816,-0.6016920976672139,-1.8280564712532033,0.3585182712408941,1.6407355729682418,-1.4856031126666813,0.8324542538405364,1.973814575567863,0.8634362192676313,3.3830681279587584,-4.173669839422717,1.8761108481155782,-5.272368432913168,0.9873372655599597,0.16533274576150722,-1.3989818257754856,2.405788899122619,-2.93812046139348,-0.14315631848322838,2.054286599945344,-1.0150170493710935,2.215404036791493,-0.6694559169116461,-2.0602105005949674,-0.899855708679462,1.3927649918501854,-0.8029102810682346,-1.8256422243823691,0.05464462270652537,-2.1501128467700776,0.8902763034304424,-1.2963444275952805,0.7065940237910169,-0.4298728622473203,2.34636807823245,0.19753059742169474,0.8587395878854073,-1.962656211299984,0.2901487783531735,-0.17610623478684814,-1.197552803901925,0.0621137927528361,-0.9146256039944666,1.6781532313424887,1.721345542063867,0.6171163213369035,-1.739963879002008,1.6229462109383013,0.5567083944747042,-1.9354272471648826,0.4096825828502992,1.1650373075504472,-1.3160123542650124,0.37387699980723543,0.24243937706596366,1.6442169745869517,0.3023148779984,0.10962494412871743,1.3898312178735464,-1.383012053991523,-1.5048877977921429,0.12998174233605603,-1.2789724754650345,0.6023808160581305,-0.3813449496569425,0.7156446634268392,1.0028888216683038,-1.4488148382538528,2.3043848620487397,-1.3539786839314025
healthy,-8.745406350144389,-4.4962572040902895,-12.809122216466482,-2.501129939673867,-2.5347459224521245,-2.206520766202756,-0.2868215110614471,-0.7824026919435718,-4.459994921877078,-7.585053468832345,-6.498621179657917,-1.1092375579891687,-6.062331863960107,-0.36619285762636244,8.043480937098167,6.038782993747137,-2.2859150756259825,6.367572769595138,-4.691006466330019,0.4590406159843762,-6.07088441883918,2.861929963585203,-5.747601340631008,2.5405145345143283,2.7151845047388017,4.364219011598239,2.119881472958698,4.849419403036574,-0.022401409072101298,1.8416140587220293,-1.3634431041755535,2.2881603758534412,-1.8866595309064969,-4.37017237150317,-5.764211787186731,-1.501571483259503,0.26314977376776516,3.7825284481271004,2.05243193628413,-0.3338375865864868,5.474655196016631,-3.3573222402568432,0.1048390440784236,1.727860460180588,3.2070355767435315,-0.9537012148234821,-0.9311695124603756,2.334215489779939,0.4565660498349525,3.234204703045013,1.4832367016202612,-2.079150979196617,1.2078725756026008,2.831240169364254,0.7912110222933212,0.24389056712441642,3.734185472700283,-0.6575967875529327,-0.9405546956769406,0.6593950358957267,2.768483391875693,-2.755370161742284,-0.5721546916147071,-0.3186307782646453,-2.413291784351726,-1.0627767795090448,2.2288857211507196,-2.71150267135372,-0.17136015287647105,-1.7170627101145977,-2.541635053080213,-0.7522870673177464,2.6993622715729133,-4.41434935501262,1.2353717197488407,1.8796664728417847,1.4862918429725656,-0.29037175432142115,-0.1674570791096134,-4.0066234857536696,-2.6718962010774434,4.461436237691042,-0.8023325031634867,-0.9095894792657337,0.9925913381093175,-0.48659003872279244,0.6465566183883167,2.675268605485998,1.728085285440486,-0.10497126641071998,1.0091250856361906,-3.110183935200971,-0.8064744406429228,0.9988250544205286,3.0391833222626365,0.2891897963894349,-1.9891703087249866,-3.3654762383788075,-1.1378501147203823,-1.9029637649582085,-0.29192435320793675,-1.050931254479717,2.531659761496866,-1.8520135524088075,-0.16230263884755503,-0.6627490596963462,0.529556291754491,-0.5473288509082928,1.209616816884016,-0.7000305326567997,-0.33679201673663,0.021476517749003242,-1.6422339722362473,-1.2185676638066318,-1.3487723755531462,-1.2596022640488693,-1.1643361308634312,0.8776051444912398,-0.6479344425815854,-2.3394260585461515,0.5910008090849367,-2.59170423062021,1.769855815413118,0.955557770322101,2.019612986596176,-1.4961386001751649,2.8031538402347764,-0.5517492508912063,0.7551665192318316,0.15322891070808806,-1.5003300913940916,0.40378294642523777,-1.5249503248304617,0.04375398706402473,-1.456196653341038,0.8987592711465254,-2.017228651126906,-0.47525247847420166,-0.9371649957281531,-0.0288885481672606,-0.6690936355776091,1.060649609211367
convincing,-6.290101396894349,-16.90105477990144,-6.315967223865051,3.6860503612459317,-4.728960049254413,-0.8625334575126138,-0.6742687432328355,-10.805483321880201,3.376348987337328,7.092065254982889,-2.1532382620209964,9.222238594012927,-0.45214412518609187,1.5568768521622993,-5.502521079474482,-4.389999282528396,-1.1392955249307086,2.164243112199762,-6.357912701534905,1.5492252975497374,-3.7548275730649845,-4.638626497927835,-5.1497797960408125,6.630120522032213,7.666531877261921,4.246868246715652,-4.592547277134987,-0.3988373313192497,4.575038615312494,-10.619289767524387,-1.3418719303533775,3.746667278684057,0.8908311885944971,0.836901449598121,-5.2050977713022855,5.547206932161152,0.7481709862651434,-2.2614680555314606,0.6377316330793749,-3.3530927883873707,-0.06550917709720952,-1.8220160307951239,-3.088224918080996,1.882714705236029,-2.0123152256182393,-2.021931221779361,0.6285872857467906,-3.9265268815299854,-0.2572425506483943,0.29658311685678573,-0.03358424452462225,-3.31671048943968,-3.027902778485667,-5.762925475049969,0.01485008193903692,-5.9243162458675505,-0.873614627770149,0.8416912277904487,-2.362972996836823,2.036401810605116,4.50287398488032,4.698457575544244,-1.3421872300637443,2.2294145628908453,-1.2499409480834027,3.1919310446051528,0.7588729203805462,0.16783632233840093,2.2229887823532017,-5.772574840151117,1.7520634418671026,6.441278974552187,2.0177622728702365,1.1247120986316768,0.08933258218471754,7.581897224164403,-2.4114907300396746,0.610174633851055,1.4969334207196656,-0.021805465265876792,0.5074475896775467,1.7046662434460353,-3.252975819131365,2.092233528059956,4.234834189322223,4.103278195655678,0.8471961984531925,-0.44092523991438576,-3.586210827000344,-3.004373073262342,-0.1302945495740552,0.4134321257199376,-0.6507254952857174,-4.811565562712298,-1.0867092289131033,0.6939185675705861,0.5369571221808301,3.215391936462764,-0.045983584398264284,-3.5338943930076065,-2.255455494278026,-0.5812134064491589,-0.3395209903930217,2.789016967105537,0.8497304789470669,-0.4875380073915465,-0.7320775307472496,-1.7699692413122123,0.8219500893544938,1.46188673444959,-2.925734599395407,-0.8365388447234002,0.9895278028623873,0.4138391694553401,-0.1482298456152418,1.6053146540887988,0.6794383605014007,0.9546450771143079,0.7528422796467829,1.3595392108032687,-0.7013707960328974,-0.016587642829450883,0.6460244568354991,2.136574017926292,-0.6676359171045763,0.2560757809606726,-0.6057320121372491,-1.9634542323146706,-0.46611200389321217,-0.2267684153792763,0.14273652696389652,-0.6005886878918641,0.178249674617482,-1.14454840153504,-0.9193665768050245,-0.6903282310522587,-2.3042137857611618,-0.10434553158564476,2.1713115164239944,-0.05492770562975523,-0.24609618840655823,0.8176222553457707
short,-9.453916632167084,-9.95482941723054,-2.3917215883683327,4.283149913882297,1.2540426122207284,-2.0030044225666312,8.570234108657434,12.052098520755175,2.9582000387534033,-0.13377784297888362,5.848228719744013,3.582102709851906,-2.7101886390898255,1.7012279385404843,1.7717001978636062,-3.4441304264957764,6.226919620494408,-4.041277297962241,-3.2650094916645145,5.806478236848522,-0.5935938512815744,-3.493813284643006,-3.071827250627208,-4.127846156398585,-4.145030158051888,2.170362024602182,-3.8058536666657394,-4.992250640239291,1.2263323820431955,-1.0432425443917706,-2.7908043907840443,1.1212094110328494,-3.0205655151633186,-1.784157394400819,1.3343741191887653,-1.5160464797892366,-1.8141882601532113,3.7816216483518152,-1.3004251101524775,6.096922083608234,0.560191398931992,-3.0375572391291508,3.962570633867319,5.998788122178413,0.9504438888413743,0.4162915803976242,4.118517872435649,3.58413989707021,2.20884234139019,-7.0704893114794345,-0.4291794349263086,-5.089266127185227,2.6208782046100607,-0.1905960719253302,-1.0870782294306627,-1.2356339938955647,2.5825983892340942,0.8111789855875747,-1.9559210161815281,3.3715098692219625,-2.8226673516053062,-0.5184462590129968,0.8951865522348937,0.470475613635481,-2.0451502728714033,3.672820805872275,-1.2372795247407664,5.107285739676619,-3.8974630187800963,-2.3780477877859965,0.6833900767732378,3.243135080683717,-1.0324375306828246,0.2716992964497032,1.287481868335444,-1.0801396084976889,5.145797984706834,-0.14236524324641753,3.393077826580901,-2.3557620529821865,-2.3914210638391196,0.29736345462450975,-0.22002281378075728,0.6934326876699183,-0.07805635467594126,0.5609022959100709,-0.6785438926547307,-3.9468813155625218,1.8721190825266032,1.2578673933812452,2.539997360053235,1.1202684921119395,-1.1083090677380456,2.153694888841258,2.986768683855752,-1.6258323268121564,-0.7816559805072142,-3.193586392990855,3.4913133852667837,-0.8702967416300059,2.4070604913589033,1.859473896389004,0.09724696606916707,-0.17740391412564824,2.3338153363204954,1.8622788645533215,0.8626572120787548,-1.5624289186055453,-2.3441904719472753,1.1512860014080815,-1.3388553341899811,1.3829934636176646,0.40350284045691454,1.9750104623558167,2.1966657768381963,1.9832648211301662,-0.06018146215667233,-1.067640022441415,0.9717395503414813,0.46251207841369946,-0.10079064994149772,2.459420260910221,0.33988668391433474,1.7569658908274983,0.4321461104169402,-0.32610160617769224,-1.2712302502160138,-1.5273933174352072,1.4554377459710583,-2.1888635026405603,0.074902722957714,1.5126083715692773,-0.5036348370858115,2.709983243212236,-1.4334258651119711,-1.8621651275797027,1.2157624909542724,-0.4074000664714417,0.6022108709114578,0.3140075487225739,-1.1105098918494367,-0.10723853530176224
unintelligent,12.383975554672633,-6.764343908600104,6.546975697662794,-5.345741386329182,1.0622108895172035,-2.599304856982191,-4.935486300701968,-0.050866382263029156,5.577885435723232,-1.0623628292817833,-2.588601419104663,-1.4453152016567263,-3.1511134346625576,-1.739171838288963,3.656614986976809,-1.7428451392904258,-5.995799923637372,-4.248715903146118,2.2114206735812214,4.039507026764075,-0.5099214590854309,-1.9738994416103084,-0.7390305989102826,0.1091118660904438,1.2843985815310714,1.4659988319247372,-0.07194964071823426,-2.423259257590501,-0.7693947239640422,-2.234092432680562,-0.0769783962320684,-3.7266965670051784,-1.7845362364296307,-1.7760281651935863,3.533504553120461,-0.9275696346467326,0.47880507319146953,2.4163670364773657,0.8394798920843641,2.2304844739894216,-0.29463734106219913,2.1930689647312827,0.05716354323612113,-0.9747190710539431,-0.6759254367591979,-0.10472990979519174,0.04295284973350285,0.4422180353078877,-0.11688942920361685,1.3910185162577895,-1.5388364089197546,-1.9582038716337815,-0.601321730563104,-2.040365695411426,-0.8632820455853908,-1.793745509909566,-0.22004517625953518,0.024405423709124886,-1.5758072590702799,-0.07034113567179441,0.31205855615775624,1.1466766109315791,-0.5273309109438039,-1.4665370984485908,-1.3359961960979991,-0.25800746396771446,1.2257141821710735,-1.3558559560138852,0.5411889824953453,-0.8654793636991827,0.2489017140831188,0.5877872044786803,0.6197725067367712,-0.04573794624098316,-1.31849956750467,0.0744042438894749,2.1973045979940635,1.3365819859617736,1.2061263891367748,-0.6195812052883165,-1.0489559273726516,-1.5316803570127,0.4519742755392449,0.530133595573345,-0.6286995080212008,-0.42486669133276495,-0.2955654832069116,-0.3629943053362903,0.8989838898344221,0.8759425530990612,-0.7703224765597458,-1.0423244539757301,0.3964175729582362,0.022527484311830086,-0.6481055656964155,-0.39312445964344916,1.8166360994629382,0.7864745874909648,-0.45533674052090667,-1.0398812073910009,0.796357318296268,1.5524988255208816,0.06791498477548177,1.5569325983046545,-0.6555548310509062,-1.1794625704326396,-0.602878242980887,-1.3077815212151462,0.16619927155658465,-1.0865085381349677,2.16673406138889,-1.1762371706315704,-0.6446028215287919,2.1140833380729065,1.2862434761457324,0.9916824413029335,-0.4644868646800887,-1.3593012666668511,-0.5213451198140072,0.02592532436219554,0.10427994995035776,0.26474029963769286,-0.36425781844565075,1.1184673208015419,-1.1198414025391088,1.3340991220165368,1.1166383022823065,0.3497502842107385,0.9954985209912973,0.7946028672008237,-0.7590002700633766,-1.5124927458527098,-0.2665459929965972,-0.691997748183827,-0.8557467532956391,1.5860800433119748,1.3704429416484964,0.14811457555617713,0.46693367920347373,0.5926757906902917,-1.2573584429329507,-0.014441458727228467
unkind,12.021750904076383,-7.504590187711221,-1.6112159991655304,0.5619430554118616,5.923205414155233,0.4615656930846613,6.38890768561531,-0.6932221970344414,4.231634244999075,-0.6688309703969508,-2.077825347957558,-0.9719486909534883,-4.502743628996905,-4.0796774603758355,-2.6823132942042975,-0.2971509670250623,1.1637134014692365,1.931555443617117,2.991263537690333,-1.3650141094425727,-2.880827484727304,0.9535814674724841,-2.136093158974924,-1.22262293413229,-1.0639931241068563,8.365692419754797,-1.5396573901457418,-0.6422593896577762,-0.979123475357733,-1.9357658884110198,-2.966890351898626,1.8467144810389238,1.7052882270816552,3.3541445370258773,1.5090864967836295,0.9685941580895356,0.13689278071425834,-2.1650096046076786,-4.492282148428212,0.23896264714653387,-0.5645149004299367,-4.89480922700437,0.8708355363629404,0.6260443598369468,-3.2578177239677455,-0.6423883269231634,-0.6529882002591083,1.9775785684468006,1.3324313340838392,2.8265791918036385,1.4361107493217544,-0.5267897243285505,-2.505885187838352,-0.15616972112802846,-1.1540528128500132,0.7716479394817041,1.749401683727788,-1.3212794293172412,0.5262391272122202,0.13940273559730462,3.0396080634259035,-0.5766188060725693,2.840730027476804,0.11000722125590687,-3.5267027823940738,-0.9665055838285848,-4.652710086343767,-1.2396728747094583,2.9547975846220162,2.446641932909597,6.052518723832666,-1.4459904842335498,-0.7313108358538662,-0.443127582297803,3.613996242515682,-2.5139008516328034,0.08362694883529173,-0.4847006744449955,-1.3159203889369322,0.7790454914579815,-2.490288666183355,0.8500567667698858,-0.5796115408427437,-0.1547267631704513,-4.237323195118865,-2.049107478240114,-0.8085707271060434,-1.5097068304532006,-3.56387582744028,-1.9507477975797276,-2.5024451172456246,-1.717042052201544,2.1798813625723854,2.2165570152297756,0.7435701106043158,-0.7866386781177965,-0.637511219990189,-2.2743029016238956,-1.91534416225001,0.7756296379742678,-0.4254275579326228,0.6077727671729938,-0.30487833675217424,0.13204659662225596,3.029795935221842,0.7599161267336554,-0.049251209977611,-1.1784241973640408,0.1942342071823172,-1.1633320595774646,-2.344159812698404,-3.3169142082101475,0.9952154383089119,4.853823866397614,0.2646194229141407,-0.6340662369623613,-0.40028139595336304,0.6951262928446571,-0.6744199147852139,-0.6830579204456272,-1.2485211777673522,1.9007113644556344,0.9025691804867514,-0.10765833322127427,-0.25007237450477154,-0.12590241679696335,-0.4251217239202306,1.602573288747039,1.6365905971995975,3.2489619633351103,-1.6247046000020924,-0.25346606801149685,-0.8248865708886375,0.5812461301310823,0.20960013514553952,0.33011830881552123,0.5336033097109358,-0.08072339629523842,2.3896702169764055,-0.28387672088188726,-0.4747230507595165,-0.4620700897453808
impolite,9.444274011530922,-6.180145835459029,0.5886236255228363,1.6311857845933588,-5.105540579130061,5.776835915661544,6.404225321464356,1.5232974010629663,-1.1347531750728086,-0.9034151667367933,-5.52007505856175,-5.5216742716235965,3.842447308241708,-0.5190478005126967,-5.677502132220882,2.1494062783456434,-4.58830408472364,3.6723364342769487,2.52721590660866,3.2001288088421345,-0.5572023962191603,0.35654925701251744,-8.15785973743637,-5.6232323138574065,4.538409383378342,1.4296154344627179,3.247620268774047,-5.302219619238897,-5.689590655871311,0.457609436100253,0.6319912294173422,-7.224784559070659,1.1974066690834568,-6.096394828945957,-1.3987951691702891,3.7246312079120187,-1.6619959845439467,-1.541123212207232,-1.494856328545538,1.6952672071392867,-0.6333097126513375,1.5364923228711516,-0.26429658057694394,3.5678135769373593,2.699155695453469,-0.2955457726130012,6.363048457315117,-0.17163212953778953,-4.201719572750324,-0.07363049270955209,-2.1983526598483367,2.1208526221417827,-2.1965992544714186,-4.776887316832221,2.0469651262492157,1.3747450013518925,-0.24818357451649553,2.611303171443694,2.5661923119207333,-1.0769870951766307,2.435861667058935,-2.112946077668569,-1.7407763002196628,0.8921978745152526,4.545793685232338,-2.4585994109156255,1.9233246311950865,3.593423328480531,-0.665257876135308,-1.786235504544643,-1.3742175013354947,1.1609075009394292,0.4043336968438948,-0.3046365970079047,-1.4595190275375614,-1.2980042112934698,-3.0812862607406304,-2.0578919410447987,-4.696393305245712,-0.84994361259805,1.664247613236477,-0.9179770423402274,0.1026095475354504,1.4532323075480038,-1.2726913301695704,0.6701591639696279,-1.0447720155710958,1.4445913349512005,-1.2660285653249912,-1.7562343541147676,-0.7444147646207256,2.483302185483343,1.6344740839499392,2.0930671874152953,3.052081039687551,1.7769805076918759,-1.9571113235473323,1.500319815590306,-0.48595026232675537,-1.7080584525285427,1.304903342675863,-3.686519182072488,-2.5203756331695875,1.834088303378897,1.4269547362935588,2.3933808725849213,2.8173978408214033,0.4002302315279671,-2.1612825676857454,-3.2370564662947507,-2.193097379929478,-0.14761920507284843,-3.150369980344387,-1.0985352748771102,1.3298697011339597,0.26692704314221993,1.0690348703089794,2.553593549118847,2.440931672560389,0.20766894448853512,-1.7554658105352785,-1.3161205692650009,-0.7382625733392837,-0.7254556774245564,-0.7763347195502602,0.9069173110490495,1.2107092757242168,-0.8905848869324172,-1.140023962072085,0.880882901343714,-1.0092216781181467,1.4123953400263527,-0.6674180784213661,-1.2331934852639712,1.4691442199030316,-0.6099512868721836,-0.7949889261575349,-0.44124951922508593,-0.3875747874632988,1.2190988891866918,-0.2392598929552996,3.6986404733867944
pessimist,11.987188003577083,-6.743153714460668,9.483563865377473,0.6587424599006902,4.912168915547445,-0.08508207330412475,0.4582993901490191,2.637008202221638,0.5443182149623284,3.019982135372096,-2.3031241999043743,-4.064014710703108,-1.608256671976005,2.009247787525524,-0.7022412008375689,6.6464212766868895,-3.4129976656445233,-4.2044348230534,-0.5986222643351978,-2.6741132066783515,-3.552325323289111,-1.6326453407442356,-3.2960113325093485,1.0491648838346406,-0.7739258065772671,0.17888980936345356,0.9931909870451702,2.5907644855209657,-3.881821840344273,6.8365867046055895,-3.4217955106966436,-3.537975536201965,2.7792461408273725,0.921100735587581,3.6563084302503963,1.4726000435389133,2.525786606670781,-0.8133990639184658,-2.153952570521063,-2.1703784421779946,-1.1258851681079114,0.576231553723635,-0.2804564633071445,3.585134855969797,0.9007469999872321,1.6202862909954197,-2.8990711370150968,-0.8141139158221836,-2.0803068407810184,-1.0769322130776313,3.1665939954520614,-2.0490217321732453,2.8713262677113143,3.203037377906965,-2.458487076922232,2.05516101451187,-3.918469027163119,-1.1537653687068392,2.862338031888413,-1.4625451115135024,1.2258320855197486,-0.15711878442999255,0.7048710619982761,-0.7880351840366734,-0.4716113087927726,6.2037925074334686,-0.36100915039068515,0.8637598366083981,-1.7262596645061734,0.9135058839695073,-1.5699277564793581,1.2674545270000939,-0.07693859167780939,-0.07692653161541861,1.3258863399082241,-0.5136853291432771,-3.5840585947506516,-3.065334923238604,7.059973143902198,0.9912172419131675,5.65244212220054,-0.4168354334898272,1.1766687389850836,1.5868211888540806,4.057444658701533,1.2856534504269557,1.2336771782533336,2.4629334765952167,-1.6802302740578765,5.240886785205619,-0.5078382747227193,-4.0119112970152715,1.3157082077685538,0.44188413597494264,0.3720027819072326,-1.332843017376323,0.03510602247279908,5.525537769146475,-2.6628098976992054,1.3077909104993684,1.4651954724764915,1.3880404382070626,-0.9963329905480224,-3.433284212038826,0.6240929404985964,0.748946880025827,2.0336551819182667,-1.3570913848882296,0.21557003484832657,-3.1908783548865847,-1.2668089139854548,0.7014523448065756,-0.43547950669365504,0.026849569517694287,2.1814155547066183,1.1195547433307487,0.4609070258535735,-0.6624953398443382,-3.1141737103736387,-0.013073532516263914,-0.12110390616742726,0.5968079617045267,0.5468483609477296,2.6184126328054838,3.819585435684304,0.4122907421446084,-0.8576159618213864,-3.0406197696308497,0.6286455376828416,-2.0144134324168457,0.6960592052083371,-0.25537097195443986,-0.3462715545298384,0.8713664849199706,0.37634016436962375,-1.0181591500900435,-1.1280671804627496,-0.6580352891465615,0.3217155008736336,-0.23685534306862457,2.9105734543637407,-0.5698102452352749
unpredictable,-16.931097982323966,-4.77951346824868,12.748597763152416,-3.49587449898348,-7.375143026973953,4.141241161033599,-2.2813132831231147,-1.2765385818361197,4.05175959533553,3.6593334720337403,11.150071953794509,2.9363889353958554,-0.26534885183463536,-1.3652815781662715,3.5231766073476503,-3.9200488880593745,-6.714039338780812,0.6069465999979935,-3.5050211525518074,2.1568110048937723,2.3141390734199248,-5.076055605734121,-2.327413593720768,4.831157751188405,0.6195365883773495,5.05233420066916,-5.893132788579326,1.7848208044972678,0.32043376151411734,-4.019422304312802,2.805586564000591,1.527977574649125,-1.2108303643707474,-2.078260225796278,-2.459508219848838,2.4033849550529927,0.8516803973541239,-2.507267200156576,-0.31521331594266877,0.5538432342026394,-4.487973901023235,-0.9308133001842763,-1.3548051259029428,0.6709307682413952,-2.4449416808703712,2.1644475369302874,-1.6663652799094804,2.9201634033148554,0.7224142380242332,-3.5940703972045376,4.222184042718305,0.2466124057044057,1.6781570046328371,0.7646950986302606,3.0334465586496324,1.761640782371371,-2.2126076915504416,-1.1920327288401704,-1.5313821512959782,4.476039793119366,2.6054287033270356,0.8737578900528796,0.33938674373974875,2.997756254670142,1.2850444020281244,0.34352094538569955,1.9648374226020955,-3.3411438177049555,0.41621905601404585,-1.477337108114899,1.298111043417712,-1.3535946037899826,-1.3566182812937004,-1.0141829215435618,-2.023847608239503,-4.5408533742926895,1.5013358670967931,-0.42868661231953326,-3.539645963153767,-1.0993936965195503,-1.433777034081314,-2.2874526823952497,2.2229210212313517,-0.9764579848704543,0.9385638759647007,-1.1196054519447518,2.0300057259684787,1.0623939424559798,0.5568243402735505,2.3166215032616426,2.9073743878627853,-0.8489631508413275,-0.7175892631288483,1.9567673632539522,-1.47344271290177,0.4306477912127006,0.9211550015571254,1.496351044735255,-2.490414539769584,-0.07845969122732581,0.737812655606225,-0.37369028456587766,-1.6463832055282055,0.754700191940162,-0.6787035641206586,0.5750701976901955,-0.912322371079537,1.8969504359582083,0.08864928718601986,1.063408195651061,-0.04430883965947866,3.7027910025266055,0.1370819413183846,-0.02058788795742451,2.042316845532722,0.9404156062245134,-0.6354827033448854,-0.8264332199512066,0.5542904143476933,-0.6102693738109088,-0.24450949384793746,-2.898558815395959,-0.5984009724820233,-2.2820749161401097,1.7893777494306482,-0.046472498071708265,1.7018918854317862,-1.0788529281534147,-0.3733079530862996,0.07754903923734788,-0.6948954227220098,-2.182328561779135,-0.5249945232571105,0.9650837857232765,0.8191979165021281,1.0742473775883705,2.543518573330264,0.5904852674759097,-2.055865386392531,-1.1781122598670513,-0.850937875663514,0.006558926992505119
brave,-4.440816371870354,-5.406997653901967,-12.324376305313985,-1.9096366009395835,-4.843585787715175,-3.5964233220727633,-0.960709418599061,2.2674895674232616,1.196795072288922,-0.815184898890066,-4.157762787011821,-12.77572693328114,-3.728796368078307,6.1143121482165235,-7.664282897613474,-4.065057994924817,1.0244664151960696,-2.050263771474079,-1.3809444520493939,-2.3851037803883446,-2.595780448517736,8.860039207748512,0.4836365980500585,3.6058470892148966,2.153708363263329,3.1102771255655144,2.61098993741999,-1.518374662163761,2.55931061969257,-0.5799677036339009,0.9052434831164642,-1.6566876758946198,2.53107654448371,0.19081276525656665,-4.6068196958606675,1.3959267660917036,2.05618794021939,-2.1560089637823605,3.0120495196393624,-0.8684157215849039,0.08581812248686732,-0.6327686209892716,0.6559984798938672,0.1589238049722422,-2.938275236611402,-0.9806628315385144,-5.947675628313399,-1.0244238824465726,-0.8059017051076088,0.43402540371161996,-0.5154493134018064,2.8324032396576495,0.020618156497397636,-1.52823723859668,-2.6993741136295446,1.4633174218756295,1.8962335202522742,1.3437637978933261,-1.3725269436585879,1.467373027991057,0.05853889725951825,0.6117870808356995,-2.1955692897957184,4.842054575293119,-0.8345689955615273,-0.23820436397092948,0.9747018336644918,2.466530978623318,-1.6573307464642741,1.925321466641518,-3.3982963917456455,-1.1329693678384214,0.600531691536725,2.131116422393884,-0.1342193470849061,-2.9472560220368624,1.7421820867004698,-1.6809577167784904,1.2531288073466922,1.5927991190772168,-0.5652587571654548,-2.0589668101414946,3.216141129896158,-1.2211101551126862,-1.7823344065028264,-0.8151608456391476,1.7968084696239126,0.11542405233566529,-2.0745749656600885,-0.3921536765627583,-1.904713410104545,-0.5000840336120439,-2.578398919113434,0.6184600357554435,-0.09424588691120139,-1.407913312105606,0.48339187023873187,2.675163274497676,2.4423101590937315,-1.719656978929435,2.99813349829789,2.8081212640807056,2.261430525528298,3.712700340136601,1.4060261437781059,-1.0493272240895677,1.1084064404365077,1.0680636684158398,0.5223044631579009,-2.0441490723028153,1.0968274296860272,-0.2259255241960804,-0.5549435802765217,-1.544705399050784,-0.15356496979277864,-0.4799272943005145,-1.2384667792784754,-0.762872645515199,-3.291587613698584,-0.2892218886669997,-1.0971468181027946,1.1387987480292538,-2.5060653076387607,0.5042481327520627,1.8193407475678616,-2.680781098427818,-0.5694500709443927,1.2499392584422404,2.227453713517881,0.3536646501068868,-0.5105462495763152,-1.1646000699281984,1.038842436216903,-0.4217987408252855,1.5583942185072874,-0.04616670060141682,-1.199115203292413,-0.7971040578723511,1.2717834142357847,-0.4640891470074398,2.6580593818447653,0.2937940254822976
entertaining,-13.298480905686047,-7.3820722199199835,0.6944165581913405,2.3244521605790434,6.402568662013054,-0.6908331145689418,-0.905807290518679,-2.8111356897335495,0.12176716608494166,-4.9207940349411885,3.0526606327970915,7.5586485193137145,2.2050583371311254,4.047203572031837,0.6039707460791901,-5.492987984777229,1.881789758356516,0.8574212486568284,-0.0021033089108339295,-1.141269655797411,0.030760675859030015,0.47622000220550703,-0.6414084807020212,4.498358830433743,-2.418967855543137,-2.64666114374713,-1.0682842714063652,-7.297701188962344,1.4735886240626923,1.5939843721646956,-1.992748465626751,1.392890048202801,-0.6824312488677392,-0.667996059396399,0.4325776943547674,-3.137702793594915,0.7763929413252495,5.325343253172558,1.2938947599612454,-3.308722051136643,-1.0293978727512465,1.0208368534290242,2.6865400811046456,-2.1289916356141947,-1.448239870539004,-3.2087195542689244,0.1767347265376277,-0.3069294950740551,-2.8435210563883104,-2.334491384039398,3.2486057897685923,-3.2171178506504754,0.05673013831821813,-0.030158561224641518,-0.43356338201676387,-1.3952171371220723,0.5202562585225824,1.7286935146233853,0.523877107840179,0.21111278833422664,-0.5905396181869302,1.881616115649121,-0.36277517213726285,-2.9859120852482683,0.35359325285132476,-0.9357265080349386,0.19665151769378056,-2.3241442870170776,-1.401108241521904,0.07115702434515442,2.9309712985012895,2.982037339002835,-0.7814221926867302,-2.1744854490259704,-0.9667218938202623,0.2993110792818808,-0.23107523328178328,-0.8581136464015449,1.332303410271467,-0.7773609597708873,-2.455365067491895,-2.0642435930680554,0.9156146928156578,1.9048287920726852,0.4120036032579954,1.2785894999879506,0.5853055321051551,-1.8153648013773889,0.4381456433376728,0.6788421196045511,1.0314971688979275,-0.9106338611174274,-0.16581066568307576,-0.29304068957236246,1.9582260469040602,-0.24349824421828634,-1.2082798310098932,0.9741980732239045,-0.4668363956325413,0.3838731882383905,2.5750570452285495,-0.5170924641996328,2.657977589197422,2.918562035233292,0.38426493096342235,1.7171221805297492,-1.9515052418825423,0.6589566177916316,-1.189689991742985,-0.011697421272580062,-0.8190437488036041,-1.415226980373136,-0.9095328257867139,-0.0934622021686734,-1.3031701546567018,-1.1868466708002245,2.093999534536822,2.950446657985768,-1.2545813156524133,-1.0954326078043026,-1.090967112410438,2.0708084469951613,0.04752942740032805,-0.8144804205944152,2.0856949139485335,-0.6526717127781704,0.9787903451400459,1.4580022552777676,0.4972069692462919,-2.2576000184430884,0.27334186945290156,-0.27780490780469613,-1.0271159002679322,-1.2389155522862638,0.08674865499136497,0.07928370602560726,0.5138291872985399,-1.176464556556951,-1.1997411836330067,-1.8314795392747771,-1.046171257278907,-1.4803372817385205
strange,-10.576274716114233,-6.1062363538811715,2.7143465082118583,7.580025171180459,-2.809127582914134,2.6747338422740445,4.112936906139883,2.4838561195931192,8.051110190796795,-8.396414729772944,4.995116856285418,-5.076362435843867,-3.781003729775585,2.31158759186688,-1.6281371007652017,-6.714989273350057,-2.368480767358728,4.000959535482713,-0.1707596426861909,3.969878447820761,2.2728155470317852,-0.684053933253316,-0.6559201653624953,7.5439892635248915,-7.375804665043183,0.9358937970800236,4.179668643672291,-2.4064632722242707,1.147528750140045,2.847285323753915,2.9678259604893653,-2.867274784318145,4.404268502976328,1.1853532729517255,-3.2381120343017185,2.09332910256867,0.30882668225709914,1.1331228523640282,3.438999907952806,-0.27262027849426057,-0.1522337683506643,-0.6636567572504923,-2.1730274276921686,0.5934415743693543,-4.025557731051389,2.5882744122291914,0.42104815314127453,-0.6734354019188781,-0.823245353274155,0.2713268617983968,-2.416465758787198,-0.5080402587438705,-1.6050714643624255,2.517531634858545,1.8252285713287724,-1.6206029165823141,2.5299830394999074,2.583660650569872,0.9906668783327842,-0.35523572548110816,0.4572394147120468,4.552166345024102,-2.6128375756750115,-0.9819345412131326,1.0297269948204921,1.5571862709434499,-2.852629062898901,3.053678075795546,-0.5641347408961372,-1.0865421280920826,1.7183252850575315,-2.4332171704314374,-2.248084007282562,-1.293450482641277,-1.1993990728068158,-2.41487575237548,0.7902646141101975,-3.8189783732751783,0.7668390248092316,-1.269178175722993,2.1873513716924053,-0.30371844858047814,-1.2609158712477733,2.020456650244917,-0.23865702919796306,1.6322202224858273,0.5426224533548576,0.16143190397455437,0.13350035880254343,-0.904671251836981,2.350435565323344,0.8927520290145052,2.6184612174959216,-0.31281673392526765,-0.8366601275026834,3.7852769323856887,-0.04393007021524894,-1.9833955433020785,-0.10938084143102193,-1.5453941098756552,3.209577220080661,-0.516622716107315,-1.2455605168089285,-2.6173165026423844,0.5453372391639163,-0.46700082899317424,-2.1605612529008265,-0.19627933512941004,1.025060956936154,2.4408052632511597,-0.14497543527543827,-0.03997684889406803,2.514383350371402,-3.7689880105991653,-0.8955294607267645,0.25674835068978497,-0.3309048600171492,2.7176255429863727,-0.42721102515708936,0.6948057729573156,0.4764743160917225,-2.233598860131488,1.4644884755671945,-0.29359227399093224,-1.937111507188638,-0.4298174550771026,-1.321213027311688,0.2798782291334437,-0.3255029254725298,0.705171944813818,2.0326599482703225,0.9002189933048855,-1.5819022306999906,-1.3095466169452898,1.6119301143750155,-0.21566088532189148,0.33936850642170324,1.8072990215259288,1.745992187249507,0.8942615345200828,0.4730997763682176,0.8576788186996498
friendly,-4.992322481412683,-10.096508119813203,-10.278730949655072,-0.6602508187418791,1.761848354903723,-0.3859305034739148,-1.344804163322438,0.4747030256506204,-3.577138862520626,5.050008641435348,-8.812768852340845,-4.52319496632199,4.5132690111371065,7.65906942972553,5.508393450478979,-2.0560173330587928,2.320481751965197,1.1319071166074017,-6.068557930524863,0.44168155433887185,1.5303214666984086,1.2765728777694567,-6.0801605588608005,1.8557407063084117,-0.4124255923683031,2.7836209950089237,0.15462769919919322,2.425007042043693,-1.582908970460501,1.7200165765421538,0.05384240793645642,-1.2683453715228297,-1.8603740458386688,1.741283791659393,0.8358687417552911,-2.870689768476359,0.45607504795988396,0.8812203528976675,0.09901388266892393,0.2814589853319152,-3.764434414393165,-0.7763285142619499,3.726232183593025,-1.361617410948517,-1.7946196806168064,1.2300116455611894,3.4322096732986136,1.5475298487107465,-1.8891109071310916,-0.5065572993069005,-1.154702382113413,-0.16900718943607224,-0.8199238836950805,5.848164668468018,-2.030228300666441,0.15453602676251307,-0.7027142524410791,5.428499009797656,0.6700703801299107,-1.9157391528890706,0.22242201849494359,-0.6916592527653084,2.273600809246223,0.026299780247175348,2.9536940457648537,-0.4262426967546134,-2.4985223853736525,0.4872883827496208,-1.022805011988929,-0.42547397690554384,0.17221590555475,-0.606778501972166,2.707249679441718,1.866985498503985,-1.3490215160867964,-0.7845665826441782,0.9881644927339748,0.9683451471255412,0.28810977539066535,-0.8744281451416698,-0.6823224526180187,-1.8932679424964827,-0.7150353117460856,-1.4338492976515804,-3.8777171403025994,-3.733332076805433,1.0107962288313692,1.1242110535028582,-0.7793358846130384,-0.6436320374374799,0.8751830516575467,1.526129505441302,1.548091966271267,0.16330624757882828,0.8944227223402706,0.6290641470748795,-0.49053056459082195,-1.284430197978762,1.4666542801961169,-0.11279936742687124,0.06952016281662506,0.08223349042992967,0.223545510185532,1.2372817202052808,-1.4027272487450824,-0.13335248823045792,0.8175357747081703,1.472491815066364,0.04378711104806502,0.7950518944928926,1.9009360852188057,-1.4471977374611413,-1.0667603107605708,-0.09160032990517063,-0.41388294258600655,-1.0945446799103327,0.726377209151761,-0.12952298295802986,0.0634345333067523,-0.017554944833455963,2.2831359763152026,2.818821542391591,0.35490434298342577,0.3458408909186249,1.5436035995882234,-1.4902744828429713,1.782224617268652,-0.4607584842701689,-0.24609829519662887,1.0322680241120017,2.1878394002084085,-0.0786636032023389,-1.7585032614023413,0.814927563816359,-2.15751705618278,1.4287671333470986,1.3024899177321265,0.7873229903672598,-0.5896032391716276,-0.4853221269399494,2.3126626057973834,-0.9988073808259631
polite,-10.925348122497107,-15.309769418430397,-7.993268543723554,-1.0164894938825464,-3.107984231045519,-1.9974765685779265,-0.2644444793774125,-4.070851057293979,-1.139668036771893,7.036970330890257,-3.5337176737174025,-3.0081434622042034,7.585616676417695,5.311692456175466,-5.486123760360296,-1.9464578538932498,-2.266434619850302,-2.2233409566643414,-5.382748852257129,0.14797023011916266,-0.05168312245479494,4.031789986972353,0.8467931108163106,-0.37243807092152875,-4.25479326119508,0.9022684427186459,1.6355987871443574,2.3324863516706205,-2.541850783997825,1.2627832155082794,-1.7583433829695205,-3.8702245676012312,-1.7835750363410092,0.1391849719523297,-2.368142750893966,-1.1247868310625158,-4.264302413214272,0.9817337597637147,-1.5100768013042076,4.845064273665162,1.0872741207662941,0.9297265842826069,-2.1503380592314314,-1.8038881093284806,1.398461718816728,-3.101673095073627,-2.9316324110325693,1.7807045080066828,1.9374367407175364,0.17007130629017422,1.1605403013609934,0.617686351235408,-1.6562444543091324,1.0999577756701955,-4.2180435959907765,0.5333351547437396,-0.2751176174461305,-1.4673688412210637,-1.0879897898681583,0.3569014898657501,-1.3510233141011398,-1.2315257014532308,-0.7134339010531687,-1.1017431119541419,0.5076362553520639,-2.1953742377715115,1.0211753589421553,-2.6844540605420506,1.1116501666374106,-0.7928940040247371,0.014246899424070971,-0.6064759309658627,2.17325857741301,0.1264077693329519,-3.2568405641514544,0.447831670657509,-0.5350232190596915,-0.622616836031558,0.14978750750283448,-0.8947436404380882,-2.4376838470914013,-0.6518564509244659,-1.216449286428099,1.0816768051353893,-0.2731977154380039,0.7516262421774594,3.7675518007185493,1.0531075244611754,-2.2990134976738292,0.12053999800032465,1.6814014677761298,-2.2067851567258687,0.16225378177419034,1.0137993770758744,0.8004421184410243,-0.4890765636186837,-0.15565691530395143,-0.08789731312182854,1.3879498593500073,-1.2023196771288338,0.5923913129344461,-0.1623305716675936,-0.08581314452160017,-0.629439196331343,0.1854136696685,0.7730903513254023,1.3911551601569414,1.7399060037651704,1.7718621118036104,-0.6830643094244601,-1.3625564783695885,-1.3417151653258765,-0.5466062236495739,-1.2047482755683092,-2.7403895023249065,1.8512167705297904,1.5497820189658877,-0.4003906719042185,1.9550212211560134,1.0435775889907686,-2.101495013004553,-1.0572118528804857,2.865065675396456,0.6775999260499165,-0.5840233273339422,-2.440485992602878,-1.079088020263392,-0.864297916949243,0.35119531016291033,-1.0371673034385898,0.862521004006488,-0.4419481402825961,1.2330694968283182,1.1705476406201731,0.3091765316750471,-1.4267868475770848,1.9869969499485303,-1.3895428355571837,-0.8538703317557098,-0.42853597202539434,0.19779628803870233,-2.9046342245886883
clumsy,-18.71550092960599,-4.0225501846152705,6.507290099953661,-0.47728713850933097,-7.420794862462918,1.1788528788035884,-1.595064391101891,-0.36572133826101855,-2.419629649075113,3.778910960517635,5.985630252552647,1.6854867045469368,-4.013071841767912,-2.6993731867399933,0.9616554981386162,0.6504718263285638,-4.697144844117126,2.0381401011225293,2.771737298284299,-0.25764582855643064,-0.020251306813926832,0.672979736023676,-4.851904996130529,1.0807607144880336,0.9261291036585502,7.364760271337629,-0.5128314854952962,2.9356171555930155,1.1385678325038269,-0.9806826015095985,2.808031337533228,-0.6533025487863106,-0.20080665103675152,2.587605519304749,0.17762430546582403,-0.27804507774346066,1.0963705468301057,-1.283079031733485,-0.5345962235112337,-0.2663527400545484,2.854630880809428,1.7419813745309871,-0.583217296440591,-2.352928338340243,-4.50976398497189,-3.685172914763603,6.48284880399841,2.748110525214943,-0.5777494071698817,-1.6669896696154687,-1.3444714858069424,1.5678401163061444,-0.8856758534774233,4.017537244775547,1.5276540272779449,-0.061779894077484965,-1.6315113534996928,0.5847490012316559,1.8808353500395973,-0.3625295384522963,-2.177125507143953,-1.052182126224259,-0.20013933578126994,0.2057364874647648,1.6937505983139407,0.6791628620044545,-0.46820929080622,-1.2242521686822947,0.4086523400136446,-3.995298692664741,0.3783365982856403,-0.41146800923083665,-1.6856534378582906,-1.4943357730462539,-1.6952509146269836,-0.9833472238300935,-2.4440340020274545,1.5149992942648993,-0.3685919604533117,0.21339221032132089,-0.86299120167419,1.1270732642923742,0.5841903547217963,-1.412794784569925,1.0490794211333685,3.116364413638047,0.9416202277760055,0.2790237586663729,-0.35485213446471886,4.258127419934413,-1.018465797826033,1.6603360019146012,2.8819753556721603,-0.33429085213212073,1.317558697973537,-1.5577141875282472,-0.5793570758486787,1.3659523682941292,-0.46185647762869975,0.6277406874194026,0.8136604762223156,1.471508805539309,1.6162785242453745,1.9189089717986105,0.38442638424676395,1.6169964468250169,-1.1140011730162267,-1.3634064451080476,0.9448200477404669,-0.596114710878791,0.420460786718082,0.862976286465984,0.8391778200918196,1.2914153714832863,-1.5231697197156886,-0.6742279457189447,-0.10097108324454292,-0.8743124272978402,0.976052904076561,1.007100254712357,-2.8496874887983914,1.4446631173828377,-0.3622095666849614,1.3689002226425662,-0.20714503337325288,0.531224792013451,0.6743620955897813,-1.0760870675868357,-2.4068288764582753,0.6061654871447502,-1.0538672654780714,1.08624441124755,1.012159202752374,0.4711744862753457,0.5248346068522595,-1.1783660132453995,-1.0517142132411144,-0.5860544814162766,-1.6405204003736307,-0.13327855200822272,-0.5202692042941216,-1.3783437936194975
inefficient,-0.1699920288373872,1.6239100651710847,6.9709453923930225,6.678734168642487,5.409101476277937,7.49298940739564,7.111892404998427,0.7700618844072292,-1.311611858915814,-0.01616366632370788,-6.623147474807431,-2.4951945506886775,0.26046682956262607,-3.0795271952152823,1.6149028656463413,-6.632771079798861,-1.3647540364615083,-2.285853722101096,2.778450829627803,0.23452896425387262,-6.779869752606284,2.8124497385325893,-1.52353433370061,-3.984305878564987,-1.6440506544303923,-2.165900645749578,0.6783552198044427,-2.6749557150312677,-3.309278435423208,-4.392602389396173,4.054511434091626,-1.3695129997582802,-1.0276050969949375,1.6129237795323081,-2.549495029793282,-2.0794937506407276,-4.851937552085481,-1.8985167189591619,5.414217467664582,0.1322148303057917,-4.520220891162439,2.0595456496082933,-0.6175294568803547,2.3380398177164263,1.0895028744841306,4.426291575753995,-0.6384245972858047,0.3158900691495193,-1.3876007311563892,3.918614968618657,1.8445499014440223,0.006926862379456141,-3.724375026109308,3.6363326783992944,3.547490372988745,0.9022892266544891,2.178008652712635,-1.1181324635723804,-0.11184755950055883,-0.13092249265872258,-1.225516426944348,-2.448889335339081,-2.10066621935788,-2.2791679441213826,0.6732934649564211,0.9443409370710318,2.468202602701088,1.3380193742335091,1.916865900945635,-3.242794232875279,-3.1861077112936296,-0.9625976924880633,-0.887362588925824,1.4659785088787702,3.5207381204217607,0.3836748358670846,2.445915663325856,2.0483470585577694,-0.6659286667392723,1.218116062726016,-0.18042013047812192,1.3133055369909785,0.7879988912544508,-0.5404457380419944,0.10271245090722245,-1.0202247330497625,0.9823262967458584,4.100849837785198,-0.04177496142448092,-0.3759819654999588,1.2051660863250448,2.358905525170332,-0.6144315756251709,0.19666085829227858,1.5325074720223895,-0.30104124951951966,-2.5938438011262637,-2.3054141911171415,1.411702403732148,0.8113396249060038,0.57807785313804,-0.7353541612491633,0.5847950938879745,2.019785574024205,-0.974276228979026,0.48545372536095965,1.471774265937491,-2.4226856133085897,-1.2320844510209832,0.4354150777948176,-0.7557095533754823,2.261973220294933,0.8494145283677133,0.7844332558272016,-0.1842572688178398,0.42190765214349113,-2.2376452513895204,1.2865584222419502,-1.5100769175177164,0.20458098362730423,-0.09796804025047003,-0.5845209670815521,4.008525214440529,1.4059563255153862,-2.9554604739535932,-0.298670336356271,-0.8173572261756863,0.005256817493674551,0.5770149664434534,0.19215741234038927,1.7271940478884105,-0.9363652187345363,1.4427788212205548,0.7367937167560925,0.17893538838604173,-0.11566212315087682,-0.7075174370474077,-2.246368851424115,-0.0934855107038756,1.6236470586226355,0.30529334600666524,-1.9270463511708034
unattractive,17.009147634287068,-10.801700349592991,2.65666260785012,-1.477133699312561,2.4617059981569707,-3.2870306030383483,1.9279442461244054,-3.6385406235804374,0.7225357059707023,3.3325190727742613,0.5801431692174608,3.8336311397821214,1.0732354735830016,-3.619303855619596,-4.5935953237735525,2.9336725434100472,-3.9470227007653147,-0.006768562779231846,-0.31125050633394086,-1.7720493400634207,3.8127282953601194,-1.6026838996214956,-0.7977622478779647,-0.23085510910037457,0.9443844397110166,-1.1824659876099795,0.4246576525769077,-5.261908374528565,-2.7032238737838896,6.248696771949143,-2.478119621292816,-1.6718867764350616,2.0114271699121216,-3.010602408546307,0.3503047351599628,-1.5907867051734572,0.34919157765888215,1.7425676017020815,2.1757295708889637,-2.265387360872547,-0.8745820749579288,-0.5334095582389882,1.78949312563221,-5.996494526820903,-1.2588093302447048,-1.502786340739907,1.9201401000982055,2.05722781560203,-0.05908123614015508,0.4683963948890126,-4.705059124169987,-0.600646829967276,-0.3439564900514262,1.0037857444732967,0.22535348973856867,0.7124732790359741,0.3037376589260525,-1.5981812677189462,-1.0768256286671323,0.7081868980225551,-0.24261472285124866,-3.00648536051671,5.6808056177037685,7.540399061447689,-3.803576897039164,4.295948862977462,0.43426288189422213,-2.0616486739866104,1.8100565688496766,0.9302794848610276,0.002219987323655552,1.5748595271152996,-3.5772189804493797,-2.2081930481783787,1.241492322870138,0.5805288387352264,3.2189124544610412,-3.5424382528791662,0.9880886371631146,0.4354582484736436,1.7021110505562944,0.5890591830473549,-0.37366197398750256,1.5183585239943993,0.858986380990825,0.06701111494755849,0.821784001322078,-2.8028970064841947,-1.1105659392079905,-3.430643514494967,-1.5684460005834455,-1.3384569435188898,-1.5840327623187684,-1.2910903554654016,1.2129554117218426,-1.0312106004754096,0.6770460852650703,1.384416272946354,2.6972900194420535,-1.7587217223195724,-1.6491985212643645,1.0929281850096433,-0.8901357680567952,0.481209220862259,0.1514605256368735,-0.023916873917393548,0.5776355524897666,2.3963943769297464,-0.0652016372064975,-0.12372781829959534,-4.1426297107716055,2.789301347769266,-1.8208739569697314,2.1573466124036225,-0.0806233424566011,0.7141874532991997,0.048247942593040966,2.148365515575493,-0.35474619700324106,2.453895795305049,-0.07137115043322254,0.565602798143854,-0.6425478533697412,0.5636157606293964,0.3596029272201397,-0.3148463265539773,1.7842505032692502,-1.328634029789346,1.0718155479043177,0.746082173139691,1.0827411475212738,0.4648235449371687,1.496711777693422,-1.4740683204295217,0.5189886746977825,-0.27962084423761757,0.8437662514659483,3.622731439174057,-0.10624160096649103,1.9176473418768227,-1.0268267696964812,-1.05328709620566
