unlucky,0.10054362,0.02867607,0.1424208,1.2229136,-0.16474038,0.12660475,0.883502,-0.98148566,-0.023786426,-0.06524065,0.33823824,0.5005166,0.42502266,1.2074016,0.5387733,0.741797,-0.25052336,1.5129917,-0.8539604,-0.21611401,0.5982572,-0.21344438,-0.16120568,-0.27078837,-0.42704993,-0.2774324,0.18557192,-0.113740504,0.18379468,-0.83854985,-0.66381645,0.37649637,-0.16468583,0.4461496,-1.9262493,-0.2581921,0.5297372,0.7240988,0.8477372,0.41040227,0.8801451,-0.10010776,-0.4682845,0.71734786,0.56181777,-0.3623256,-0.43201432,-0.36514002,-0.33569753,-1.037183,1.1717046,-0.445184,-0.2853641,-0.72477126,-0.915971,0.33291623,0.21192795,-1.2968276,-0.39451265,-1.7613895,-0.00401482,0.91825175,-0.77923024,-0.21672904,-0.5339285,1.5960331,-0.74166673,-0.19650523,-2.5712783,0.6193423,-0.1121946,-0.9849037,-0.64912736,-1.4705186,0.068736464,1.0879095,0.031037275,-1.4251288,0.15975821,1.3122298,-0.062321715,-0.008208536,0.8859422,-0.13376433,-0.24941841,-0.49053842,1.2744155,-0.22958271,-1.6800191,-0.7568638,0.22683059,0.8969592,1.3147335,0.6822872,0.22566086,1.2302028,-0.089949645,-0.26293078,-0.60733104,1.6290053,-0.6738127,-1.6717001,0.40940547,0.59594536,2.3037133,0.55377185,-0.6396125,-0.3354684,-0.17559153,-0.40014255,0.08906029,0.9086202,0.2872787,0.41002837,0.003804922,-0.8457634,-0.82725805,-0.4590276,1.1950022,-0.7058961,1.0302445,-0.47583276,-0.76502573,-0.08800207,-0.48843408,0.16262847,0.7909569,0.40302065,1.0921866,-0.65615433,-0.22047347,-0.025469977,-0.45766956,-0.26643533,0.6022518,0.3588163,-0.76203203,-0.1840294,0.33455446,-0.64660716,0.72644377,0.09052365,-0.5698859,-0.32768506,-0.95494175,-0.16966383,-1.6107663,0.684682,0.6414525,0.56560075,-0.3542416,0.8091937,0.5380379,0.7778951,0.14512272,0.51214534,0.00014555454,-1.2116237,-0.20501608,-0.06399577,-0.83888847,0.3199767,0.29759908,-0.099705085,-0.40108326,0.23442538,1.0568414,-0.37753054,-0.9568403,0.353997,-0.4149421,0.3905591,-1.5499108,0.10142985,-0.6487403,0.03173529,0.18580568,0.1576657,-0.18597117,-0.52207756,0.14989357,-0.07458757,-1.2491201,0.38549626,0.2651937,-1.266876,-0.09855966,-0.81741685,-2.6158082,1.0924044,0.26269096,0.36385095,0.25129756,-0.6285375,0.035786413,-0.25434285,0.7401862,-0.40311587,0.6922517,-0.7196313,-0.25610438,0.9823122,-0.530036,-1.5291636,-0.31722996,1.1218994,0.9012978,0.23687033,1.0637043,0.7924078,-0.13322937,0.40546387,0.4179577,-0.50970364,0.5631567,-0.14420076,-0.48781106,-1.058579,-1.3305256,-0.84501,-0.17483082,-0.8826304,-0.25667098,-0.2567353,0.07972607,-0.5475105,-0.31499398,-0.40318447,0.65399814,-0.83973545,-1.9886963,0.91056764,-2.0393462,-0.080088615,0.11798746,-0.009112805,-0.23246622,-0.052281544,-0.38924366,-0.16628493,0.84759104,0.1066641,0.038709577,-0.06437092,-1.4550285,0.2215408,-0.08108081,0.090480134,-0.8675264,-0.7751992,0.117438406,-0.48915428,-0.19842756,0.26001602,0.2515669,0.7918758,-0.95691293,0.73238707,1.0555203,1.3877035,0.3719306,0.2070329,-2.1780314,1.3261282,0.94802475,-1.2858781,0.012026772,0.08764589,-0.8033301,-0.8050534,-0.9202043,-0.35801485,-0.7326486,1.0809479,-0.59347737,-0.4347679,0.95698756,-0.9199132,0.2237432,-0.6115473,-0.78009003,-0.9110404,-0.06325966,-0.13784866,-0.5592012,-1.1470668,0.58691055,-0.26686394,0.9691465,0.48122138,0.58032566,-0.8386582,-0.22764802,0.42709172,0.45809662,-0.31900826,-1.0710866,2.4139383,0.20660919,0.05980838,-0.9129533,0.18538424,0.60547185,1.5937325,0.4700657,0.04367724,-0.03763572,-0.33896387,-1.352045,-0.010918915,-0.15898731,0.6446811,0.3583395,1.6048452,-0.48623705,-0.39211696,-0.5786915,-0.8857225,-0.8027678,-0.0012441538,-0.6157016,0.44970125,-0.1181809,1.8484272,-1.3078519,-1.0009676,1.5001173,1.3834317,1.1704941,0.26425904,-0.96536946,-0.38009152,1.7207994,0.58540547,-0.31237027,1.4639914,-0.46588582,-1.2387797,0.67374456,0.076708786,0.28782785,-0.098796904,1.3111796,1.1543288,-0.7210959,0.06200145,0.102706626,0.16437677,-0.6700035,0.1602584,0.074604064,0.22160992,-0.7552512,-1.0950997,0.4491539,0.36154163,1.6539696,-0.7674879,-1.0650291,0.6324636,-1.3424267,0.042715214,-0.026730642,0.87614995,0.53195083,-0.25391394,-0.33835638,-0.79364765,-0.94487476,0.16423543,0.5989739,-1.3109939,-0.60732585,1.1916907,-0.7015856,-0.40976197,-0.015545204,0.5663589,0.81815016,0.15711635,0.5264791,-0.0076851845,-1.0636755,0.5815524,-0.3393173,0.37159887,0.4419183,-0.90577745,-0.0493261,0.47865307,0.20584428,-0.35772505,0.48709643,0.058438383,1.4978803,0.38241947,0.44009805,-0.12526645,-1.4969128,1.6447324,0.2847341,-0.0022089295,0.794598,-0.41575938,-0.68209034,-0.40681607,-0.75824004,0.42790332,1.2396135,0.47325447,-0.7749324,-0.5470835,-0.6053225,-0.3293219,0.6955528,-0.116647266,0.4234308,1.1188362,-0.846442,-0.029437844,-0.06035192,0.098022036,-0.17412986,1.011022,-1.0322632,-1.3088796,-0.36847568,-0.8135526,-0.4131644,-0.60414195,0.63712895,1.2993182,0.14547014,-0.3096184,0.56233585,-0.8892046,0.98508024,-0.28666213,-0.2384292,-0.2537486,0.7060162,0.0687606,0.19558012,0.11743404,0.067188345,0.102215186,-0.14570782,0.15703976,1.688946,1.8365555,-0.99605083,1.275839,0.12716073,-0.86237824,1.4864733,0.5804777,0.67793304,-0.27148092,0.69167113,0.18366802,0.14587533,0.34044677,0.8133443,0.15309654,-0.64576423,-1.4513435,-0.20948827,0.61726314,-0.49971032,0.3516711,1.1177548,-0.21687768,0.41201818,-0.44859585,-0.12329729,0.027642103,-0.4280931,1.6789138,-0.6484899,-0.7593403,0.44822082,-0.90348554,0.26056808,0.54797125,0.7034176,1.0430839,0.6451944,-0.68760026,-0.3863548,-0.6164885,0.25189757,0.09051725,0.036130704,-0.3095036,-1.1149261,0.39383245,-0.7024383,-0.08676551,-0.43980378,-0.1945218,-0.35195383,-0.13881606,-0.15714884,-0.65565324,-0.041340277,0.97216046,0.024288759,0.35636902,-0.8747313,-1.5112529,-0.56075346,-0.8913694,0.32912713,-0.5089985,0.23981172,-0.6771242,1.3009313,0.56085885,0.78683406,-0.23792921,-0.6298437,0.65144145,0.7616491,1.2651827,0.8790774,-0.30232403,-0.75632006,-1.3543637,0.66807723,-2.0453966,0.011853198,0.5040084,0.47965655,0.6507758,1.0925198,-0.9549104,0.42058435,0.002688378,0.2068925,0.67153275,0.13944685,-0.89472866,-0.23069444,0.70251155,0.15477693,-0.19495061,0.11673175,0.3921966,-0.7654584,0.8377028,-1.2107326,1.288783,-0.029726861,0.07424518,0.31854337,0.4922886,-0.50668764,0.85339624,0.20794266,0.85136867,-1.149348,-0.84725857,-1.3559848,-0.35487244,0.1420036,-0.22019143,-0.2918593,2.229716,1.108268,1.395555,-1.5946329,-0.16793802,-0.956668,1.0002091,-0.0024959352,1.2777128,-0.7187848,1.0154634,1.0379852,0.86427885,-0.6310244,0.25055778,0.49177694,0.16342402,-0.04634183,0.75746334,-0.16520232,0.05973636,0.23663521,1.3455691,0.9004199,0.26428774,-0.6471522,-0.83397186,0.7427986,-0.20693302,-0.45663142,-0.10518197,0.4025017,-0.09234348,1.6240559,-0.29742163,-1.1208966,0.24502365,-0.38058126,-0.14097847,-0.3239723,-0.43248683,-0.16017014,0.8813573,0.03222677,1.8921124,0.1928862,-0.040205844,0.47550192,0.2618105,-0.64523363,0.65880036,1.0462801,-0.881034,-0.20107692,-0.20369047,-0.7458487,1.081805,0.5088332,-0.60010207,0.13822323,-0.83489776,0.6033751,0.16441323,0.26996452,0.23573256,0.4856922,0.17162877,1.4950827,0.5431618,-1.2347385,-1.3356612,0.34906384,-1.177284,0.26843816,0.7101601,0.25908852,0.03920546,-0.108569875,0.52749103,-1.7448282,0.021564446,0.19740821,-0.11936729,-0.17515853,0.1110994,1.1261604,-0.37635097,0.88753617,1.595886,-1.6014495,0.3197304,0.04638464,-0.39398786,0.111753255,-0.34901887,0.17519693,-0.71321595,-0.27942997,0.35286885,0.35397813,-0.06367752,-0.8608252,-0.18172294,0.03944189,-0.81470555,60.48212,0.538995,0.52548856,-0.049648505,-0.17548364,-0.6666035,0.117376626,-0.62015235,1.2238082,0.7019416,-0.04164251,-0.8289412,-1.2152071,0.5937002,-0.123340294,1.0338727,0.58007354,0.74816704,-1.9058607,1.1426774,-0.21656829,0.78532207,-1.1472481,-0.019038647,0.2093093,0.19987862,-1.0760932,-0.32633436,-0.48149627,0.706878,0.63619035,0.4269821,-0.8163266,-0.09865736,-0.3423075,0.6295286,-1.2991685,1.0426817,0.18963346,1.3790067,0.18972191,-0.8064455,-0.009473281,0.41009605,0.09452958,-1.2766516,0.2371645,0.4850152,-2.1298316,0.19094993,0.6656961,0.5245463,0.03707341,0.4767089,1.0543712,-0.24046195,0.463225,-0.5942781,-0.6486715,1.15748,0.18961197,0.048176557,0.6422229,-0.32282183,-0.10991194,-0.17786902,-0.47932523,0.19692032,-0.06574671,0.5998916,0.45851055,0.1301682,-0.75607,-0.0106860995,0.6760647,0.38536006,0.110879675,-0.9878532,-0.16454403,-0.34736958,-0.9171841,-0.1425249,0.75196755,0.99797595,-1.2058817,-0.9836699,-0.6248764,0.8028458,0.4280671,0.3122179,0.365784,0.040640995,0.5018697,1.0463295,0.035899587,-0.92715335,0.27881184,0.21699172,0.2631741,-1.0134325,-0.645264,1.6671095,-0.7921915,-0.3247683,0.8899034,-0.9272294,0.9950341,-0.21323034,0.10584739,-0.42617643,-0.9936872,0.058265258,-0.2284802,-1.9615842,0.7974685,-1.1947552,1.5297431,1.6223719,1.2380333,1.3645997,1.1372749,2.5006833,0.094219014,-0.07157014,0.3065999,-0.2204189,-0.6634598,-0.44673073,0.33769488,0.5026758,1.4842002,0.58934724,0.12999132,0.4917395,-1.8260955,-0.42585695,-0.73819745,0.32818714,-0.32773462,-0.16217348,1.3479781,-0.9392013,0.725538,-0.4312539,0.51424843,-0.97848517,1.9900007,1.5792445,-0.15776865,1.4380515,-0.6387032,-0.23049153,-0.39949554,0.41862154,0.0037363768,-0.21354116,0.69364655,0.30507895,1.2118684,-1.1021658,0.17431186,0.8111871,0.11816971,-0.99587625,0.010031469,1.0905137,1.0022085,-1.1638596,1.4992917,-0.23944266,-0.102158025,0.37045005,0.24133272,1.0241499,0.16463037,4.1023684,1.4697008,0.18774027,-1.3326224,-0.58395505,0.64625597,1.0939759,-1.2997564,-0.5406684,0.5455245,-0.93165106,1.5939941,0.65872073,0.33159712,-1.1289998,-1.1589793,-0.042680103,0.99270755,-0.24463207,0.6195365,-0.9992868,-1.424042,-0.40451935,-0.096195094,-0.5967725,1.0771663,0.5017519,0.5936158,1.0078018,-0.066115275,-0.2897653,0.21005961,1.079514,0.8225421,0.36542052,2.4451776,1.3205289,-1.5437523,-0.046130635,-0.30000842,-0.36367297,0.97313565,-1.0754409,-1.2149134,0.46732813,0.7028891,-0.9340172,0.55722785,0.45576903,0.39545035,-0.97345257,-0.5615642,1.1836364,-0.14265311,0.71210766,-1.5966142,-0.08299452,0.6130606,-0.17834625,-1.2838049,0.28001776,-1.1254216,0.5822887,1.7158141,-1.4919908,1.3274086,-0.3468123,-0.010225728,0.85723567,0.6883916,0.45552132,0.37249982,-1.0365016,-0.7285073,1.3130635,-1.1333563,0.5060715,-1.1164491,0.46172404,-0.41293436,-0.3717624,-1.0690396,0.14968145,-1.3022338,0.6294506,-0.7006823,0.5086008,0.056989692,0.87376803,0.8708435,0.95892215,0.64181304,-0.24884738,-0.42304903,-0.47104144,0.18123434,0.83927834,0.7227044,0.48008278,0.73315346,-1.0304861,-0.44280887,1.0394189,1.2268184,-0.56684875,-0.3593513,0.79737175,-0.71092635,-0.3175841,0.53513384,-0.36613363,-1.3716955,-0.91307926,-0.55303884,-1.0726715,-1.3179761,-1.3431044,-0.4736808,0.010192428,0.14053719,0.7114563,0.6158241,0.19683772,0.16833276,-0.28550324,1.5809699,0.56591433,1.0168859,-0.016145952,0.22468029,1.5660028,-0.31176963,0.3188252,-0.116324306,-0.38472846,0.72056085,-0.31309494,0.3538298,1.1726853,-1.5994703,-0.49669117,0.1367771,-0.15966173,-1.3899583,-1.8901114,-0.96411073,-1.3680587,-0.43557802,-0.79298156,0.17656052,-0.06864326,1.5248064,0.7248277,0.5249598,0.5119163,-0.8516175,0.4354702,0.29466802,-2.076721,0.44626132,0.5115952,0.3957826,0.71580577,0.7636868,1.274899,0.6096355,0.47816148,0.012804057,0.11447686,-0.78371143,0.19042388,-0.2438043,0.10443817,0.44804704,-0.1825438,0.5695043,1.7465007
dull,0.79872996,1.2890707,1.1583719,1.6954981,0.22983156,0.64198947,0.30001533,-0.24309695,0.17075564,-0.97992676,-0.7755049,1.3913718,0.96878046,0.7917724,-0.07305093,0.13464393,0.18897773,0.6391676,-0.73724794,0.8015573,0.18781306,-0.47754624,0.014285852,-0.2156068,-0.8922433,-0.19349611,0.4358182,-0.6853544,-0.70682645,0.3315781,-0.34127048,-0.268997,-0.87441224,1.7074739,-2.6484194,0.84941834,0.269517,0.8334284,0.62477,1.7103596,0.5417667,0.16220063,-1.2222608,-0.29263154,-0.7256853,-0.0698569,-0.3947426,-0.4190366,0.055577654,0.6076543,-0.9425507,-0.73705536,0.035669506,-0.9952037,-0.8414256,-0.41581702,-0.634116,-1.7380778,-0.122490905,-0.3586912,0.45016456,-0.64359385,0.21313868,1.4172226,-0.5619086,0.8524458,0.43218756,0.54886776,-0.6404938,0.089039214,-0.3272164,-0.7627235,-0.17156023,-0.5304828,0.035522323,0.06483424,0.84437513,-1.1202343,0.8003668,0.7809449,0.9291806,-0.07658702,0.50636095,-0.73929626,0.58454233,0.29354474,0.22006184,-1.4650058,-1.3990866,1.047058,-0.009228289,0.43124843,1.6275305,0.8186899,-1.2128891,0.24316348,0.45643115,0.71134377,-0.042501107,0.6662505,-0.8441818,-1.2104173,0.94502467,1.3530678,1.3042101,-0.7887828,-0.1056841,0.4464054,-0.20279647,-0.5377535,0.69889826,0.9920743,-0.067188814,0.78500366,-0.67817783,-0.23101239,0.13481787,-0.5023174,0.9769375,-0.38404545,1.2082314,-0.8580825,-0.6172717,-1.1520863,-0.7542191,1.498846,1.1089424,0.020200534,0.86212224,0.57147664,-0.6900892,-0.5980033,0.33754906,1.2238946,-0.577322,-0.73356503,-0.47707948,0.6357632,1.6044065,-0.44102445,0.16122957,-0.9475468,-1.8796192,-0.20182748,-1.0133729,0.6221505,0.044985626,0.5116864,1.0304145,-0.60792917,-1.151116,1.1999823,-0.6819787,0.12735152,0.027449286,-0.42817637,-0.39431748,-0.43176055,-0.3074725,0.5091612,-1.6767462,-0.1487825,-0.008975327,0.059227806,0.49119774,-0.27729997,0.4451691,0.8205802,-0.32501054,1.2533982,-0.66089445,0.4222618,-0.96920866,0.28498173,0.49520144,-0.014539446,-1.2245103,0.0155406995,-0.4004623,-1.3010315,-0.34056953,-1.1075196,-0.67035073,0.44691578,0.6315054,0.047102362,-0.59857434,-0.3380493,-2.6350954,0.78301144,0.72085047,-1.1518174,0.07018145,0.08709917,0.42572713,0.22212104,0.9285812,-0.07381546,0.7943062,-0.8860498,0.24321747,0.3000895,1.142609,-1.6320678,0.08651787,0.21249425,2.1905737,-0.34184778,0.031849343,1.3825938,0.6848108,-0.49877962,-0.14495489,-0.0156064825,0.6036115,0.79400355,-0.1474808,0.08750426,-0.43955156,-0.21200752,0.010195762,-1.2811728,-1.3401407,-0.9165972,-0.54112476,-0.35804644,-0.14817671,0.52979517,0.23926677,-0.16372173,-0.6706004,-0.7745301,-0.6725301,-0.6235645,0.21739121,0.008841067,0.75214434,-0.7045242,-0.6849101,-1.0016638,-0.45515105,1.1128106,0.39509705,-0.3759662,-1.3637768,0.8126779,0.42839777,-0.74352956,0.3024465,-1.0605727,0.12906544,0.3486069,-0.84562844,0.14901489,0.63827336,1.7384605,-1.5482426,0.4775256,0.9430044,2.6256993,0.62062216,-1.2960774,-0.5484809,-0.042329162,-0.25207308,1.2758316,-0.5264045,-0.16712575,-0.4154364,-0.44610465,-1.8898348,1.0846058,-0.1687957,-0.23024599,0.2307982,0.23595433,-0.015287697,-0.06471852,0.1131228,-0.9631333,0.34829307,0.09653854,0.11665302,0.08405581,0.19142847,-0.5312657,-0.13645811,-0.8281379,-0.30278972,0.57069546,0.25381193,0.32957757,-0.57210714,1.024177,0.5627875,0.34111747,-0.22901617,1.1307588,0.9850321,0.2610406,-1.1776044,0.18437453,-0.07927451,0.9538324,-0.96432465,0.9515497,0.5912903,-0.66150624,-1.8168837,1.6390799,0.73465014,-0.10081848,0.23749755,1.0827943,-0.31165016,0.27216646,0.06032905,0.8407766,-0.3969028,-0.67621136,-0.2758474,0.040779572,-0.26163304,1.7008792,-0.56253517,-1.5019689,0.42863885,0.1330449,1.4786471,1.1875266,-0.06171578,-0.37566257,0.8278405,-0.0152903,0.042111177,0.6979012,0.31055722,-0.20275779,0.31899354,0.08140519,1.0934618,-1.8269619,1.5656124,-1.0437484,-0.8002453,-0.6994383,-1.1052281,0.39253965,0.36343443,-0.5340727,0.73841065,1.2040638,-1.02764,0.39743328,0.7130406,0.195637,0.58878237,0.056394134,0.24234317,-0.6262072,-1.6706771,-1.3791522,-0.06554254,1.9298185,-0.21568851,-1.1227831,-1.7406842,-0.755214,-0.57078815,-0.6678011,1.1984556,-1.1085607,0.51706886,0.59386665,-0.36382377,-1.1091741,0.742675,-1.2986767,1.0391575,0.16951038,1.3603555,0.3134435,1.0153735,1.0076431,-0.69812346,-0.2750673,-0.13898827,-1.1944841,0.7965024,1.1151644,-0.17404936,-0.70329064,-0.026758974,-0.33653298,0.9381695,-0.5907972,0.5609899,0.24419998,-0.3436437,0.5228819,0.68820125,-0.15835805,-0.0018785099,1.0317674,-0.70096946,1.0826553,-0.5485062,0.01689749,1.7853879,0.67896295,0.52187896,-0.39284074,-0.26197138,-1.4773664,0.8193142,0.77151984,-0.704712,1.4239879,-0.5263853,0.053341016,0.18097174,-0.9995594,-0.50182456,1.4174495,-0.19746308,-1.0407609,-0.3718561,0.13541688,-0.2612612,0.42465422,0.9695211,1.4034706,-0.42901388,-0.8295536,0.90182495,-0.98768014,1.1255995,0.35597727,0.32375017,-0.13674644,0.32202435,0.19974971,-0.72919846,0.023442656,-1.4639549,1.0119003,-0.8409746,-1.2571481,-0.606476,1.8599821,0.45272735,0.50336045,0.6135302,-0.5800989,0.90279084,0.36757985,0.20527428,-0.6272364,0.18387394,0.8361996,-0.36150274,0.65572834,0.9777255,0.49328294,0.3949184,-0.32793888,0.18570237,-0.40106902,0.1271839,-0.5036306,-0.7391011,-1.3321856,0.61917377,-0.31594312,-0.44496116,-0.02217269,0.4715134,0.7600247,0.9117157,-1.1470627,-0.11106071,-0.7639157,1.6025543,0.18204634,-1.2328947,0.33785224,0.3652914,1.0580198,-0.2544984,0.5262482,-1.151486,-0.59731585,0.29424378,-0.20641483,-0.8169498,0.13749559,1.126317,0.6800167,-0.6009124,0.41525707,-0.8285244,-0.48048064,-0.6067104,-0.9542009,0.77865285,0.11300131,0.09596789,-0.9140029,0.7572052,-1.952795,-0.08047199,-0.15937155,0.423684,-0.79057354,0.37169072,0.09001327,0.12660185,-0.23745501,1.3809103,0.35764232,-0.8069423,1.1903838,-0.33320865,0.6324346,-0.20459382,-0.33432904,-1.4003295,-0.5838322,0.5496187,-0.75540084,0.33331767,0.442176,-0.22431077,1.3416194,2.0654116,0.44389597,-0.5858346,-0.22096723,0.1914854,0.03595875,-0.0780631,-1.9568056,0.15417017,1.0042101,0.4746609,-0.86900216,-0.6710921,0.9121763,-0.3140004,0.23005603,-0.68504685,0.83362216,0.25050583,-0.96812266,0.43795037,-0.95803255,0.5427447,0.29049203,-0.32397428,0.7107281,-1.5701771,-0.8555153,-0.71341044,-0.84127015,-1.480312,0.47372422,0.1897056,1.2600638,-0.6018161,0.7925227,-1.0477363,-0.22830258,-0.6331411,1.2510533,0.4564282,1.9492921,1.0545692,0.14078395,1.2517542,0.056817014,0.3570633,-0.72903615,1.5016578,-0.15983078,0.10089424,1.4781576,0.23425524,-1.2372426,-0.041794207,0.46183625,0.6410391,-0.16296697,-0.42225173,-0.66491777,1.181231,-1.5050726,-0.2112393,1.1805819,-0.24217577,0.98779434,0.9739693,-1.9290385,-1.137245,-0.86771727,-0.66402286,0.8456776,-1.1599437,-0.30783847,0.8198376,0.32647339,0.22455756,1.1987473,-0.13358648,-0.8082843,-0.32709464,1.1529385,-0.99070114,0.23019725,1.1387548,-0.7789328,-0.4495512,0.36089835,0.20462634,0.17476386,-0.09599989,-0.38896832,-0.40629697,-2.7733662,-0.39943337,0.017831445,-0.91873485,0.0026574135,0.47196117,0.83091277,0.37821415,0.75012857,-1.2936716,-1.9834837,-0.13457005,-1.3466157,0.69672674,-0.040486135,-0.77435976,0.47294357,-0.75919676,0.45690057,-0.5355654,0.35443947,0.48291755,1.026532,0.19653521,0.15489188,2.502434,-0.580411,-0.8596225,0.7271368,0.089297295,0.16754042,0.35347506,0.36012542,-0.36650097,-0.2583566,0.33453187,-0.927665,-0.5907077,0.5268639,0.95975703,0.08701912,-0.6513796,1.4705075,-0.20334615,-0.73561525,59.56502,0.18555951,0.10150013,1.4426632,-0.89640045,-1.7271563,-0.083579086,0.7202921,1.5203657,0.03523034,-0.6763392,-0.34861174,-1.1097246,0.07313998,0.9782746,1.1466625,0.68182135,0.7999342,-2.426808,1.0171992,-0.9154744,-0.3714784,-0.9370136,0.35218492,0.20396852,0.6044659,-0.62999177,-0.8583707,-0.9038766,0.2778913,-0.123162985,1.1559614,-0.1963824,-0.061755616,-0.32408264,1.7281556,-0.6657682,0.87505174,-0.7269039,0.8619458,0.37217402,-0.88361096,-0.17996825,1.1436679,-0.6453802,-1.3109096,0.10807598,-0.6247179,-1.000256,0.538281,-0.17627774,-0.045065224,0.2654542,0.95460063,-0.028575024,-1.0802552,-0.8849645,-1.3714408,-0.79374266,-0.19707096,0.13135165,1.2436205,1.9967991,0.5767056,0.46735474,-0.30455783,-1.763018,-1.5436524,0.2867693,-0.36789513,1.3239731,1.0685562,-0.7097845,-0.9120237,0.84297633,0.64941657,-1.0905825,-0.5310031,-0.11074877,0.54827815,-0.49973723,0.004560868,-0.17379744,0.61305106,-0.64980936,-0.015512963,-0.6104,-0.46888947,-0.13238043,0.09152663,-0.3316343,0.17034483,0.5682984,-0.11072794,-0.10880488,-0.07504017,0.37054053,-0.092074655,-0.1796236,-0.20536868,0.6368342,0.37608874,-0.41618475,-0.15179835,0.7139673,-1.1358522,0.50606316,-0.1671589,0.62653273,1.1650604,-0.8974359,0.2637557,-0.5954872,0.5787893,0.12652665,0.11183166,1.7611805,0.9718664,0.6211062,-0.00050685805,-0.28620562,0.03821445,-0.29147106,0.82031965,0.1484031,0.49353912,0.0716218,-1.1386532,0.49119082,0.49237108,-0.07689057,0.09731185,0.7332811,0.19555032,-1.0997888,0.03641143,-0.41836286,0.3944287,0.71300673,-1.6975003,0.7614479,0.4891313,1.1875223,-0.36301485,-0.4667205,-0.5471522,1.798748,1.298973,-0.23141079,1.0347735,0.47428998,-0.09427324,-0.7888616,0.16051328,0.2063983,-0.2736489,0.8345806,0.6745612,1.6707164,0.4725887,0.15581815,1.1936653,0.34943616,0.08520529,1.0525846,1.8442341,0.37348732,-0.25383934,0.83185226,0.11588434,0.0040227026,-0.58152366,-0.06601185,-0.44761765,1.1697923,6.0280647,1.4187746,0.28555945,-1.7291201,-0.27099743,0.60322887,0.57521826,-0.325565,0.15110238,0.60289186,-1.0043331,0.4999127,0.23802595,-0.021170953,-0.35775027,-1.1245853,-0.24703914,1.5435637,0.3914509,1.0805978,0.20253424,-0.8353041,-0.768682,0.47918078,-1.4464546,1.380025,0.014771421,0.3268865,1.3794289,-0.24511975,-0.82169104,-0.15481803,0.43953404,1.5300564,-0.1274559,1.1625198,0.32361135,-0.97970104,-0.15904099,-0.8030487,-0.35945007,0.8320038,-0.8225108,-2.2432094,0.35626492,-0.84443384,-0.36346427,-0.70403576,0.8241329,1.6146913,0.13724679,-0.7570247,0.50108796,-0.6081695,0.39853454,-0.64117616,0.7278461,0.10121146,-0.5628219,-0.75382024,0.645103,0.11868522,-0.19797961,0.615262,-1.4273812,0.53561926,-1.6430615,-1.02044,1.3111316,0.15153368,0.71766615,-0.8252236,-0.9470499,-2.1653266,-0.123708464,0.35804343,0.5518574,-0.42274734,0.8978732,-1.6877862,-0.9289945,-1.1170615,1.143928,-0.8732407,0.43328318,-0.539687,0.022312736,-0.8928036,1.762033,1.4593722,0.9741625,-0.59994626,1.2827371,0.048040424,0.19785114,0.9364099,1.5960331,-0.23761642,0.25646415,1.3849226,-0.5781391,-0.6574717,0.39851058,2.1007621,-0.23810148,0.37182608,0.47627464,-1.2227372,-0.5265345,0.19455332,0.54931307,-0.47952834,-0.5581093,-0.6031571,0.14917888,-0.8662092,-1.2044579,1.328268,-0.50554556,-0.040549617,1.6118913,0.44396627,-1.4069494,-1.0588139,0.24979587,0.8912356,0.06648863,0.16915278,-0.34459713,-1.0299342,0.63478106,0.29410112,0.39744377,0.7023588,1.1452761,-0.24507141,-0.39970633,1.3259455,-0.9194493,0.6042904,0.30846944,-0.6180663,-0.63820654,-0.6454091,-0.104316175,-1.1799153,-0.7648179,1.5819701,-0.6949037,-0.8299344,-1.0481125,0.12071978,1.1129879,-1.1209631,0.7074521,0.07285596,0.16957967,-0.672997,-1.2033006,0.43116638,1.6310116,-0.3458319,0.7371578,0.29208407,0.78042555,0.7690115,0.70482975,-0.21841677,-0.32059562,0.15275955,-0.08745635,0.8334834,0.6203138,-0.54280967,-0.189341,-0.63142323,2.3077643
arrogant,0.6255924,0.5829963,0.92478627,0.63566583,0.82589453,0.22728564,0.41324854,-1.2569509,-0.79677886,0.56264734,0.5689538,0.19848251,0.01179001,1.136049,0.034010604,0.60600823,-0.27190897,0.27166438,-0.9336998,0.48916188,-0.3859683,-0.6358896,-0.64418966,-1.1316003,0.14059357,0.31389198,1.4653457,-0.04217027,0.09066138,-0.09384941,-0.55463934,0.6000485,0.086363554,0.6522012,-0.065142095,1.0434426,-0.76211053,0.20772739,0.3881023,1.8991852,0.94874644,1.998891,-1.3150012,0.663354,-0.5551581,-1.4558238,-0.61245036,0.43514004,-0.46719941,0.582265,1.0494365,0.60225636,0.810198,0.19785924,-1.2032456,-0.21222006,-0.63077915,-1.9162426,-0.21538056,-1.6427555,0.832444,1.0422304,-0.31693968,-1.0149612,-0.64290935,1.1686279,-0.38762522,-0.7123832,-1.1111355,-0.39933833,1.2957879,-0.3053794,1.0518984,-0.6014624,-0.59553736,0.74490446,-0.8378422,-0.90053517,1.3713894,1.2155632,0.4585106,-0.015459404,0.8460688,0.061302602,-1.1082917,0.7344149,0.24978256,-0.5518314,-0.3603898,-0.3517783,-0.38683498,0.507449,0.13634218,0.1613956,-0.11225172,-0.27356654,0.3709778,0.5468118,-0.28150538,-0.7079482,-1.04675,-1.0046176,1.0019857,0.765472,1.2070946,-0.45175365,-0.759192,-0.16639632,0.49152157,-0.48575878,1.1178643,1.3469648,0.8645582,0.6518573,-1.0475227,-0.4744482,-0.11341836,0.057243615,0.6727899,-0.03326279,-0.63606304,0.16885097,0.50010663,-0.7296839,0.2949601,0.057861876,-0.031061685,-0.024545213,1.3660196,0.73332644,-1.037796,-0.4340085,0.1619057,-0.9194455,-0.10622714,0.113403775,-0.39118302,-0.87449807,0.7176068,0.19065924,0.7627538,-0.89097065,-1.5468922,-0.43450418,-0.03524423,1.215128,-1.0932112,0.21553402,0.784776,0.12703986,-0.7217707,0.64076906,1.4626861,0.41417828,0.26008466,-0.5495426,-0.792388,-1.0630869,-0.7669967,0.24075438,4.3027103e-05,-1.0102521,-0.4313841,-0.2569027,-0.37517676,-0.22407228,1.1179916,-0.8042157,1.2499853,0.112723015,0.12158078,1.3606094,-0.86957127,0.71405166,-0.5079087,0.643775,1.4982413,-0.17681445,-0.03085822,0.7147085,-0.07034306,-0.07773366,-1.6505214,1.697502,-1.2964298,-0.7084775,1.1589373,-0.8220101,-2.2819717,1.5129732,0.021900922,-0.0038435857,0.098552175,0.15921175,-1.0903798,0.711602,0.40735462,-0.59210575,0.63574094,0.31681606,-0.120409824,-1.035508,0.01759126,-2.2341592,0.6782182,-0.5835667,1.2944103,-1.6619066,-0.84140307,1.4925944,-0.1588926,-0.4311522,0.6376925,-1.7524128,-0.104801424,1.0767853,-0.109617226,-2.358298,1.248514,-0.2378629,0.53663164,0.03145726,-0.73844194,0.3689988,-0.49305475,-0.42367017,-0.021656439,0.7361701,0.21418285,-0.5165863,-0.4369692,-0.98885125,-1.1821798,0.086578704,-0.5209866,0.18817,-0.21898752,-0.02973505,-2.3672159,-0.6408383,0.25459775,1.3511797,0.5217411,0.28537688,-0.38902447,0.5679459,0.1012033,-0.7422321,0.58949965,0.7375502,-0.033789113,-0.5492865,0.57209337,0.12263893,-1.4387178,0.11916637,-1.2703596,0.48533407,0.83097845,0.5003651,0.08883155,-0.3865346,-0.07847456,0.6246472,0.49779,-0.2671794,-0.3140407,1.4934955,-0.28819397,0.0603506,-1.1919855,-0.9652694,-0.42496875,0.48879352,0.56594175,0.4466318,0.78099346,0.21037035,1.1145493,0.38455924,-1.0853208,1.353549,-0.577693,-0.62897927,-0.57907003,-0.23157598,0.25389323,0.38478935,-0.15102924,-0.29800257,-0.1876998,-1.1577258,-0.6020008,0.22777843,-0.1727943,-0.3117664,-0.49147287,0.67108124,0.37293246,0.66583174,-0.5404538,-0.33015025,0.2822474,0.5563062,0.17199439,0.40914592,0.16113746,-0.5861066,-0.36727926,-0.21349263,0.052669387,0.29837534,-0.6691818,1.563531,-1.3910141,-0.5336586,1.0691823,0.7845816,-0.70438105,0.46664354,-0.2744222,-0.47931662,-0.7730174,0.9699373,1.9207138,-0.16518652,0.7144014,0.4009355,1.4710573,0.9764846,-1.0594437,-0.34248558,1.923069,-0.5500322,0.13986939,-0.50076425,0.52251095,-0.016236922,1.5187715,-0.11523375,0.0736624,-0.4856665,0.25403893,0.40027925,-1.6699773,-0.31586948,-0.79111695,0.021799153,-0.33998728,0.54850733,-0.08641899,0.53909045,-0.77682847,0.13459733,0.9674123,0.75547427,1.607576,0.26023182,-1.1277119,-1.2742435,-1.4705929,-1.1090688,-0.39184836,-0.3071533,-0.51461345,-0.19328189,0.44233504,-0.05627392,0.16373102,-0.907759,-0.32527807,-0.36879945,0.64113253,-0.7248082,-0.3537047,0.27510217,0.5003342,0.0016833792,0.36064604,0.556897,1.5258727,-0.27542517,-0.003947343,0.33443618,-1.0456496,0.56244415,-0.30008742,-1.1699234,-0.25378212,0.75924206,-0.5800324,0.74572414,-1.0025905,0.23202838,0.9239878,-1.220001,-0.629631,-0.6564541,-0.9616256,1.8962015,-0.16864546,-1.1327716,0.1382187,1.3971962,-0.6761529,0.3545594,-1.0000548,-0.8933824,0.08064657,1.0293329,-0.97552186,0.33967772,1.3756977,0.44358793,1.0787044,1.6802511,0.04913081,1.4374895,0.011190266,-0.1780498,-0.09441189,-1.0209118,0.436406,-0.18937646,0.35591018,-0.53665656,0.69528407,-1.2229671,0.48947462,0.8665693,1.3623304,0.92779523,0.40133783,-0.4565879,1.9614329,-1.0458394,1.2694795,-0.0787477,-0.52014303,0.49597934,1.8134528,1.0996593,-0.6305017,0.30650994,0.135686,0.9172793,-0.1463397,-0.1788187,1.4111338,0.48177037,1.3487892,0.887055,2.0063393,-1.287083,-0.16396014,0.3822173,0.33408102,-0.09076121,-0.13415886,0.0559345,-0.019738726,0.34164485,0.3488438,-0.522028,0.45023727,-1.9824911,-0.12930197,0.01318444,0.23364967,0.1749258,-0.865985,-0.41663477,-0.35316038,1.1782914,0.9454418,-0.49440154,-1.9626583,1.3323213,-0.49148536,0.14826958,-0.6425522,-1.0317421,1.427803,0.5256598,-0.058431845,0.22403492,0.18535323,0.073903434,-0.49703208,0.70722455,0.6716201,0.26598647,0.110848494,0.19185813,-0.016246358,0.697555,-0.6086802,-1.251994,0.10772381,0.7743506,-0.25204155,0.55214727,-0.21109144,-0.49410358,0.05381921,0.6009373,0.25769708,-0.46641445,0.056393847,-0.41205826,-2.7716682,-0.82258105,0.46494412,0.3885125,0.94841415,0.36841533,0.31867418,0.2555186,0.28198403,-0.2103359,0.17234354,1.2206311,-0.58514935,0.28231642,-0.3890655,1.2482419,-0.48348153,-1.1923509,0.06824074,-0.24468489,0.42285442,-0.10772481,-0.2684435,0.65119725,0.5104826,0.6054433,0.9037269,-0.84745616,-0.3412681,0.25375128,-0.3063112,-1.7103705,0.67487925,0.19563162,1.2741286,-1.5571715,-0.2855449,0.47216806,-0.055244815,-0.009542806,-0.4377415,2.0303507,0.35507032,-0.56367487,0.4712558,-0.21591695,0.7179224,-0.13883656,-0.34268093,0.1957025,-0.37259683,-0.9007141,-0.3238732,-1.4509544,-1.0049709,-0.90645343,-0.7791566,1.150463,-0.85591316,0.9935426,-0.17365664,-0.062287733,-0.4114435,0.98715925,-0.06778402,0.066600166,0.07959927,1.0063324,1.3672549,0.7352069,0.48010334,0.004914125,0.58377475,0.7417821,0.55258846,0.04078468,-0.95236176,-0.888582,-0.7264252,0.8221559,1.1453886,0.8993755,-1.2402312,-1.196019,0.23855175,-0.18714286,0.2866287,0.010081361,0.21320929,0.046595976,0.6996557,-0.97653204,0.11798823,-0.75423265,-1.3739042,-0.2680936,1.2488576,-0.5442619,0.9862549,0.3881843,-0.43899617,-0.107350774,-0.84255046,1.128903,-0.24858695,0.55610293,0.3062679,-1.7246164,1.3056735,-0.7260401,0.046065856,0.26698068,-1.0172644,0.8914704,-0.065034136,-0.0112879425,-1.3709403,-1.8152331,0.91051966,-0.398741,0.43519592,0.021466173,0.50315255,0.8508523,0.6090445,-0.30206543,-1.792271,0.14408657,-0.70997524,-1.1155233,1.317082,0.5890023,0.8885555,0.01678331,-0.2737521,1.0799314,-1.0104866,-0.8214219,1.2486625,-0.5989019,0.460024,0.6493315,0.8541525,-0.3568543,0.24323495,0.17956245,0.7461769,0.4825931,-0.7072933,-0.47590172,0.7067142,-0.31098863,0.057934243,0.0670732,-0.75192165,-1.1263667,0.3563889,-0.17835313,-2.405533,0.7929135,-1.2245284,-0.07911131,59.72429,0.110023476,1.2705576,-0.80613035,-0.1622238,-0.3531889,0.11323264,0.45300427,2.0320818,-0.37278458,-0.43621102,-0.025184104,-1.3844455,1.4116436,0.9662041,1.4461857,0.954001,-0.13336551,-0.5770664,0.8830437,0.8472752,-0.59937865,-2.6245482,-0.18625705,0.31179303,1.297893,-0.7707631,-1.5726762,-1.6970425,0.8631117,0.87583786,0.4059925,0.22619468,-0.340814,0.5728101,0.23868717,-0.48483634,0.9052362,0.66915655,0.78376216,1.7305169,-0.039369434,0.07075692,-0.028352031,-1.1444844,-1.1149602,0.12142082,0.6318744,-1.5849184,0.4495603,-0.5076141,-0.2017107,-0.57836676,-0.001567339,-0.11037474,-1.3314768,0.18445496,-1.4942732,-0.54174465,0.1366765,0.83671397,-0.62705475,0.97179556,-0.041623577,0.8403637,0.10934019,-1.5184599,-0.6920423,-1.2504228,-0.78379184,0.81407475,0.93575114,-2.3716087,1.3169975,1.0576905,0.75586456,-0.7671258,-0.71710473,-0.20337577,-0.0018720286,-0.66219896,-0.10646997,1.5839094,1.1105757,-0.97848505,0.26873934,-0.53147566,0.48682877,0.07479852,-0.78424454,-0.43326235,0.3132782,0.4755371,-0.4443773,0.30887726,-0.750408,0.7383833,0.41769245,-0.46977124,-0.81840944,-1.2531009,1.061459,-1.1733898,-0.034803182,0.67466956,-0.24342151,1.0747898,0.7370052,0.7311626,0.14838327,-0.62426454,0.11419471,-0.08446259,-0.66266984,0.9959418,-1.3556198,0.9453721,0.1454138,2.00963,0.8489956,0.6553459,1.7303251,0.85278517,0.24784565,1.2565712,0.44469532,0.47909606,-1.4984127,0.60718346,0.18064107,1.107843,-0.72198844,0.8535819,2.0031643,-1.1391858,-0.44680128,-1.073083,-0.7854042,1.3394371,-0.46114793,0.5222259,-0.55175936,-0.94226974,-0.3881165,0.54792446,-0.5643072,1.923206,0.5366478,0.8425593,1.1394411,0.079959705,0.81496316,-1.6101751,0.2031148,-1.400436,0.84159636,0.35298887,0.32835147,2.2635076,0.051488858,-0.2653084,-0.05912882,-0.11509154,-1.0480489,1.8354489,1.0140175,0.64214617,-1.1388111,-0.6295927,0.15982814,1.0421326,-0.66046923,0.5177083,-0.97379583,1.0088688,2.0251489,-0.7357721,0.04219994,-0.7615075,-0.035299256,0.6707457,-0.04298432,-1.4232978,0.45172128,0.90743357,-0.32374963,-1.1968087,0.8509739,-0.9353566,-1.4462109,-0.18124793,0.53086174,0.9991453,0.32350096,-0.28789255,1.5752145,-1.0733389,0.21456088,0.49499524,-0.9504528,0.58309054,2.335253,-0.31348586,1.9177679,0.5680099,-1.0451831,-0.586719,0.7420342,0.19029456,0.5293034,1.7262036,0.46777925,-1.4812956,0.1790073,0.28117096,-0.31337854,1.0932856,-2.415704,-1.6496878,0.8536908,0.41529703,0.596236,-0.7875621,0.19440155,0.3270427,0.4968083,-0.49292985,1.0288976,0.67622614,0.28318015,-1.3421303,-0.9634545,0.71555454,-0.54166377,-0.9301066,-0.10768795,-1.0466641,-0.3226918,-0.3548187,-1.1307012,2.286448,-0.16751505,-0.8017631,-0.19961637,-0.13012539,0.2681478,-0.3785498,-1.1471704,-0.26018623,1.3112086,-1.2364737,0.8757221,-0.50595564,0.28707695,-0.039159905,-0.6161453,-0.79667693,1.709037,0.06383521,0.5853314,-0.86781883,-0.36202303,-0.5695525,0.6251836,1.2331996,1.4795717,-2.3662221,0.5622671,-0.27228037,0.43538383,1.8105159,0.61220914,0.43519583,1.345991,0.3251606,0.07861202,0.6219959,1.4430217,1.7155434,0.24526465,0.0052846023,-0.17782795,-0.47129133,-0.9723497,-0.1789942,0.55512196,-1.9350266,-0.83123285,0.36797962,-0.22816992,-0.8136313,-0.7961495,-0.56671405,0.24096811,-0.4418651,1.7665935,1.3044773,-0.81920695,-1.0569457,0.2003649,-0.58319116,-0.0016004356,-1.0107869,-0.18429546,-0.7923765,1.596048,-0.39762154,1.0635368,0.39188838,0.9619298,-0.0089163855,-0.988447,-1.2149488,0.0663654,-0.5480248,0.57082057,-0.75087166,0.53670365,-0.69424796,-0.361542,0.41656208,-1.7961925,-1.1206397,0.21775573,-1.0487595,-1.0072238,0.56061083,1.6703173,-0.38560987,-0.16394044,0.5741449,-0.37722692,0.53227764,-1.6201719,0.30598,-0.26076654,-0.5252729,0.67218536,0.12204995,1.4959234,2.2417753,0.4833673,0.78023547,0.18668239,-0.43308875,-0.09534379,0.119668126,0.8424621,-0.87146544,0.14322136,0.4937252,1.3732454
careful,1.0222846,0.5267145,0.91541576,-0.45124522,-0.14437638,-0.013418901,-0.1838562,-1.1136612,-1.6403912,2.29475,-1.3958133,-0.1257425,0.10051579,0.105164826,-0.26180008,0.7324684,-0.10043346,-0.10625794,-0.6605173,-0.038164217,-0.84903646,0.23225981,0.09860652,-0.44450507,-0.7723694,0.80352634,1.1363534,1.6228676,0.13888933,-0.14991294,-1.4809016,0.06306011,0.977565,0.47959778,0.60119766,0.08397189,0.012400433,0.82487506,-0.27887335,2.0472057,-1.1942116,1.5768589,0.29839858,-0.14605446,0.114715,0.65497285,-0.8435305,0.5815981,0.90427333,0.015474305,0.9581976,1.2790965,0.09868092,-0.64251965,-0.67283255,-0.14780301,0.31903055,-1.5534314,0.4664611,-1.1467661,-0.996821,1.1368693,-0.09947873,-0.7845252,-1.1483556,0.26412928,-1.2564567,0.20708056,-1.0465708,-0.18142052,-0.49663222,0.03148034,0.2964451,-0.5689818,-1.1621448,-0.21610695,-0.4091529,-1.5684189,-0.43578848,1.3538276,0.7476675,-1.1696602,0.5657883,-0.2601079,-0.90475184,-0.768568,-0.82831025,-1.0636293,0.8492295,-0.99223995,-0.23554896,0.22764921,-0.3982836,0.97428733,1.351254,0.67645806,1.3780584,-1.416758,-0.22878122,-0.2640163,-0.38631323,0.011417355,1.1531907,-0.25911304,0.6892884,1.3182069,1.0781821,0.41778147,-0.5075597,-1.0518229,-0.2951468,0.08531484,0.6760714,-1.0309914,-0.30728367,0.77277774,0.24369065,-0.12545832,0.336619,-0.2342516,0.4718283,-0.055392075,-0.20004873,-0.4749368,0.18938942,-0.19611518,-1.274142,0.76493645,1.6185288,0.79074144,-1.0622157,0.103549905,-0.13318641,-0.0046105026,-0.5973858,-0.025474707,-0.44922724,1.2437677,1.3627421,1.0906615,-0.39972615,-0.34547016,-0.006601449,-2.0785482,-0.3517436,-0.53345025,-2.8232813,-0.08477423,-0.33908042,0.63123775,0.9366815,-0.17813186,1.7648569,-0.10500192,0.7250846,-2.2897336,0.7361207,-0.007843901,-1.1847848,-0.24069472,0.7795186,0.9417576,-1.0853041,0.41328987,0.49935365,0.11140261,0.00023864458,0.7221306,-0.075560756,0.31113926,0.08489252,-0.21068662,-0.060941547,-0.36151716,-0.86542755,-0.06209104,0.3742043,-0.27911824,0.51364446,0.6488002,-0.017449439,-0.12731828,-1.8153273,0.66892225,-1.4141461,-0.48658764,1.3232627,0.0562599,-1.001475,0.7269418,1.5304966,1.3291165,0.7842605,0.40331206,-0.6671445,1.8644476,-0.19730143,-0.14014044,0.8830115,0.10858974,0.46169555,0.33034816,-0.20141374,-1.5563989,0.33543637,-0.41683245,-0.075379856,-1.1307858,-1.6217241,1.4245596,-0.40700293,-0.2690337,-0.3144426,0.21223776,0.23497714,-0.09409595,-1.3634502,-0.12420893,-0.1392611,-2.6085985,1.5822462,0.22004752,0.29554453,-1.6056544,0.033795305,1.0520229,-0.55177796,-0.12487644,-0.05528839,-0.17598076,0.18711059,-0.8511303,-0.8699605,-0.30618155,1.4841652,0.10717387,1.7222514,-0.68741685,-2.0447786,0.36454055,0.45824277,0.17497243,0.46852157,-0.843615,-0.58814895,0.50074863,-0.2616907,-0.051191706,-1.0976337,0.36292073,-0.2532798,-0.87967324,3.692011e-05,1.0649323,-0.288784,-0.6043924,-0.24133353,-0.14619984,1.150576,-0.769059,-0.31161305,0.40712628,0.30292097,0.24281706,0.74669266,-1.1858479,0.2634338,1.1138467,-0.96246177,0.22163123,0.45843062,-0.38865697,-0.8087816,0.973941,-0.02714811,0.30314326,-0.12866978,0.296541,2.2844388,-0.17963363,-0.6316764,0.7459071,-0.3011171,-0.046842616,-0.16615157,-0.6609718,0.8370103,0.65470415,-0.7520593,-0.13027288,1.1648057,-0.5867474,-0.9046631,1.3358558,0.15181015,-0.10136732,0.99769324,0.2593778,0.12494069,0.6905763,0.005739484,-1.2165505,1.341247,-1.0903002,-0.41000035,-0.011781759,0.48963997,-0.6162142,0.2193495,0.10836098,-0.18433918,-0.61026907,-0.71678716,0.09360268,-2.1759503,0.27505222,0.46358326,-0.9648735,0.07230649,0.22243758,-0.7509537,0.4562038,-0.51478624,0.09904155,1.6662711,-0.43302444,0.5043129,0.7609187,1.6697828,0.99392563,0.59638214,-0.29449788,2.3250873,-1.6863188,0.22267585,0.9855545,0.23244591,-0.7628896,0.45413795,-0.46615803,0.27005345,1.5478717,0.3003466,-1.3129443,-0.70496154,-0.024272269,0.27841887,-0.6955393,-1.1107621,-0.23787785,1.0105835,1.7530127,-0.5526133,-0.06917559,-0.2419527,0.08614665,0.85845035,-0.3009448,0.8886965,-0.74587345,-1.2525929,0.42571524,-1.0013305,0.24625067,-1.7963077,1.7411208,0.054927777,0.49496603,0.1327465,-0.6362591,-0.77467227,-0.94588524,0.30740413,0.18789887,2.1007884,-0.014016919,-0.8965159,-0.20787317,-1.7922176,-0.03819822,0.37599778,-1.0160576,-1.2481574,-0.2938483,-0.31340566,0.89761233,0.35008064,-0.51815957,-1.4045552,0.7757904,-0.3265076,0.77887535,-1.134448,-0.600836,-0.899281,-0.73100823,-0.89802647,-0.7580982,-1.0898331,2.449319,-0.42285132,-1.8548881,0.0409182,0.7841118,-0.111190975,0.010357727,-0.052172642,0.9539223,-0.8531842,0.024802918,-0.47771677,0.5822293,0.67308927,-0.9266413,1.139271,1.1323295,0.07788294,1.871081,0.19250302,1.3013673,-0.9249122,-1.193613,1.010416,1.586732,0.18138535,-0.8557401,0.015672365,0.7168184,1.0166636,0.9635144,1.1633139,1.186472,-0.89824134,-0.020163843,1.3807873,0.4017214,0.35900995,-0.33354613,0.8338185,-0.58204937,0.38366386,-0.6739723,0.5590053,1.6128016,-0.12753525,0.9287803,0.48894277,-0.26844442,1.7602342,0.59493715,1.0414091,-0.060807984,0.58255345,-1.9215282,0.09745678,-0.17751355,-0.10206058,-0.48647574,0.41723323,-0.82391435,-0.051359802,-0.12641102,0.75231403,-0.16805154,-0.25141165,-0.7686259,-0.7241929,-0.5310716,0.5474219,-0.22833408,0.017821988,0.097837746,-0.6093121,1.2277325,1.2386814,-0.40579426,-1.6164328,0.7002695,-0.25621852,0.48336303,-1.9781141,1.1453377,1.355503,0.2887747,0.23311602,-0.077108376,0.48027936,0.1734857,0.35803008,0.48866186,-0.03308299,-0.2315694,2.0857344,1.3029093,-0.49166834,1.020967,0.124197,-0.83712727,-1.6409893,-1.8816262,-0.8870633,1.566784,0.5332195,-0.80478233,0.37964973,-0.5072641,0.9220765,0.4116671,0.4265475,-1.0840554,-0.79691774,-0.6249211,-1.6408777,1.0106019,0.47874412,1.6845737,-0.99584454,0.26576987,0.38202596,0.27456948,-0.7859302,-0.9404931,0.804471,0.46079326,0.23643559,0.48393807,-1.2231716,-2.379097,1.1652246,0.62786186,-0.8167859,-0.19494407,0.42662182,-1.134275,-0.30186117,-0.1687512,0.6452598,0.754594,-0.07141753,0.6702097,0.92756444,0.47872114,-0.29427218,-0.5702224,0.8325594,-0.70605487,0.32053992,-0.10762977,0.04862621,-1.0140264,0.9834938,1.0080012,0.5165723,0.2283111,1.2079264,1.6798733,0.59916735,-0.054264113,-0.586461,0.43926606,-0.021243053,-0.58909017,-0.16182117,-0.74985766,-0.86537504,0.9626041,-1.3355565,1.2203358,0.22851296,1.1979904,0.9260769,-0.47813472,0.25884223,1.3278304,0.5445711,0.99154586,-0.15365104,0.5762647,-0.1561456,0.8251989,0.91787815,0.3473359,0.73629,-0.8162234,0.36580765,-0.11778311,-0.48041376,0.1342584,-0.13479333,-0.0231641,0.1841379,-0.39153957,1.034743,-1.0886194,0.73384684,0.45685342,-0.1361151,-0.122359104,-0.11877107,0.30757564,0.21825218,0.20132488,0.39244398,0.063768,-0.6254294,0.0018753409,-0.4248637,0.4212426,0.20596062,-0.38489366,0.5937482,0.8477998,0.66723984,0.17216152,-0.65316385,0.95721036,1.1467904,-0.9019062,0.2457314,1.0000685,-0.028437918,0.1458533,0.42932406,0.40941647,1.3705174,-0.08092218,-1.5179496,-0.13870153,0.08517549,-0.81436396,0.59839845,-0.08349904,-0.044804137,0.65426964,-0.08021477,0.304871,-0.9115645,-0.12234878,-0.5259658,-2.2727954,0.8404879,0.79315233,-0.13502897,0.51575404,-1.2842401,2.0861857,1.1692395,0.07965346,0.78079695,-0.5455365,0.7809024,0.24110384,0.2610681,-0.8410933,-0.20653264,-0.61190784,1.2075709,-0.16437244,0.023392558,-0.9369424,0.34818125,-0.471531,-0.9439912,0.18500082,0.5935938,-0.25693193,0.79709655,1.3223443,-1.50883,0.19511493,-0.58996964,-0.5551272,56.610775,0.23002021,0.5013728,-0.088661425,-0.37794852,-0.0227649,0.6946409,1.2276597,1.5558425,0.43723348,0.63110673,0.25388804,-1.7067534,1.0259504,1.1112982,0.9932866,0.7690158,-0.8235032,0.8661902,-0.6202419,0.766267,-0.6952229,-1.0567677,0.94367,-0.063182466,1.1654748,1.0083927,-1.3027701,-1.8586063,1.1473614,-0.85425156,-0.007118121,-0.6555982,-0.20439094,0.93966156,-0.32706356,-0.86985415,-0.37276697,0.38875142,1.8022512,0.39474666,0.8441005,1.1263055,-0.05086161,-0.16971897,-0.048035976,0.217104,1.4384538,-1.1410004,-0.11757705,0.49206674,-0.06564938,-0.87885433,-0.2498951,0.82501507,-1.8001555,0.8806837,-1.337309,-1.1431004,0.4356084,0.380385,-1.4762154,-1.0588336,1.2939771,0.7076416,0.731631,-0.46304443,-1.5660113,-1.2114825,1.5403409,0.7704901,0.8178802,-2.0230672,1.0645468,1.232637,1.1626998,1.188758,-0.14106156,-0.29593208,-0.8090384,0.4316313,-1.608996,0.7411987,0.45958677,-0.47114563,1.8250641,-0.6029449,0.058196608,-0.5668669,-0.70006055,0.6759827,-0.36896423,0.13208623,0.8592389,0.26111484,0.22943835,0.48937944,0.6118455,0.7239081,-1.3594402,-0.21645315,-1.3258907,-0.7142994,-0.67117244,-0.0029182534,-0.5464015,0.5608845,-0.4868698,-1.330079,0.7432186,-0.08489106,0.6483787,-0.7346576,-1.2443792,0.541472,-2.0498674,0.75723296,-1.1446959,0.037416745,2.3056223,0.58891827,1.0994483,-0.6460429,0.19513832,0.45329365,-0.4350637,-1.7556957,-0.5697103,-0.20610614,-0.5898184,1.2382321,0.10266015,0.09868103,1.189963,-0.68915063,-1.4321877,-1.6665411,-1.4610494,-1.2151772,1.1904277,0.15823066,-0.20079176,-0.40370873,-0.1887393,0.09348003,1.0220371,-0.39695123,1.3259802,0.44153926,1.1201595,0.3159198,-1.7537917,-0.72348565,1.233176,-1.8911675,2.19915,-0.3296217,-0.63515455,0.9399037,0.22131963,-0.7787593,-0.92730737,-0.70189595,-0.36686936,1.9652508,0.38327584,-0.009445605,0.22661793,0.44930196,-0.36734125,0.30748323,0.7968896,-0.8330441,-0.15925519,-0.78461343,5.484426,0.34204122,1.263502,0.061342582,-0.59141904,1.6559833,0.523547,-1.8395185,-0.10582915,-0.13453804,0.58834314,-0.855231,0.54493165,0.0884173,-1.109517,-1.9083652,0.6339817,0.22190936,-0.684851,-0.37212196,1.531772,1.8132533,1.3342991,0.4540286,-0.16348542,-0.53079414,1.4476374,0.29433283,1.3048972,-1.125434,-0.58515483,-1.3279175,1.7719008,0.25154802,-1.3295695,0.24123289,0.49963567,-0.8053437,0.41863886,-2.4529662,-0.6800913,0.8419812,0.032372657,-0.12418715,0.63197,-0.12835217,-0.13270289,-0.5834586,-0.17481433,0.49480566,-0.057945356,0.28436396,-1.1532898,0.931726,-0.8274786,0.3552817,-0.45915624,0.86337614,0.2679062,0.4430124,0.22910495,-0.7991071,-1.8539343,-0.19736232,-1.2018328,0.7755499,0.73813105,0.07881001,1.4992061,0.98401356,0.45052767,-0.053281337,0.34096894,-0.61044043,1.7598091,-0.24290974,-0.32381415,-1.0516139,0.25652716,-0.9146336,-1.7244874,-0.9593086,0.867589,-0.6384555,0.29415366,-0.73767084,0.28642002,-0.4480255,1.1840982,0.91330075,0.9392047,-0.7418942,-0.14052752,-0.78798264,1.6735073,0.6919632,0.23327048,1.343093,1.3236138,1.1113578,-0.92083025,0.5961266,1.3759629,1.3749219,-1.0026822,0.006320668,0.8611973,0.92491966,-1.0285169,-0.4878963,-0.32476372,-1.9748808,-0.019039735,0.52722114,-0.852119,-2.1014395,-0.35427412,0.69295645,0.31601557,-0.6889994,1.0443078,2.0211048,-1.5765991,-0.6016913,0.848921,-1.1001934,-0.11241349,-0.99478436,-1.6277791,0.107073165,1.0650748,-1.6594032,0.80006915,0.21093482,1.5888423,-0.05657192,-0.35046044,-1.5535797,0.2600418,0.6726119,0.3748665,-0.22208256,0.29398742,-0.5307865,-2.5923479,1.0956477,0.4596177,-0.61448216,0.85446686,-1.0516557,-0.900132,-0.5360775,1.5601777,-1.1261611,-0.33866683,0.6133415,0.88515955,0.68698144,-0.28823343,0.005431138,-0.18109621,0.013428361,-0.27297673,-1.1676339,0.44914874,1.497255,1.6155905,0.10407487,1.163101,-0.13550328,0.018587362,-1.9224958,0.3541921,-0.39861038,0.64227575,-0.96036845,-0.31802946
communicative,-0.90817386,0.26813316,0.13153912,-0.6610194,0.018758498,-0.5958759,0.89016145,0.6449997,-0.6216597,0.39617184,-0.7722493,0.33272377,0.639242,-0.4479785,-0.5829428,0.1276624,-0.74598837,0.56115943,0.038545106,0.20440145,0.5571422,0.18747278,-0.21642621,-0.8055479,0.07676768,-0.6270333,-0.04382847,-0.3060439,-0.50773144,-0.67645854,-1.0298177,0.01096648,-0.28768948,0.9778953,-0.06737276,0.26458442,1.1989042,0.9828635,1.1146007,0.39296675,0.55355626,-0.08713361,-0.5937181,0.23231137,0.9388984,0.08379524,0.5212788,0.04110321,0.19490679,0.44187596,-0.69363135,0.0025529366,0.08263008,0.0965788,-0.45463744,-1.0503839,-0.06700499,-0.53173643,0.7210321,0.037737906,-0.06421256,-1.0191123,-0.43129542,0.07577047,0.3018825,0.56305915,-0.5071237,0.08009374,-0.74673826,0.6741155,-0.67051196,-0.064988606,0.26367772,-0.3472054,-0.35608461,0.088121615,0.6375437,-1.134286,0.09531021,-0.22794239,-0.3486861,-0.5435279,-0.41021982,-0.5850429,-1.0015124,-0.4301865,-0.13752197,-0.18131173,-0.318419,-0.22937877,0.15524013,-0.7250726,1.4015247,0.074891485,-0.21946384,-0.13351454,-0.30809596,-0.53554016,0.55155087,0.16042234,-0.60843056,-1.2841502,0.97183037,-0.01663574,0.649663,-0.59378195,-0.71528435,0.30315506,-0.39389488,-0.07456981,0.45249507,0.20569913,0.94590706,0.17434281,-0.33255962,-0.26297462,-0.21370685,-0.962184,1.2246873,-0.3620139,-0.35737863,0.033828143,-0.26312873,1.146797,-0.2756926,-0.8293309,-0.021916121,-0.47046936,0.1676931,-0.42660823,0.67623216,0.43936655,-0.17867874,1.0829347,0.45477167,0.67092246,-0.004620885,1.0197673,0.6841519,-0.96441144,0.35289717,-0.5156566,-0.06354765,-0.070022345,-0.9693606,0.23537032,-0.68412477,0.8289018,-0.45103517,0.17017673,0.101208,-0.11205494,0.5567224,0.51168656,-0.4451915,-0.016694993,0.5767186,0.08111199,-0.30237257,0.25432226,0.24926157,0.21608491,0.21704347,0.027191728,0.19694148,-0.4836087,-0.2519358,0.12054169,-0.51243323,-0.29178783,0.045529943,0.035828084,-0.20746736,-1.2736622,-0.15787973,-0.2056186,-0.21935876,-0.8461995,-0.23842995,0.4186891,1.2633909,0.053770166,-0.24349515,0.080048285,-0.037472337,-0.23650558,0.5800708,-0.3520665,-1.0929974,-0.20745517,0.4934037,1.2822634,1.7027658,-0.29283437,-0.74646586,1.0231266,1.0083266,-0.7383316,-0.036118884,0.7948668,-0.8466508,0.3356596,-1.1984012,0.13984686,1.4103826,0.6129853,1.3979744,-0.29106244,0.847828,0.5905667,1.3444711,0.85464096,-0.71998,0.06624917,-0.053631842,-0.07899565,0.0965637,-0.831136,-0.13646996,-1.0774528,-0.18077542,0.26801553,-0.66605055,-0.21839468,1.8437624,0.13866764,-1.0437053,-1.7269288,-0.12917028,0.28745756,-1.1740173,1.7947441,-0.025179207,0.4177287,-0.3985038,-0.1920998,0.5730402,0.71643096,0.08603541,-0.008133431,-0.8443944,1.3412637,0.39356396,0.17311506,0.40337858,0.33780813,-0.43555585,0.48811308,-0.02722899,0.15472856,0.0019024635,-1.1513897,0.34896922,0.005858918,0.4775704,0.16786768,-0.5088107,2.0186281,0.64692503,1.7110027,0.7023584,-0.36467266,-0.18832815,0.15990835,-0.49409282,-0.33228076,-0.14354227,-0.15860765,-0.36452636,0.032182485,-0.7947583,-0.8222762,-0.35127938,-0.4883584,-0.15682505,-0.81068826,0.13695572,0.40721408,0.7490173,-0.022605518,-0.23750089,0.15350339,-0.2552614,0.21739721,0.09006076,-0.6106485,0.2601955,-0.37567458,-0.33421788,-0.5906201,0.06121221,-0.5040019,0.15898949,-0.197976,-0.40768695,0.75081986,-0.08729094,-0.00063602626,-0.48512566,0.22415279,0.3038261,-0.38542613,0.9556847,0.0710363,-0.59902203,0.15197928,-0.20308192,0.121526204,0.23081534,-0.28502822,0.17535257,0.495219,-0.2758086,-0.27465704,-0.43125328,0.94122267,-0.6363457,1.0387275,0.5713347,0.65604085,0.12358601,-0.1279323,-0.59404486,-0.00031695762,-0.5671626,-0.23556554,0.7571957,-0.26625863,1.1056918,0.021045014,-0.44599214,0.09296604,0.62203425,-0.12609266,0.6318827,0.7655316,-0.4419943,-1.2613553,0.56152403,0.03481869,0.13008453,-0.7977808,0.94023246,-0.14632843,-0.1256751,-0.39695242,0.3906834,-0.7684787,-0.034949373,-0.71135354,0.19808996,0.75073045,0.17016162,-0.9892265,0.10295856,0.15561847,-0.47799003,-0.26433286,-0.002444287,0.05884843,-0.0605323,0.14665017,0.59102803,0.37275383,0.7459634,-0.12118292,-0.7914521,0.3718654,-1.0241022,0.24638255,1.1435024,0.56281704,-1.0755306,0.79709053,0.39186716,-0.07976484,1.220138,-0.38971922,-0.73602,0.47024608,0.3542906,-0.073435806,0.34853187,-0.43462756,-0.56169754,-0.2030229,-0.08846805,-1.0201596,0.42382073,0.5263084,0.19064313,-0.8974893,-0.38243663,0.059544306,1.0837581,0.21115963,-0.26889184,0.7836883,-0.39412603,-0.054004613,-0.23457368,1.5035182,0.54351366,0.34332094,-0.033489157,0.023497572,0.44278193,-0.69395113,-0.15114333,-0.7255166,-0.93581915,0.30556083,0.10359543,-0.41017497,0.70780665,0.29067782,0.61387575,1.5100213,-0.39540014,-0.74234897,0.27420095,-0.40174174,-0.3283983,1.228279,-0.099369116,-1.4527822,-0.6312783,-0.35151902,0.9679753,-0.26934752,0.19002052,0.028372994,-0.56082684,0.8096443,-0.42473975,-0.28467745,0.07888741,0.6823582,0.42066363,-0.40654123,-0.16867734,0.5822674,-0.6934207,-1.7729187,-0.4648242,0.5648264,0.21938182,-0.039192975,0.69041777,1.2124152,-0.27707437,-0.022159642,-0.33626643,0.4861258,0.43678832,0.9879603,0.3810799,0.5906394,1.0088974,-0.25713527,0.24314141,0.14786384,0.20291318,0.7366075,-0.24676514,0.6843725,-0.987971,0.073750384,-0.19241846,0.73445815,-0.24789594,0.24510626,0.3620791,0.17104067,0.8478913,-0.99257594,0.21776797,-0.1836404,-0.090129614,0.21389763,0.1607598,0.10680177,0.44985127,-0.4340675,0.57104117,0.4272782,0.38255835,0.6652279,-0.2951663,0.76745987,-0.40191904,-0.24931125,-0.6814125,0.30924404,-1.0626767,-0.6972764,-0.1610903,0.25290397,-1.2697104,0.19730105,1.1921618,-0.14596875,-0.59447545,-1.1303859,-0.29670647,0.4739561,0.031209657,-0.13547052,-0.42267787,-0.99418813,-0.54836917,0.31961405,0.6215574,-0.15678082,1.5102983,-0.25927755,-0.18553306,-0.37556097,0.7503641,0.564494,-0.11113038,-0.10447106,0.2505491,0.111829996,0.3140488,-0.28286764,-0.5816758,-0.19793914,1.1545714,-0.31864166,-0.8302799,-0.6889851,0.42584124,-0.019149104,0.56378484,-0.37421632,0.5790352,1.0003206,0.27077663,-0.7456723,0.15102662,-1.430097,0.040045254,0.3302019,0.31062248,0.27934563,-0.06742197,-0.011013354,0.80272627,0.9503816,-0.4581686,0.28998926,0.5894581,-0.72559804,-0.3604572,-0.22726466,-0.064500324,0.22725375,-0.03562491,0.29394785,-0.12670816,0.30649367,-0.98191565,-0.14651574,-0.97091883,0.45440122,-0.42694092,0.041572556,0.52619976,0.21555193,0.17990191,0.09429389,-1.2701561,1.409039,-0.8494985,-0.33689734,-0.35731578,0.78332263,0.38145956,-0.041310698,-0.62846917,0.18429439,0.433099,-0.40510908,-0.51204115,0.59308845,0.48285988,0.47958377,-0.08279521,1.0112146,0.53709614,0.41312408,0.83172226,-0.08204536,-0.024546871,0.8997647,0.142396,-0.3175588,-0.5352595,0.42930666,1.4093394,-0.6940634,-0.4669868,-0.74174625,-0.5393303,-0.2330242,-0.33053708,0.41341004,0.24344237,-0.5226672,0.40551054,0.37810698,-0.23654623,-1.36052,-0.27539456,1.085982,-0.73487633,0.28146747,-0.34222046,-0.08953234,-0.63379985,-0.15434705,1.098774,-0.24372174,0.6044674,0.27835068,0.60281307,0.74855894,0.7829094,-0.870331,1.3796195,-0.89597625,0.317826,0.35668862,1.0836449,0.15284188,-0.9095413,-1.1453024,-0.1465482,0.3942913,-0.18153854,0.5604794,-0.057127554,-0.0060091927,-0.23572408,0.06031327,-0.50086504,0.3255355,-0.24298942,0.40158513,1.3262323,0.32247576,1.3230128,-0.2981857,-0.27387613,0.5538359,1.045103,0.13338348,0.49996057,0.9216685,0.16622336,-0.21392651,-0.26955745,-0.025835956,-0.8082847,0.38392484,-0.3401532,0.4512519,-0.51334167,0.9724658,0.40451744,0.058779687,64.01188,0.7544465,1.3071063,-0.038734544,-0.19582002,-0.3346546,0.31152445,0.69496804,0.88283485,0.012391582,-0.29514393,-0.36632428,0.5959442,0.37272742,1.102129,0.27658832,-1.7796563,0.2647885,-0.9657836,0.18194039,0.47252116,-0.8840539,-1.0700814,-0.17291868,0.24631326,0.26920983,-0.66498667,0.35236618,-1.0860711,0.26094824,0.28629327,-0.15951847,-0.050017875,-0.61515325,0.7413369,0.44534275,-0.86746573,0.24884218,0.53756446,1.4089695,0.3023565,-0.6750331,0.3311629,-0.9344013,-0.9360849,-1.3458387,1.408666,1.7896079,-0.8398878,0.56660837,-0.051138397,-0.33223775,0.73967034,0.10620261,0.48457217,-0.37432337,0.13085653,-0.67727536,1.0499605,0.8394156,-0.39123657,-0.20024562,-0.08822151,-0.016640624,-0.3138317,-0.7161956,0.21727996,-0.7282741,0.45165107,-0.09871737,0.41652134,0.2902547,0.44682014,-0.47763753,0.2904646,-0.84880155,-0.48138165,0.5298416,0.14133985,-0.51007897,0.11352081,-0.27738312,0.20098001,0.1842246,-0.4361755,0.049794693,-0.35438594,0.44539467,-0.15988314,-0.26684096,0.28469524,-1.5627338,0.3361163,0.35775796,0.17512436,-0.19669427,0.065468885,-0.34463215,0.40671644,-0.2983515,0.39993873,-0.1499867,-0.07914654,-0.5595221,0.50828236,-0.8916743,0.7003677,0.06431761,-0.93601775,-0.33931863,-0.32327744,0.11159429,-0.7361309,-1.0546632,0.43138623,0.7704477,0.9649884,1.1588134,-0.2721501,-0.2316612,0.6530697,0.5578305,-0.047916938,-0.38888922,-0.25491944,-0.346696,-0.72378105,0.85797054,-0.83963704,0.04120952,0.4281483,-0.45906687,-0.75060254,-0.1734339,-1.4273243,-0.3082616,0.19765605,-0.2801552,-0.8123185,-0.3690901,1.1748215,-0.33915958,-0.39650762,0.5715419,-0.07361463,1.0215926,-0.034944247,-0.6595748,0.5646722,0.31286955,-0.37982854,-0.27577627,-0.08501842,-0.93396336,-0.4817756,-0.38880265,1.0591794,0.08108065,0.60642904,0.41424415,-0.7681871,-0.34924123,-0.19849688,-0.9640434,0.57795995,-0.30825457,0.16119348,0.36819544,0.33517265,-0.7370453,0.0480089,-0.39036575,0.30929783,1.1790073,0.6523654,5.7903953,1.0033342,-0.39145204,-0.32850394,-0.083922125,0.9145332,0.086492695,-0.17133301,-0.10006877,0.9936006,-0.6771569,-0.25215828,0.58760434,0.21755905,0.67129445,-0.17043681,0.10933441,0.35633132,0.5511697,-0.5665569,-0.41103494,0.34802154,-0.18415327,0.1921768,-0.5547232,0.35485387,-0.17331322,-0.9220998,0.976597,-0.8401249,-1.0058521,0.41314483,-0.18696453,-0.084053375,0.42662117,0.3703324,0.7486472,-0.8107514,0.034252238,-0.77839684,-0.3852532,-0.8700607,0.036918383,-0.3840309,-0.4243594,0.28192022,-1.11828,0.4645879,-0.028373575,0.08421,-0.20629835,-0.17401648,1.7038919,-0.2173958,-0.3246358,-0.23715706,0.14466761,-0.65510046,0.19008468,-0.44489118,-0.20109497,-1.2059585,0.32888478,1.0805943,0.9103854,0.34065625,0.73380846,0.40497196,0.35850763,0.3206989,0.29352245,0.5994335,-1.1357639,-0.33075652,0.7390113,-0.48198795,0.2842529,0.33379975,-0.22007473,-0.57074326,-0.6242822,-0.68253356,0.76972336,-0.56725425,-0.13566524,-0.8666423,0.79158324,-0.21774755,1.5849651,1.1408414,-0.75135565,0.93949556,-0.77162623,0.15849614,1.5233974,0.23954467,0.2204203,0.15227653,0.054051686,0.82177275,-0.49658182,-0.76076216,0.48320606,0.36847904,0.21410169,-0.6529575,-0.6494923,-0.06576127,-0.6386626,-0.8971939,0.23137148,0.6444129,-0.12810378,-0.09739598,-0.47784457,-0.8423619,1.442112,-0.44088697,0.31874606,0.6671272,-0.0016300678,-0.5250145,0.08362434,-0.15775593,-0.52455884,1.1107334,0.27433994,0.4986638,0.3065777,0.36971816,0.818053,0.10461148,-0.04341054,-0.48254922,0.67814916,-0.5520058,0.025658378,0.97882795,0.7774115,-0.16834901,-0.70959663,0.5916145,0.61017853,-0.54884964,-0.47197104,-0.6584654,-0.8897106,0.32123443,0.50518143,0.022758812,0.2925177,0.7036073,-0.5497044,0.10704515,0.40955922,-0.4913076,0.6950497,0.13372551,-0.3240789,0.9380608,-1.1502011,0.6565799,0.8429639,0.26189673,-0.6324016,0.404989,-0.34196854,1.0472132,0.27018782,-1.0952497,-0.07623532,-0.68716735,-0.24522865,-0.07509268,0.98490953,-0.5887227,-0.28100267
discourteous,-0.61800116,0.44161543,-0.36277273,-1.1802706,-0.3524092,-0.19381744,0.52271634,-0.8397705,0.1277691,0.21434562,-1.709228,-0.9414571,1.7060624,1.0982727,0.25463226,0.48435047,-0.68275493,0.14707802,-1.0175877,-0.6087373,0.17139053,0.45460522,-0.38715124,-0.68010664,-0.45983818,-1.0814452,0.16106005,-0.5490458,-0.08950875,-0.19929047,-0.7012787,0.33664325,1.0959988,0.6435291,-0.7084052,-0.5011161,0.7896008,-0.417051,0.22399569,0.69846565,0.49870253,-0.07169699,0.3975874,0.37273183,1.0852059,-0.19350225,-0.85013413,1.3569921,-0.13019629,-0.7489729,0.51962143,0.013194148,0.54776126,-0.21440947,-0.10658759,-1.3120731,0.3273346,-1.0065647,-1.0354108,-0.17599936,0.6731315,-0.2865897,-1.3211712,-0.69531554,0.72081757,0.66737336,-1.6312529,-0.9854379,-0.4590012,-0.61811835,-0.57810134,-0.07890269,0.018685842,-0.67198277,0.6463128,0.022039166,-1.2734967,-0.3459604,0.6661369,0.7110858,-0.24854016,1.3113621,-0.32912573,0.9525938,1.2548232,0.24921705,1.3538996,0.15366046,0.2717862,-0.7992859,0.80832523,-0.5385692,1.7439804,-0.5535036,-1.050407,0.8371199,0.14213897,0.057091594,0.67851347,0.6131312,-0.8869384,-0.8287199,-0.062253077,1.0435123,1.0647597,-0.19412597,-1.0332688,0.7470123,0.18173115,-1.2201186,-0.14887702,0.5180943,0.62911636,-0.73401356,-0.8440818,-0.85807276,-0.014867733,-0.27378857,0.47406688,0.7604523,0.9272833,-0.066136636,-0.6899546,0.028702846,0.6564497,0.37948823,0.36231825,-0.4390637,-0.28015006,-0.044121947,-0.17108214,-0.79342157,0.26928568,0.5680444,0.5192257,1.7200633,-0.61183435,0.08594421,0.15863961,-1.1611956,0.6479594,-0.98517036,-1.3749694,0.69234776,0.17263281,0.66184616,-0.43202424,0.2464993,-0.6161556,-0.18051322,-0.78993577,0.095140986,0.782126,-0.27427685,0.001676321,-1.1383306,0.567682,-0.96004295,0.16146998,0.07111231,-0.7284201,0.6418066,-0.22284727,0.49778047,0.9532389,-0.35949183,0.57811266,0.9669314,-0.4112083,0.50282055,1.0801905,-0.04279014,-0.01939837,0.1666771,-0.660901,-1.4167175,0.10256344,-1.0416204,0.14759219,0.45130476,-0.094512194,-0.07681098,-0.18362641,1.1621262,-0.012721594,-0.9807033,-0.3477255,-0.92851615,-1.3846339,-0.45581794,-0.1307684,0.34749135,0.6835098,-0.30438107,0.14451684,0.8802016,0.40828452,-0.6758217,-0.01432388,-0.6100691,-0.30701953,0.943212,-0.35140157,-1.869318,0.7094877,-0.95649785,0.1634759,-0.06813126,1.2147884,-0.5495472,0.8051786,0.61523896,-0.8368476,-0.90268606,-0.0023786647,0.0043814234,-1.1861769,0.28984302,0.7289843,-1.003809,0.48791718,-1.0539123,0.20220627,-0.34742245,0.95548946,-0.4946123,-0.74436826,0.72905046,0.7602401,-1.0135298,-0.8045271,1.2527955,-1.19673,-1.0779343,-1.394977,-0.21778727,0.21239905,0.30701897,-0.39334655,-0.56999135,-0.0030068457,0.5213693,-0.96009034,0.2972067,-0.8174784,-1.0527452,-1.042881,0.3418875,-0.20707269,0.29902473,0.8224077,0.13884483,0.4913025,0.6233619,-0.12699892,0.67320627,-0.17513831,0.8475208,2.2192364,-0.047524314,1.1088809,-1.675877,-0.44051775,1.4988446,0.84682256,0.28262064,-0.13754743,-0.00011779368,0.11351595,-0.8192694,-0.9478369,-0.88532835,0.15304603,-0.6015186,0.49119052,-0.6394305,0.40723923,0.18969138,-0.29240784,-0.11590908,-0.5017472,0.81070167,-0.7732169,0.24913806,0.3935884,1.0377227,-0.62672013,0.087937474,-0.13610871,0.9674614,-0.40337062,0.1401804,-1.3155278,-0.411023,-0.0011411682,0.34667632,0.29441205,1.4222288,-0.38912073,0.45998368,-0.2518251,-0.18585871,0.31070337,-0.04183137,0.7380274,0.6796991,0.5106887,-0.5682104,-0.22918393,-0.09947077,0.027887,0.85282654,-0.07735407,0.6684382,-0.27862176,0.6603195,0.11699643,0.4802692,0.4587226,0.5822657,0.47995877,0.049921196,-0.24596526,0.7993625,-0.26564637,-0.34637794,-0.13789678,-0.4178082,0.7521786,0.74184656,0.26357397,0.08597957,-0.6810033,-0.5783406,0.36198986,0.9888325,-0.8377866,-1.101148,0.14414556,-0.5498834,1.2362801,0.3427707,1.2574894,0.52294844,-0.3919755,-0.14013807,-0.04992601,-0.587133,-1.1976825,0.36816916,0.32287198,-0.43894383,0.8822563,-0.78760284,0.75253946,0.93578357,0.7468565,-0.66595834,-0.057578664,0.6424129,0.015258655,-1.3888859,-0.04223511,0.022025332,-0.59436977,0.1684811,-0.55010295,-0.1282942,-0.83164984,-1.0758834,-0.5083103,0.2886937,0.023647517,0.67457,0.09071779,-0.09838759,1.1590153,0.08605508,0.102841735,0.49793312,-0.20736362,-0.00081234175,1.1706709,-0.76878476,-0.6704099,0.3127539,0.55545884,-0.2671672,0.28273493,-0.18192726,-1.3076564,0.38234022,0.21171294,0.016014606,0.21475397,-0.72012734,-0.42152146,0.4237685,-0.12083536,0.020563036,-0.72117835,-0.8311951,0.80474085,2.090214,0.0019585292,-0.42725214,0.4153273,-1.0121901,0.4498546,0.9202068,-0.035889864,0.67838985,-1.4720602,-0.18090336,1.0181519,-0.6253815,-0.25391456,0.4123226,-0.43440905,0.57396215,-0.6352065,-0.23680876,-0.46181202,0.31861684,-0.82886595,-0.27231213,-1.2262173,-0.013910758,-0.13853098,-0.5609863,-0.44294512,0.8466684,0.12407299,-0.64704186,0.12800077,-0.21850646,0.38195217,0.10942813,0.7605632,0.13215636,-0.15447687,1.5151175,-0.82829,0.6231962,-2.0363119,0.7933896,-0.45773268,-1.2384183,0.5337693,0.45429906,0.094623126,-0.71879625,1.4520454,-0.63338435,0.61806834,-0.8931592,0.4340532,-0.15969868,1.2382122,-0.4224654,1.31991,0.32116985,-0.15949586,0.002387901,-1.1808248,-1.2319435,-1.0521326,0.40114513,0.83715934,-0.30797198,-0.119561374,0.09616063,-1.0272778,1.1246351,0.89850754,0.79628724,-0.9167878,0.24804907,0.002554978,-0.04526481,0.004905949,0.10316195,-0.07921944,0.6922768,0.94811314,1.3178,-0.0091914935,1.1105026,0.7405456,0.84098655,0.6373916,1.0388335,-1.2529966,-0.6480047,-0.6940257,-0.5757832,-0.5112475,-0.1801306,-0.49188375,0.25542015,-0.109296404,-0.7861111,0.13214973,-0.15989818,0.9330339,0.69561356,-0.527785,-0.38731718,0.57838243,-0.54095405,0.41126502,0.072275095,1.4099746,-0.38562727,0.7613495,0.121425204,-0.6388294,0.103646755,-0.81868476,-0.45297882,-0.7196233,-0.76104945,-0.6076505,0.19219966,0.47267392,-0.44482517,0.039457645,-0.3834568,1.3713799,-0.57006043,-0.6752939,-0.23548055,0.5145835,-0.15348652,0.5776099,0.16130807,1.1080781,1.9406481,-0.42355308,1.5525166,-0.4857495,-0.7573922,0.50641435,0.45062533,0.28219494,0.030830195,0.39431116,0.8190014,-0.1945699,-0.6175168,0.21726708,-0.101851076,0.5960411,-0.3921951,-0.32039326,-0.54154545,0.14628471,0.12745866,1.2504953,-0.036981363,0.8882243,-0.28901923,-0.14085396,-0.99150294,-0.19248943,0.06661751,-0.19230229,1.4607824,0.36808142,0.05910306,-0.87132436,0.606664,-0.3164498,0.4716166,0.42933023,-0.22536586,0.7909586,0.16512847,0.8037135,0.94993526,-0.07623427,-0.19086748,-0.05181021,0.43686023,-0.87161046,0.32142448,0.7258093,-0.17337966,-0.29029593,1.7016684,0.45184183,-0.37540814,1.2410735,-0.5706568,0.78379494,0.07863005,-0.2647413,0.3901142,0.68690497,-0.1477856,-0.66535515,-1.5923017,1.0029898,-0.40750623,-0.41951063,-0.17773513,-1.2201742,-0.20626712,0.21372037,0.9525118,0.48826036,0.45317498,0.16063534,-0.57988757,1.2510424,0.07997928,-0.77996844,0.1600614,0.67174673,-1.4672631,-1.1321021,0.56066984,0.5166035,0.3733811,1.4130211,0.75459665,0.74073267,0.67250043,0.5016641,-0.03328572,0.41112733,-0.28676817,-0.3823669,1.1845816,0.75005597,-0.31832457,0.25220132,-1.2145904,-0.6995284,0.93943447,-0.3237951,0.84929615,-0.7531073,-0.2829124,-0.23150776,0.76744944,-0.04967555,1.2430278,0.2988354,0.032046143,1.8644193,0.593924,0.65072924,-0.80498505,-1.2245661,1.0686908,0.30812547,0.35576773,0.16907735,-0.8196082,-0.23665416,-0.1923858,-0.28956825,0.44437382,-0.36420122,0.3908013,0.26298958,-1.482473,-0.25194246,1.2508972,-0.19941796,0.4490441,61.33202,-0.022570213,1.3577394,-0.027751908,0.29216167,0.8596535,0.9118021,0.9829883,0.7152476,-1.3121458,-0.6409212,-1.4743938,0.15636982,1.1432964,0.10366976,0.27295455,-0.99671084,1.3009647,0.37249735,1.0588738,1.4863825,-0.40939024,-0.41659975,1.0545912,-0.08898755,0.69349486,-0.8060773,-0.30645147,-0.7004718,-0.0059868894,0.5414025,-0.43880698,-0.6538271,-0.0724611,0.34255758,-0.8435977,-0.44641694,0.60950434,-0.030281702,1.216909,1.0213771,-0.044208605,0.6288581,0.027881205,-1.0963995,0.1128797,-0.67701095,0.26722625,-0.20198035,0.24049248,-0.21802394,-0.88262576,0.108720124,0.22227007,1.1003987,-0.1413434,0.10867127,0.36635152,1.064328,0.53032476,-0.32394454,0.110979766,0.48880062,-0.04990533,1.4737767,-0.22817884,1.371564,0.26706895,1.2622501,-0.17549336,1.6577152,1.4242738,-1.4661037,-0.45684,0.18185242,-0.28059635,-0.5034065,-0.14947535,-0.37888798,-0.39543188,-0.6879649,-0.3400389,0.00017700593,0.77656484,0.49712405,-0.5162489,-0.4092196,-0.9932013,-0.046376754,-0.09242213,0.7732356,-0.3248492,-0.6632136,0.42272723,-0.019372195,0.74422765,-0.6362466,-0.06765941,0.7246427,0.49168488,-0.010902126,0.26036203,0.34036288,0.52101356,0.521143,-0.5064731,1.3446684,0.5311632,-0.05129862,0.026048532,-1.0339302,-0.07599939,-1.160141,-4.0320463,-0.9211452,0.20772566,-0.25611803,1.0446901,0.47014952,-1.230587,-0.1461407,-0.25506666,-0.17551003,0.026601702,-0.5565581,0.56390923,-0.88660645,-0.14270127,-1.1393118,0.57743555,0.07639443,0.2542796,-0.82404643,0.024425602,-1.3909746,0.2447498,-0.06034756,-0.25658068,-0.17016602,0.26264602,0.13431607,0.5850098,0.405159,0.19357586,1.0122931,0.69435287,0.71261215,-0.67057914,0.007179573,0.3299025,-0.17454295,0.394465,0.20680566,-0.14447938,-0.7029111,0.7531693,0.8543034,0.17794603,0.5368846,-0.38213646,0.27532053,0.68813723,0.65968883,-0.160534,-0.14283358,-0.15137966,0.5425242,-1.0107383,0.48885012,-1.6965905,-0.68737024,-0.40494832,-0.43339384,0.7839281,-0.12450365,5.297838,0.73156327,-1.0210916,-0.57005227,0.23444284,0.24453194,0.5625284,-0.65763295,-0.4150672,0.1439956,-0.54162604,0.013264661,-0.2894961,-0.11244283,0.76864314,-0.31170484,0.7813607,-0.023476647,0.46610877,0.05930246,0.68486005,0.25134906,0.9415359,-0.129745,-0.042611327,0.21818449,-0.20622261,0.1275657,0.85435367,-1.3380919,-0.6382994,-0.6977973,-0.23596232,1.1748923,-0.45258296,1.1299167,0.2347161,-0.25324062,0.06666602,-0.99211234,-0.7092738,-0.31178477,-0.26228115,-1.6675361,1.2282599,-0.3608185,-0.012733214,1.1195778,-0.013385902,-0.21621285,-0.8745517,-0.8366043,1.4416262,-0.095434956,-0.5459132,-0.5650595,0.39491343,-0.28762427,0.31922412,-0.38414907,-0.14784302,-0.49879822,-1.1707565,1.3639787,-0.3726156,-0.57263184,0.3466861,0.25382736,1.3371234,-0.5538872,-0.91828156,-0.5435675,-1.03906,-1.4630675,0.25802034,-0.13250987,-0.1469504,-0.7784788,-0.044528753,-1.8847705,-0.50194174,-0.26781917,1.0939243,-0.5721629,0.15944035,-0.24881177,1.0727252,0.46018147,0.3997421,1.529998,0.57655257,-0.7228816,-0.34115103,-0.30521613,-0.2665551,-0.03360687,0.9434223,-0.5465675,-0.10899546,1.206395,0.08366052,-0.46984506,0.4902799,1.2193961,-0.2556657,-0.40450504,0.21230948,-0.2570184,0.31271985,-0.5652676,-0.08513407,-0.08762298,-0.48404273,0.35628232,0.49068573,-0.421746,-0.8433955,0.21921141,-0.39658746,1.1244303,1.3453144,0.04176123,-0.12199211,-0.28049496,0.08395255,0.7253919,0.72278947,0.6164676,-0.9802745,-0.9504929,0.4376696,0.052749764,-0.010733132,0.35611698,0.091406345,1.3000559,-0.1494533,1.1332207,1.1191928,0.7736611,0.5011762,-0.025897311,0.63733786,0.41085553,-1.8418349,-0.0008834402,-1.4216418,0.41778412,-0.26791048,-0.7458697,0.05437665,0.9949508,0.02645193,-0.07423587,0.2711165,0.12341469,0.36742863,0.7629165,-0.094284855,-1.1753602,-1.3124527,0.25228715,1.8750798,-0.23928986,-0.042800754,-0.19105695,-0.123983584,1.1624761,0.5167925,-0.5344229,-0.52001023,-1.5159503,-0.20076029,-0.37004292,1.6733027,-0.056618672,1.1354876
cowardly,1.3748478,-1.0310282,0.34310907,-0.5155452,0.23636182,-0.8208711,-0.59754515,-0.48359933,-0.7003023,0.10567261,0.17704934,0.671741,0.83309627,1.1360514,0.548837,1.5789055,-0.047319204,1.1798422,-0.30278096,-0.880522,0.22521156,-0.21390676,0.6005639,-0.48111942,0.25106704,0.45577043,0.072747946,-0.8623145,-0.4935088,-0.039598748,-0.9944748,0.5673177,-0.53917915,0.41191968,-2.2817678,1.7493454,0.21834207,0.23960282,-0.5487481,1.4315274,-0.2799818,0.83154756,0.31669435,0.47486722,0.18825644,-0.7144879,-1.4684827,1.419925,1.6379309,1.0805802,-0.7153508,0.05486252,1.1999898,0.638747,-0.64183956,-1.4742279,-0.34349203,0.59033155,-0.2455703,-1.22958,-0.5780032,0.55093443,0.39627647,-1.1079757,-0.19191703,-0.4597249,-0.4096715,-0.45200676,-0.8727521,0.4363503,-0.20416869,0.7768605,-0.84315956,-1.4866493,-0.20682076,-0.32193002,-1.4886072,-1.8060606,0.28179792,1.2836109,0.25374168,0.7894721,1.5192342,1.2087288,0.2703569,0.0006002039,1.7566485,-0.31916532,-0.5151187,-0.13879263,-0.83347285,0.6124994,1.1617337,-0.43939185,0.33812028,-1.195041,0.44136086,-0.1450516,0.34619915,-0.11929526,-1.6204743,0.06284469,1.0219481,1.2940308,0.4185038,-1.0549085,-1.4554328,-0.07446045,-0.17342371,-0.49506965,1.4456544,1.6454928,1.1103189,-0.33544087,-1.5378377,-0.008590056,-0.3198683,0.098225534,0.89354795,0.050882347,0.43484622,0.248074,0.4075827,0.068201914,-0.8071733,0.0950683,-1.3443408,-0.8290488,0.7841808,0.5412766,0.09987354,0.25530714,-0.104972914,0.7608386,-0.67021304,0.7913013,-0.884663,-0.3299008,-0.5114018,-0.7568713,1.1654813,0.29340902,-0.16651784,-1.5642401,-0.43013218,2.3868737,-0.5635384,0.3424273,1.5504682,-0.5824686,-1.7748952,1.4598718,0.7824403,0.3528986,-0.5815104,-0.8179053,-0.6534239,-0.030160874,-0.4270846,0.7018653,0.24364218,0.37372845,-1.0257192,-0.31719047,-1.1703544,-1.0871603,0.78782374,0.09776986,-0.18689883,0.54606295,-0.36900598,0.43023407,-0.35313404,0.67309046,-0.35131362,0.20120187,0.03541816,-0.02539888,0.05093711,-0.9671266,-0.3960835,-1.2958833,-0.4770362,1.7623093,0.2558282,-1.3163316,0.38039503,-0.5667491,-1.1350334,0.5713061,0.29170257,1.0014322,0.25655898,-0.39731497,-1.2147312,-0.21587117,0.89334375,-0.16745421,0.49938264,0.66266763,0.006775718,-0.8968629,-0.69637185,-0.30550176,1.1412909,0.086936064,0.8597639,-1.7206763,0.011586897,1.2182523,0.12507872,-0.016861945,0.14454873,-0.10688199,-1.1685647,-0.5144234,-1.6041975,-1.3439823,1.0805312,-0.059875935,1.0839633,2.0006251,-0.423897,-0.21374804,-0.22640526,0.58270067,-1.10831,0.49032843,-0.5224246,-0.3019787,0.11351397,0.8597502,-1.3430793,-0.33646506,-1.2108035,0.92758536,0.35050336,0.2875684,-1.172465,-0.049673617,-0.056983463,0.45325086,0.6184986,0.27566418,-0.45737964,-0.3752738,-0.31225026,-0.41582865,0.27831718,1.1990006,0.6931311,-1.4499948,1.2876084,0.47935766,-0.5574664,-0.8884038,-0.29344806,0.08597109,1.5031495,0.7050619,1.600394,-0.24715707,-1.058748,-0.34968135,0.020274943,-2.4587092,0.5199999,1.2190259,-0.40297443,-0.61839455,-0.9084636,-0.48887974,-0.55906665,-0.27672428,0.051600814,-0.707623,-0.25362596,0.54166067,1.9034234,0.10782926,0.53544366,0.36493158,-0.023474097,-0.031209692,0.18065485,-0.08979756,0.9427497,0.39568216,0.12518705,-0.5693073,-0.8540005,0.6854005,0.67818904,0.6099513,-0.11606422,-0.5560206,1.0137808,0.7321546,-1.93134,0.5913715,-0.45798904,0.18857642,-1.0282391,1.1136154,0.780694,0.7473574,0.2933592,-1.3238386,-0.47096843,-0.00035834312,0.31770816,0.17228912,0.09992296,-0.7348746,-0.08017214,1.2270589,-0.5095797,0.4192332,-1.0463059,0.7809672,-0.2617714,-0.27670294,-0.22393145,-0.70231146,-0.06690887,-0.57689774,0.85657966,0.5290251,1.3175669,2.081954,-0.87018454,-0.07975106,0.94972146,-0.46248585,-0.98076165,-0.5751923,1.3493259,0.5655976,-0.6941698,-0.22784415,-1.16184,-0.6685322,1.0777566,0.9514032,-1.2952502,-0.27031147,-0.67137164,-0.07952778,-0.40413222,-0.13610172,-0.6396598,0.4833705,-0.1447831,-0.8038953,0.6258585,1.2422956,0.81274706,-1.4990683,-0.7903112,-1.2199707,-0.16372108,-0.30030176,-0.24163091,0.42166206,-0.8694433,0.68583965,-0.3412718,0.28038496,-0.6015399,-0.8440959,0.91250753,0.030061826,0.29268643,0.020338476,-0.4976268,-0.06776403,0.41049916,-0.24806438,0.801546,1.0070889,0.6124828,0.0057305545,0.25305805,-0.8429594,-1.1081039,0.38335812,-0.5787853,-0.4442763,-0.8085279,1.7742872,-0.5759215,-0.5723579,-0.98466706,0.08941343,1.753625,-0.024743617,-0.82158554,0.13127038,-1.0151893,0.94730705,-1.6910597,-0.6945528,-0.10902059,-0.46809047,-0.5902343,-0.72193754,-0.0082968585,-1.2834897,0.8906406,0.80659044,0.2943272,0.48214543,-0.40072376,-0.47864383,0.37236965,0.14479499,0.32984948,1.0359925,-0.40384465,1.2530483,-0.18189448,-1.3315313,1.0219611,-0.15815617,-0.6703006,-1.6073518,0.90377074,-0.43758968,-0.014502209,0.30336177,0.5755702,1.2266043,0.5884432,0.49781954,0.6633069,-1.0263482,-0.50053453,-0.07252023,-0.29242995,0.5446937,1.269988,0.10188979,0.14302233,0.5854337,-0.6149557,0.66349643,0.66307193,0.19211894,0.7214939,0.9818782,0.46550652,0.29547602,0.16755956,-1.0748099,1.167318,0.680143,-0.6824171,-0.5054998,0.5619165,0.49003777,-0.14613935,0.7837588,0.3456448,-0.29914382,-1.3184059,-1.0323415,-0.4218301,0.15358356,0.9719942,0.014988506,-0.7270378,0.0022423193,-0.5632398,0.864839,-0.00040041562,0.29604697,-0.87525445,0.9386585,-0.37663442,0.031191878,-0.2877292,-0.11806507,0.6582718,0.54666555,-0.31191874,0.05408425,0.33876812,1.1585786,-0.13652974,1.6689571,0.744097,0.38362163,-0.5138235,-0.62313634,-0.7047541,-0.8784786,-1.3817135,-0.5692464,0.02068137,0.45026383,-0.47178718,0.67181814,0.74158406,-0.6840801,-0.0022649672,0.75162745,0.061984066,-0.6681909,1.3071947,-1.3895407,0.59387606,-0.32317954,-0.2348988,0.73485565,0.57704544,-0.22866373,0.16821596,-0.02198857,0.37735143,0.8630184,0.21114917,-1.0466028,0.5243082,2.5949922,-0.070275106,0.627172,0.31475794,-1.5544192,1.7737427,0.015223089,0.700667,-0.14697117,0.8071781,0.7619811,1.2790593,-0.67454976,0.5252317,-0.45258945,-0.1077518,1.3598255,0.8657131,-0.70342505,0.5071665,0.31462783,-0.07622284,-0.9198313,0.4939014,0.21038646,1.0238506,-0.011789422,0.9392351,0.42964005,1.1818401,-0.15526764,1.5325619,-0.62722087,0.8730042,-0.07791233,0.003965568,-1.1093662,-0.17689788,-0.81390274,-0.93785214,-1.3691778,-1.2424113,-0.55876565,0.060982123,1.430597,-0.13403451,0.87324274,-0.8331393,1.0293007,-1.1289128,1.007351,0.35987264,1.077863,0.3655462,-0.10041717,-0.26822877,-0.015295172,1.5540376,-2.0005548,0.62208384,1.511829,0.55828184,0.084274545,1.005719,-0.8857499,-0.88073754,0.7370787,1.2776586,-0.56610376,-0.91264176,-0.45555228,-0.47296393,-0.71317273,-0.9648397,0.2941547,0.30356237,1.117883,0.4865477,-0.74895924,0.72167706,-0.5752651,-0.81133187,0.5520214,0.25500247,-0.72586614,0.91145587,0.30449912,0.5469002,0.2691703,-0.2623826,-0.13231905,1.093405,0.74329334,0.59132075,-0.55384475,0.60952353,-0.7336027,-0.9201935,-0.3963737,-0.6831883,0.4069051,1.752995,-0.56536096,-0.30139634,-0.036860704,0.5405618,-1.0439866,-0.45646185,0.66283906,0.13635676,-0.47497618,0.6556494,-0.46309665,-1.5122588,-0.90417683,-0.4642355,0.6743821,1.3818026,0.7140757,-0.5977619,-0.9350263,-0.38427296,0.7864029,-0.77101725,-1.0225774,-1.1781018,-0.09091088,-0.47242633,0.08171956,0.22187327,1.1749551,0.39739695,0.5142877,0.312461,0.18916059,1.2710695,0.66919804,0.56452465,-1.2535205,0.4505865,0.14676875,0.2433102,0.3946699,0.10357061,-1.4208744,-1.6616681,0.21835499,-0.12754661,0.09069005,59.951576,1.0160159,1.350106,-1.044074,-0.5913025,-0.3002169,1.0731115,0.8071141,-0.29461747,-0.111062065,-0.54928577,-0.32469115,0.47239813,0.49984747,1.1354377,0.9196287,-0.8873191,0.62282145,-0.20900768,1.6142573,-0.07985737,-0.71540046,-1.5166175,1.1511405,1.1424403,-0.35297367,-0.7269754,-0.40604866,-1.7440923,0.9952098,0.42032927,0.29632697,-1.187723,0.44328743,0.8233053,-0.15687506,-0.6945591,0.2218718,-0.104762085,0.5662037,-0.21607772,-0.4779658,0.6393171,0.71508276,0.8688724,-0.0723979,0.28762567,0.40303063,-1.924674,0.7424062,0.06046263,-1.2799213,-0.06610486,0.003630489,0.57598066,-0.5225394,-0.21737927,-0.32522082,-0.712167,1.1810746,0.86008275,-0.39515892,0.66997397,0.29533392,0.9167543,0.56731343,-0.62268984,-0.40794873,-0.8490783,-0.12923366,1.1101109,2.037261,-1.9527318,0.061186496,0.5736323,0.31513417,-0.8877113,-1.0820284,0.07151217,0.13084249,-0.89107317,-0.89763165,0.5677326,-0.16317955,-0.017838068,-0.25903237,-1.2851323,-1.6043015,0.12842914,0.060053043,0.40698606,0.16195449,-0.21483448,-0.71065426,-0.6096108,0.40029025,-0.052203596,0.5635631,1.600014,-0.258999,0.027911935,0.6232355,-0.39817977,-0.30391735,1.4737624,-0.78964967,2.2242217,-0.5123971,0.5708631,0.8869077,-1.48321,0.14774007,-0.41433942,-2.0719333,-0.010445513,-0.7441931,0.7883657,-0.009717021,0.3627807,1.2851063,0.37880734,1.1556611,-0.2355218,-2.0419352,0.3302358,0.14594801,0.12157908,-0.38536915,0.21210285,0.2761065,1.4372201,0.721246,0.82001525,1.0951483,-0.7412609,0.7205045,0.15895726,-0.6307477,-0.87266177,1.2072952,-0.61395013,0.56587034,0.42460623,-0.74997187,-0.5553341,-0.15645643,1.098767,0.4597813,0.75935537,0.92414093,-0.38469794,1.239747,-0.7235068,-0.674173,-0.49023718,0.009240964,0.91893923,-1.0332057,0.8636242,-0.21809077,0.72739035,-0.27344745,-1.3628631,-0.71920156,0.6430015,0.23566669,1.5987434,-1.1956208,1.3044916,-0.15552327,0.82940996,-0.086924404,-0.6821822,-0.793159,0.60357517,2.2199433,-0.38546392,-0.8738833,-0.6493473,-1.1358751,0.42993832,0.5063228,-1.5478336,-0.3845436,-0.26582614,0.28776652,-0.30495256,0.15725078,0.5067447,-0.68688995,-0.647861,-1.4842774,1.2033504,0.09876078,-0.52874875,0.31588352,-0.4401697,0.99248576,0.5737691,-0.22680071,-0.15630883,-0.60883564,-0.5592882,2.2970662,-0.46970412,-0.37711656,-0.18091561,0.2993678,0.47765988,1.7346888,0.38864863,1.8954859,-2.6303842,-0.5461458,-0.88331264,-1.0179297,1.1194224,-0.7254352,-0.6734028,1.3213855,0.4011781,0.7087094,0.6763376,0.617766,1.008604,-1.26779,-0.7184083,0.9978491,0.91312623,0.56422186,-1.112745,0.08547772,1.443882,-0.18358476,-0.81676245,-0.8861518,-0.4575594,-0.7123683,1.7378165,-1.5797861,0.7124445,-0.52379096,-0.47641635,1.1036773,0.85377866,0.9628444,-0.97870886,0.077878445,-1.2099268,1.6851293,-0.40347996,1.414376,0.4428556,-0.07947757,0.7110407,-0.4370821,-1.2674882,1.7051262,-0.72279525,0.9146957,-0.9043113,0.14216815,-0.2399373,0.44211748,0.93589497,0.6483746,-1.7771535,0.5619577,-0.36118597,0.13928589,0.9296011,0.5949111,0.3989531,0.25977087,0.3716346,-0.95140445,0.2079301,0.7917864,2.0037062,0.17666495,0.62191355,0.2605802,-0.88003457,-1.2527459,0.42910564,0.21086404,-1.0732337,-0.47228795,0.2692621,-0.26291472,-1.2148156,-0.2379081,0.53802955,-1.1677657,-0.7724885,1.5774721,0.006779287,-2.6315057,-0.589256,-0.3196184,1.2316755,0.010158788,0.66205865,-0.8280847,-0.77217716,0.67451555,0.20956911,1.602813,-0.3760359,0.42790967,0.43835676,-0.0029306915,-0.70059144,-0.05836259,0.38643306,0.5774883,-0.12674996,-0.24818169,-0.28897136,-0.26489043,-0.29993165,-1.3648658,0.41757482,-0.1119399,-1.4688003,0.22576444,-0.08202616,0.73477453,-1.5273771,0.49773902,-0.5908958,-0.18996416,0.8508818,-1.8081654,0.2952348,0.25621286,0.42996845,1.0572424,-0.10461326,0.38877445,1.4164612,0.6837865,1.1019018,0.7726613,-0.5204772,-0.18995789,0.36732823,0.40238014,-1.0170999,1.2495867,0.20554987,0.66369015
ungraceful,-0.02816073,0.59148175,0.56612414,-0.9326057,-0.8812732,-0.4405776,-0.23509789,0.50335205,-0.61496025,-0.5479738,-0.76443386,-1.3341097,0.83597684,0.022804676,-0.5058111,0.14727394,-0.90760964,0.63118386,0.13681164,0.326053,0.38801536,0.09865413,0.71045256,0.24269862,0.54098433,0.17001665,0.5474919,-0.9735094,-0.20572318,-0.7002495,-0.6400924,-0.4278437,-0.25161174,1.0422176,-0.2191815,0.50861245,0.50526637,0.49905887,0.38354743,1.2829415,1.5815815,0.22853597,0.458457,0.027498612,0.97458696,0.34625474,-0.35249993,0.049267363,0.55439574,0.009412249,0.041937362,0.6109814,1.1323773,0.85073835,-0.31836036,-0.49980748,0.19504078,-0.2780755,-1.0050963,0.19582637,-0.02066196,-0.87965566,-0.10900996,0.18688665,0.861263,-0.49942902,-2.170769,0.38324177,-0.6039004,-0.7157998,0.18002321,-0.43352294,-0.07901762,-0.87099427,-0.5892937,0.7804876,-0.6843324,0.16999458,0.2770863,0.9798648,0.10087717,-0.56942886,-0.19863237,-0.17108308,0.16670543,-0.30626214,0.99812025,-0.5355573,-0.22927992,0.12503228,-0.32735547,-0.09556223,1.1156243,-0.12466534,-1.2422259,0.64885527,-0.07097709,0.3790237,0.9112986,-0.29063568,0.074339576,-1.3695809,0.087497234,-0.5201861,0.028449079,0.2005343,-0.2614874,1.2247009,-0.61554426,-0.17515004,-0.17080337,0.5096896,-0.15576027,0.08016739,-0.9323321,0.1934014,-0.956085,-0.23292823,0.79275346,0.7042847,1.477766,0.05153085,-0.39291406,-0.7407586,0.5118749,0.10712322,0.24851562,-0.8971686,0.47519967,0.06459928,-0.4432679,-0.8904267,0.5009062,0.75430155,1.0212342,-0.047555804,-0.383436,0.5839315,-0.1220384,-0.40671813,0.08222992,-0.22311413,0.42689586,1.564013,-0.35528502,-0.19154249,-0.49258876,0.58123285,0.19323552,-0.4024286,-0.8852474,0.45052317,0.21955709,-0.2550008,-0.6676283,0.25148162,0.7522362,-0.3777127,-0.8954594,0.38492668,0.5044788,0.7658269,0.22152562,0.41474676,-0.2122742,-0.118187465,1.4145943,-0.036337245,-0.17569478,1.5035995,0.42903242,-0.60668176,-0.061301827,-0.31276405,0.49159503,-0.49964795,-0.80971503,-1.2834698,0.8054102,-0.02597554,0.13848126,0.689389,-0.24056844,0.5181052,0.7095534,1.3548568,1.466374,-0.23940258,-0.9430761,0.9288378,0.3464103,0.8480849,0.10208777,-0.188605,-2.098985,0.69073385,0.29256323,-0.591589,-0.051914692,-0.103863634,-0.7116937,1.0902609,-0.28183135,-1.2835459,0.014232069,0.3869485,0.047899187,0.0121749835,0.0072298995,0.83994037,0.5173823,0.9053926,-0.028691107,0.7877402,0.4233977,0.09444066,-0.035178334,1.2249142,0.32302567,-0.036348734,-0.07608985,-0.79343843,-0.12414714,-0.021743039,0.6596462,0.23709667,0.5738618,-0.5149003,0.60094374,-0.5966782,-1.080413,0.49958563,0.07787474,-0.55867463,-0.89467794,0.92117196,0.013704658,0.6887036,-1.899126,0.21642227,0.6927442,1.6790465,-0.66664064,0.28226268,0.43851689,-0.6265205,-0.6624164,-0.2644833,0.049687553,0.13235217,0.4159647,0.077622004,1.1047388,0.47882485,-0.1074352,0.51336664,-1.1512164,0.95060444,1.9357339,-0.6751399,0.84273696,-0.803304,-1.1523956,0.18408315,-0.7911815,0.60393745,-0.49568033,0.82854944,0.059889376,-1.4340066,0.93982124,-0.9436042,-1.1481544,-0.94254607,-0.1786635,-1.2977327,-0.24548958,1.2470685,0.48114493,0.4611602,-0.26639667,-0.7976181,0.612372,0.38754407,0.3406414,-0.49641952,1.3811283,-0.17783767,-0.26047683,0.6460996,-0.83916855,-0.3787929,0.23901379,0.09128195,-1.054386,0.15564209,-0.2737818,0.20562267,-0.8740333,-0.5887731,0.49554455,0.27455315,0.7639468,0.5333591,0.6990879,-0.20413457,0.9905445,0.28920293,0.66365874,-0.3145629,0.25660816,0.473828,0.14746024,-0.8843813,0.34104756,-0.40240422,-0.6272324,1.4393257,-0.031410437,-0.5919457,0.8853116,0.17682993,-1.5936972,-0.14098437,0.5079314,0.47932133,-0.21870865,-0.2668344,0.42982748,-0.060023677,-0.5190341,-0.45201728,-0.25888312,-1.503246,0.058862437,0.648088,-0.49511608,-0.5676207,0.5087459,0.21617848,-0.0018089613,-0.861533,0.25374317,0.12839241,0.5456163,0.17881422,-1.0850588,-0.22113387,-0.034083646,0.29177004,1.3673381,1.2348877,0.5278215,-0.98309326,0.581836,0.7011797,0.5901556,-0.15147047,-0.38871077,0.59648377,-0.19354808,-0.7586503,-1.0632077,0.23950733,-0.0016862303,-0.47379196,0.44928536,0.5902942,-0.43955132,0.42032218,0.027561495,-0.45934412,-0.04615471,0.42438492,1.6778402,0.8252992,0.7470114,-0.0094767315,-0.7796534,0.9328359,-0.20118801,-0.70717186,-0.12143927,-0.019085139,1.2906009,1.0454322,0.7686229,-0.08231247,0.28873086,1.0697763,-0.42196926,0.7700134,-0.16585426,0.024374992,0.7715549,-0.2834986,-0.35229626,0.2106634,0.033539537,-0.66154647,-1.0531683,0.31786823,1.0403434,0.68658143,0.6853514,0.5569176,0.094652615,-0.8059507,-0.38883796,0.0060075894,-1.214481,-1.1132187,-0.09258792,-0.9307291,0.3711408,0.363978,-0.53675765,1.30607,-0.34325126,-0.99039143,0.6633189,-0.8374737,-0.30610728,0.43309462,-0.06816048,-1.0652012,0.43975163,-0.13732179,0.4859266,-0.73527145,0.36760402,1.2365474,-0.16805689,-0.48564073,0.6990652,-0.35816804,-0.03273061,-0.033049256,0.5536304,0.18844275,-0.061962347,-0.3972542,-0.9509087,-0.85066,0.13272987,0.25721225,-0.06502995,-1.0513971,0.5616011,0.12652884,-1.0691931,0.023670157,0.12569042,-0.39881364,1.0363747,-0.6775234,-0.17272802,0.23110108,0.25640795,-0.9550355,0.5494545,1.0789672,-0.47598156,-0.33364567,-1.0273675,0.4781252,-1.2267407,0.5906119,0.6095455,-0.68222874,-0.26620403,0.72866005,-0.460845,0.05820198,0.7765787,-0.14907424,-0.04644653,0.72598475,0.18619181,-0.43805268,0.7332263,-0.17843269,-0.09820586,-0.19793929,0.95143,2.1189954,-0.39167473,1.0830837,0.40631986,0.30206692,0.5815461,0.91122514,-0.7876552,-1.3407637,-0.5371273,-0.25486952,-0.63990515,-0.34617007,-0.48352,0.14697361,-0.26977804,0.32159743,-0.5532768,-1.063868,0.69510174,-0.50804955,0.6804978,-0.13525203,0.6227666,0.11473688,-0.18608685,0.69034046,0.11418995,-0.5183874,0.13576284,-0.39592198,-0.48062813,0.53843516,1.1026434,-1.2648045,-0.55402344,-0.58755547,0.2452386,0.38637897,-0.53074646,-0.82661504,-0.17937244,0.20155819,-0.12002694,-1.0543059,0.05097428,-0.739537,-0.73840946,-1.1114501,0.840674,-0.81444365,0.86779237,1.015572,0.15159933,-0.30633846,-0.23550983,-1.0756272,-0.94828147,0.46929327,0.86186296,1.5490547,-0.41096947,0.06916908,0.95455384,-0.41363844,-1.465753,0.31022677,0.7579271,-0.16565263,-0.33539084,-0.5348034,0.7140467,-0.35121122,-0.6019466,-0.07966297,-0.83952427,-0.5377269,-0.11476964,0.1912656,1.7119006,0.87450624,0.78020006,0.8591067,-0.66365355,-0.14918125,-1.2340916,0.21864164,0.52420145,0.16126396,0.012891953,0.6754516,0.72676164,0.5216317,0.2574509,1.2165558,0.13067104,0.65790445,0.2644706,0.683453,-1.1430635,0.6282386,0.35144654,-1.090463,-0.5018895,1.0974244,0.60346586,1.1584823,0.6026741,0.67729396,-0.7681851,-0.12329387,-0.38720223,-0.7431864,0.098965265,-0.41238585,-0.6568625,-0.41227797,0.016440205,-0.40763617,-0.42442933,-1.6867208,-0.4985564,-0.07723679,-0.022972615,1.4701456,-0.6811692,0.1044696,0.6140397,-1.200654,0.08074076,0.90786695,-1.1394423,-0.7209043,0.3996499,-0.5169377,0.41821072,-1.5419879,0.25606862,-0.60296065,-0.25346947,0.51972455,0.5931422,0.34564498,0.9386134,-0.6330244,-0.29987445,-0.15421084,0.009515926,0.11318471,1.125438,-0.117243655,-0.10390552,0.2289419,-0.53108543,0.47126773,0.1522247,0.89711624,-0.9400525,-0.32963493,-0.4900733,-0.46000388,-1.2304703,0.5324826,-0.76014,0.28445122,0.3728977,0.9789075,1.4561882,1.5966791,0.532399,0.018166035,0.016796403,-0.12457893,0.522517,-0.3334421,-0.40014958,-0.27317318,-0.16351633,0.44959876,0.20641685,0.029998118,-0.17253734,-1.5054779,0.7211211,0.7363518,-0.035451736,-0.16977529,65.65744,-0.20061016,0.69883853,-0.72985345,-1.2967535,0.7532506,1.103345,-0.19826554,0.40380955,-0.713234,-0.34235227,-0.18185782,-0.25758767,1.5431285,0.4417833,0.3577926,0.17162861,0.88136417,0.5009596,-0.21205537,0.5860657,-0.477846,-1.0653989,0.62182385,0.46342757,-0.25326,-1.0832658,-0.112801254,0.15878148,0.5767424,0.6775372,0.57668483,0.87773776,1.2704188,0.9965198,-0.34638003,-0.758537,0.7230463,0.83007497,-0.19288595,0.6801777,0.18395078,-0.3030045,-0.8824797,-0.16349493,-0.63484114,0.8179026,0.48251,-1.0871738,-0.36698237,-0.4626105,-0.674028,-0.64473003,0.2478529,0.08021397,-0.29574057,-0.006872753,0.44556412,1.0326242,1.0704507,0.13504967,-0.6739225,0.63943785,-0.6581414,0.45047736,-0.5426153,0.23364496,0.11980975,0.59428066,0.6677167,0.066405706,-0.24349935,-0.6793168,-0.037663024,-0.7866456,-0.48510528,-0.92467326,0.12917109,0.34039024,-0.75843143,-0.13197327,0.64630216,-0.75462866,0.9662569,-0.10019345,-0.6953661,-0.5095236,-0.093234934,-1.1208843,0.22729494,0.93356544,-0.2858328,-0.09985638,0.846968,-0.09098794,0.715038,-0.6307861,0.7630381,-0.38845506,0.09889376,-0.4132974,-0.0051050186,0.48127475,-0.53643787,0.20768392,-0.2596886,0.9125169,-0.92673606,-0.015346557,0.15208524,0.32996592,-0.08681884,-0.044808116,-2.5652869,0.6987602,-1.2365894,1.170132,1.5720874,-0.87974745,0.23144823,0.108446725,-0.30515197,0.020658344,1.0566677,-0.4699991,0.6261057,-0.38066056,0.17428069,-0.022413692,0.89017373,0.55281943,-1.237609,-1.6115185,-0.7243913,-1.3370653,-1.351998,0.075538695,-0.16890758,0.66575056,0.7094149,0.90046126,0.7027772,0.30664086,1.7228125,0.42882314,-0.07161597,1.0726081,-0.26787862,-0.7688133,0.37604,0.26875517,0.662924,0.40377116,-0.46914658,0.45229885,0.37977758,-0.15718399,1.261125,-0.7635948,0.34227446,0.091534376,-0.7232731,-0.30508935,0.68225354,-0.04516549,0.1772724,0.43727994,-0.89926857,-0.39025864,0.28212523,-0.9522364,-0.24613334,0.6637824,0.9359489,1.010471,3.950613,0.58193,-0.36427405,-1.1773931,0.04354413,-0.47063056,-0.35907674,-0.21103902,-0.2765214,0.527842,-0.23583941,-0.93460155,0.022730848,1.2209452,-0.40824452,0.9878409,-0.003515954,0.07182715,0.42766356,0.10463113,-0.94419414,-0.41522515,-0.4073789,0.41439554,0.017051795,0.2890339,-1.1396517,0.43190703,0.8921771,-1.0612707,-1.088409,0.23022826,0.15979175,0.8204243,-0.9440861,-0.22140937,1.4197313,0.16906495,-0.6913702,-1.7686968,-0.2421341,-0.75409704,0.34429458,-1.6483397,-0.104620956,-0.28564343,-0.26679882,0.07033459,0.14465483,0.3350134,-2.358257,-0.360051,1.3624753,0.27118868,0.09164318,-0.40301463,0.2161539,-0.7968978,0.6277271,-0.221618,-0.017380258,-0.7965602,0.46224916,0.25216898,0.21333027,-0.20792289,0.43460512,-0.25618994,0.79833865,-0.21486847,0.34634626,-0.29683584,0.107322484,-1.6875507,0.7981412,-1.2660927,0.26262543,-0.0021422852,-0.4705782,-0.9947672,-1.4961786,-1.1679025,0.84170943,0.41190815,-1.2545342,-0.72177315,0.42279604,0.95310086,0.601188,0.769224,1.0994695,0.37750897,-0.32546994,-0.5860658,-0.026896885,0.56914,-0.6403633,-0.6489547,-0.11662226,0.8746502,0.5301341,-0.28034285,1.0698485,2.0563958,-0.14247264,-0.786242,-0.46388778,-0.24271154,0.23564917,-0.19678096,0.2675058,-0.3057392,-0.7555561,-0.60068566,1.2296108,-0.8144347,-0.26644158,-0.7192717,-0.6663013,1.2275511,1.1533693,0.07018779,-0.33688453,-1.0597404,-0.18179794,-0.22982919,0.047221303,0.7926512,0.8617551,1.1180089,1.2972609,1.3638216,-0.00021276872,0.7112002,-0.039854825,0.59981805,-0.721855,1.8397104,0.51418597,0.08587653,-1.0331184,1.3750353,0.60769814,-0.2325704,-1.3217629,-0.43735006,-0.721216,-0.7850452,0.25021908,-0.6262222,-0.9439382,0.5623675,0.114439465,-1.2926408,-0.0031639982,0.4219732,0.10729337,0.64302665,0.15902512,-0.95603204,-0.7774666,1.0450845,0.7682659,0.28083888,-0.004388511,0.2580051,0.6082681,0.71950096,-0.6326368,-0.36210814,0.4718382,-0.24051988,-0.20053631,0.69026923,0.9457779,-0.060074184,0.9576642
